<?xml version="1.0"?>
<opencv_storage>
<opencv_ml_svm>
  <format>3</format>
  <svmType>C_SVC</svmType>
  <kernel>
    <type>LINEAR</type></kernel>
  <C>1.</C>
  <term_criteria><iterations>100</iterations></term_criteria>
  <var_count>1000</var_count>
  <class_count>2</class_count>
  <class_labels type_id="opencv-matrix">
    <rows>2</rows>
    <cols>1</cols>
    <dt>i</dt>
    <data>
      -1 1</data></class_labels>
  <sv_total>1</sv_total>
  <support_vectors>
    <_>
      1.94771998e-02 -2.94326572e-03 -1.78873085e-03 8.35370347e-02
      -3.01496941e-03 -1.62853956e-01 3.15597728e-02 1.25471605e-02
      8.00664444e-03 4.74415906e-03 1.41001688e-02 3.01787090e-02
      1.48248589e-02 5.62709607e-02 1.04317730e-02 -1.39928807e-03
      -3.32824118e-03 -6.83394028e-03 1.25126392e-02 -4.84542102e-02
      2.52285153e-02 1.45879276e-02 3.41302343e-02 -2.02096421e-02
      2.09804662e-02 3.24338395e-03 7.37886131e-03 -9.56433080e-03
      1.54731274e-02 -2.88712010e-02 4.38155532e-02 -2.63264566e-03
      1.12846894e-02 1.97811145e-02 -4.77675088e-02 -5.80712557e-02
      1.26857553e-02 2.22667009e-02 1.87151339e-02 1.11554284e-02
      1.48360459e-02 -3.83365192e-02 -2.02663206e-02 -2.69269850e-03
      -1.36398561e-02 4.91326163e-03 -5.19900434e-02 3.59965451e-02
      2.55445726e-02 2.92428620e-02 3.35264169e-02 8.67581740e-03
      2.13112477e-02 -1.28900940e-02 -4.26884890e-02 8.55636375e-04
      -6.60494115e-05 5.36059961e-04 5.29000312e-02 4.78877744e-04
      4.22510020e-02 -5.10477228e-04 -5.67247458e-02 -1.37202544e-02
      1.04222134e-01 2.10441258e-02 -5.24681062e-02 1.69316996e-02
      -2.34228037e-02 -5.31915016e-02 -2.87511721e-02 1.12332195e-01
      -1.78182404e-02 -7.24511892e-02 -3.69800068e-02 4.97226566e-02
      1.45470485e-01 1.28350584e-02 3.35748531e-02 -1.71270745e-03
      -9.89027903e-04 2.90560592e-02 7.59320753e-03 -5.53376041e-03
      -4.20756005e-02 5.69306407e-03 -2.82531371e-03 -1.07535627e-02
      2.34962292e-02 -7.10403696e-02 5.00965863e-03 1.50690200e-02
      5.89207932e-03 6.96374848e-03 1.21359210e-02 -6.83530346e-02
      -1.73040312e-02 1.47114005e-02 -7.90017843e-03 2.27671303e-02
      -4.03678184e-03 6.49320567e-03 1.66701283e-02 6.96573127e-03
      2.30094362e-02 1.22574326e-02 1.16783697e-02 6.72322465e-03
      2.07633395e-02 -1.65459216e-02 6.35974705e-02 -2.06673946e-02
      -3.84845975e-04 -1.65519878e-01 4.84156946e-04 3.10841165e-02
      -1.05833225e-02 2.77754255e-02 9.08284169e-03 1.58667620e-02
      8.28195363e-03 8.97749327e-03 3.13524269e-02 -6.68442920e-02
      1.10390515e-03 -9.16774757e-03 -1.26755303e-02 5.81665449e-02
      5.84594533e-03 -2.84355152e-02 1.39854876e-02 -3.29741985e-02
      2.53464542e-02 3.29277888e-02 1.20204501e-02 -4.07139324e-02
      1.49155408e-03 2.68515229e-04 -9.70006827e-03 -8.73124972e-03
      2.49679089e-02 -2.71459576e-04 3.34235467e-02 -1.59914810e-02
      -2.48178303e-01 6.63399184e-03 -1.23906890e-02 -6.74548326e-03
      4.98761563e-03 -2.19306499e-02 -2.18729442e-03 3.52705196e-02
      -2.79955519e-03 1.54119236e-02 -1.46041214e-02 -4.14109379e-02
      -2.36820662e-03 1.40089244e-02 -3.33849178e-03 -1.66468825e-02
      -4.69747968e-02 4.70663654e-03 5.26983337e-03 4.80111837e-02
      -2.45749541e-02 -3.55745200e-03 1.08210128e-02 3.22695374e-02
      9.23718978e-03 1.03502041e-02 1.98760536e-02 -1.45209610e-01
      -6.24221889e-03 1.11583900e-02 1.33389654e-02 -2.24064272e-02
      1.71993095e-02 -3.61575447e-02 3.10345162e-02 -1.34750921e-02
      3.47409677e-03 1.19439596e-02 8.35229084e-03 8.13530572e-03
      -1.60735566e-02 -1.01521173e-02 -1.79022935e-03 -3.18771752e-04
      -2.76064165e-02 3.04806828e-02 -4.17740364e-03 -2.62384433e-02
      4.22935793e-03 3.00027635e-02 9.08480771e-03 1.57439653e-02
      3.83764580e-02 -5.18717710e-03 1.74675472e-02 3.17406803e-02
      -3.96680534e-02 9.00090765e-03 2.14231238e-02 -1.63098555e-02
      1.74453147e-02 -9.22596455e-02 2.82258168e-02 1.84998754e-02
      -5.73027842e-02 5.99911064e-03 2.77686369e-04 2.57564932e-02
      8.77044443e-03 7.58029195e-03 1.51294954e-02 8.01155530e-03
      7.09060626e-03 3.23726796e-03 4.97839414e-02 -4.55714735e-06
      1.08198905e-02 -4.05941717e-02 7.09108338e-02 -2.55934242e-02
      -2.79678684e-02 -3.17663932e-03 -8.25143885e-03 1.51673062e-02
      4.54285135e-03 1.30715817e-02 7.60211330e-03 9.17258207e-03
      4.31854976e-03 3.54207195e-02 -1.44310240e-02 -9.11811832e-04
      -3.43664363e-02 -6.79470822e-02 2.55883187e-02 -1.44130718e-02
      2.76833884e-02 -3.38071994e-02 2.69372221e-02 4.02938612e-02
      1.58467442e-02 -4.87027876e-03 -9.06761456e-03 1.52833937e-02
      3.66308936e-03 4.11113910e-02 -6.18879721e-02 -3.26142162e-02
      -6.88489601e-02 -1.54407583e-02 -1.41518041e-02 -2.37211920e-02
      -2.19147783e-02 2.49480102e-02 6.22399850e-03 1.85557641e-02
      -2.47696377e-02 1.86110605e-02 -4.36303690e-02 1.70151964e-02
      2.23981813e-02 -5.96604496e-02 2.29163971e-02 8.47805198e-03
      -1.12675130e-02 1.89697407e-02 9.79617052e-03 3.95272523e-02
      1.10237394e-02 3.09009962e-02 2.07651742e-02 1.10924831e-02
      1.13678882e-02 -4.59348075e-02 -4.49827909e-02 -4.92124073e-03
      -1.02380715e-01 3.42543609e-03 -1.40048945e-02 3.86381801e-03
      2.59431079e-02 2.05962383e-03 1.04932301e-02 1.62997115e-02
      1.03033081e-01 9.07514431e-03 -2.22375244e-02 -1.58747304e-02
      2.01567113e-02 1.39312167e-02 3.39633301e-02 4.97620553e-03
      -1.54469339e-02 1.04790442e-02 3.95027734e-03 1.13213938e-02
      -9.01987329e-02 -2.77463533e-02 1.65130440e-02 -1.83860923e-03
      3.33737582e-02 3.00456479e-04 2.07232237e-02 2.80307848e-02
      -6.59687258e-03 -2.46379208e-02 -6.43215142e-03 2.04512682e-02
      1.97966900e-02 -6.32915273e-03 -5.66293374e-02 1.91899780e-02
      1.24223838e-02 8.92517250e-03 -2.90679317e-02 2.07222928e-03
      -1.59838408e-01 -1.54348865e-01 -1.69470289e-03 1.35020372e-02
      1.95169169e-02 -2.19578128e-02 -4.97462749e-02 -4.91334908e-02
      1.43040353e-02 -1.87627822e-02 4.15429566e-03 -2.86105573e-02
      7.13501731e-03 -9.21072531e-03 -1.61286574e-02 -1.24508282e-02
      -3.51282448e-04 2.69707683e-02 -8.85532517e-03 2.60510878e-03
      -4.38812822e-02 1.56688616e-02 -6.52279845e-03 -6.42219093e-03
      2.60361936e-02 -9.58033744e-03 2.56834459e-02 -8.08959245e-04
      1.30335707e-02 -3.40425521e-02 1.71351731e-02 2.23769620e-02
      9.31714755e-03 8.33265204e-03 2.67254990e-02 1.17607191e-02
      6.90725353e-03 5.08183287e-03 -1.26270752e-03 -5.36037870e-02
      1.79061815e-02 -4.19406313e-03 -1.50593400e-01 -5.97077943e-02
      -5.11197885e-03 -1.90968532e-03 3.87096748e-04 4.12513204e-02
      -3.84124257e-02 2.47625285e-03 3.33444658e-03 1.92960259e-02
      -4.13816283e-03 1.34415580e-02 2.20822860e-02 -4.57706414e-02
      2.76568700e-02 4.72564017e-03 2.61754170e-02 1.36993534e-04
      -3.85238156e-02 5.88710699e-03 -4.11739126e-02 4.98463586e-03
      -2.22524498e-02 2.38367710e-02 2.91051455e-02 5.15527837e-03
      1.97371244e-02 4.03980445e-03 -1.61207598e-02 -1.19578511e-01
      1.99415050e-02 1.31998695e-02 -1.55393407e-02 1.78038310e-02
      9.99745447e-03 1.86039768e-02 1.63308810e-02 3.80926952e-02
      1.08502398e-04 -7.77893979e-03 -5.62566556e-02 2.37864833e-02
      2.97300667e-02 -3.09930388e-02 3.45341824e-02 -3.50594483e-02
      4.49822545e-02 3.14645059e-02 2.04919726e-02 7.94115104e-03
      1.11697763e-02 -5.61036505e-02 7.00422935e-03 -2.94145346e-02
      6.90113148e-03 -6.19527735e-02 2.60774642e-02 -5.83378949e-07
      1.13359690e-02 6.71610655e-03 4.64743748e-03 5.01143895e-02
      -3.13802138e-02 -9.52679198e-03 1.82712346e-03 3.19396183e-02
      3.03428210e-02 3.42656001e-02 2.44831592e-02 3.26937921e-02
      -4.26499209e-05 7.54834665e-03 7.39190145e-04 2.71339510e-02
      -9.65766888e-03 2.21162178e-02 4.86544743e-02 -1.04998741e-02
      1.24279680e-02 4.59532440e-03 4.47646268e-02 2.56267674e-02
      4.13328633e-02 -2.98441947e-03 2.34665424e-02 1.23264166e-02
      5.65778650e-03 -2.94831395e-03 6.42932160e-03 1.05138253e-02
      -7.48110265e-02 -4.67086136e-02 -3.89598124e-03 -8.96124914e-02
      5.24002239e-02 -3.51827629e-02 -8.56618397e-03 1.21825887e-02
      1.74756330e-02 -1.15469832e-03 -8.03063251e-03 8.41076858e-03
      -2.70522553e-02 9.43886954e-03 4.36265906e-03 2.17942800e-02
      1.91368861e-03 -3.68367806e-02 9.49215144e-03 1.63079575e-02
      1.15681710e-02 1.79617535e-02 1.27740148e-02 9.95416939e-02
      1.25898402e-02 1.48460753e-02 1.58830062e-02 2.56708581e-02
      8.40067118e-03 6.09323895e-03 -1.06657762e-02 2.55748560e-03
      -6.04167618e-02 2.07444970e-02 5.31657599e-02 -5.58518223e-04
      -7.48957321e-02 9.04446840e-03 -7.88844936e-03 4.13246751e-02
      -1.09639065e-02 2.91104130e-02 7.42638111e-03 7.88714096e-04
      1.03870882e-02 3.09710596e-02 1.47254337e-02 3.13070193e-02
      -1.64044425e-01 1.60439257e-02 -1.27790798e-03 6.16933824e-03
      1.38927279e-02 3.97070125e-02 1.94485094e-02 -1.18517713e-03
      3.86557505e-02 -3.34534459e-02 1.01875449e-02 -1.83043219e-02
      1.92328170e-03 -2.31306860e-03 1.06259789e-02 3.65081355e-02
      1.85842011e-02 -2.23303330e-04 1.67808868e-02 -4.56053345e-03
      1.27065508e-02 5.86850755e-03 -6.27629161e-02 -7.83699900e-02
      2.40164120e-02 -2.61752158e-02 -6.56035217e-03 2.58910959e-03
      -7.49380812e-02 -3.04698683e-02 1.92094147e-02 2.49653775e-02
      -3.02585098e-03 1.83470489e-03 -1.91667601e-02 1.62214115e-02
      -2.08438262e-01 2.93832948e-03 1.66441016e-02 -9.72184411e-04
      3.84968035e-02 2.27841362e-02 1.25167826e-02 2.51585636e-02
      2.31489521e-02 4.29105526e-03 1.41624641e-02 3.16947997e-02
      -6.12230087e-03 -4.86990586e-02 6.84831850e-03 1.65928230e-02
      -5.82585707e-02 8.24670494e-03 -2.40164623e-03 -1.27165727e-02
      7.96906278e-03 1.12267584e-03 2.12093000e-03 -1.89962909e-02
      1.89009327e-02 5.14070541e-02 -1.56414919e-02 -1.59517787e-02
      4.24604304e-02 6.09420650e-02 -3.41871977e-02 -3.65342386e-03
      -1.05725907e-01 -1.87552199e-02 1.09259728e-02 -4.34489455e-03
      2.92794723e-02 2.06291713e-02 5.88613236e-03 -1.05069047e-02
      2.43842229e-02 1.94079969e-02 2.97176186e-02 -4.30887099e-03
      -3.76782939e-03 1.72523130e-02 2.84138210e-02 8.46917462e-03
      1.09133162e-02 8.68181698e-03 -4.60386835e-03 3.66030121e-03
      2.00660527e-02 1.44557161e-02 1.11236339e-02 5.00901276e-03
      7.72285450e-04 8.43746495e-03 -4.84096482e-02 1.29836481e-02
      3.55130136e-02 1.31485155e-02 -3.65773914e-03 -1.03812115e-02
      7.70820212e-03 9.64728184e-03 3.59504446e-02 -2.09344272e-02
      1.23881670e-02 -1.11121545e-02 2.74459701e-02 4.10927795e-02
      4.69617313e-03 1.91725828e-02 -8.95596854e-03 -1.43285215e-01
      8.25858768e-03 -4.79499362e-02 5.38140768e-04 -5.56318182e-03
      -4.84060310e-03 1.57349501e-02 1.62455216e-02 9.88401100e-03
      -8.82647838e-03 1.81385372e-02 -4.17658873e-03 3.39637175e-02
      9.49646533e-03 -5.19920178e-02 -1.75253674e-02 7.78068742e-03
      1.64318942e-02 2.72580069e-02 6.85143024e-02 2.88753547e-02
      4.21532430e-02 -2.93322522e-02 5.52982558e-03 -1.98745765e-05
      3.65485400e-02 3.92133743e-02 -2.05526948e-01 -2.41409782e-02
      -1.15012657e-02 -3.60129075e-03 -1.85887422e-02 -5.27821258e-02
      1.86157264e-02 1.69840883e-02 1.52236409e-02 7.61270244e-03
      2.64906464e-03 1.71887707e-02 1.91608723e-02 1.18326361e-03
      3.59498747e-02 1.76265184e-02 9.83797293e-03 1.90701019e-02
      2.95157116e-02 -9.71523207e-03 4.56696050e-03 2.05103643e-02
      -3.02179568e-02 1.17825018e-02 1.06702177e-02 -3.83220315e-02
      -5.98902581e-04 -3.62169474e-01 -3.07815727e-02 -1.00874314e-02
      1.57924425e-02 6.91728247e-03 -1.11237727e-01 1.97171215e-02
      -1.39364880e-02 6.16051182e-02 8.30509979e-03 6.69697719e-03
      -5.73074631e-03 1.43126287e-02 -1.29288742e-02 3.61141120e-03
      2.76183733e-03 2.82808510e-03 1.31885353e-02 1.76667906e-02
      3.94724235e-02 3.86297852e-02 4.67948429e-03 -2.12747976e-02
      -3.14802374e-03 -2.07641758e-02 1.11065609e-02 1.84441619e-02
      1.39085986e-02 9.98175051e-03 -4.32488471e-02 -1.25430506e-02
      -1.41016901e-01 5.86594827e-03 7.38513842e-03 2.80730147e-02
      1.77285336e-02 -1.51879173e-02 1.33550204e-02 1.42181129e-03
      2.36596935e-03 2.00322736e-03 3.17031108e-02 6.71485905e-03
      -1.24652404e-02 -1.04931034e-02 -2.95353122e-02 2.64019649e-02
      3.26071680e-02 1.26886033e-02 -1.03278749e-01 2.58776974e-02
      9.35658719e-03 8.94319937e-02 -7.32847601e-02 3.96692456e-04
      2.41731219e-02 1.71859041e-02 3.35867777e-02 2.80254688e-02
      2.90909223e-02 3.31344195e-02 1.38731916e-02 -3.48414406e-02
      9.69780318e-04 1.68962535e-02 3.65857296e-02 -5.63724376e-02
      7.05450177e-02 9.06762574e-03 2.13157348e-02 5.92109701e-03
      1.14463305e-03 -1.20333470e-02 1.86622553e-02 1.23403184e-02
      6.03474453e-02 1.06819638e-03 3.27883139e-02 3.41510517e-04
      -3.08181681e-02 1.49003863e-02 -1.08379796e-02 2.58807614e-02
      -1.24496832e-01 2.79733110e-02 -6.25925930e-03 2.22228318e-02
      1.77310053e-02 -1.74333211e-02 7.12669222e-03 3.29404771e-02
      -2.05661077e-02 9.41768009e-03 1.42365033e-02 4.03298438e-02
      -5.03560528e-03 -5.70459291e-03 -2.99068559e-02 -1.40660703e-01
      -1.21527137e-02 -8.23401567e-03 1.61114149e-03 -1.42891034e-01
      1.88946363e-03 1.61167476e-02 -3.51490155e-02 -3.70694301e-03
      -8.96434672e-03 -1.64555851e-02 5.12400363e-03 1.88389644e-02
      7.49222876e-04 1.51915848e-02 2.10445542e-02 3.75737473e-02
      -2.03346349e-02 2.14650249e-03 4.98656668e-02 -7.34139085e-02
      2.34101303e-02 2.68865414e-02 -1.18747197e-01 9.15574096e-03
      3.52296047e-02 7.33557856e-03 2.67617498e-03 1.15072466e-02
      4.12326604e-02 5.81945479e-03 1.65993497e-02 1.03871543e-02
      2.63220873e-02 1.13162128e-02 2.29904279e-02 -6.04819357e-02
      4.80156252e-03 1.38560254e-02 3.30656301e-03 -2.89521873e-01
      -2.23905426e-02 2.68936306e-02 1.57197788e-02 3.46244802e-03
      3.96260172e-02 2.88539957e-02 1.38781695e-02 -8.81119259e-03
      -4.57417332e-02 -2.21515843e-03 3.86864087e-03 1.45592811e-02
      9.55725554e-03 1.79855414e-02 7.76862027e-03 2.56346092e-02
      1.26550877e-02 3.05077452e-02 -2.31858622e-03 1.42761869e-02
      -1.26238784e-03 -1.26486253e-02 8.23898427e-03 1.01420380e-01
      3.37621905e-02 1.97655763e-02 -2.97787637e-02 1.93410814e-02
      2.26042094e-03 1.16781732e-02 9.86572262e-03 -1.06902076e-02
      -2.88365805e-03 -1.96589157e-01 7.51934340e-03 2.61546634e-02
      1.89875830e-02 -2.96926238e-02 3.65317725e-02 -1.86277763e-03
      -1.00361397e-02 -3.22877686e-03 -7.41001889e-02 8.28029681e-03
      -4.48337523e-03 1.00022862e-02 6.48235623e-03 2.47114636e-02
      3.63124572e-02 -3.97900771e-03 -2.74663437e-02 -4.58727358e-03
      5.27554043e-02 2.69832257e-02 8.88310373e-03 8.73296615e-03
      -1.62061714e-02 -1.77387649e-03 -7.34979194e-03 4.94544543e-02
      2.13779751e-02 2.11383104e-02 1.50956651e-02 2.63914783e-02
      2.52327546e-02 1.42600155e-02 -1.21306507e-02 -7.69077148e-03
      -7.81408325e-03 6.93752989e-03 -1.09523479e-02 -1.97387002e-02
      -5.65321825e-04 -1.45415552e-02 1.02699120e-02 1.36235207e-02
      3.59485596e-02 2.15233257e-03 -5.15462458e-03 -1.35248071e-02
      1.59739107e-02 2.46644337e-02 3.65201617e-03 -3.47901671e-03
      3.31449546e-02 6.77319244e-03 -9.28253308e-02 -4.72623520e-02
      -9.43214574e-04 2.10072808e-02 1.72726102e-02 1.06465695e-02
      9.37666930e-03 -2.56784004e-03 1.52487271e-02 1.33972513e-02
      4.56341729e-02 7.29101896e-03 -2.17804480e-02 -1.70982454e-03
      3.41314450e-02 6.43905858e-03 2.64026760e-03 1.15547087e-02
      4.96995216e-03 2.31830403e-02 1.90799348e-02 1.04089640e-02
      1.47061907e-02 -3.77055742e-02 -8.86743702e-03 2.92866416e-02
      1.70501173e-02 1.83975715e-02 2.29814127e-02 -6.41430244e-02
      2.37421263e-02 -2.82991324e-02 3.38183786e-03 -1.44936154e-02
      -4.74078767e-02 2.08796430e-02 8.03175289e-03 -2.37593260e-02
      2.13018619e-02 -6.49525747e-02 -9.78357974e-04 8.11589509e-03
      -6.17718361e-02 -2.75044004e-04 5.42821698e-02 -4.97096684e-04
      2.72013191e-02 1.96914151e-02 -1.40294852e-02 -2.12717094e-02
      6.44747540e-03 2.12499872e-02 -3.20257456e-03 1.70580540e-02
      1.67252533e-02 4.90314211e-04 -1.46770403e-02 2.63420977e-02
      -5.96537441e-03 1.66890845e-02 1.81869846e-02 -5.28019294e-03
      1.69071984e-02 -2.48747854e-03 3.07199825e-03 -1.22516556e-02
      5.08116791e-03 4.07126360e-02 -4.93067689e-02 2.43189428e-02
      1.18610961e-02 1.39972568e-03 3.63438465e-02 7.22475769e-03
      -6.68791831e-02 9.21843387e-03 7.06418278e-03 -2.86573195e-03
      1.82390027e-02 -3.14600952e-03 -4.58531693e-04 2.32448839e-02
      -1.11108664e-02 -6.72856020e-03 5.59375854e-03 1.13137788e-03
      1.65581778e-02 8.35515652e-03 2.13063639e-02 3.84364184e-03
      -2.58383024e-02 -3.39479856e-02 -1.11546293e-01 9.52420291e-03
      -7.92219117e-03 6.86292956e-03 8.87339748e-03 -5.48866019e-02
      1.16192261e-02 1.72339436e-02 -3.22987698e-02 3.67169827e-02
      -1.24527188e-02 2.70808451e-02 2.83495840e-02 4.27161623e-03
      5.47734741e-03 -6.87520858e-03 1.27850259e-02 2.52496675e-02</_></support_vectors>
  <uncompressed_sv_total>117</uncompressed_sv_total>
  <uncompressed_support_vectors>
    <_>
      0. 0. 1.97628466e-03 0. 0. 0. 1.97628466e-03 0. 0. 0.
      1.97628466e-03 1.97628466e-03 0. 1.18577080e-02 0. 0. 0. 0. 0.
      3.95256933e-03 0. 0. 0. 1.97628466e-03 1.97628466e-03 0. 0. 0. 0.
      0. 0. 0. 0. 0. 1.97628466e-03 0. 1.97628466e-03 0. 0. 0. 0. 0.
      7.90513866e-03 0. 0. 0. 0. 0. 0. 0. 0. 0. 0. 3.95256933e-03 0.
      7.90513866e-03 0. 0. 0. 0. 0. 0. 1.97628466e-03 1.97628466e-03 0.
      0. 0. 0. 1.97628466e-03 0. 1.58102773e-02 0. 0. 9.88142379e-03 0.
      0. 3.95256933e-03 0. 0. 0. 0. 0. 0. 1.97628466e-03 0. 0. 0. 0.
      1.97628466e-03 3.16205546e-02 3.95256933e-03 0. 0. 0.
      1.97628466e-03 0. 0. 0. 0. 1.97628466e-03 5.92885399e-03 0. 0.
      1.97628466e-03 0. 1.97628466e-03 0. 0. 0. 1.97628466e-03 0. 0. 0.
      1.97628466e-03 1.97628466e-03 0. 7.90513866e-03 0. 1.97628466e-03
      1.97628466e-03 0. 0. 0. 0. 1.97628466e-03 0. 0. 1.97628466e-03
      3.95256933e-03 0. 0. 1.97628466e-03 0. 0. 0. 3.95256933e-03 0. 0.
      5.92885399e-03 7.90513866e-03 0. 0. 0. 0. 3.95256933e-03
      1.97628466e-03 3.95256933e-03 0. 0. 0. 3.95256933e-03 0. 0. 0. 0.
      1.97628466e-03 3.95256933e-03 0. 0. 1.97628466e-03 0. 0. 0.
      3.95256933e-03 0. 0. 0. 0. 1.97628466e-03 0. 0. 0. 1.97628466e-03
      0. 0. 1.97628466e-03 1.97628466e-03 1.97628466e-03 1.97628466e-03
      0. 0. 0. 0. 1.97628466e-03 1.97628466e-03 0. 0. 0. 0. 0. 0. 0. 0.
      0. 1.97628466e-03 0. 0. 3.95256933e-03 0. 1.97628466e-03 0. 0.
      1.97628466e-03 0. 0. 1.97628466e-03 0. 0. 3.95256933e-03 0. 0. 0.
      5.92885399e-03 0. 1.97628466e-03 0. 1.97628466e-03 0. 0. 0. 0.
      7.90513866e-03 0. 1.97628466e-03 1.97628466e-03 0. 0.
      1.97628466e-03 0. 1.97628466e-03 0. 0. 1.97628466e-03 0. 0. 0. 0.
      0. 0. 1.97628466e-03 1.97628466e-03 0. 1.97628466e-03 0. 0. 0.
      1.97628466e-03 0. 0. 3.95256933e-03 0. 0. 5.92885399e-03
      1.97628466e-03 0. 0. 1.97628466e-03 1.97628466e-03 0. 0.
      1.97628466e-03 0. 0. 0. 0. 7.90513866e-03 0. 0. 0. 0. 0. 0. 0. 0.
      0. 0. 0. 3.95256933e-03 0. 1.97628466e-03 5.92885399e-03 0.
      1.97628466e-03 0. 0. 0. 0. 0. 0. 0. 1.97628466e-03 3.95256933e-03
      0. 0. 0. 3.95256933e-03 0. 0. 0. 0. 7.90513866e-03 0.
      1.97628466e-03 1.18577080e-02 0. 1.97628466e-03 0. 0. 0. 0.
      1.97628466e-03 0. 0. 0. 1.97628466e-03 0. 0. 0. 3.95256933e-03 0.
      0. 1.97628466e-03 0. 0. 0. 0. 3.95256933e-03 5.92885399e-03
      1.97628466e-03 0. 0. 3.95256933e-03 3.95256933e-03 0. 0.
      1.97628466e-03 0. 0. 1.97628466e-03 0. 0. 0. 1.97628466e-03 0. 0.
      3.95256933e-03 0. 3.95256933e-03 0. 1.97628466e-03 0. 0. 0. 0. 0.
      1.97628466e-03 0. 1.97628466e-03 0. 1.97628466e-03 0. 0.
      1.97628466e-03 0. 0. 1.97628466e-03 0. 5.92885399e-03 0.
      1.97628466e-03 0. 0. 1.97628466e-03 1.97628466e-03 3.95256933e-03
      0. 0. 0. 0. 0. 0. 0. 1.97628466e-03 0. 5.92885399e-03 0. 0. 0.
      1.97628466e-03 0. 0. 0. 0. 0. 0. 3.95256933e-03 0. 0. 0. 0. 0.
      1.97628466e-03 0. 1.97628466e-03 1.97628466e-03 0. 0.
      3.95256933e-03 0. 0. 0. 0. 0. 9.88142379e-03 0. 0. 0.
      1.97628466e-03 1.97628466e-03 0. 0. 0. 1.97628466e-03 0. 0.
      3.95256933e-03 0. 0. 0. 0. 0. 0. 1.97628466e-03 0. 0.
      3.95256933e-03 3.95256933e-03 0. 0. 0. 0. 0. 0. 0. 0.
      1.97628466e-03 0. 0. 0. 1.97628466e-03 1.97628466e-03 0. 0. 0.
      1.97628466e-03 5.92885399e-03 3.95256933e-03 1.97628466e-03 0. 0.
      0. 1.97628466e-03 0. 0. 1.97628466e-03 0. 0. 0. 0. 0.
      5.92885399e-03 1.97628466e-03 0. 0. 0. 0. 0. 0. 0. 0. 0. 0. 0.
      1.97628466e-03 1.97628466e-03 0. 0. 0. 1.97628466e-03 0. 0. 0. 0.
      0. 0. 1.97628466e-03 0. 0. 0. 0. 3.95256933e-03 0. 3.95256933e-03
      0. 7.90513866e-03 0. 0. 0. 0. 1.97628466e-03 0. 0. 0. 0. 0. 0. 0.
      0. 0. 3.95256933e-03 0. 1.97628466e-03 1.97628466e-03
      1.97628466e-03 0. 1.97628466e-03 1.97628466e-03 1.97628466e-03
      1.38339922e-02 3.95256933e-03 1.97628466e-03 0. 1.97628466e-03 0.
      0. 3.95256933e-03 0. 0. 5.92885399e-03 0. 0. 3.95256933e-03 0. 0.
      0. 0. 0. 0. 0. 1.97628466e-03 0. 0. 0. 0. 0. 0. 1.97628466e-03 0.
      0. 0. 1.97628466e-03 0. 0. 3.95256933e-03 0. 0. 0. 0.
      5.92885399e-03 0. 0. 0. 0. 0. 3.95256933e-03 1.97628466e-03 0. 0.
      0. 0. 0. 0. 0. 0. 1.97628466e-03 0. 0. 0. 0. 0. 0. 0. 0. 0.
      1.18577080e-02 0. 0. 0. 1.97628466e-03 0. 0. 0. 0. 0. 0. 0. 0. 0.
      0. 0. 5.92885399e-03 1.97628466e-03 0. 0. 0. 3.95256933e-03
      1.97628466e-03 0. 0. 0. 0. 0. 1.97628466e-03 0. 0. 5.92885399e-03
      0. 0. 0. 0. 0. 0. 1.97628466e-03 0. 0. 0. 0. 0. 1.97628466e-03 0.
      3.95256933e-03 1.97628466e-03 0. 0. 0. 0. 0. 1.97628466e-03 0. 0.
      0. 0. 1.97628466e-03 0. 0. 0. 0. 1.97628466e-03 0. 0. 0. 0.
      3.95256933e-03 1.97628466e-03 1.97628466e-03 5.92885399e-03 0. 0.
      0. 0. 0. 0. 0. 0. 5.92885399e-03 0. 0. 0. 0. 1.97628466e-03 0.
      1.97628466e-03 0. 0. 1.97628466e-03 1.97628466e-03 0. 0. 0. 0. 0.
      0. 0. 0. 0. 0. 3.95256933e-03 3.95256933e-03 5.92885399e-03
      1.97628466e-03 0. 1.97628466e-03 0. 0. 0. 0. 0. 0. 0.
      3.95256933e-03 0. 0. 0. 0. 0. 0. 0. 0. 3.95256933e-03 0.
      1.97628466e-03 1.97628466e-03 0. 0. 1.97628466e-03 1.97628466e-03
      3.95256933e-03 0. 0. 0. 0. 0. 1.97628466e-03 0. 3.95256933e-03 0.
      1.97628466e-03 0. 3.95256933e-03 0. 0. 1.97628466e-03 0. 0. 0. 0.
      3.95256933e-03 0. 0. 0. 0. 0. 0. 0. 0. 0. 0. 0. 0. 0. 0. 0.
      1.97628466e-03 0. 1.97628466e-03 1.97628466e-03 0. 0. 0. 0. 0.
      1.97628466e-03 1.97628466e-03 1.97628466e-03 0. 0. 0. 0. 0.
      1.97628466e-03 0. 0. 1.97628466e-03 1.58102773e-02 0. 0. 0. 0. 0.
      0. 0. 0. 0. 1.97628466e-03 0. 3.95256933e-03 0. 0. 0. 0. 0. 0. 0.
      1.97628466e-03 3.95256933e-03 1.97628466e-03 0. 0. 1.97628466e-03
      0. 1.97628466e-03 0. 0. 0. 0. 0. 0. 0. 0. 0. 0. 0. 0. 0. 0.
      5.92885399e-03 0. 0. 0. 1.97628466e-03 0. 0. 0. 0. 0. 0. 0.
      1.38339922e-02 0. 0. 0. 0. 0. 0. 0. 1.97628466e-03 1.97628466e-03
      0. 1.97628466e-03 0. 0. 0. 0. 0. 1.97628466e-03 3.95256933e-03 0.
      0. 0. 0. 1.97628466e-03 1.97628466e-03 5.92885399e-03 0.
      1.97628466e-03 0. 0. 0. 0. 0. 1.97628466e-03 0. 0. 0. 0. 0. 0. 0.
      1.97628466e-03 3.95256933e-03 0. 0. 0. 0. 0. 1.97628466e-03 0.
      1.97628466e-03 1.97628466e-03 1.97628466e-03 0. 0. 0. 0.
      5.92885399e-03 0. 0. 3.95256933e-03 0. 0. 0. 0. 0. 0. 0. 0.
      1.97628466e-03 1.97628466e-03 0. 0. 1.97628466e-03 1.97628466e-03
      1.97628466e-03 3.95256933e-03 0. 0. 0. 0. 1.97628466e-03 0. 0. 0.
      7.90513866e-03 0. 1.97628466e-03 1.97628466e-03 3.95256933e-03
      3.95256933e-03 0. 3.95256933e-03 1.18577080e-02 0. 1.97628466e-03
      1.97628466e-03 0. 3.95256933e-03 0. 0. 0. 1.97628466e-03
      3.95256933e-03 0. 0. 0. 0. 0. 9.88142379e-03 0. 0. 0. 0.
      1.97628466e-03 0. 3.95256933e-03 0. 0. 0. 0. 3.95256933e-03 0. 0.
      0. 0. 0. 0. 0. 0. 0. 9.88142379e-03 0. 0. 0. 1.97628466e-03 0. 0.
      0. 0. 1.97628466e-03 1.97628466e-03 1.97628466e-03 1.58102773e-02
      1.97628466e-03 0. 0. 0. 1.97628466e-03 5.92885399e-03
      5.92885399e-03 0. 0. 0. 1.97628466e-03 0. 0. 0. 0. 0. 0. 0. 0.</_>
    <_>
      0. 1.71526591e-03 3.43053183e-03 1.71526591e-03 0. 0.
      1.71526591e-03 0. 1.71526591e-03 1.71526591e-03 0. 1.71526591e-03
      0. 1.71526591e-03 0. 0. 0. 0. 0. 1.71526591e-03 0. 3.43053183e-03
      0. 5.14579751e-03 1.71526591e-03 0. 0. 0. 0. 0. 0. 0. 0. 0.
      3.43053183e-03 3.43053183e-03 0. 0. 0. 0. 0. 0. 0. 0. 0. 0.
      1.71526591e-03 0. 0. 0. 0. 0. 0. 0. 0. 0. 0. 0. 1.71526591e-03 0.
      0. 1.71526591e-03 1.71526591e-03 0. 0. 0. 0. 0. 5.14579751e-03 0.
      0. 0. 0. 1.71526591e-03 1.71526591e-03 3.43053183e-03
      3.43053183e-03 0. 0. 0. 0. 0. 5.14579751e-03 5.14579751e-03 0.
      3.43053183e-03 0. 5.14579751e-03 1.02915950e-02 1.71526591e-03
      1.71526591e-03 0. 0. 0. 3.43053183e-03 0. 0. 0. 0. 0.
      1.71526591e-03 0. 0. 0. 3.43053183e-03 1.71526591e-03 0. 0. 0. 0.
      0. 1.71526591e-03 0. 0. 0. 0. 0. 1.71526591e-03 0. 0. 0. 0. 0.
      1.71526591e-03 1.71526591e-03 0. 0. 1.71526591e-03 0.
      8.57632980e-03 1.71526591e-03 1.71526591e-03 5.14579751e-03 0. 0.
      0. 1.71526591e-03 1.71526591e-03 0. 0. 3.43053183e-03
      1.71526591e-03 0. 0. 0. 0. 1.71526591e-03 0. 0. 3.43053183e-03 0.
      0. 0. 0. 0. 0. 3.43053183e-03 0. 6.86106365e-03 1.71526591e-03
      3.43053183e-03 1.71526591e-03 0. 0. 3.43053183e-03 0. 0. 0. 0. 0.
      0. 0. 0. 0. 0. 6.86106365e-03 0. 1.71526591e-03 0. 0. 0. 0. 0. 0.
      0. 0. 0. 0. 1.20068612e-02 1.71526591e-03 6.86106365e-03 0.
      1.71526591e-03 0. 1.71526591e-03 0. 0. 0. 0. 0. 0. 0. 0. 0. 0.
      1.71526591e-03 0. 0. 0. 1.71526591e-03 5.14579751e-03 0.
      1.71526591e-03 0. 0. 0. 1.71526591e-03 0. 1.71526591e-03 0. 0.
      5.14579751e-03 0. 1.71526591e-03 1.71526591e-03 1.02915950e-02
      6.86106365e-03 0. 1.71526591e-03 0. 0. 0. 0. 0. 1.71526591e-03 0.
      3.43053183e-03 1.71526591e-03 0. 1.71526591e-03 0. 1.71526591e-03
      0. 0. 0. 0. 0. 0. 0. 6.86106365e-03 0. 0. 1.71526591e-03
      1.71526591e-03 0. 0. 1.71526591e-03 0. 0. 0. 0. 0. 0. 0. 0.
      5.14579751e-03 0. 0. 0. 6.86106365e-03 0. 3.43053183e-03 0. 0. 0.
      0. 0. 1.71526591e-03 1.02915950e-02 0. 1.54373934e-02 0.
      1.71526591e-03 0. 0. 1.71526591e-03 0. 0. 1.71526591e-03 0. 0. 0.
      0. 1.71526591e-03 0. 3.43053183e-03 1.71526591e-03 0. 0. 0. 0. 0.
      0. 0. 0. 0. 3.43053183e-03 0. 5.14579751e-03 0. 0. 0.
      1.71526591e-03 3.43053183e-03 1.71526591e-03 1.71526591e-03 0. 0.
      0. 0. 3.43053183e-03 0. 0. 0. 0. 0. 5.14579751e-03 1.71526591e-03
      0. 0. 0. 0. 0. 3.43053183e-03 1.71526591e-03 3.43053183e-03
      1.71526591e-03 0. 0. 0. 0. 1.71526591e-03 1.71526591e-03
      5.14579751e-03 0. 0. 1.71526591e-03 0. 0. 0. 1.71526591e-03 0. 0.
      0. 0. 1.71526591e-03 1.71526591e-03 0. 0. 0. 1.71526591e-03 0. 0.
      0. 0. 0. 0. 0. 5.14579751e-03 3.43053183e-03 1.71526591e-03 0. 0.
      0. 0. 1.71526591e-03 1.71526591e-03 1.71526591e-03 0. 0.
      3.43053183e-03 0. 0. 0. 0. 0. 0. 0. 0. 0. 3.43053183e-03 0. 0.
      5.14579751e-03 8.57632980e-03 0. 0. 0. 1.71526591e-03 0. 0. 0. 0.
      0. 0. 0. 0. 1.71526591e-03 0. 0. 1.71526591e-03 0. 0. 0. 0. 0. 0.
      0. 3.43053183e-03 0. 1.71526591e-03 1.71526591e-03 0.
      8.57632980e-03 0. 0. 0. 0. 1.71526591e-03 0. 0. 0. 0.
      5.14579751e-03 0. 0. 0. 1.71526591e-03 1.71526591e-03
      1.54373934e-02 0. 0. 0. 0. 3.43053183e-03 0. 0. 0. 0.
      3.43053183e-03 0. 0. 0. 0. 1.71526591e-03 0. 8.57632980e-03
      5.14579751e-03 1.71526591e-03 0. 8.57632980e-03 0. 0. 0.
      5.14579751e-03 0. 1.71526591e-03 3.43053183e-03 1.71526591e-03
      1.71526591e-03 0. 0. 0. 0. 6.86106365e-03 0. 0. 0. 0. 0. 0.
      1.71526591e-03 0. 1.71526591e-03 5.14579751e-03 3.43053183e-03 0.
      6.86106365e-03 0. 0. 0. 0. 0. 1.71526591e-03 1.71526591e-03 0. 0.
      0. 0. 1.71526591e-03 1.71526591e-03 0. 0. 0. 0. 0. 0. 0.
      1.71526591e-03 3.43053183e-03 0. 6.86106365e-03 0. 1.71526591e-03
      0. 3.43053183e-03 1.71526591e-03 1.71526591e-03 0. 0. 0. 0.
      1.71526591e-03 3.43053183e-03 3.43053183e-03 0. 0. 1.71526591e-03
      1.71526591e-03 0. 0. 1.20068612e-02 0. 0. 0. 0. 0. 0.
      5.14579751e-03 0. 0. 0. 0. 0. 0. 0. 0. 0. 0. 1.71526591e-03 0. 0.
      1.71526591e-03 1.71526591e-03 0. 1.71526591e-03 0. 0. 0.
      3.43053183e-03 1.71526591e-03 0. 0. 1.37221273e-02 0. 0. 0. 0. 0.
      5.14579751e-03 0. 3.43053183e-03 0. 0. 1.71526591e-03
      1.71526596e-02 0. 1.71526591e-03 0. 0. 0. 0. 0. 0. 0. 0.
      1.71526591e-03 0. 0. 0. 0. 0. 0. 0. 0. 0. 0. 0. 0. 0.
      3.43053183e-03 0. 0. 1.71526591e-03 0. 0. 0. 0. 0. 0. 0.
      1.20068612e-02 0. 0. 1.71526591e-03 0. 1.71526591e-03 0. 0. 0. 0.
      8.57632980e-03 0. 0. 3.43053183e-03 5.14579751e-03 0. 0. 0. 0. 0.
      0. 0. 1.71526591e-03 0. 0. 0. 6.86106365e-03 0. 1.71526591e-03
      1.71526591e-03 0. 0. 0. 0. 1.71526591e-03 0. 0. 0. 0. 0.
      1.71526591e-03 0. 0. 0. 0. 1.02915950e-02 0. 0. 1.71526591e-03 0.
      0. 0. 0. 0. 0. 1.71526591e-03 0. 0. 0. 0. 0. 1.71526591e-03
      1.71526591e-03 0. 0. 0. 0. 1.71526591e-03 0. 0. 0. 1.71526591e-03
      0. 0. 0. 0. 0. 1.71526591e-03 5.14579751e-03 0. 0. 0. 0. 0. 0. 0.
      1.71526591e-03 0. 0. 0. 1.71526591e-03 0. 0. 6.86106365e-03 0. 0.
      0. 1.71526591e-03 0. 0. 0. 0. 0. 0. 0. 1.71526591e-03 0. 0. 0. 0.
      1.71526591e-03 1.71526591e-03 1.71526591e-03 0. 0. 1.71526591e-03
      0. 0. 0. 0. 0. 0. 0. 0. 3.43053183e-03 1.20068612e-02 0. 0. 0. 0.
      1.71526591e-03 0. 0. 0. 0. 0. 1.71526591e-03 0. 0. 0. 0.
      1.71526591e-03 0. 1.71526591e-03 0. 1.71526591e-03 0. 0. 0.
      1.71526591e-03 0. 0. 1.71526591e-03 0. 0. 0. 3.43053183e-03 0. 0.
      1.71526591e-03 0. 5.14579751e-03 1.71526591e-03 0. 0. 0. 0. 0.
      1.71526591e-03 0. 0. 0. 0. 0. 0. 1.71526591e-03 0. 0. 0. 0. 0. 0.
      0. 0. 1.71526591e-03 0. 0. 0. 3.43053183e-03 0. 5.14579751e-03 0.
      0. 3.43053183e-03 5.14579751e-03 0. 0. 0. 0. 0. 0. 0. 0.
      3.43053183e-03 0. 0. 0. 1.71526591e-03 0. 0. 1.71526591e-03
      8.57632980e-03 0. 0. 5.14579751e-03 0. 0. 0. 0. 1.71526591e-03 0.
      1.71526591e-03 0. 0. 0. 3.43053183e-03 0. 0. 0. 0. 3.43053183e-03
      0. 0. 0. 0. 5.14579751e-03 5.14579751e-03 1.71526591e-03 0. 0. 0.
      0. 0. 5.14579751e-03 0. 0. 0. 0. 0. 1.71526591e-03 0.
      3.43053183e-03 0. 0. 1.71526591e-03 0. 0. 3.43053183e-03 0. 0. 0.
      0. 1.71526591e-03 0. 1.71526591e-03 1.71526591e-03 0. 0.
      1.71526591e-03 0. 0. 0. 0. 0. 0. 0. 3.43053183e-03 0. 0.
      3.43053183e-03 0. 0. 0. 1.71526591e-03 1.71526591e-03 0. 0. 0. 0.
      0. 0. 0. 0. 0. 0. 6.86106365e-03 0. 0. 1.71526591e-03
      5.14579751e-03 0. 1.71526591e-03 0. 0. 0. 1.71526591e-03
      1.71526591e-03 3.43053183e-03 1.71526591e-03 5.14579751e-03
      3.43053183e-03 0. 1.71526591e-03 0. 0. 3.43053183e-03 0. 0.
      5.14579751e-03 0. 3.43053183e-03 0. 0. 0. 0. 0. 0. 5.14579751e-03
      0. 3.43053183e-03 0. 3.43053183e-03 0. 1.71526591e-03 0. 0. 0. 0.
      0. 0. 0. 0. 1.71526591e-03 0. 5.14579751e-03 0. 0. 0. 0. 0. 0. 0.
      3.43053183e-03 0. 0. 0. 0. 0. 1.71526591e-03 0. 0. 1.71526591e-03
      6.86106365e-03 0. 0. 1.71526591e-03 5.14579751e-03 6.86106365e-03
      0. 0. 1.71526591e-03 0. 0. 8.57632980e-03 0. 0. 0. 0. 0.
      3.43053183e-03 0. 5.14579751e-03 0. 5.14579751e-03 0. 0.
      5.14579751e-03 1.71526591e-03 3.43053183e-03</_>
    <_>
      0. 0. 0. 0. 0. 0. 0. 0. 0. 0. 0. 0. 0. 1.81818176e-02 0. 0. 0. 0.
      0. 0. 0. 0. 0. 4.54545440e-03 0. 0. 0. 4.54545440e-03 0.
      4.54545440e-03 0. 0. 0. 0. 0. 0. 4.54545440e-03 0. 0. 0. 0. 0. 0.
      0. 0. 0. 0. 0. 0. 0. 0. 0. 0. 0. 0. 0. 0. 4.54545440e-03 0. 0. 0.
      0. 3.63636352e-02 0. 0. 0. 0. 0. 0. 4.54545440e-03 0.
      4.54545440e-03 0. 0. 4.54545440e-03 0. 1.36363637e-02 0. 0. 0. 0.
      0. 0. 9.09090880e-03 0. 0. 0. 0. 0. 0. 0. 4.54545440e-03 0. 0. 0.
      0. 0. 0. 0. 0. 0. 4.54545440e-03 0. 0. 0. 4.54545440e-03 0. 0. 0.
      0. 0. 0. 0. 0. 4.54545440e-03 0. 0. 0. 0. 0. 0. 0. 0. 0.
      4.54545440e-03 0. 4.54545440e-03 0. 0. 4.54545440e-03 0. 0. 0. 0.
      0. 4.54545440e-03 0. 0. 0. 0. 0. 0. 0. 0. 0. 0. 0. 0.
      4.54545440e-03 9.09090880e-03 0. 0. 0. 0. 9.09090880e-03 0. 0. 0.
      0. 0. 0. 4.54545440e-03 0. 0. 0. 0. 0. 0. 0. 0. 0. 0. 0. 0.
      4.54545440e-03 4.54545440e-03 0. 0. 0. 0. 0. 0. 0. 0. 0. 0. 0. 0.
      0. 0. 9.09090880e-03 0. 0. 0. 4.54545440e-03 0. 0. 0. 0. 0. 0. 0.
      0. 0. 0. 0. 0. 0. 0. 0. 0. 0. 0. 0. 0. 4.54545440e-03 0. 0. 0.
      4.54545440e-03 0. 0. 0. 0. 0. 0. 1.36363637e-02 0. 0. 0. 0. 0. 0.
      0. 0. 0. 4.54545440e-03 0. 0. 0. 0. 0. 0. 0. 0. 0. 0. 0. 0. 0. 0.
      0. 0. 0. 0. 0. 0. 0. 0. 0. 0. 0. 0. 0. 0. 2.72727273e-02 0. 0. 0.
      0. 0. 0. 0. 0. 0. 0. 4.54545440e-03 0. 4.54545440e-03 0. 0. 0.
      4.54545440e-03 0. 0. 0. 0. 0. 9.09090880e-03 0. 4.54545440e-03 0.
      0. 4.54545440e-03 0. 3.18181813e-02 0. 0. 0. 0. 0. 4.54545440e-03
      0. 0. 0. 0. 0. 0. 4.54545440e-03 0. 0. 0. 0. 0. 4.54545440e-03 0.
      4.54545440e-03 0. 1.81818176e-02 0. 0. 0. 0. 0. 0. 0.
      2.27272715e-02 0. 0. 0. 0. 0. 0. 0. 0. 0. 0. 0. 0. 0. 0. 0.
      4.54545440e-03 0. 0. 4.54545440e-03 0. 0. 0. 0. 0. 0. 0.
      4.54545440e-03 0. 0. 0. 0. 4.54545440e-03 0. 0. 0. 0. 0.
      1.36363637e-02 0. 0. 0. 0. 0. 0. 0. 0. 0. 2.27272715e-02 0. 0.
      4.54545440e-03 0. 0. 2.72727273e-02 0. 0. 0. 0. 0. 0. 0. 0. 0.
      4.54545440e-03 0. 0. 0. 0. 0. 0. 0. 0. 0. 0. 0. 0. 0. 0. 0. 0. 0.
      0. 0. 0. 0. 0. 0. 0. 0. 4.54545440e-03 0. 0. 0. 0. 4.54545440e-03
      0. 0. 0. 9.09090880e-03 0. 0. 0. 0. 0. 0. 0. 0. 0. 0. 0.
      1.36363637e-02 0. 9.09090880e-03 0. 0. 0. 0. 0. 0. 0. 0. 0. 0. 0.
      0. 0. 0. 0. 0. 0. 1.36363637e-02 0. 4.54545440e-03 0.
      4.54545440e-03 0. 0. 0. 0. 0. 0. 0. 0. 0. 0. 0. 0. 0. 0. 0. 0. 0.
      0. 0. 0. 0. 0. 4.54545440e-03 0. 0. 0. 0. 0. 0. 0. 4.54545440e-03
      0. 0. 4.54545440e-03 0. 0. 0. 0. 3.63636352e-02 0. 0. 0. 0. 0. 0.
      0. 0. 0. 0. 0. 0. 0. 0. 0. 0. 0. 0. 0. 0. 0. 0. 0. 0. 0. 0. 0. 0.
      0. 0. 1.81818176e-02 0. 0. 0. 0. 0. 0. 0. 0. 0. 0. 0. 0. 0. 0. 0.
      0. 0. 0. 0. 0. 0. 4.54545440e-03 0. 0. 0. 0. 0. 0. 0. 0. 0.
      1.36363637e-02 0. 0. 0. 4.54545440e-03 0. 0. 0. 0. 0. 0. 0.
      4.54545440e-03 0. 0. 0. 0. 0. 0. 0. 0. 0. 0. 4.54545440e-03 0. 0.
      0. 0. 0. 0. 0. 0. 0. 0. 0. 0. 0. 0. 0. 4.54545440e-03 0. 0. 0. 0.
      0. 0. 0. 0. 0. 0. 0. 0. 0. 9.09090880e-03 0. 0. 0. 0. 0. 0. 0. 0.
      4.54545440e-03 0. 0. 0. 0. 0. 0. 0. 9.09090880e-03 0. 0. 0. 0. 0.
      0. 0. 0. 0. 0. 0. 0. 0. 0. 0. 0. 0. 0. 4.54545440e-03
      4.54545440e-03 0. 0. 9.09090880e-03 0. 0. 0. 0. 0. 0. 0. 0. 0. 0.
      0. 0. 0. 0. 0. 0. 0. 0. 0. 0. 0. 4.54545440e-03 0. 0. 0. 0. 0. 0.
      0. 0. 0. 0. 1.36363637e-02 0. 0. 0. 0. 0. 0. 0. 0. 0. 0. 0. 0. 0.
      0. 0. 0. 0. 0. 0. 0. 0. 0. 0. 0. 0. 4.54545440e-03 0. 0. 0. 0. 0.
      0. 1.81818176e-02 0. 0. 9.09090880e-03 0. 0. 0. 0. 0. 0. 0.
      4.54545440e-03 0. 0. 0. 0. 0. 0. 0. 0. 0. 0. 0. 0. 0.
      9.09090880e-03 0. 0. 4.54545440e-03 0. 0. 0. 0. 0. 0. 0. 0. 0. 0.
      0. 0. 0. 0. 0. 0. 0. 0. 0. 0. 0. 9.09090880e-03 0. 0. 0. 0.
      4.54545440e-03 0. 4.54545440e-03 0. 4.54545440e-03 0. 0. 0. 0.
      4.54545440e-03 0. 0. 0. 0. 0. 0. 0. 0. 0. 4.54545440e-03 0. 0. 0.
      0. 0. 0. 4.54545440e-03 0. 2.72727273e-02 0. 0. 0. 0. 0. 0.
      4.54545440e-03 4.54545440e-03 0. 0. 0. 4.54545440e-03 0. 0. 0. 0.
      0. 0. 0. 4.54545440e-03 0. 4.54545440e-03 0. 0. 4.54545440e-03 0.
      0. 0. 0. 0. 0. 0. 0. 0. 0. 0. 0. 0. 0. 0. 0. 0. 0. 0. 0. 0. 0.
      9.09090880e-03 0. 4.54545440e-03 0. 0. 0. 0. 0. 0. 4.54545440e-03
      0. 0. 0. 0. 0. 0. 0. 0. 0. 0. 0. 0. 4.54545440e-03 0. 0. 0. 0. 0.
      0. 0. 0. 9.09090880e-03 0. 0. 0. 0. 0. 0. 9.09090880e-03 0. 0. 0.
      0. 0. 0. 0. 0. 0. 0. 0. 0. 9.09090880e-03 0. 0. 4.54545440e-03 0.
      0. 0. 0. 0. 1.81818176e-02 0. 0. 0. 0. 9.09090880e-03 0. 0.
      4.54545440e-03 0. 4.54545440e-03 0. 0. 4.54545440e-03
      4.54545440e-03 0. 4.54545440e-03 0. 0. 4.54545440e-03
      4.54545440e-03 4.54545440e-03 0. 0. 0. 4.54545440e-03 0. 0.
      4.54545440e-03 0. 0. 0. 0. 0. 0. 0. 0. 0. 4.54545440e-03 0. 0. 0.
      0. 0. 0. 4.54545440e-03 0. 0. 4.54545440e-03 0. 0. 0. 0. 0. 0. 0.
      4.54545440e-03 0. 0. 4.54545440e-03 0. 0. 0. 0. 0. 0. 0. 0. 0.
      4.54545440e-03 0. 0. 0. 0. 0. 0. 0. 4.54545440e-03 0. 0. 0. 0.
      4.54545440e-03 0. 0. 0. 0.</_>
    <_>
      0. 0. 0. 0. 3.09119001e-03 1.39103550e-02 0. 0. 0. 1.54559501e-03
      0. 0. 0. 0. 0. 0. 0. 4.63678502e-03 0. 0. 0. 0. 0. 9.27357003e-03
      3.09119001e-03 0. 0. 3.09119001e-03 0. 3.09119001e-03 0. 0. 0. 0.
      0. 7.72797503e-03 0. 0. 0. 0. 0. 4.63678502e-03 1.54559501e-03 0.
      0. 0. 0. 0. 0. 0. 0. 1.54559501e-03 0. 0. 6.18238002e-03 0. 0.
      1.54559501e-03 0. 0. 0. 3.09119001e-03 1.54559501e-03 0. 0.
      1.54559501e-03 1.54559501e-03 0. 0. 1.54559501e-03 0. 0.
      3.09119001e-03 9.27357003e-03 1.54559501e-03 0. 0. 0. 0. 0. 0. 0.
      1.54559501e-03 0. 0. 0. 1.54559501e-03 0. 0. 0. 0. 1.54559501e-03
      0. 0. 0. 0. 1.54559501e-03 0. 0. 0. 0. 0. 0. 1.54559501e-03 0.
      1.08191650e-02 1.54559501e-03 0. 0. 3.09119001e-03 0.
      3.09119001e-03 0. 1.70015451e-02 3.09119001e-03 0. 1.54559501e-03
      4.63678502e-03 0. 0. 0. 0. 0. 1.39103550e-02 0. 4.63678502e-03
      1.54559501e-03 3.09119001e-03 0. 0. 0. 0. 4.63678502e-03 0. 0. 0.
      1.54559501e-03 0. 0. 1.54559501e-03 3.09119001e-03 1.54559501e-03
      0. 1.54559501e-03 1.70015451e-02 0. 0. 0. 1.54559501e-03 0. 0. 0.
      0. 0. 0. 1.54559501e-03 1.54559501e-03 1.54559501e-03 0.
      1.54559501e-03 6.18238002e-03 0. 4.63678502e-03 0. 0. 0. 0. 0.
      1.54559501e-03 0. 0. 0. 0. 0. 1.54559501e-03 0. 3.09119001e-03
      7.72797503e-03 0. 0. 3.09119001e-03 0. 0. 3.09119001e-03 0.
      1.54559501e-03 0. 0. 0. 0. 3.09119001e-03 6.18238002e-03 0. 0. 0.
      0. 0. 0. 0. 0. 3.09119001e-03 1.54559501e-03 0. 0. 0. 0. 0. 0.
      1.54559501e-03 0. 0. 0. 0. 0. 0. 0. 0. 0. 1.54559501e-03 0. 0. 0.
      0. 0. 0. 1.54559501e-03 1.54559501e-02 0. 1.54559501e-03 0. 0. 0.
      0. 4.63678502e-03 0. 1.54559501e-03 4.63678502e-03 0. 0. 0.
      4.63678502e-03 0. 0. 0. 0. 3.09119001e-03 0. 0. 0. 0. 0.
      9.27357003e-03 1.54559501e-03 0. 0. 3.09119001e-03 0. 0. 0.
      1.54559501e-03 0. 0. 0. 0. 0. 0. 0. 3.09119001e-03 3.09119001e-03
      1.54559501e-03 0. 0. 3.09119001e-03 0. 0. 0. 0. 0. 6.18238002e-03
      0. 0. 0. 0. 1.54559501e-03 0. 0. 1.54559501e-03 0. 1.54559501e-03
      0. 0. 1.54559501e-03 0. 1.54559501e-03 0. 3.09119001e-03 0. 0. 0.
      0. 6.18238002e-03 0. 0. 0. 0. 0. 0. 0. 1.54559501e-03
      1.54559501e-03 0. 1.54559501e-03 0. 1.54559501e-03 0.
      1.54559501e-03 1.54559501e-03 1.54559501e-03 3.09119001e-03 0.
      6.18238002e-03 1.54559501e-03 0. 0. 0. 0. 7.72797503e-03 0.
      1.54559501e-03 0. 0. 3.09119001e-03 0. 0. 0. 0. 1.54559501e-03 0.
      0. 0. 1.54559501e-03 0. 0. 0. 0. 7.72797503e-03 0. 0. 0.
      1.54559501e-03 0. 0. 0. 0. 0. 3.09119001e-03 0. 0. 1.54559501e-03
      0. 3.09119001e-03 1.54559501e-03 0. 0. 0. 4.63678502e-03 0. 0.
      9.27357003e-03 1.54559501e-03 0. 0. 0. 0. 1.54559501e-03 0. 0. 0.
      0. 0. 0. 1.54559501e-03 3.09119001e-03 0. 0. 0. 0. 0. 0. 0. 0.
      6.18238002e-03 0. 0. 3.09119001e-03 1.54559501e-03 0. 0. 0. 0. 0.
      1.54559501e-03 0. 0. 1.54559501e-03 1.54559501e-03 0.
      3.09119001e-03 1.54559501e-03 0. 1.54559501e-03 0. 1.54559501e-03
      1.54559501e-03 0. 1.54559501e-03 1.54559501e-03 9.27357003e-03
      3.09119001e-03 0. 0. 4.63678502e-03 0. 0. 0. 0. 0. 1.54559501e-03
      6.18238002e-03 0. 0. 0. 0. 1.54559501e-03 0. 0. 1.54559501e-03 0.
      0. 0. 0. 0. 3.09119001e-03 0. 1.08191650e-02 0. 0. 0. 0. 0. 0. 0.
      0. 0. 0. 1.54559501e-03 0. 3.09119001e-03 0. 0. 0. 0.
      1.54559501e-03 0. 0. 3.09119001e-03 0. 0. 0. 4.63678502e-03 0. 0.
      0. 0. 0. 0. 0. 0. 1.54559501e-03 0. 0. 3.09119001e-03 0. 0. 0. 0.
      1.54559501e-03 3.09119001e-03 1.23647600e-02 0. 4.63678502e-03 0.
      0. 1.54559501e-03 0. 0. 0. 0. 0. 0. 4.63678502e-03 0. 0. 0. 0. 0.
      0. 0. 0. 0. 0. 0. 0. 0. 0. 0. 0. 0. 0. 0. 0. 0. 3.09119001e-03 0.
      0. 0. 1.54559501e-03 0. 9.27357003e-03 0. 0. 0. 0. 0.
      1.54559501e-03 0. 0. 0. 1.54559501e-03 0. 0. 0. 0. 1.54559501e-03
      0. 1.54559501e-03 0. 1.54559501e-03 0. 0. 0. 0. 1.08191650e-02 0.
      0. 0. 0. 0. 0. 1.54559501e-03 1.54559501e-03 0. 9.27357003e-03
      1.54559501e-03 0. 0. 4.63678502e-03 1.54559501e-03 0. 0.
      1.54559501e-03 1.54559501e-03 0. 0. 0. 0. 0. 0. 0. 0. 0. 0. 0. 0.
      1.54559501e-03 0. 0. 0. 0. 0. 0. 1.54559501e-03 0. 0.
      3.09119001e-03 0. 0. 0. 0. 0. 0. 0. 0. 0. 0. 3.09119001e-03 0. 0.
      0. 0. 0. 1.23647600e-02 0. 0. 0. 0. 0. 0. 0. 0. 0. 1.54559501e-03
      0. 0. 0. 1.54559501e-03 0. 0. 0. 0. 7.72797503e-03 0. 0.
      7.72797503e-03 1.54559501e-03 0. 0. 0. 1.70015451e-02 0. 0.
      4.63678502e-03 6.18238002e-03 0. 3.09119001e-03 1.54559501e-03 0.
      0. 0. 0. 0. 0. 0. 0. 0. 0. 9.27357003e-03 3.09119001e-03 0. 0.
      1.54559501e-03 0. 0. 0. 0. 4.01854701e-02 0. 0. 0. 0.
      1.54559501e-03 0. 0. 0. 1.54559501e-03 1.54559501e-03 0. 0.
      1.54559501e-03 0. 0. 0. 0. 0. 1.54559501e-03 0. 0. 0.
      3.09119001e-03 0. 1.54559501e-02 0. 1.54559501e-03 0.
      6.18238002e-03 0. 3.09119001e-03 1.54559501e-03 0. 0. 0. 0. 0.
      3.09119001e-03 3.09119001e-03 0. 3.09119001e-03 0. 0. 0. 0.
      1.54559501e-03 0. 0. 4.63678502e-03 0. 3.09119001e-03 0. 0.
      1.54559501e-03 0. 0. 1.54559501e-03 1.54559501e-03 1.54559501e-03
      0. 1.54559501e-03 1.23647600e-02 0. 0. 0. 0. 4.63678502e-03
      1.54559501e-03 0. 1.54559501e-03 0. 0. 0. 0. 0. 1.54559501e-03 0.
      0. 0. 1.54559501e-03 0. 1.70015451e-02 1.54559501e-03 0. 0. 0.
      3.09119001e-03 0. 0. 0. 0. 0. 0. 0. 0. 3.09119001e-03 0.
      1.23647600e-02 1.54559501e-03 0. 0. 0. 0. 0. 0. 0. 4.63678502e-03
      0. 0. 1.54559501e-03 0. 0. 0. 1.54559501e-03 0. 1.54559501e-03
      1.54559501e-03 0. 0. 0. 1.70015451e-02 0. 1.54559501e-03 0. 0. 0.
      0. 0. 0. 0. 0. 0. 0. 3.09119001e-03 0. 0. 0. 1.08191650e-02
      1.54559501e-03 0. 0. 7.72797503e-03 0. 0. 0. 0. 0. 1.54559501e-03
      0. 1.54559501e-03 0. 0. 0. 0. 1.54559501e-03 3.09119001e-03 0. 0.
      0. 1.54559501e-03 0. 0. 0. 0. 0. 0. 0. 0. 3.09119001e-03
      1.54559501e-03 0. 1.54559501e-03 1.54559501e-03 1.54559501e-03 0.
      1.54559501e-03 0. 0. 0. 1.54559501e-03 0. 4.63678502e-03 0. 0.
      1.54559501e-03 0. 1.54559501e-03 0. 0. 0. 0. 1.54559501e-03
      1.54559501e-03 0. 0. 0. 0. 0. 1.54559501e-03 1.54559501e-03 0. 0.
      0. 0. 0. 0. 0. 0. 1.54559501e-03 0. 0. 0. 1.54559501e-03 0. 0. 0.
      0. 0. 0. 0. 0. 0. 0. 0. 0. 7.72797503e-03 0. 1.54559501e-03
      1.54559501e-03 0. 0. 0. 1.54559501e-03 0. 0. 0. 0. 0. 0. 0.
      1.54559501e-03 0. 0. 0. 0. 1.54559501e-03 0. 1.54559501e-03 0. 0.
      3.09119001e-03 0. 1.54559501e-03 3.09119001e-03 0. 4.63678502e-03
      0. 0. 0. 0. 0. 0. 0. 0. 0. 0. 1.54559501e-03 0. 1.54559501e-03 0.
      0. 0. 3.09119001e-03 1.54559501e-03 0. 1.54559501e-03
      3.09119001e-03 1.54559501e-03 0. 1.54559501e-03 0. 0. 0. 0. 0. 0.
      0. 0. 0. 0. 0. 0. 0. 0. 0. 0. 0. 1.54559501e-03 0. 0. 0.
      1.54559501e-03 0. 0. 0. 0. 0. 1.54559501e-03 0. 0. 3.09119001e-03
      1.54559501e-03 0. 0. 0. 0. 0. 0. 0. 1.54559501e-03 0.
      3.09119001e-03 0. 0. 3.09119001e-03 0. 3.09119001e-03 0. 0. 0.
      1.54559501e-03 0. 0. 0.</_>
    <_>
      0. 0. 0. 0. 2.24719103e-03 2.24719103e-03 0. 0. 0. 0. 0. 0.
      2.24719103e-03 2.24719103e-03 0. 0. 0. 6.74157310e-03 0.
      2.24719103e-03 0. 0. 2.24719103e-03 0. 0. 0. 0. 0. 2.24719103e-03
      0. 0. 2.24719103e-03 0. 0. 0. 1.34831462e-02 0. 0. 0. 0. 0.
      2.24719103e-03 0. 0. 0. 0. 4.49438207e-03 2.24719103e-03 0. 0. 0.
      0. 0. 2.24719103e-03 0. 0. 0. 0. 0. 0. 2.24719103e-03
      2.24719103e-03 0. 0. 0. 0. 4.49438207e-03 0. 0. 0. 0. 0. 0.
      1.34831462e-02 0. 2.24719103e-03 0. 0. 4.49438207e-03
      4.49438207e-03 0. 0. 0. 0. 0. 0. 0. 0. 0. 0. 2.24719103e-03
      4.49438207e-03 0. 0. 0. 4.49438207e-03 0. 2.24719103e-03 0.
      2.24719103e-03 0. 0. 0. 0. 0. 2.24719103e-03 0. 0. 2.24719103e-03
      0. 0. 4.49438207e-03 0. 2.24719103e-03 0. 0. 4.49438207e-03 0.
      2.24719103e-03 0. 0. 0. 0. 0. 0. 0. 0. 0. 2.24719103e-03 0. 0. 0.
      4.49438207e-03 0. 0. 0. 2.24719103e-03 0. 0. 0. 2.24719103e-03
      2.24719103e-03 0. 0. 2.47191004e-02 0. 0. 0. 2.24719103e-03 0. 0.
      0. 0. 0. 0. 2.24719103e-03 0. 2.24719103e-03 2.24719103e-03 0. 0.
      0. 2.24719103e-03 0. 4.49438207e-03 0. 0. 0. 0. 0. 0. 0. 0. 0. 0.
      0. 0. 0. 0. 0. 0. 0. 0. 0. 0. 0. 0. 0. 0. 0. 0. 0. 2.24719103e-03
      0. 0. 0. 0. 0. 0. 0. 4.49438207e-03 0. 0. 0. 0. 0. 0.
      2.24719103e-03 2.24719103e-03 0. 6.74157310e-03 0. 0. 0. 0. 0. 0.
      0. 2.24719103e-03 0. 0. 0. 0. 0. 2.24719103e-03 0. 2.24719103e-03
      0. 0. 0. 0. 0. 2.24719103e-03 2.24719103e-03 0. 0. 4.49438207e-03
      0. 0. 0. 2.24719103e-03 0. 0. 0. 0. 0. 0. 0. 0. 2.24719103e-03 0.
      2.24719103e-03 6.74157310e-03 0. 0. 0. 2.24719103e-03 0. 0. 0. 0.
      0. 4.49438207e-03 0. 0. 6.74157310e-03 0. 0. 4.49438207e-03 0. 0.
      6.74157310e-03 0. 2.24719103e-03 2.24719103e-03 0. 0. 0.
      2.24719103e-03 2.24719103e-03 0. 2.24719103e-03 0. 0.
      2.24719103e-03 0. 0. 4.49438207e-03 6.74157310e-03 0. 0.
      2.24719103e-03 0. 0. 0. 0. 2.24719103e-03 0. 0. 2.24719103e-03
      6.74157310e-03 0. 0. 2.24719103e-03 0. 0. 4.49438207e-03
      2.24719103e-03 2.24719103e-03 1.34831462e-02 0. 0. 0. 0.
      4.49438207e-03 0. 0. 2.24719103e-03 2.24719103e-03 0.
      2.24719103e-03 0. 2.24719103e-03 0. 0. 4.49438207e-03
      4.49438207e-03 2.24719103e-03 2.24719103e-03 0. 0. 2.24719103e-03
      0. 2.24719103e-03 0. 0. 2.24719103e-03 0. 0. 0. 1.34831462e-02 0.
      0. 0. 0. 4.49438207e-03 0. 0. 0. 0. 0. 0. 0. 0. 2.24719103e-03
      2.24719103e-03 2.24719103e-03 0. 2.24719103e-03 0. 0. 0. 0. 0. 0.
      0. 0. 2.24719103e-03 0. 0. 2.24719103e-03 0. 4.49438207e-03 0. 0.
      2.24719103e-03 0. 0. 0. 0. 0. 0. 0. 0. 4.49438207e-03 0. 0. 0. 0.
      0. 2.24719103e-03 4.49438207e-03 0. 0. 0. 2.24719103e-03 0. 0. 0.
      0. 0. 2.24719103e-03 0. 2.24719103e-03 0. 1.57303363e-02 0. 0. 0.
      0. 2.24719103e-03 0. 2.24719103e-03 0. 2.24719103e-03 0. 0.
      4.49438207e-03 2.24719103e-03 0. 0. 2.24719103e-03 0. 0. 0. 0. 0.
      0. 0. 0. 0. 0. 0. 2.24719103e-03 0. 0. 2.24719103e-03 0. 0. 0. 0.
      0. 2.24719103e-03 0. 4.49438207e-03 8.98876414e-03 0.
      6.74157310e-03 0. 0. 4.49438207e-03 0. 2.24719103e-03 0. 0. 0.
      6.74157310e-03 0. 0. 2.24719103e-03 2.24719103e-03 0.
      8.98876414e-03 0. 0. 0. 0. 0. 0. 0. 0. 2.24719103e-03 0. 0. 0. 0.
      0. 0. 2.24719103e-03 0. 0. 0. 1.12359552e-02 2.24719103e-03 0.
      2.24719103e-03 0. 0. 4.49438207e-03 0. 0. 0. 2.24719103e-03 0. 0.
      0. 4.49438207e-03 0. 0. 0. 0. 0. 0. 0. 0. 0. 0. 8.98876414e-03 0.
      2.24719103e-03 0. 0. 0. 2.24719103e-03 0. 0. 0. 4.49438207e-03 0.
      0. 0. 0. 2.24719103e-03 1.34831462e-02 0. 4.49438207e-03 0. 0.
      1.12359552e-02 0. 2.24719103e-03 0. 2.24719103e-03 0.
      8.98876414e-03 0. 8.98876414e-03 2.24719103e-03 0. 0.
      2.24719103e-03 0. 0. 0. 0. 0. 0. 0. 0. 2.24719103e-03 0. 0. 0. 0.
      2.24719103e-03 2.24719103e-03 0. 0. 0. 0. 0. 0. 2.24719103e-03 0.
      0. 0. 8.98876414e-03 2.24719103e-03 0. 0. 0. 2.24719103e-03 0. 0.
      0. 4.49438207e-03 0. 2.24719103e-03 0. 0. 2.24719103e-03 0. 0. 0.
      0. 0. 0. 0. 0. 0. 0. 0. 0. 0. 6.74157310e-03 0. 0. 0. 0. 0. 0.
      6.74157310e-03 0. 6.74157310e-03 0. 6.74157310e-03 0. 0.
      2.24719103e-03 2.24719103e-03 0. 2.24719103e-03 0. 2.24719103e-03
      2.24719103e-03 0. 0. 0. 0. 0. 0. 0. 0. 0. 0. 4.49438207e-03 0. 0.
      2.24719103e-03 0. 4.49438207e-03 0. 2.24719103e-03 2.24719103e-03
      2.24719103e-03 0. 0. 0. 2.24719103e-03 0. 0. 4.49438207e-03 0.
      2.24719103e-03 0. 0. 0. 0. 0. 0. 0. 2.24719103e-03 2.24719103e-03
      2.24719103e-03 0. 0. 0. 4.49438207e-03 0. 0. 8.98876414e-03 0. 0.
      0. 0. 1.79775283e-02 0. 2.24719103e-03 0. 0. 0. 0. 0. 0.
      2.24719103e-03 0. 2.24719103e-03 0. 0. 0. 2.24719103e-03 0. 0. 0.
      0. 0. 0. 0. 2.24719103e-03 0. 0. 0. 0. 2.24719103e-03 0.
      2.24719103e-03 6.74157310e-03 0. 0. 0. 2.24719103e-03 0. 0. 0. 0.
      0. 6.74157310e-03 0. 0. 0. 2.24719103e-03 0. 0. 0. 4.49438207e-03
      0. 0. 0. 0. 0. 2.24719103e-03 0. 0. 0. 2.24719103e-03 0.
      2.24719103e-03 6.74157310e-03 2.24719103e-03 0. 0. 2.24719103e-03
      0. 0. 2.24719103e-03 0. 4.49438207e-03 0. 0. 0. 0. 0. 0. 0.
      2.24719103e-03 0. 0. 2.24719103e-03 4.49438207e-03 0. 0. 0. 0.
      4.49438207e-03 0. 0. 0. 0. 0. 0. 0. 2.24719103e-03 2.24719103e-03
      2.02247202e-02 0. 0. 0. 0. 0. 0. 0. 2.24719103e-03 2.24719103e-03
      0. 0. 0. 0. 2.24719103e-03 0. 0. 0. 2.24719103e-03 0. 0. 0.
      2.24719103e-03 4.49438207e-03 0. 2.24719103e-03 2.24719103e-03 0.
      0. 0. 0. 0. 0. 2.24719103e-03 0. 2.24719103e-03 4.49438207e-03 0.
      0. 0. 0. 2.24719103e-03 0. 0. 2.24719103e-03 0. 2.24719103e-03 0.
      0. 0. 0. 0. 2.24719103e-03 2.24719103e-03 0. 0. 0. 4.49438207e-03
      2.24719103e-03 0. 0. 2.24719103e-03 0. 0. 0. 0. 0. 0. 0. 0. 0. 0.
      4.49438207e-03 0. 2.24719103e-03 0. 4.49438207e-03 0. 0. 0. 0.
      2.24719103e-03 0. 0. 0. 8.98876414e-03 0. 0. 0. 0. 0.
      4.49438207e-03 4.49438207e-03 0. 0. 0. 0. 0. 0. 0. 2.24719103e-03
      0. 4.49438207e-03 0. 0. 2.24719103e-03 0. 2.24719103e-03
      4.49438207e-03 0. 0. 0. 0. 0. 4.49438207e-03 0. 0. 0. 0. 0. 0.
      2.24719103e-03 2.24719103e-03 0. 0. 0. 0. 2.24719103e-03
      2.24719103e-03 0. 0. 0. 2.24719103e-03 0. 0. 0. 0. 0.
      2.24719103e-03 0. 2.24719103e-03 0. 2.24719103e-03 0. 0. 0. 0. 0.
      0. 2.24719103e-03 0. 0. 0. 0. 0. 2.24719103e-03 0. 0.
      4.49438207e-03 0. 0. 0. 2.24719103e-03 0. 2.24719103e-03 0. 0. 0.
      2.24719103e-03 2.24719103e-03 0. 0. 0. 0. 0. 0. 2.24719103e-03 0.
      0. 0. 0. 0. 0. 4.49438207e-03 0. 0. 0. 0. 0. 0. 0. 2.24719103e-03
      0. 0. 0. 0. 0. 0. 0. 2.24719103e-03 0. 0. 0. 0. 4.49438207e-03 0.
      2.24719103e-03 0. 0. 4.49438207e-03 0. 0. 0. 0. 4.49438207e-03 0.
      0. 0. 0. 0. 0. 0. 0. 0. 2.24719103e-03 0. 0. 2.24719103e-03
      2.24719103e-03 2.24719103e-03 0. 0. 2.24719103e-03 0. 0. 0. 0.</_>
    <_>
      0. 0. 0. 2.52525252e-03 0. 2.52525252e-03 0. 0. 0. 0. 0. 0. 0. 0.
      0. 0. 2.52525252e-03 0. 0. 2.52525252e-03 0. 1.26262624e-02 0.
      2.52525252e-03 0. 0. 0. 2.52525252e-03 0. 2.52525252e-03 0. 0. 0.
      0. 2.52525252e-03 5.05050505e-03 0. 0. 2.52525252e-03 0. 0. 0. 0.
      0. 0. 0. 0. 0. 0. 0. 0. 0. 2.52525252e-03 0. 7.57575780e-03
      2.52525252e-03 0. 0. 0. 0. 0. 1.26262624e-02 0. 0. 0.
      2.52525252e-03 0. 0. 0. 0. 0. 5.05050505e-03 0. 2.27272734e-02
      2.52525252e-03 0. 7.57575780e-03 0. 2.52525252e-03 0. 0. 0.
      7.57575780e-03 0. 0. 2.52525252e-03 2.52525252e-03 0. 0. 0.
      2.52525252e-03 0. 0. 0. 0. 7.57575780e-03 0. 0. 0. 0.
      2.52525252e-03 0. 0. 2.52525252e-03 0. 2.52525252e-03 0. 0. 0. 0.
      0. 0. 0. 2.52525252e-03 0. 0. 0. 0. 0. 0. 0. 0. 0. 7.57575780e-03
      0. 0. 0. 0. 0. 0. 0. 0. 0. 0. 2.52525252e-03 0. 0. 2.52525252e-03
      0. 0. 0. 0. 0. 0. 2.02020202e-02 0. 0. 0. 0. 0. 0. 0. 0. 0. 0. 0.
      5.05050505e-03 0. 0. 0. 2.52525252e-03 0. 0. 5.05050505e-03 0. 0.
      0. 0. 2.52525252e-03 2.52525252e-03 0. 0. 0. 0. 0. 2.52525252e-03
      0. 2.52525252e-03 2.52525252e-03 0. 0. 0. 0. 0. 0. 0. 0. 0.
      2.52525252e-03 0. 0. 5.05050505e-03 2.52525252e-03 0. 0. 0. 0. 0.
      0. 0. 0. 0. 0. 0. 0. 0. 0. 0. 0. 0. 5.05050505e-03 0. 0. 0.
      2.52525252e-03 0. 2.52525252e-03 0. 0. 0. 0. 5.05050505e-03 0. 0.
      2.52525252e-03 0. 2.52525252e-03 2.52525252e-03 5.05050505e-03 0.
      0. 0. 0. 2.52525252e-03 0. 2.52525252e-03 2.52525252e-03 0.
      2.52525252e-03 0. 5.05050505e-03 0. 0. 0. 0. 0. 0. 0. 0.
      2.52525252e-03 0. 0. 0. 2.52525252e-03 2.52525252e-03
      2.52525252e-03 0. 0. 0. 0. 0. 0. 5.05050505e-03 0. 0.
      1.01010101e-02 0. 0. 2.52525252e-03 2.52525252e-03 0.
      2.52525252e-03 0. 0. 2.52525252e-03 0. 0. 0. 2.52525252e-03
      2.52525252e-03 5.05050505e-03 0. 0. 0. 0. 0. 0. 0. 2.52525252e-03
      0. 0. 0. 0. 2.52525252e-03 0. 0. 0. 0. 0. 0. 2.52525252e-03 0. 0.
      0. 5.05050505e-03 0. 2.52525252e-03 0. 0. 2.52525252e-03 0. 0.
      2.52525252e-03 7.57575780e-03 7.57575780e-03 0. 2.52525252e-03
      2.52525252e-03 0. 2.52525252e-03 2.52525252e-03 0. 0.
      2.52525252e-03 0. 0. 2.52525252e-03 0. 2.52525252e-03 0. 0.
      7.57575780e-03 0. 0. 0. 0. 0. 0. 0. 0. 0. 0. 1.01010101e-02 0. 0.
      2.52525252e-03 0. 0. 0. 2.52525252e-03 0. 0. 0. 0. 0. 0. 0.
      2.52525252e-03 0. 0. 2.52525252e-03 0. 5.05050505e-03 0. 0. 0. 0.
      5.05050505e-03 0. 0. 0. 0. 0. 0. 0. 5.05050505e-03 0. 0. 0. 0.
      2.52525252e-03 5.05050505e-03 0. 0. 0. 0. 2.52525252e-03 0. 0. 0.
      2.52525252e-03 1.01010101e-02 0. 0. 2.52525252e-03 0.
      2.52525252e-03 0. 0. 0. 0. 0. 0. 0. 0. 0. 0. 2.52525252e-03 0. 0.
      0. 0. 0. 0. 0. 0. 0. 0. 0. 0. 0. 0. 0. 7.57575780e-03 0. 0. 0. 0.
      0. 0. 0. 0. 5.05050505e-03 0. 1.01010101e-02 2.52525252e-03 0.
      2.52525252e-03 0. 5.05050505e-03 0. 0. 0. 0. 2.52525252e-03 0. 0.
      5.05050505e-03 0. 0. 2.52525252e-03 0. 0. 0. 0. 2.52525252e-03 0.
      2.52525252e-03 2.52525252e-03 0. 0. 0. 0. 0. 0. 0. 0.
      2.52525252e-03 0. 7.57575780e-03 2.52525252e-03 0. 0. 0. 0. 0. 0.
      0. 0. 0. 2.52525252e-03 0. 0. 1.51515156e-02 0. 0. 0.
      5.05050505e-03 2.52525252e-03 0. 0. 0. 0. 0. 2.52525252e-03 0. 0.
      0. 2.52525252e-03 0. 1.26262624e-02 0. 0. 0. 0. 0. 0. 0. 0. 0. 0.
      5.05050505e-03 0. 0. 0. 0. 0. 0. 0. 0. 0. 2.52525252e-03 0.
      2.52525252e-03 0. 0. 2.52525252e-03 0. 5.05050505e-03 0. 0. 0. 0.
      0. 0. 0. 7.57575780e-03 0. 0. 0. 0. 0. 0. 0. 0. 2.52525252e-03 0.
      0. 0. 0. 0. 0. 0. 0. 0. 0. 0. 0. 2.52525252e-03 0. 0. 0.
      2.52525252e-03 0. 0. 0. 0. 0. 0. 0. 0. 0. 0. 0. 0. 0. 0.
      2.52525252e-03 2.52525252e-03 0. 2.52525252e-03 0. 0. 0. 0. 0. 0.
      0. 0. 0. 0. 0. 0. 0. 2.52525252e-03 0. 0. 0. 0. 2.52525252e-03 0.
      0. 0. 0. 0. 1.26262624e-02 0. 0. 0. 0. 0. 4.29292917e-02 0. 0. 0.
      0. 0. 0. 0. 0. 0. 7.57575780e-03 0. 0. 0. 1.26262624e-02 0.
      2.52525252e-03 0. 0. 0. 0. 0. 1.51515156e-02 0. 0. 0. 0.
      2.27272734e-02 0. 0. 0. 0. 0. 0. 0. 0. 0. 0. 0. 0. 0.
      1.01010101e-02 2.52525252e-03 0. 0. 2.52525252e-03 2.52525252e-03
      0. 2.52525252e-03 5.05050505e-03 0. 0. 0. 0. 3.03030312e-02
      2.52525252e-03 0. 2.52525252e-03 2.52525252e-03 2.52525252e-03 0.
      0. 2.52525252e-03 0. 0. 5.05050505e-03 0. 2.52525252e-03 0. 0. 0.
      0. 0. 0. 0. 2.52525252e-03 0. 2.52525252e-03 0. 0. 0. 0. 0. 0. 0.
      2.52525252e-03 0. 0. 0. 0. 0. 0. 0. 0. 0. 2.52525252e-03 0. 0. 0.
      2.52525252e-03 5.05050505e-03 2.52525252e-03 2.52525252e-03 0. 0.
      0. 0. 0. 1.01010101e-02 0. 0. 0. 0. 0. 0. 0. 0. 7.57575780e-03 0.
      0. 0. 0. 5.05050505e-03 0. 0. 0. 5.05050505e-03 0. 0. 0. 0. 0. 0.
      0. 0. 0. 0. 1.01010101e-02 0. 0. 0. 0. 0. 0. 0. 0. 0. 0. 0. 0. 0.
      0. 3.53535339e-02 0. 0. 0. 0. 0. 0. 0. 0. 1.01010101e-02
      2.52525252e-03 0. 0. 0. 0. 0. 2.52525252e-03 0. 0. 0. 0. 0. 0.
      1.01010101e-02 0. 0. 0. 0. 0. 2.52525252e-03 0. 0. 2.52525252e-03
      0. 0. 0. 0. 0. 2.52525252e-03 0. 0. 0. 0. 0. 0. 0. 0. 0. 0. 0. 0.
      2.52525252e-03 0. 0. 0. 0. 0. 0. 2.52525252e-03 2.52525252e-03 0.
      0. 0. 0. 5.05050505e-03 0. 2.52525252e-03 0. 0. 0. 0. 0. 0. 0. 0.
      2.52525252e-03 2.52525252e-03 0. 0. 5.05050505e-03 0. 0. 0.
      5.05050505e-03 0. 0. 0. 2.52525252e-03 0. 0. 0. 0. 0. 0. 0. 0. 0.
      0. 0. 0. 0. 0. 0. 0. 0. 0. 2.52525252e-03 0. 0. 0. 0. 0. 0. 0.
      2.52525252e-03 0. 0. 0. 0. 0. 0. 0. 0. 0. 0. 0. 0. 7.57575780e-03
      2.52525252e-03 0. 0. 2.52525252e-03 0. 0. 0. 0. 0. 0. 0. 0. 0. 0.
      0. 5.05050505e-03 0. 0. 0. 2.52525252e-03 0. 0. 0. 0. 0.
      2.52525252e-03 0. 2.52525252e-03 2.52525252e-03 0. 5.05050505e-03
      0. 0. 0. 2.52525252e-03 0. 2.52525252e-03 0. 0. 0. 0. 0. 0. 0. 0.
      0. 0. 0. 0. 2.52525252e-03 0. 0. 0. 0. 5.05050505e-03 0. 0. 0. 0.
      2.52525252e-03 0. 0. 0. 0. 7.57575780e-03 0. 0. 0. 0. 0. 0. 0. 0.
      0. 0. 0. 0. 0. 0. 0. 0. 2.52525252e-03 2.52525252e-03 0. 0. 0. 0.
      0. 2.52525252e-03 0. 0. 0. 0. 0. 0. 0. 0. 0. 0. 2.52525252e-03 0.
      0. 0. 0. 0. 0. 0. 0. 0.</_>
    <_>
      0. 0. 0. 0. 0. 1.84501857e-02 0. 0. 0. 0. 0. 0. 0. 7.38007389e-03
      0. 0. 0. 1.84501847e-03 0. 0. 0. 5.53505542e-03 0. 3.69003695e-03
      0. 0. 0. 0. 0. 3.69003695e-03 1.84501847e-03 0. 0. 0.
      1.84501847e-03 9.22509283e-03 0. 0. 0. 1.84501847e-03 0.
      3.69003695e-03 5.53505542e-03 0. 0. 0. 0. 0. 0. 0. 0.
      1.84501847e-03 0. 0. 3.69003695e-03 3.69003695e-03 7.38007389e-03
      1.84501847e-03 1.84501847e-03 0. 0. 3.69003695e-03 0. 0. 0.
      1.84501847e-03 1.47601478e-02 0. 0. 0. 1.84501847e-03 0. 0.
      1.10701108e-02 5.53505542e-03 1.84501847e-03 0. 0. 3.69003695e-03
      0. 1.84501847e-03 1.84501847e-03 0. 0. 0. 1.84501847e-03
      1.84501847e-03 0. 0. 0. 3.69003695e-03 1.84501847e-03
      1.84501847e-03 0. 0. 3.69003695e-03 0. 0. 0. 0. 1.84501847e-03 0.
      0. 0. 0. 1.84501847e-03 0. 0. 0. 0. 0. 0. 0. 1.66051667e-02 0. 0.
      1.84501847e-03 0. 0. 0. 0. 0. 0. 5.53505542e-03 0. 9.22509283e-03
      0. 5.53505542e-03 0. 3.69003695e-03 0. 0. 0. 0. 0. 0. 0.
      1.84501847e-03 0. 1.84501847e-03 1.84501847e-03 0. 1.84501847e-03
      0. 1.47601478e-02 3.69003695e-03 0. 0. 0. 0. 1.84501847e-03 0. 0.
      1.84501847e-03 0. 0. 3.69003695e-03 0. 0. 0. 0. 0. 0. 0.
      1.84501847e-03 0. 0. 0. 1.84501847e-03 0. 1.84501847e-03 0. 0. 0.
      1.84501847e-03 0. 0. 3.69003695e-03 0. 0. 0. 0. 0. 0. 0. 0. 0. 0.
      0. 0. 1.84501847e-03 1.84501847e-03 0. 0. 0. 1.84501847e-03 0.
      1.84501847e-03 0. 0. 9.22509283e-03 0. 0. 0. 0. 0. 0. 0. 0. 0. 0.
      0. 0. 0. 1.84501847e-03 0. 0. 0. 0. 0. 0. 0. 0. 0. 0. 0.
      3.69003695e-03 0. 0. 0. 0. 0. 0. 0. 0. 0. 7.38007389e-03
      5.53505542e-03 0. 0. 0. 0. 0. 0. 0. 0. 0. 0. 3.69003695e-03 0. 0.
      0. 1.84501847e-03 0. 0. 3.69003695e-03 0. 0. 0. 0. 0. 0. 0. 0. 0.
      1.10701108e-02 0. 0. 9.22509283e-03 0. 0. 3.69003695e-03 0.
      1.84501847e-03 3.69003695e-03 0. 0. 0. 1.84501847e-03 0.
      3.69003695e-03 0. 0. 1.84501847e-03 0. 0. 0. 0. 0. 0. 0.
      1.84501847e-03 0. 1.84501847e-03 0. 0. 0. 0. 0. 1.84501847e-03
      7.38007389e-03 1.84501847e-03 0. 0. 0. 0. 0. 0. 0. 2.58302577e-02
      0. 0. 3.69003695e-03 5.53505542e-03 0. 0. 0. 0. 9.22509283e-03
      1.10701108e-02 7.38007389e-03 0. 0. 0. 0. 0. 3.69003695e-03 0. 0.
      1.84501847e-03 0. 1.84501847e-03 0. 0. 0. 0. 0. 0. 1.84501847e-03
      0. 0. 0. 0. 0. 0. 9.22509283e-03 0. 0. 0. 0. 1.84501847e-03 0. 0.
      1.84501847e-03 0. 1.84501847e-03 0. 0. 0. 0. 1.84501847e-03 0. 0.
      0. 5.53505542e-03 0. 1.84501847e-03 0. 0. 0. 0. 0. 0. 0. 0.
      1.84501847e-03 0. 0. 1.84501847e-03 0. 0. 0. 1.47601478e-02 0. 0.
      0. 0. 0. 0. 0. 1.84501847e-03 1.10701108e-02 0. 0. 1.84501847e-03
      0. 1.84501847e-03 0. 0. 0. 0. 0. 0. 0. 0. 1.84501847e-03 0. 0. 0.
      0. 0. 0. 0. 0. 0. 1.84501847e-03 0. 1.10701108e-02 1.84501847e-03
      0. 0. 0. 0. 3.69003695e-03 0. 0. 0. 7.38007389e-03 0. 0. 0. 0. 0.
      0. 0. 0. 0. 1.84501847e-03 0. 0. 0. 0. 0. 0. 5.53505542e-03 0. 0.
      0. 0. 0. 7.38007389e-03 0. 0. 0. 0. 1.84501847e-03 3.69003695e-03
      0. 1.10701108e-02 3.69003695e-03 0. 0. 3.69003695e-03 0.
      1.84501847e-03 0. 0. 0. 0. 3.69003695e-03 0. 0. 0. 0. 0. 0. 0. 0.
      0. 0. 0. 0. 0. 0. 0. 0. 0. 0. 9.22509283e-03 0. 0. 0. 0. 0.
      3.69003695e-03 0. 1.84501847e-03 0. 0. 0. 0. 0. 0. 0. 0.
      1.84501847e-03 0. 0. 0. 7.38007389e-03 0. 0. 1.84501847e-03
      1.84501847e-03 0. 0. 0. 0. 0. 0. 0. 0. 1.84501847e-03 0. 0. 0. 0.
      1.84501847e-03 7.38007389e-03 1.84501847e-03 0. 0. 0. 0. 0. 0.
      3.69003695e-03 0. 0. 0. 0. 0. 0. 0. 0. 1.84501847e-03 0. 0. 0. 0.
      0. 0. 1.84501847e-03 0. 0. 0. 0. 0. 0. 3.69003695e-03
      3.69003695e-03 1.84501847e-03 0. 0. 0. 0. 0. 0. 0. 0. 0. 0. 0.
      1.84501847e-03 1.84501847e-03 0. 0. 0. 0. 0. 0. 0. 0. 0.
      1.84501847e-03 0. 0. 0. 0. 0. 1.84501847e-03 1.84501857e-02 0. 0.
      1.84501847e-03 0. 0. 0. 0. 1.84501847e-03 0. 0. 0. 0. 0.
      1.84501847e-03 0. 1.84501847e-03 0. 0. 1.84501847e-03
      2.02952027e-02 0. 7.38007389e-03 0. 0. 1.84501847e-03 0. 0. 0. 0.
      3.69003695e-03 0. 0. 0. 0. 0. 0. 0. 0. 3.69003695e-03 0. 0.
      1.66051667e-02 0. 0. 0. 0. 2.02952027e-02 7.38007389e-03 0. 0. 0.
      1.84501847e-03 1.84501847e-03 0. 0. 0. 0. 0. 0. 0. 1.84501847e-03
      0. 0. 0. 0. 0. 0. 0. 1.84501847e-03 0. 0. 0. 0. 1.47601478e-02 0.
      1.84501847e-03 0. 0. 5.53505542e-03 0. 0. 0. 0. 0. 0. 0. 0. 0. 0.
      0. 0. 0. 0. 0. 0. 0. 0. 0. 3.69003695e-03 0. 0. 0. 0. 0.
      1.10701108e-02 0. 1.84501847e-03 3.69003695e-03 0. 0.
      1.84501847e-03 0. 0. 0. 0. 1.84501847e-03 0. 1.84501847e-03 0.
      1.84501847e-03 0. 0. 1.84501847e-03 0. 0. 1.84501847e-03 0. 0. 0.
      0. 9.22509283e-03 1.84501847e-03 3.69003695e-03 0. 1.84501847e-03
      5.53505542e-03 0. 0. 0. 0. 3.69003695e-03 0. 0. 0. 1.84501847e-03
      0. 0. 0. 0. 0. 0. 0. 0. 0. 0. 0. 3.69003695e-03 0. 1.84501847e-03
      0. 0. 0. 3.69003695e-03 0. 1.84501847e-03 0. 0. 0. 0.
      1.84501847e-03 1.84501847e-03 1.66051667e-02 0. 0. 0.
      1.84501847e-03 0. 0. 1.84501847e-03 0. 1.84501847e-03 0. 0. 0. 0.
      0. 0. 0. 0. 0. 1.84501847e-03 1.84501847e-03 0. 0. 5.53505542e-03
      0. 1.84501847e-03 1.84501847e-03 0. 0. 0. 0. 0. 0. 0. 0. 0.
      3.69003695e-03 0. 0. 0. 1.84501847e-03 5.53505542e-03 0. 0.
      7.38007389e-03 0. 0. 0. 0. 1.84501847e-03 0. 1.84501847e-03 0. 0.
      0. 0. 0. 1.84501847e-03 1.10701108e-02 0. 0. 0. 0. 7.38007389e-03
      0. 0. 0. 1.84501847e-03 0. 0. 0. 0. 0. 0. 1.84501847e-03 0.
      3.69003695e-03 0. 1.84501847e-03 0. 0. 0. 0. 3.69003695e-03 0. 0.
      0. 0. 0. 0. 0. 0. 0. 0. 1.84501847e-03 0. 0. 0. 0. 0. 0. 0. 0. 0.
      0. 3.69003695e-03 0. 1.84501847e-03 0. 0. 0. 0. 0. 0. 0. 0.
      1.84501847e-03 0. 0. 0. 3.69003695e-03 0. 0. 0. 0. 0. 0.
      1.84501847e-03 0. 0. 0. 3.69003695e-03 0. 0. 0. 1.84501847e-03 0.
      0. 3.69003695e-03 0. 1.84501847e-03 0. 0. 1.84501847e-03
      3.69003695e-03 0. 0. 1.84501847e-03 0. 0. 0. 0. 0. 1.84501847e-03
      0. 5.53505542e-03 0. 0. 3.69003695e-03 0. 0. 0. 0. 0.
      1.84501847e-03 0. 3.69003695e-03 0. 1.84501847e-03 1.10701108e-02
      0. 0. 1.84501847e-03 0. 0. 0. 0. 0. 1.84501847e-03 0.
      1.84501847e-03 0. 0. 0. 1.84501847e-03 0. 0. 0. 0. 0. 0. 0. 0. 0.
      0. 1.84501847e-03 0. 0. 0. 0. 3.69003695e-03 0. 0. 0.
      5.53505542e-03 0. 0. 0. 1.84501847e-03 0. 0. 0. 0. 0. 0. 0. 0. 0.
      0. 3.69003695e-03 1.84501847e-03 0. 0. 0. 0. 0. 0. 7.38007389e-03
      0. 0. 0. 0. 0. 0. 0. 0. 0.</_>
    <_>
      0. 2.25733640e-03 0. 9.02934559e-03 0. 2.25733640e-03 0.
      2.25733640e-03 0. 0. 0. 0. 0. 4.51467279e-03 0. 2.25733640e-03 0.
      0. 0. 4.51467279e-03 2.25733640e-03 4.51467279e-03 0. 0.
      2.25733640e-03 0. 0. 9.02934559e-03 0. 2.25733640e-03 0. 0. 0. 0.
      6.77200919e-03 0. 0. 0. 0. 0. 0. 0. 0. 0. 0. 2.25733640e-03
      2.25733640e-03 0. 0. 0. 0. 2.25733640e-03 0. 0. 2.25733640e-03 0.
      0. 4.51467279e-03 0. 0. 0. 0. 0. 0. 2.25733640e-03 0.
      2.25733630e-02 0. 0. 4.51467279e-03 0. 0. 0. 1.12866815e-02
      4.51467279e-03 0. 6.77200919e-03 2.25733640e-03 0. 0. 0. 0. 0. 0.
      0. 0. 9.02934559e-03 0. 0. 0. 0. 0. 0. 0. 0. 0. 0. 0. 0. 0. 0. 0.
      4.51467279e-03 4.51467279e-03 0. 6.77200919e-03 2.25733640e-03 0.
      0. 2.25733640e-03 0. 0. 0. 2.25733640e-03 2.25733640e-03 0.
      2.25733640e-03 0. 0. 0. 0. 0. 0. 2.25733640e-03 2.25733640e-03
      2.25733640e-03 4.51467279e-03 0. 2.25733640e-03 4.51467279e-03 0.
      0. 0. 0. 0. 0. 2.25733640e-03 0. 2.25733640e-03 0. 2.25733640e-03
      0. 0. 0. 6.77200919e-03 0. 0. 0. 4.51467279e-03 0. 0. 0. 0. 0. 0.
      6.77200919e-03 0. 0. 2.25733640e-03 0. 0. 4.51467279e-03 0. 0.
      2.25733640e-03 2.25733640e-03 0. 0. 0. 2.25733640e-03 0. 0. 0.
      2.25733640e-03 0. 0. 0. 0. 6.77200919e-03 4.51467279e-03
      2.25733640e-03 0. 0. 0. 0. 0. 0. 0. 0. 0. 0. 2.25733640e-03 0. 0.
      0. 0. 0. 0. 0. 2.25733640e-03 0. 0. 0. 0. 0. 0. 0. 0.
      2.25733640e-03 0. 0. 0. 0. 4.51467279e-03 0. 2.25733640e-03
      2.25733640e-03 0. 0. 4.51467279e-03 0. 0. 0. 4.51467279e-03
      2.25733640e-03 2.25733640e-03 0. 0. 0. 0. 0. 0. 0. 0.
      2.25733640e-03 0. 2.25733640e-03 0. 0. 0. 0. 0. 0. 0.
      2.25733640e-03 2.25733640e-03 0. 0. 0. 4.51467279e-03
      2.25733640e-03 6.77200919e-03 0. 0. 0. 0. 2.25733640e-03 0. 0.
      2.25733640e-03 0. 0. 2.25733640e-03 0. 0. 1.35440184e-02 0. 0. 0.
      0. 0. 4.51467279e-03 0. 0. 0. 0. 4.51467279e-03 0. 2.25733640e-03
      0. 1.80586912e-02 2.25733640e-03 0. 2.25733640e-03 0. 0. 0. 0.
      4.51467279e-03 0. 0. 0. 0. 2.25733640e-03 0. 0. 0. 0.
      2.25733640e-03 0. 2.25733640e-03 1.12866815e-02 0. 0. 0. 0. 0. 0.
      4.51467279e-03 0. 0. 0. 4.51467279e-03 9.02934559e-03
      4.51467279e-03 0. 0. 2.25733640e-03 0. 0. 4.51467279e-03 0. 0. 0.
      0. 0. 1.80586912e-02 4.51467279e-03 0. 0. 0. 0. 0. 0.
      6.77200919e-03 0. 0. 0. 0. 0. 2.25733640e-03 0. 0. 0. 0. 0. 0.
      2.25733640e-03 0. 4.51467279e-03 2.25733640e-03 0. 0. 0. 0. 0. 0.
      0. 2.25733640e-03 0. 0. 4.51467279e-03 0. 0. 0. 0. 2.25733640e-03
      0. 2.25733640e-03 0. 0. 0. 0. 0. 0. 0. 0. 0. 0. 0. 0. 0. 0.
      2.25733640e-03 0. 0. 2.25733640e-03 4.51467279e-03 0. 0.
      2.25733640e-03 0. 0. 0. 2.25733640e-03 0. 0. 0. 0. 0. 0. 0. 0. 0.
      0. 2.25733640e-03 0. 2.25733640e-03 0. 0. 0. 0. 2.25733640e-03 0.
      0. 2.25733640e-03 2.25733640e-03 0. 0. 0. 0. 2.25733640e-03 0.
      4.51467279e-03 4.51467279e-03 0. 0. 0. 4.51467279e-03 0. 0. 0. 0.
      0. 4.51467279e-03 4.51467279e-03 0. 4.51467279e-03 0.
      4.51467279e-03 0. 2.25733640e-03 4.51467279e-03 0. 2.25733640e-03
      0. 0. 0. 0. 2.25733640e-03 0. 0. 0. 0. 0. 2.25733640e-03 0.
      2.25733640e-03 4.51467279e-03 0. 2.25733640e-03 0. 0. 0. 0.
      2.25733640e-03 0. 2.25733640e-03 0. 4.51467279e-03 0.
      2.25733640e-03 0. 0. 0. 6.77200919e-03 2.25733640e-03 0. 0.
      2.25733640e-03 0. 0. 6.77200919e-03 0. 2.25733640e-03 0. 0.
      1.35440184e-02 0. 0. 0. 0. 0. 0. 0. 0. 0. 0. 2.25733640e-03
      2.25733640e-03 9.02934559e-03 4.51467279e-03 0. 0. 0. 0. 0.
      2.25733640e-03 0. 2.25733640e-03 0. 2.25733640e-03 0.
      2.25733640e-03 0. 2.25733640e-03 0. 2.25733640e-03 0.
      2.25733640e-03 0. 0. 0. 1.58013552e-02 0. 2.25733640e-03 0.
      2.25733640e-03 2.25733640e-03 0. 0. 0. 0. 0. 0. 0. 0.
      2.25733640e-03 0. 0. 0. 0. 0. 0. 0. 0. 0. 2.25733640e-03 0. 0. 0.
      0. 0. 0. 0. 0. 0. 2.25733640e-03 0. 0. 0. 0. 1.35440184e-02 0. 0.
      0. 2.25733640e-03 0. 0. 1.35440184e-02 0. 2.25733640e-03 0. 0.
      2.25733640e-03 0. 0. 0. 0. 4.51467279e-03 2.25733640e-03 0. 0. 0.
      0. 0. 0. 0. 0. 0. 2.25733640e-03 2.25733640e-03 0. 2.25733640e-03
      0. 0. 4.51467279e-03 0. 0. 0. 0. 0. 0. 2.25733640e-03 0.
      6.77200919e-03 6.77200919e-03 0. 0. 2.25733640e-03 2.25733640e-03
      1.35440184e-02 0. 0. 0. 2.25733640e-03 2.25733640e-03 0. 0. 0. 0.
      2.25733640e-03 0. 0. 2.25733640e-03 0. 0. 0. 0. 0. 0.
      4.51467279e-03 0. 2.25733640e-03 0. 0. 0. 0. 6.77200919e-03 0.
      2.25733640e-03 4.51467279e-03 0. 0. 0. 0. 0. 0. 2.25733640e-03
      4.51467279e-03 2.25733640e-03 4.51467279e-03 6.77200919e-03 0. 0.
      0. 0. 0. 0. 0. 0. 0. 4.51467279e-03 9.02934559e-03 0.
      4.51467279e-03 0. 2.25733640e-03 0. 0. 2.25733640e-03 0. 0. 0. 0.
      0. 0. 0. 0. 0. 0. 0. 0. 0. 0. 0. 0. 0. 0. 2.25733640e-03 0. 0. 0.
      0. 0. 0. 2.25733640e-03 6.77200919e-03 0. 0. 0. 2.25733640e-03 0.
      2.25733640e-03 0. 0. 0. 0. 0. 0. 0. 0. 0. 0. 2.25733640e-03 0. 0.
      0. 0. 0. 0. 0. 0. 0. 0. 2.25733640e-03 2.25733640e-03
      2.25733640e-03 0. 0. 0. 0. 2.25733640e-03 2.25733640e-03 0. 0.
      2.25733640e-03 4.51467279e-03 0. 0. 0. 2.25733640e-03 0. 0.
      4.51467279e-03 0. 2.25733640e-03 4.51467279e-03 0. 0. 0. 0. 0. 0.
      2.25733640e-03 0. 0. 0. 0. 0. 0. 0. 4.51467279e-03 0. 0.
      2.25733640e-03 2.25733640e-03 0. 0. 0. 0. 0. 2.25733640e-03
      2.25733640e-03 0. 0. 0. 0. 0. 0. 0. 0. 0. 0. 0. 0. 9.02934559e-03
      0. 0. 0. 0. 0. 0. 0. 0. 2.25733640e-03 6.77200919e-03 0. 0.
      4.51467279e-03 0. 0. 0. 2.25733640e-03 2.25733640e-03
      2.25733640e-03 2.25733640e-03 0. 0. 0. 0. 0. 2.25733640e-03 0. 0.
      0. 0. 0. 6.77200919e-03 0. 0. 0. 0. 0. 0. 2.25733640e-03 0.
      2.25733640e-03 0. 0. 0. 0. 0. 2.25733640e-03 0. 2.25733640e-03 0.
      2.25733640e-03 0. 0. 0. 0. 2.25733640e-03 2.25733640e-03
      2.25733640e-03 2.25733640e-03 6.77200919e-03 0. 0. 0. 0. 0. 0. 0.
      0. 0. 0. 0. 0. 0. 0. 0. 0. 0. 0. 2.25733640e-03 0. 0. 0.
      2.25733640e-03 0. 2.25733640e-03 0. 0. 2.25733640e-03 0. 0. 0. 0.
      0. 0. 0. 0. 0. 0. 2.25733640e-03 0. 4.51467279e-03 0. 0.
      4.51467279e-03 2.25733640e-03 2.25733640e-03 0. 2.25733640e-03 0.
      0. 0. 0. 0. 0. 0. 0. 0. 2.25733640e-03 0. 0. 0. 0. 0. 0. 0. 0. 0.
      0. 0. 0. 0. 0. 0. 0. 0. 0. 2.25733640e-03 0. 0. 0. 2.25733640e-03
      0. 4.51467279e-03 0. 0. 0. 0. 2.25733640e-03 0. 2.25733640e-03 0.
      0. 0. 6.77200919e-03 0. 0. 0. 0. 0. 0. 0. 0. 0. 0. 0. 0. 0.
      2.25733640e-03 0. 0. 0. 4.51467279e-03 0. 0. 0. 0. 0. 0. 0. 0.
      2.25733640e-03 0. 2.25733640e-03 0. 0. 2.25733640e-03
      2.25733640e-03 0. 0. 0. 0. 0. 2.25733640e-03 0. 0. 6.77200919e-03
      0. 0. 0. 0. 0. 2.25733640e-03 0. 0. 0. 2.25733640e-03 0. 0. 0. 0.
      0. 0. 0.</_>
    <_>
      0. 0. 0. 9.59232636e-03 2.39808159e-03 4.79616318e-03 0. 0. 0. 0.
      0. 0. 0. 4.79616318e-03 0. 2.39808159e-03 0. 2.39808159e-03 0. 0.
      0. 1.19904075e-02 0. 4.79616318e-03 0. 2.39808159e-03 0.
      2.39808159e-03 0. 9.59232636e-03 0. 2.39808159e-03 0. 0. 0. 0. 0.
      0. 0. 0. 0. 0. 0. 2.39808159e-03 0. 0. 2.39808159e-03 0. 0. 0. 0.
      0. 0. 0. 0. 1.19904075e-02 0. 4.79616318e-03 0. 0. 0. 0.
      7.19424477e-03 4.79616318e-03 0. 4.79616318e-03 4.79616318e-03 0.
      2.39808159e-03 0. 0. 2.39808159e-03 0. 2.39808159e-03 0. 0. 0. 0.
      2.39808159e-03 0. 0. 0. 0. 0. 0. 0. 4.79616318e-03 0. 0. 0. 0. 0.
      4.79616318e-03 0. 4.79616318e-03 0. 0. 0. 0. 0. 0. 0.
      2.39808159e-03 0. 0. 1.43884895e-02 0. 0. 0. 4.79616318e-03 0. 0.
      0. 4.79616318e-03 0. 0. 0. 0. 0. 2.39808159e-03 0. 0. 0.
      7.19424477e-03 0. 0. 2.39808159e-03 4.79616318e-03 2.39808159e-03
      0. 0. 0. 0. 0. 2.39808159e-03 0. 0. 0. 0. 0. 0. 0. 0.
      2.39808159e-03 1.43884895e-02 0. 0. 0. 0. 0. 0. 0. 0. 0. 0. 0. 0.
      0. 0. 0. 0. 0. 0. 2.39808159e-03 0. 0. 0. 0. 0. 0. 0. 0. 0. 0. 0.
      0. 0. 0. 4.79616318e-03 0. 0. 0. 0. 0. 4.79616318e-03 0. 0. 0. 0.
      2.39808159e-03 2.39808159e-03 0. 2.39808159e-03 0. 0. 0. 0. 0. 0.
      0. 0. 0. 0. 0. 0. 0. 0. 0. 0. 0. 0. 0. 0. 4.79616318e-03 0. 0.
      2.39808159e-03 0. 0. 2.39808159e-03 0. 0. 0. 0. 2.39808159e-03 0.
      0. 0. 0. 0. 0. 0. 0. 0. 0. 0. 4.79616318e-03 0. 0. 0. 0. 0. 0. 0.
      0. 0. 0. 0. 0. 0. 2.39808159e-03 4.79616318e-03 2.39808159e-03 0.
      0. 4.79616318e-03 0. 0. 0. 0. 4.79616318e-03 0. 0. 0. 0.
      2.15827338e-02 0. 0. 0. 0. 0. 2.39808159e-03 0. 0. 0. 0. 0. 0.
      9.59232636e-03 0. 2.39808159e-03 0. 0. 0. 0. 0. 0. 0.
      7.19424477e-03 0. 4.79616318e-03 2.39808159e-03 0. 0. 0. 0. 0. 0.
      0. 0. 0. 2.39808159e-03 0. 0. 0. 0. 0. 0. 0. 2.39808159e-03
      2.39808159e-03 0. 0. 0. 0. 0. 2.39808159e-03 0. 1.91846527e-02 0.
      4.79616318e-03 2.39808159e-03 0. 0. 0. 0. 2.63788980e-02 0. 0. 0.
      0. 2.39808159e-03 0. 0. 0. 0. 0. 2.39808159e-03 2.39808159e-03
      2.39808159e-03 0. 0. 7.19424477e-03 0. 0. 2.39808159e-03 0. 0. 0.
      7.19424477e-03 0. 0. 0. 2.39808159e-03 0. 9.59232636e-03 0. 0.
      2.39808159e-03 0. 0. 0. 0. 0. 2.39808159e-03 0. 0. 0. 0. 0. 0. 0.
      0. 0. 7.19424477e-03 2.39808159e-03 0. 2.39808159e-03 0. 0. 0. 0.
      0. 0. 2.39808159e-03 2.39808159e-03 0. 0. 0. 0. 0. 0. 0.
      4.79616318e-03 9.59232636e-03 7.19424477e-03 0. 0. 0. 0. 0. 0. 0.
      0. 0. 1.19904075e-02 0. 0. 0. 0. 0. 0. 0. 0. 0. 0. 0. 0.
      1.19904075e-02 0. 0. 0. 0. 2.39808159e-03 0. 0. 0. 0.
      4.79616318e-03 0. 0. 0. 2.39808159e-03 0. 0. 7.19424477e-03 0.
      2.39808159e-03 0. 7.19424477e-03 0. 0. 0. 0. 0. 0. 0. 0. 0. 0. 0.
      0. 0. 0. 0. 0. 0. 9.59232636e-03 2.39808159e-03 0. 0. 0. 0. 0. 0.
      0. 0. 0. 0. 0. 0. 0. 0. 0. 0. 0. 0. 0. 0. 0. 0. 0. 2.39808159e-03
      0. 2.39808159e-03 0. 0. 2.39808159e-03 4.79616318e-03 0. 0. 0. 0.
      0. 0. 0. 2.39808159e-03 0. 0. 0. 2.39808159e-03 0. 0. 0. 0. 0. 0.
      0. 0. 4.79616318e-03 0. 0. 0. 0. 0. 0. 0. 0. 0. 0. 0. 0. 0. 0. 0.
      0. 0. 0. 4.79616318e-03 0. 0. 2.39808159e-03 0. 0. 7.19424477e-03
      0. 0. 0. 2.39808159e-03 0. 0. 0. 0. 0. 0. 0. 0. 0. 0. 0. 0. 0.
      4.79616318e-03 0. 2.39808159e-03 0. 0. 0. 0. 2.39808159e-03 0.
      2.39808159e-03 1.19904075e-02 0. 0. 0. 0. 0. 2.39808159e-03 0. 0.
      0. 0. 0. 0. 2.39808159e-03 0. 0. 0. 0. 0. 0. 0. 0. 0. 0. 0. 0. 0.
      0. 0. 2.39808159e-03 0. 0. 0. 0. 0. 0. 0. 0. 0. 0. 0. 0. 0. 0. 0.
      2.39808159e-03 0. 0. 0. 2.39808150e-02 0. 0. 4.79616318e-03 0.
      4.79616318e-03 0. 0. 0. 0. 0. 0. 0. 0. 2.63788980e-02 0. 0. 0. 0.
      0. 0. 0. 9.59232636e-03 0. 0. 0. 0. 1.67865716e-02 0. 0. 0. 0. 0.
      0. 2.39808159e-03 0. 0. 0. 0. 0. 0. 4.79616318e-03 0. 0. 0.
      2.39808159e-03 2.39808159e-03 0. 0. 4.79616318e-03 0. 0. 0. 0.
      5.27577959e-02 0. 0. 0. 0. 0. 0. 0. 0. 0. 0. 2.39808159e-03 0.
      2.39808159e-03 0. 0. 0. 0. 2.39808159e-03 0. 0. 2.39808159e-03 0.
      0. 2.39808159e-03 7.19424477e-03 0. 0. 0. 0. 0. 0. 0. 0. 0. 0.
      2.39808159e-03 0. 0. 0. 0. 2.39808159e-03 0. 0. 0. 2.39808159e-03
      1.67865716e-02 0. 0. 1.19904075e-02 0. 2.39808159e-03 0. 0. 0. 0.
      2.39808159e-03 2.39808159e-03 7.19424477e-03 4.79616318e-03
      2.39808159e-03 0. 2.39808159e-03 0. 0. 0. 4.79616318e-03
      2.39808159e-03 4.79616318e-03 0. 0. 0. 0. 0. 0. 0. 0. 0. 0. 0. 0.
      0. 2.39808159e-03 0. 0. 0. 0. 0. 0. 0. 0. 4.79616318e-03 0. 0. 0.
      0. 0. 0. 4.79616318e-03 0. 0. 0. 0. 2.39808159e-03 0. 0. 0.
      3.11750602e-02 0. 0. 0. 0. 0. 0. 0. 0. 0. 0. 4.79616318e-03 0. 0.
      0. 0. 0. 0. 0. 0. 0. 0. 0. 0. 2.39808159e-03 0. 0. 2.39808159e-03
      0. 0. 0. 9.59232636e-03 0. 2.39808159e-03 0. 2.39808159e-03 0. 0.
      0. 0. 2.39808159e-03 0. 0. 0. 0. 0. 0. 0. 0. 4.79616318e-03 0. 0.
      0. 0. 0. 2.39808159e-03 0. 0. 0. 0. 0. 0. 0. 0. 0. 2.39808159e-03
      0. 0. 0. 2.39808159e-03 0. 0. 0. 0. 4.79616318e-03 2.39808159e-03
      0. 0. 0. 0. 0. 0. 0. 0. 0. 2.39808159e-03 0. 0. 2.39808159e-03 0.
      2.39808159e-03 0. 0. 0. 0. 0. 0. 4.79616318e-03 0. 0. 0.
      2.39808159e-03 2.39808159e-03 0. 0. 0. 0. 0. 0. 0. 0. 0. 0. 0. 0.
      0. 0. 0. 0. 2.39808159e-03 0. 0. 2.39808159e-03 0. 0. 0. 0. 0. 0.
      0. 2.39808159e-03 0. 2.39808159e-03 0. 0. 0. 0. 0. 0. 0. 0.
      4.79616318e-03 0. 0. 0. 0. 2.39808159e-03 0. 2.39808159e-03
      4.79616318e-03 0. 0. 0. 0. 0. 0. 0. 0. 0. 0. 0. 0. 0. 0. 0. 0.
      2.39808159e-03 4.79616318e-03 0. 2.39808159e-03 0. 0. 0. 0. 0. 0.
      0. 2.39808159e-03 2.39808159e-03 2.39808159e-03 0. 0.
      2.39808159e-03 0. 0. 0. 0. 0. 0. 0. 0. 0. 0. 0. 0. 2.39808159e-03
      0. 0. 0. 0. 0. 4.79616318e-03 0. 0. 0. 0. 0. 0. 0. 0. 0. 0. 0. 0.
      0. 9.59232636e-03 0. 0. 4.79616318e-03 0. 0. 0. 4.79616318e-03 0.
      0. 0. 0. 0.</_>
    <_>
      0. 0. 1.97628466e-03 0. 0. 0. 5.92885399e-03 0. 3.95256933e-03 0.
      0. 0. 1.97628466e-03 0. 0. 0. 0. 0. 0. 0. 0. 0. 0. 0. 0. 0.
      1.97628466e-03 1.97628466e-03 0. 0. 0. 1.97628466e-03
      1.97628466e-03 0. 0. 0. 0. 0. 0. 0. 0. 0. 0. 0. 0. 0.
      1.18577080e-02 0. 0. 0. 1.97628466e-03 1.97628466e-03 0. 0.
      9.88142379e-03 9.88142379e-03 1.97628466e-03 0. 0. 0. 0. 0.
      1.97628466e-03 0. 0. 0. 3.95256933e-03 0. 5.92885399e-03
      3.95256933e-03 0. 0. 0. 0. 0. 0. 3.95256933e-03 0. 0.
      1.97628466e-03 0. 0. 0. 3.95256933e-03 0. 0. 0. 0. 0. 0.
      5.92885399e-03 0. 0. 0. 3.95256933e-03 0. 1.97628466e-03 0. 0. 0.
      0. 0. 1.97628466e-03 0. 0. 0. 0. 0. 0. 1.97628466e-03 0. 0. 0.
      5.92885399e-03 0. 0. 1.97628466e-03 0. 0. 1.97628466e-03 0. 0. 0.
      1.38339922e-02 3.95256933e-03 0. 1.97628466e-03 0. 7.90513866e-03
      0. 0. 3.95256933e-03 0. 0. 0. 3.95256933e-03 0. 0. 0.
      1.58102773e-02 1.97628466e-03 3.95256933e-03 1.97628466e-03 0.
      3.95256933e-03 0. 0. 1.97628466e-03 0. 0. 1.97628466e-03
      1.97628466e-03 0. 0. 0. 0. 0. 0. 0. 0. 0. 0. 5.92885399e-03 0. 0.
      0. 0. 3.95256933e-03 0. 1.97628466e-03 0. 7.90513866e-03 0. 0. 0.
      0. 0. 0. 0. 0. 0. 0. 0. 0. 0. 0. 0. 0. 3.95256933e-03 0.
      7.90513866e-03 0. 3.95256933e-03 0. 0. 0. 0. 0. 0. 0.
      5.92885399e-03 0. 0. 0. 1.97628466e-03 1.97628466e-03 0. 0. 0. 0.
      3.95256933e-03 0. 0. 1.97628466e-03 1.97628466e-03 0. 0. 0.
      7.90513866e-03 3.95256933e-03 1.97628466e-03 0. 0. 3.95256933e-03
      0. 0. 1.97628466e-03 0. 0. 0. 0. 0. 0. 0. 0. 0. 3.95256933e-03
      5.92885399e-03 0. 5.92885399e-03 0. 0. 0. 0. 0. 0. 0.
      1.97628466e-03 0. 0. 0. 0. 1.97628466e-03 1.97628466e-03
      1.97628466e-03 0. 0. 0. 0. 0. 1.97628466e-03 0. 1.97628466e-03 0.
      0. 1.97628466e-03 0. 0. 0. 0. 0. 0. 0. 0. 0. 0. 0. 1.97628466e-03
      0. 3.95256933e-03 1.97628476e-02 0. 1.97628466e-03 0. 0. 0. 0. 0.
      0. 3.95256933e-03 1.97628466e-03 0. 0. 0. 0. 0. 0. 0. 0. 0.
      1.97628466e-03 1.97628466e-03 0. 1.97628466e-03 0. 0. 0. 0. 0. 0.
      0. 0. 0. 3.95256933e-03 0. 0. 0. 0. 0. 0. 3.95256933e-03
      1.97628466e-03 0. 0. 0. 1.97628466e-03 7.90513866e-03
      3.95256933e-03 0. 0. 0. 0. 0. 0. 0. 1.97628466e-03 1.97628466e-03
      3.95256933e-03 1.97628466e-03 0. 1.97628466e-03 0. 0. 0. 0. 0. 0.
      0. 0. 0. 0. 0. 0. 0. 0. 5.92885399e-03 0. 0. 0. 0. 0. 0. 0. 0. 0.
      0. 3.95256933e-03 0. 0. 0. 0. 0. 0. 0. 1.97628466e-03
      1.97628466e-03 0. 0. 0. 1.97628466e-03 0. 1.97628466e-03 0.
      1.97628466e-03 0. 0. 1.18577080e-02 0. 0. 0. 1.97628466e-03
      9.88142379e-03 0. 0. 1.97628466e-03 0. 1.97628466e-03 0. 0. 0.
      3.95256933e-03 3.95256933e-03 0. 1.97628466e-03 0. 0. 0.
      3.95256933e-03 0. 0. 0. 0. 0. 0. 1.97628466e-03 0. 0. 0.
      1.97628466e-03 0. 0. 0. 0. 3.95256933e-03 5.92885399e-03
      1.97628466e-03 1.97628466e-03 0. 0. 1.97628466e-03 0. 0. 0.
      1.97628466e-03 0. 0. 5.92885399e-03 3.95256933e-03 0. 0. 0. 0. 0.
      0. 0. 0. 0. 0. 0. 0. 0. 0. 0. 0. 1.97628466e-03 0. 0.
      9.88142379e-03 0. 3.95256933e-03 1.97628466e-03 0. 0. 0.
      1.97628466e-03 0. 0. 0. 3.95256933e-03 1.97628466e-03
      3.95256933e-03 0. 0. 0. 1.97628466e-03 0. 0. 0. 0. 0. 0. 0. 0. 0.
      0. 0. 0. 0. 0. 0. 0. 0. 0. 0. 0. 0. 0. 0. 0. 1.97628466e-03
      2.76679844e-02 0. 0. 0. 3.95256933e-03 0. 0. 0. 0. 3.95256933e-03
      0. 1.97628466e-03 0. 1.97628466e-03 0. 0. 0. 1.97628466e-03 0.
      1.97628466e-03 0. 0. 0. 0. 0. 3.95256933e-03 0. 1.97628466e-03 0.
      3.95256933e-03 1.97628466e-03 0. 0. 0. 0. 0. 1.38339922e-02 0. 0.
      5.92885399e-03 0. 1.97628466e-03 1.97628466e-03 0. 0. 0. 0. 0. 0.
      1.97628466e-03 0. 0. 9.88142379e-03 0. 0. 1.97628466e-03 0. 0. 0.
      0. 0. 0. 0. 1.97628466e-03 0. 0. 0. 0. 0. 1.97628466e-03 0. 0.
      1.97628466e-03 0. 0. 1.97628466e-03 0. 0. 0. 0. 0. 0. 0. 0.
      7.90513866e-03 0. 0. 0. 0. 0. 1.97628466e-03 1.97628466e-03 0. 0.
      0. 0. 0. 0. 0. 0. 1.97628466e-03 0. 0. 0. 0. 0. 0. 1.97628466e-03
      0. 0. 0. 3.95256933e-03 0. 0. 1.97628466e-03 0. 1.97628466e-03 0.
      0. 0. 0. 0. 3.95256933e-03 0. 7.90513866e-03 3.95256933e-03
      1.97628466e-03 0. 0. 0. 0. 0. 0. 1.97628466e-03 0. 5.92885399e-03
      3.95256933e-03 0. 3.95256933e-03 3.95256933e-03 1.97628466e-03
      1.97628466e-03 0. 0. 0. 0. 0. 0. 0. 0. 0. 3.95256933e-03
      1.97628466e-03 0. 1.97628466e-03 0. 0. 0. 0. 0. 1.97628466e-03 0.
      0. 1.97628466e-03 0. 5.92885399e-03 1.97628466e-03 1.18577080e-02
      0. 0. 0. 0. 3.95256933e-03 3.95256933e-03 1.97628466e-03 0. 0. 0.
      1.97628466e-03 0. 0. 0. 0. 0. 0. 3.95256933e-03 1.97628466e-03
      1.97628466e-03 0. 0. 1.97628466e-03 0. 0. 1.97628466e-03 0. 0.
      1.97628466e-03 0. 1.97628466e-03 0. 0. 3.95256933e-03 0. 0.
      1.97628466e-03 1.97628466e-03 0. 0. 0. 1.97628466e-03
      1.97628466e-03 0. 0. 0. 3.95256933e-03 0. 0. 0. 0. 0.
      1.97628466e-03 0. 0. 0. 0. 9.88142379e-03 0. 5.92885399e-03 0.
      1.97628466e-03 1.97628466e-03 1.97628466e-03 0. 1.97628466e-03 0.
      0. 0. 1.97628466e-03 0. 0. 0. 0. 0. 0. 1.97628466e-03 0. 0.
      1.97628466e-03 0. 0. 0. 0. 0. 1.97628466e-03 1.97628466e-03 0. 0.
      1.97628466e-03 0. 0. 3.95256933e-03 0. 0. 0. 0. 0. 1.97628466e-03
      0. 1.97628466e-03 0. 3.95256933e-03 1.97628466e-03 0.
      1.97628466e-03 0. 0. 0. 1.97628466e-03 0. 3.95256933e-03 0. 0. 0.
      0. 0. 3.95256933e-03 0. 0. 0. 0. 0. 0. 0. 0. 0. 0. 0. 0. 0.
      1.77865624e-02 0. 0. 0. 1.18577080e-02 0. 1.97628466e-03 0. 0. 0.
      0. 0. 0. 3.95256933e-03 0. 0. 3.95256933e-03 0. 0. 0. 0. 0. 0. 0.
      0. 0. 0. 0. 0. 0. 0. 0. 0. 3.95256933e-03 0. 0. 0. 3.95256933e-03
      3.35968398e-02 0. 0. 0. 0. 0. 0. 0. 0. 0. 0. 0. 3.95256933e-03 0.
      0. 0. 0. 5.92885399e-03 1.97628466e-03 3.95256933e-03 0. 0. 0. 0.
      0. 0. 0. 0. 0. 0. 0. 0. 1.97628466e-03 0. 1.97628466e-03
      1.97628466e-03 0. 0. 0. 1.97628466e-03 0. 0. 0. 0. 5.92885399e-03
      0. 1.18577080e-02 0. 0. 0. 1.97628466e-03 0. 0. 0. 0. 0. 0. 0. 0.
      0. 0. 0. 0. 1.97628466e-03 0. 0. 0. 0. 0. 0. 3.95256933e-03 0. 0.
      0. 0. 3.95256933e-03 0. 0. 0. 0. 0. 5.92885399e-03 3.95256933e-03
      1.97628466e-03 0. 3.95256933e-03 0. 0. 0. 0. 0. 0. 3.95256933e-03
      0. 0. 0. 1.97628466e-03 1.97628466e-03 0. 0. 0. 0. 5.92885399e-03
      1.97628466e-03 0. 1.97628466e-03 0. 0. 0. 0. 0. 0. 0. 0.
      1.97628466e-03 0. 0. 1.97628466e-03 0. 0. 0. 1.18577080e-02 0. 0.
      0. 0. 0. 0. 0. 0. 0. 0. 3.95256933e-03 0. 1.97628466e-03 0. 0. 0.
      0. 1.97628466e-03 1.97628466e-03 1.97628466e-03 0. 0. 0. 0. 0.
      1.97628466e-03 0. 0. 3.95256933e-03 0. 0. 0. 0. 3.95256933e-03 0.
      0. 0. 0. 1.97628466e-03 0. 3.95256933e-03</_>
    <_>
      0. 0. 0. 0. 0. 1.92926042e-02 0. 0. 0. 0. 0. 0. 0. 0. 0. 0. 0. 0.
      3.21543403e-03 0. 0. 0. 0. 3.21543403e-03 0. 0. 3.21543403e-03
      3.21543403e-03 0. 0. 0. 0. 0. 3.21543403e-03 0. 0. 0. 0. 0. 0. 0.
      3.21543403e-03 0. 0. 0. 0. 3.21543403e-03 0. 0. 0. 0. 0. 0. 0.
      1.76848873e-01 0. 1.60771701e-02 0. 0. 0. 0. 0. 0. 0. 0. 0.
      3.21543403e-03 0. 0. 0. 0. 0. 0. 0. 0. 0. 3.85852084e-02 0. 0. 0.
      0. 0. 0. 0. 0. 0. 0. 0. 3.21543403e-03 0. 3.21543403e-03 0. 0. 0.
      0. 0. 1.28617361e-02 0. 0. 0. 0. 0. 0. 0. 0. 0. 0. 0. 0. 0. 0. 0.
      0. 2.25080382e-02 3.21543403e-03 0. 9.64630209e-03 0. 0. 0. 0. 0.
      0. 3.21543403e-03 0. 3.21543403e-03 0. 0. 0. 0. 0. 0. 0. 0.
      3.21543403e-03 0. 0. 3.21543403e-03 0. 0. 0. 0. 0. 0.
      1.28617361e-02 0. 0. 0. 0. 0. 0. 0. 0. 0. 0. 0. 0. 0.
      6.43086806e-03 0. 0. 0. 0. 0. 3.21543403e-03 3.21543403e-03 0. 0.
      0. 0. 0. 0. 0. 0. 0. 0. 0. 6.43086806e-03 0. 0. 0. 0. 0. 0. 0. 0.
      0. 0. 0. 3.21543403e-03 0. 3.21543403e-03 0. 0. 0. 0. 0. 0. 0. 0.
      0. 0. 0. 0. 0. 6.43086806e-03 0. 0. 0. 0. 0. 0. 0. 0. 0. 0. 0. 0.
      0. 3.21543403e-03 0. 0. 0. 0. 0. 0. 0. 0. 0. 0. 0. 0.
      3.21543403e-03 0. 0. 0. 0. 0. 0. 3.21543403e-03 0. 0. 0. 0. 0.
      3.21543403e-03 0. 0. 0. 0. 3.21543403e-03 0. 0. 3.21543403e-03 0.
      0. 0. 0. 0. 0. 0. 0. 0. 0. 0. 0. 0. 0. 0. 0. 0. 0. 0. 0. 0. 0. 0.
      0. 0. 0. 0. 0. 0. 0. 0. 0. 0. 0. 9.64630209e-03 0. 0. 0. 0. 0. 0.
      0. 0. 0. 0. 0. 3.21543403e-03 0. 0. 0. 0. 0. 3.21543403e-03 0. 0.
      6.43086806e-03 0. 0. 0. 0. 0. 0. 0. 0. 0. 0. 6.43086806e-03
      3.21543403e-03 0. 0. 0. 0. 0. 3.21543403e-03 3.21543403e-03 0. 0.
      0. 0. 3.21543403e-03 0. 0. 0. 0. 0. 0. 0. 0. 0. 0. 0. 0. 0. 0. 0.
      3.21543403e-03 0. 0. 0. 0. 0. 0. 0. 0. 0. 0. 0. 0. 1.28617361e-02
      3.21543403e-03 0. 0. 0. 0. 0. 0. 0. 6.43086806e-03 0. 0. 0. 0. 0.
      3.21543403e-03 0. 0. 0. 3.21543403e-03 6.43086806e-03 0. 0. 0.
      3.21543403e-03 0. 0. 0. 0. 4.82315123e-02 0. 3.21543403e-03 0. 0.
      0. 0. 3.21543403e-03 0. 0. 0. 0. 0. 0. 0. 0. 3.21543403e-03 0. 0.
      0. 0. 0. 0. 0. 3.21543403e-03 0. 0. 0. 0. 0. 3.21543403e-03 0. 0.
      3.21543403e-03 0. 0. 0. 0. 0. 0. 0. 3.21543403e-03 0. 0. 0. 0. 0.
      0. 0. 0. 0. 0. 0. 0. 0. 0. 0. 0. 0. 0. 0. 0. 0. 1.28617361e-02 0.
      0. 0. 0. 0. 0. 0. 0. 0. 0. 0. 0. 0. 0. 0. 0. 0. 0. 0. 0. 0. 0. 0.
      0. 0. 0. 0. 0. 0. 0. 0. 0. 0. 6.43086806e-03 0. 0. 0. 0. 0. 0. 0.
      0. 0. 0. 0. 3.21543403e-03 0. 0. 0. 0. 0. 0. 0. 0. 0. 0. 0. 0. 0.
      0. 0. 0. 0. 0. 0. 0. 0. 0. 0. 0. 0. 0. 0. 0. 0. 0. 0. 0. 0.
      3.21543403e-03 0. 4.50160764e-02 0. 0. 0. 0. 0. 0. 0. 0. 0. 0. 0.
      0. 0. 0. 0. 3.21543403e-03 0. 0. 0. 0. 0. 0. 0. 3.21543403e-03 0.
      3.21543403e-03 0. 0. 0. 1.28617361e-02 0. 0. 0. 0. 0. 0. 0. 0. 0.
      0. 0. 0. 0. 0. 0. 0. 0. 0. 0. 0. 0. 0. 0. 0. 0. 0. 0. 0. 0. 0. 0.
      6.43086806e-03 0. 0. 0. 0. 0. 0. 0. 0. 0. 0. 0. 0. 3.21543403e-03
      0. 9.64630209e-03 0. 0. 0. 0. 0. 0. 0. 0. 0. 0. 0. 0. 0. 0. 0. 0.
      0. 0. 0. 0. 0. 0. 0. 0. 9.64630209e-03 0. 0. 0. 0. 0. 0. 0. 0. 0.
      0. 0. 0. 0. 0. 0. 0. 0. 0. 3.21543403e-03 3.21543403e-03 0. 0. 0.
      0. 0. 0. 6.43086806e-03 0. 0. 0. 0. 0. 0. 0. 0. 0. 0. 0. 0. 0.
      3.21543403e-03 3.21543403e-03 0. 0. 0. 0. 0. 0. 0. 0. 0. 0.
      3.21543403e-03 0. 0. 3.53697762e-02 0. 2.25080382e-02 0. 0. 0. 0.
      0. 0. 0. 0. 0. 0. 0. 0. 3.21543403e-03 0. 0. 0. 0. 0. 0. 0. 0. 0.
      0. 0. 0. 0. 0. 0. 0. 0. 0. 0. 0. 0. 0. 0. 0. 0. 0. 0. 0. 0. 0. 0.
      0. 0. 0. 0. 0. 0. 0. 0. 0. 0. 3.21543403e-03 0. 0. 3.21543403e-03
      0. 0. 0. 0. 0. 0. 0. 0. 1.28617361e-02 0. 0. 0. 0. 0. 0. 0.
      6.43086806e-03 0. 0. 0. 0. 0. 0. 0. 0. 0. 0. 0. 0. 0. 0.
      3.21543403e-03 0. 0. 0. 0. 0. 0. 0. 0. 0. 0. 0. 0. 3.21543403e-03
      0. 0. 0. 9.32475850e-02 0. 0. 0. 0. 0. 0. 0. 0. 0. 0.
      3.21543403e-03 0. 0. 0. 0. 0. 0. 3.21543403e-03 0. 0.
      3.21543403e-03 0. 0. 0. 0. 0. 0. 0. 0. 0. 0. 0. 0. 0. 0.
      3.21543403e-03 0. 0. 0. 0. 0. 0. 1.28617361e-02 0. 0. 0. 0. 0. 0.
      3.21543403e-03 3.21543403e-03 0. 0. 0. 0. 3.21543403e-03 0. 0. 0.
      0. 0. 0. 0. 0. 0. 0. 0. 3.21543403e-03 0. 0. 0. 0. 0. 0. 0. 0. 0.
      0. 0. 0. 0. 0. 0. 0. 0. 0. 0. 0. 0. 0. 0. 3.21543403e-03 0. 0. 0.
      0. 0. 0. 0. 0. 0. 0. 0. 0. 0. 0. 0. 0. 0. 0. 0. 0. 0. 0. 0.
      6.43086806e-03 0. 0. 0. 0. 0. 0. 0. 0. 0. 0. 0. 0. 0. 0. 0. 0. 0.
      0. 0. 6.43086806e-03 0. 0. 0. 0. 0. 0. 0. 0. 0. 0. 0. 0. 0. 0. 0.
      0. 0. 0. 0. 0. 0. 0. 0. 0. 0. 0. 0. 0. 3.21543403e-03 0. 0.
      3.21543403e-03 0. 0. 0. 0. 0. 0. 0. 0. 0. 0. 0. 0. 0. 0. 0.
      3.85852084e-02 0. 0. 0. 0. 3.21543403e-03 0. 0. 0. 0.
      3.21543403e-03 0. 0.</_>
    <_>
      0. 0. 0. 0. 0. 0. 2.12418307e-02 0. 0. 0. 0. 0. 0. 8.16993508e-03
      0. 3.26797389e-03 1.63398695e-03 0. 0. 1.63398695e-03 0. 0. 0. 0.
      0. 0. 0. 0. 0. 0. 0. 0. 0. 0. 1.63398695e-03 1.63398695e-03 0. 0.
      0. 0. 1.63398695e-03 0. 0. 0. 1.63398695e-03 1.63398695e-03
      1.63398695e-03 0. 0. 1.47058824e-02 0. 0. 0. 0. 1.63398695e-03 0.
      0. 1.63398695e-03 0. 1.63398695e-03 0. 0. 6.53594779e-03 0. 0. 0.
      0. 0. 3.26797389e-03 0. 1.30718956e-02 0. 0. 1.63398695e-03 0. 0.
      0. 0. 3.26797389e-03 0. 0. 4.90196096e-03 0. 0. 0. 3.26797389e-03
      0. 0. 1.63398695e-03 7.84313753e-02 1.63398695e-03 1.63398695e-03
      1.63398695e-03 0. 3.26797389e-03 0. 3.26797389e-03 0. 0. 0.
      1.63398695e-03 0. 0. 3.26797389e-03 1.63398695e-03 0. 0. 0. 0. 0.
      0. 1.63398695e-03 1.63398695e-03 1.63398695e-03 0. 3.26797389e-03
      0. 0. 0. 0. 0. 0. 0. 3.26797389e-03 3.26797389e-03 0.
      1.63398695e-03 3.26797389e-03 0. 6.53594779e-03 1.63398695e-03
      8.16993508e-03 0. 0. 1.63398695e-03 1.63398695e-03 3.26797389e-03
      0. 3.26797389e-03 0. 0. 0. 0. 0. 0. 1.63398695e-03 1.63398695e-03
      0. 1.63398695e-03 1.63398695e-03 0. 0. 0. 0. 0. 0. 0. 0. 0.
      3.26797389e-03 0. 0. 0. 1.63398695e-03 0. 4.90196096e-03 0. 0. 0.
      1.63398695e-03 0. 0. 0. 0. 0. 0. 0. 0. 0. 0. 1.63398695e-03 0. 0.
      0. 0. 1.63398695e-03 0. 3.26797389e-03 6.53594779e-03 0.
      1.63398695e-03 0. 0. 0. 0. 0. 0. 0. 0. 1.63398695e-03
      1.63398695e-03 1.63398695e-03 6.53594779e-03 0. 0. 0. 0. 0.
      1.63398695e-03 3.26797389e-03 0. 0. 1.63398695e-03 1.63398695e-03
      0. 0. 0. 4.90196096e-03 0. 0. 0. 0. 0. 0. 0. 0. 0. 1.63398695e-03
      0. 1.63398695e-03 0. 3.26797389e-03 0. 0. 1.63398695e-03 0. 0. 0.
      0. 0. 0. 4.90196096e-03 0. 0. 0. 0. 8.16993508e-03 1.63398695e-03
      3.26797389e-03 0. 0. 0. 0. 1.63398695e-03 3.26797389e-03 0.
      1.63398695e-03 0. 0. 0. 4.90196096e-03 0. 0. 0. 0. 9.80392192e-03
      0. 0. 1.63398695e-03 0. 1.63398695e-03 0. 0. 0. 0. 3.26797389e-03
      0. 0. 0. 0. 4.90196096e-03 0. 0. 0. 0. 1.63398695e-03 0. 0. 0. 0.
      0. 0. 0. 0. 0. 0. 0. 0. 0. 0. 4.90196096e-03 0. 3.26797389e-03 0.
      0. 1.63398695e-03 1.63398695e-03 0. 1.63398695e-03 0. 0. 0. 0. 0.
      3.26797389e-03 0. 0. 1.63398695e-03 0. 1.63398695e-03
      1.63398695e-03 0. 1.63398695e-03 0. 0. 1.63398695e-03
      8.16993508e-03 8.16993508e-03 0. 1.63398695e-03 1.63398695e-03
      1.63398695e-03 0. 1.63398695e-03 0. 0. 0. 1.14379087e-02 0. 0. 0.
      0. 0. 1.63398695e-03 0. 0. 0. 0. 0. 0. 1.63398695e-03 0. 0. 0.
      1.63398695e-03 3.26797389e-03 1.63398695e-03 0. 0. 0. 0. 0. 0. 0.
      3.26797389e-03 0. 0. 0. 0. 0. 0. 0. 0. 0. 4.90196096e-03 0. 0.
      1.63398695e-03 0. 0. 0. 0. 0. 0. 1.63398695e-03 0. 0. 0. 0. 0.
      1.63398695e-03 6.53594779e-03 0. 1.63398695e-03 0. 0. 0. 0. 0.
      1.63398695e-03 0. 0. 0. 0. 0. 0. 3.26797389e-03 0. 0. 0. 0.
      1.63398695e-03 1.63398695e-03 0. 0. 1.63398695e-03 0. 0.
      6.53594779e-03 0. 1.63398695e-03 3.26797389e-03 0. 0. 0. 0.
      1.63398695e-03 0. 1.63398695e-03 0. 0. 0. 0. 0. 0. 0. 0. 0. 0. 0.
      0. 0. 0. 3.26797389e-03 0. 0. 0. 1.63398695e-03 0. 0. 0. 0.
      4.90196096e-03 1.63398695e-03 0. 0. 0. 6.53594779e-03
      3.26797389e-03 1.63398695e-03 1.63398695e-03 0. 1.63398695e-03
      3.26797389e-03 0. 0. 0. 0. 0. 0. 1.63398695e-03 0. 0. 0.
      1.63398695e-03 0. 1.63398695e-03 0. 0. 0. 3.26797389e-03 0.
      1.63398695e-03 0. 9.80392192e-03 0. 0. 0. 0. 1.63398695e-03
      1.63398695e-03 0. 1.63398695e-03 1.63398695e-03 1.63398695e-03
      1.63398695e-03 0. 0. 0. 0. 0. 0. 3.26797389e-03 1.63398695e-03
      1.30718956e-02 1.63398695e-03 0. 0. 0. 9.80392192e-03 0. 0. 0. 0.
      0. 1.63398695e-03 0. 1.63398695e-03 0. 0. 0. 0. 1.63398695e-03 0.
      0. 0. 0. 0. 0. 0. 0. 0. 0. 0. 0. 0. 1.63398695e-03 1.63398695e-03
      1.63398695e-03 0. 0. 0. 0. 0. 0. 0. 0. 0. 0. 0. 0. 0.
      3.26797389e-03 0. 0. 0. 0. 0. 0. 0. 0. 0. 0. 1.47058824e-02 0. 0.
      1.63398695e-03 0. 0. 0. 3.26797389e-03 3.26797389e-03
      1.63398695e-03 0. 0. 4.90196096e-03 1.63398695e-03 0.
      6.53594779e-03 0. 0. 3.26797389e-03 0. 0. 0. 0. 1.63398695e-03 0.
      0. 0. 0. 0. 1.63398695e-03 0. 0. 0. 0. 0. 0. 0. 1.63398695e-03 0.
      0. 0. 0. 0. 0. 0. 1.63398695e-03 0. 0. 0. 0. 1.63398695e-03 0. 0.
      0. 0. 1.63398695e-03 0. 1.63398695e-03 0. 1.63398695e-03 0.
      6.53594779e-03 1.63398695e-03 0. 0. 0. 0. 0. 0. 0. 3.26797389e-03
      1.63398695e-03 0. 0. 0. 0. 0. 0. 0. 0. 0. 0. 0. 1.63398695e-03 0.
      3.26797389e-03 0. 0. 1.63398695e-03 0. 0. 0. 0. 1.47058824e-02 0.
      0. 9.80392192e-03 1.63398695e-03 0. 0. 0. 0. 1.63398695e-03 0.
      1.63398695e-03 0. 3.26797389e-03 1.63398695e-03 0. 0. 0. 0. 0. 0.
      0. 4.90196096e-03 0. 0. 1.63398695e-03 0. 8.16993508e-03 0. 0. 0.
      0. 0. 1.63398695e-03 1.63398695e-03 0. 0. 0. 0. 0. 1.63398695e-03
      0. 4.90196096e-03 0. 0. 3.26797389e-03 0. 0. 0. 3.26797389e-03 0.
      0. 0. 2.61437912e-02 0. 1.63398695e-03 0. 0. 1.63398695e-03 0. 0.
      4.90196096e-03 1.63398695e-03 1.63398695e-03 0. 0. 0.
      3.26797389e-03 1.63398695e-03 8.16993508e-03 0. 0. 0. 0. 0. 0. 0.
      0. 0. 0. 0. 8.16993508e-03 1.63398695e-03 0. 0. 0. 0. 0.
      1.63398695e-03 0. 0. 1.63398695e-03 0. 0. 1.63398695e-03 0. 0.
      1.63398695e-03 0. 0. 1.63398695e-03 0. 0. 1.63398695e-03 0. 0. 0.
      0. 0. 0. 0. 1.63398695e-03 0. 0. 0. 1.63398695e-03 1.63398695e-03
      0. 0. 0. 3.26797389e-03 0. 1.63398695e-03 0. 0. 0. 1.63398695e-03
      1.30718956e-02 0. 0. 1.63398695e-03 0. 0. 0. 0. 1.63398695e-03
      1.63398695e-03 0. 1.63398695e-03 0. 0. 3.26797389e-03 0.
      4.90196096e-03 0. 0. 0. 1.63398695e-03 0. 1.63398695e-03 0. 0. 0.
      0. 0. 0. 0. 0. 0. 0. 0. 0. 0. 1.63398695e-03 1.63398695e-03 0. 0.
      0. 0. 0. 0. 1.63398695e-03 0. 0. 1.63398695e-03 0. 0. 0. 0. 0. 0.
      0. 3.26797389e-03 0. 0. 0. 0. 0. 0. 0. 1.63398695e-03 0. 0. 0.
      9.80392192e-03 0. 1.63398695e-03 3.26797389e-03 0. 0. 0.
      1.63398695e-03 0. 0. 0. 0. 3.26797389e-03 0. 0. 0. 0. 0. 0.
      1.63398695e-03 0. 1.63398695e-03 1.63398695e-03 8.16993508e-03 0.
      1.63398695e-03 1.63398695e-03 6.53594779e-03 0. 0. 0.
      3.26797389e-03 1.63398695e-03 0. 1.63398695e-03 0. 0. 0. 0. 0. 0.
      4.90196096e-03 0. 0. 0. 0. 0. 1.63398695e-03 0. 0. 0. 0.
      1.63398695e-03 0. 3.26797389e-03 0. 0. 0. 0. 0. 0. 0. 0.
      1.63398695e-03 0. 0. 0. 0. 0. 0. 0. 0. 0. 0. 3.10457516e-02 0.
      1.63398695e-03 1.63398695e-03 0. 1.63398695e-03 0. 0.
      1.63398695e-03 0. 0. 0. 1.63398695e-03 0. 0. 0. 0. 0.
      1.63398695e-03 0. 0. 0. 0. 0. 1.63398695e-03 1.63398695e-03 0. 0.
      0. 1.63398695e-03 0. 0. 0. 0. 1.30718956e-02 0. 0. 0. 0. 0. 0. 0.
      0. 0. 0. 1.63398695e-03 0. 1.63398695e-03 0. 0. 0. 0.
      1.63398695e-03 0. 2.12418307e-02 1.63398695e-03 0. 0. 0. 0. 0. 0.
      0. 1.63398695e-03 0. 0. 1.63398695e-03 0. 1.63398695e-03 0.
      3.26797389e-03 0. 0. 0. 0. 1.63398695e-03</_>
    <_>
      4.54545440e-03 0. 0. 0. 0. 0. 0. 2.27272720e-03 0. 2.27272720e-03
      0. 0. 0. 0. 2.27272720e-03 0. 0. 0. 0. 2.27272720e-03 0. 0. 0. 0.
      0. 0. 0. 0. 0. 0. 0. 0. 0. 4.54545440e-03 0. 6.81818184e-03 0. 0.
      0. 0. 0. 0. 9.09090880e-03 0. 0. 0. 4.54545440e-03 0. 0.
      2.27272720e-03 2.27272720e-03 2.27272720e-03 0. 0. 2.27272720e-03
      0. 0. 0. 0. 4.54545440e-03 0. 0. 2.27272720e-03 0. 0. 0. 0. 0.
      2.27272720e-03 0. 0. 2.27272720e-03 0. 9.09090880e-03 0. 0. 0.
      2.27272720e-03 9.09090880e-03 0. 0. 4.54545440e-03 0. 0. 0. 0. 0.
      0. 6.81818184e-03 0. 0. 2.27272720e-03 4.54545440e-03 0. 0. 0.
      2.27272720e-03 0. 0. 2.27272720e-03 0. 0. 0. 0. 0. 0. 0. 0.
      2.27272720e-03 0. 0. 0. 2.27272720e-03 2.27272720e-03
      2.27272720e-03 0. 2.27272720e-03 0. 0. 0. 0. 0. 0. 1.36363637e-02
      0. 2.27272720e-03 0. 0. 0. 0. 0. 0. 0. 0. 0. 0. 0. 0.
      2.27272720e-03 0. 0. 0. 0. 0. 4.54545440e-03 0. 2.27272720e-03 0.
      0. 0. 2.27272720e-03 0. 0. 0. 0. 0. 6.81818184e-03 0.
      2.27272720e-03 2.27272720e-03 0. 0. 0. 0. 0. 4.54545440e-03
      2.27272720e-03 0. 0. 0. 0. 0. 0. 0. 0. 0. 2.27272720e-03
      4.54545440e-03 0. 0. 0. 0. 0. 4.54545440e-03 2.27272720e-03 0. 0.
      6.81818184e-03 2.27272720e-03 0. 0. 0. 0. 0. 0. 4.54545440e-03 0.
      0. 0. 0. 0. 2.27272720e-03 0. 0. 0. 6.81818184e-03 0. 0. 0. 0.
      1.13636358e-02 0. 0. 0. 0. 0. 0. 2.27272720e-03 4.54545440e-03 0.
      0. 6.81818184e-03 0. 4.54545440e-03 0. 0. 0. 2.27272720e-03 0. 0.
      0. 0. 2.27272720e-03 0. 0. 0. 0. 0. 0. 0. 0. 0. 0. 0. 0.
      2.27272720e-03 0. 0. 0. 0. 0. 0. 2.27272720e-03 0. 0. 0. 0. 0. 0.
      0. 2.27272720e-03 0. 2.27272720e-03 0. 0. 0. 0. 0. 0. 0. 0. 0. 0.
      0. 0. 0. 0. 0. 2.27272720e-03 0. 0. 0. 2.27272720e-03 0.
      2.27272720e-03 0. 9.09090880e-03 0. 0. 0. 0. 2.27272720e-03 0. 0.
      0. 0. 2.27272720e-03 0. 0. 0. 2.27272720e-03 0. 0. 4.54545440e-03
      0. 0. 4.54545440e-03 0. 0. 2.27272720e-03 2.27272720e-03 0.
      2.27272720e-03 0. 2.27272720e-03 0. 0. 0. 6.81818184e-03 0. 0. 0.
      0. 0. 0. 6.81818184e-03 2.27272720e-03 0. 0. 4.54545440e-03
      2.27272720e-03 0. 0. 0. 0. 0. 0. 0. 0. 0. 0. 0. 0. 0. 0.
      2.27272720e-03 0. 0. 0. 0. 0. 0. 0. 0. 0. 0. 0. 0. 0.
      2.27272720e-03 2.27272720e-03 0. 0. 0. 0. 0. 0. 0. 0.
      2.27272720e-03 0. 2.27272720e-03 0. 0. 0. 0. 0. 0. 4.54545440e-03
      0. 0. 2.27272720e-03 1.36363637e-02 0. 2.27272720e-03 0. 0.
      4.54545440e-03 0. 0. 0. 2.27272720e-03 0. 0. 0. 4.54545440e-03 0.
      0. 2.27272720e-03 0. 0. 0. 0. 0. 0. 0. 0. 2.27272720e-03 0. 0. 0.
      0. 0. 4.54545440e-03 0. 0. 0. 0. 2.27272720e-03 0. 2.27272720e-03
      0. 0. 0. 0. 4.54545440e-03 6.81818184e-03 0. 0. 0. 2.27272720e-03
      0. 0. 0. 0. 2.27272720e-03 2.27272720e-03 0. 0. 0. 0. 0. 0.
      4.54545440e-03 0. 0. 0. 0. 0. 0. 0. 0. 0. 2.27272720e-03 0.
      2.27272720e-03 0. 2.27272720e-03 0. 0. 1.13636358e-02 0. 0. 0.
      6.81818184e-03 0. 0. 0. 0. 0. 0. 0. 0. 0. 0. 6.81818184e-03 0.
      2.27272720e-03 0. 0. 0. 2.27272720e-03 2.27272720e-03 0. 0. 0. 0.
      0. 2.27272720e-03 0. 0. 0. 0. 0. 0. 0. 2.27272720e-03 0.
      2.27272720e-03 0. 0. 0. 2.27272720e-03 0. 1.36363637e-02 0. 0. 0.
      0. 0. 0. 0. 0. 4.54545440e-03 0. 0. 0. 0. 0. 2.27272720e-03 0. 0.
      1.81818176e-02 0. 0. 0. 0. 2.27272720e-03 6.81818184e-03
      2.27272720e-03 4.54545440e-03 0. 6.81818184e-03 2.27272720e-03 0.
      0. 1.13636358e-02 0. 0. 2.27272720e-03 0. 2.27272720e-03 0. 0. 0.
      0. 0. 4.54545440e-03 6.81818184e-03 2.27272720e-03 0. 0. 0. 0. 0.
      2.27272720e-03 2.27272720e-03 0. 0. 0. 0. 0. 0. 0. 0. 0. 0.
      4.54545440e-03 0. 0. 0. 0. 0. 0. 0. 0. 0. 0. 0. 0. 0. 0. 0. 0.
      4.54545440e-03 0. 0. 0. 0. 0. 0. 0. 0. 2.27272720e-03
      2.27272720e-03 0. 0. 0. 0. 4.54545440e-03 0. 4.54545440e-03
      4.54545440e-03 4.54545440e-03 0. 2.27272720e-03 0. 0. 0. 0. 0. 0.
      0. 2.95454543e-02 0. 0. 4.54545440e-03 0. 0. 2.27272720e-03 0. 0.
      6.81818184e-03 0. 0. 0. 0. 0. 0. 0. 0. 0. 0. 0. 0. 0. 0. 0.
      1.59090906e-02 0. 6.81818184e-03 0. 2.27272720e-03 1.13636358e-02
      0. 0. 2.27272720e-03 0. 2.27272720e-03 0. 0. 0. 0. 0.
      2.27272720e-03 0. 0. 0. 1.13636358e-02 2.27272720e-03 0. 0. 0. 0.
      0. 0. 0. 0. 0. 0. 2.27272720e-03 0. 0. 4.54545440e-03 0. 0. 0. 0.
      0. 0. 2.27272720e-03 0. 0. 0. 0. 4.54545440e-03 0. 1.81818176e-02
      0. 0. 0. 0. 0. 2.27272720e-03 0. 0. 4.31818180e-02 0. 0. 0. 0. 0.
      0. 0. 0. 0. 2.27272720e-03 2.27272720e-03 6.81818184e-03
      2.27272720e-03 0. 0. 0. 0. 4.54545440e-03 0. 0. 0. 2.27272720e-03
      0. 0. 0. 0. 0. 0. 0. 0. 0. 0. 0. 0. 0. 0. 0. 0. 0. 0. 0.
      4.54545440e-03 0. 0. 0. 0. 0. 2.27272720e-03 0. 0. 0. 0. 0. 0. 0.
      0. 0. 6.81818184e-03 0. 0. 0. 2.27272720e-03 2.27272720e-03
      2.27272720e-03 0. 0. 2.27272720e-03 0. 0. 2.27272720e-03
      2.27272720e-03 0. 0. 0. 6.81818184e-03 4.54545440e-03 0. 0. 0. 0.
      0. 0. 0. 2.27272720e-03 0. 0. 0. 0. 0. 2.27272720e-03
      2.27272720e-03 0. 0. 0. 0. 0. 4.54545440e-03 0. 0. 0. 0. 0. 0.
      2.27272720e-03 0. 0. 0. 4.54545440e-03 0. 0. 2.27272720e-03
      2.27272720e-03 0. 0. 2.27272720e-03 0. 6.81818184e-03 0. 0.
      2.27272720e-03 0. 2.27272720e-03 0. 0. 0. 0. 0. 2.27272720e-03 0.
      0. 2.27272720e-03 0. 0. 0. 0. 0. 0. 0. 2.27272720e-03 0. 0. 0.
      6.81818184e-03 0. 0. 0. 0. 4.54545440e-03 0. 4.54545440e-03 0. 0.
      0. 0. 4.54545440e-03 0. 2.27272720e-03 0. 0. 6.81818184e-03 0. 0.
      0. 2.27272720e-03 0. 4.54545440e-03 0. 2.27272720e-03 0. 0. 0. 0.
      0. 2.27272720e-03 0. 2.27272720e-03 0. 0. 2.27272720e-03
