<?xml version="1.0"?>
<opencv_storage>
<opencv_ml_svm>
  <format>3</format>
  <svmType>C_SVC</svmType>
  <kernel>
    <type>LINEAR</type></kernel>
  <C>1.</C>
  <term_criteria><iterations>100</iterations></term_criteria>
  <var_count>1000</var_count>
  <class_count>2</class_count>
  <class_labels type_id="opencv-matrix">
    <rows>2</rows>
    <cols>1</cols>
    <dt>i</dt>
    <data>
      -1 1</data></class_labels>
  <sv_total>1</sv_total>
  <support_vectors>
    <_>
      -1.07987314e-01 -6.06406666e-03 1.77882391e-03 -1.95277348e-01
      2.28987690e-02 9.35924519e-03 4.58510555e-02 1.90990213e-02
      5.35315461e-03 1.60798207e-02 -1.90421566e-02 1.14962365e-03
      2.09431518e-02 3.91369276e-02 -1.04768351e-02 -2.68168952e-02
      6.31794520e-03 2.00284831e-03 -2.64638732e-03 9.78816068e-04
      -8.88121780e-03 4.83516566e-02 4.71871868e-02 9.71835945e-03
      3.10069378e-02 -1.56422090e-02 -2.93145422e-03 -5.69109386e-03
      -4.35722480e-03 -1.22302612e-02 -1.59507777e-04 1.96614508e-02
      5.20253964e-02 9.65811254e-04 -2.51615401e-02 4.63266671e-02
      -2.57598739e-02 -8.98844749e-03 6.34888420e-03 2.29549292e-03
      -1.99517775e-02 1.75096560e-02 4.23600972e-02 1.37544423e-02
      -1.53488830e-01 4.97507909e-03 2.56459694e-02 -2.48790272e-02
      -1.32215582e-02 -9.68556385e-03 2.60722786e-02 -1.85329560e-02
      -1.58017669e-02 1.09028025e-02 2.63968613e-02 -4.68977652e-02
      2.72521265e-02 2.26781820e-03 3.58625576e-02 9.32501070e-03
      -2.22363342e-02 4.08760794e-02 3.34197916e-02 8.87435235e-05
      -5.16411476e-03 -6.18310412e-04 6.83540665e-03 -2.53145536e-03
      -1.30642960e-02 2.38496270e-02 2.17114184e-02 3.49567309e-02
      1.75129939e-02 -2.38715159e-03 -7.79057713e-03 -2.40639318e-03
      5.23861460e-02 -8.45851153e-02 -4.15079901e-03 1.12730209e-02
      -2.92879483e-03 8.81584734e-03 9.69327148e-03 -7.54712569e-03
      6.07446942e-04 4.57129329e-02 2.11856738e-02 -1.75726294e-04
      1.91599242e-02 -9.87523235e-03 -1.28425648e-02 3.75835113e-02
      6.06326647e-02 -1.45740353e-03 -2.46237256e-02 -8.58416501e-03
      -2.98528001e-02 -6.78463327e-03 -1.77748855e-02 -3.70394960e-02
      -3.39533808e-03 1.43042263e-02 4.06547189e-02 2.05919351e-02
      -6.44919742e-03 4.08333056e-02 -3.58855873e-02 -1.85834500e-03
      6.57150298e-02 1.36548989e-02 -5.81893399e-02 1.11323828e-02
      1.86733506e-03 2.30621807e-02 5.17894886e-03 2.18876135e-02
      5.67780659e-02 -5.57442475e-03 1.06815854e-02 -5.50642833e-02
      7.14923861e-03 -2.96563990e-02 5.13406657e-03 3.26796398e-02
      1.81737617e-02 1.74077787e-03 1.85044240e-02 -1.08272634e-01
      2.63415147e-02 -5.43490984e-02 5.74643118e-03 5.61255123e-03
      -2.84089707e-02 -3.09538916e-02 7.02431565e-03 -3.30238137e-04
      2.95048091e-03 -8.49952828e-03 3.14346850e-02 6.85250759e-02
      -7.50284037e-03 1.32676493e-02 -2.77699213e-02 5.47075272e-03
      4.51422809e-03 -5.94003163e-02 1.29895946e-02 1.71548454e-03
      -1.66910440e-02 1.78981926e-02 1.11214379e-02 2.15373817e-03
      -8.52968358e-03 3.88463540e-03 2.61325203e-02 -2.76249591e-02
      -1.32697560e-02 -7.53000658e-03 1.85471922e-02 -1.54587319e-02
      9.19247046e-03 2.43063588e-02 1.13436952e-02 9.16189328e-03
      1.06758112e-02 -2.20419224e-02 -1.27026020e-02 -4.14056843e-03
      3.18477191e-02 -2.50378586e-02 -1.39292739e-02 7.25492928e-03
      1.59224160e-02 4.99783317e-03 6.80937804e-03 1.05119413e-02
      8.76555778e-03 3.05571165e-02 -7.95136988e-02 -8.66822526e-03
      -4.50384384e-03 3.05952760e-03 -1.47484317e-02 9.21604969e-03
      -1.45108765e-02 -1.54367229e-02 -1.97019335e-02 3.49893910e-03
      2.84456424e-02 5.13339564e-02 4.70670983e-02 5.85889444e-02
      1.79884937e-02 -4.96719033e-03 -2.73315678e-03 -1.23845320e-03
      -3.00681572e-02 2.04678103e-02 2.58652344e-02 1.07397288e-02
      1.94777139e-02 -6.78845355e-03 2.34937873e-02 -1.25811413e-01
      2.84760185e-02 3.12165152e-02 -7.92623460e-02 -2.27474570e-02
      -5.19879116e-03 -2.72558327e-03 3.06714345e-02 2.68786568e-02
      1.78398341e-02 3.24256532e-02 7.67447986e-03 1.86151955e-02
      3.05212121e-02 -3.36707477e-03 4.78768814e-03 -2.51611532e-03
      2.08477043e-02 1.29418867e-02 1.88251231e-02 2.30674408e-02
      8.14332068e-03 -4.61493470e-02 -8.33781715e-03 -2.08873022e-02
      -3.81490658e-03 5.12671378e-03 -1.91167723e-02 1.21986857e-02
      1.12292990e-02 1.09704072e-02 2.39206757e-03 -1.12490926e-03
      -3.24595161e-02 -1.97300557e-02 -4.64774631e-02 -1.35414544e-02
      -4.37114723e-02 1.51999611e-02 -9.47624631e-03 1.30208312e-02
      -1.67177189e-02 3.60592920e-03 -2.61215214e-02 -9.60466824e-03
      1.22571504e-03 1.04847094e-02 2.95429844e-02 1.65360905e-02
      1.77416131e-02 1.35197723e-02 -1.26553979e-02 6.98216376e-04
      1.51792485e-02 6.10952207e-04 -2.90163066e-02 1.62534788e-02
      -8.11986346e-03 1.26609206e-02 1.25819715e-02 7.74919521e-03
      -8.14081449e-03 7.39896521e-02 -2.11265367e-02 -5.17618656e-02
      3.99376117e-02 -7.11536109e-02 -2.42071953e-02 -5.71343303e-02
      -2.48860493e-02 1.50738927e-02 -1.54365301e-02 -8.01195297e-03
      3.19850557e-02 4.01491523e-02 -1.24658355e-02 -1.57087352e-02
      1.58732515e-02 -5.72163537e-02 2.17147004e-02 6.58505922e-03
      4.14931104e-02 2.35267775e-03 6.27618050e-03 -1.76711753e-02
      9.69779417e-02 8.68775416e-03 3.29754725e-02 4.42229584e-02
      -1.33075444e-02 -1.15025118e-02 2.37861350e-02 -4.26641703e-02
      6.38584374e-03 1.15630943e-02 -2.54390892e-02 1.22313201e-02
      1.22627318e-02 -2.87639983e-02 5.02643771e-02 6.60160705e-02
      4.71680239e-03 1.09313959e-02 3.32085639e-02 1.23187434e-02
      -1.21855810e-02 -3.70386802e-02 -1.15203066e-02 -2.11220738e-02
      2.75104269e-02 -1.88810993e-02 1.65623054e-02 -1.78381447e-02
      4.78837360e-03 -1.93610303e-02 3.67164426e-02 7.65622314e-03
      -2.74334922e-02 8.98445584e-03 -3.31384200e-03 2.69761942e-02
      -1.09792268e-02 -4.79250886e-02 3.97183523e-02 4.33701947e-02
      -5.06844185e-03 -5.82978688e-02 -1.46687152e-02 -1.31389697e-03
      1.75729692e-02 -3.14396992e-02 5.64537244e-03 5.35044307e-03
      1.55021567e-02 3.26701766e-03 -1.00731216e-02 -2.40620837e-04
      3.54201486e-03 -1.25529442e-03 -3.86590138e-02 3.87454145e-02
      -2.26612333e-02 -1.88118778e-02 1.04842456e-02 -4.64672921e-03
      -3.89681309e-02 2.10643280e-02 2.84338314e-02 1.06929773e-02
      1.64963324e-02 -5.23669505e-03 2.91348179e-03 -2.29143091e-02
      -2.25607492e-03 -1.49970111e-02 -9.38186422e-04 -5.97302336e-03
      -1.81422420e-02 2.35288870e-03 2.64114086e-02 5.70882112e-03
      2.51954235e-02 -4.06530090e-02 3.08621842e-02 4.16091569e-02
      3.95181635e-03 8.44012387e-03 1.65120773e-02 6.73890533e-03
      -6.96953293e-03 -1.88504625e-02 -6.84301257e-02 1.44705214e-02
      8.21957551e-03 -1.45233246e-02 2.11436432e-02 -5.50436927e-03
      1.65846627e-02 2.11041719e-02 5.24699166e-02 1.79726630e-03
      1.42420763e-02 -1.39539361e-01 5.34457760e-03 -2.73704100e-02
      1.33911949e-02 -1.26372483e-02 -3.06724664e-02 2.75968909e-02
      2.50956393e-03 8.60147737e-03 3.27770412e-02 3.68435308e-02
      3.88794690e-02 -1.93295570e-03 -1.97143052e-02 7.88603257e-03
      2.85882037e-03 -2.05184962e-03 2.42737085e-02 -9.48049827e-04
      3.41853015e-02 -9.20591317e-03 -1.86741669e-02 1.55741479e-02
      -2.05696225e-02 2.48342287e-02 7.78834336e-03 4.75889025e-03
      -3.40335742e-02 1.01157716e-02 1.68896315e-03 -3.31947505e-02
      -6.72935450e-04 3.96968834e-02 4.57489043e-02 -5.92093100e-04
      2.09972560e-02 3.09496932e-02 -1.12669787e-03 2.36243568e-02
      2.11727951e-04 2.96910293e-02 -2.00285371e-02 3.41020785e-02
      6.12218538e-03 -1.47104375e-02 -2.26498097e-02 8.03017151e-03
      1.84426438e-02 -4.63717524e-03 -4.01915312e-02 2.44942475e-02
      1.58281010e-02 -1.96652159e-01 5.67625696e-03 -7.49434009e-02
      -6.78381920e-02 1.56872664e-02 1.24725178e-02 -5.70089519e-02
      -4.82468260e-03 -1.19678695e-02 -8.01107474e-03 -9.34257079e-03
      -1.53821511e-02 3.08500249e-02 2.76703034e-02 7.82012357e-04
      2.46200021e-02 3.82329104e-03 6.30804747e-02 -2.53012823e-03
      6.49434179e-02 2.29912810e-02 9.17791098e-04 -1.42807690e-02
      -3.22637148e-04 -2.37508323e-02 1.33851292e-02 4.85161692e-03
      -5.97366085e-03 -8.20589624e-03 4.89778817e-02 -6.04588352e-02
      1.30342087e-03 -2.13866048e-02 -3.04228775e-02 -3.44619416e-02
      -8.02073628e-03 -6.42399956e-03 -2.20165998e-02 -2.75562018e-01
      -9.50598270e-02 7.07325665e-03 -2.08590296e-03 -3.16822948e-03
      1.02873715e-02 6.88243471e-03 2.16031056e-02 1.49557218e-02
      -2.18596626e-02 -1.14341853e-02 1.52537348e-02 -8.56846198e-03
      1.14607718e-02 -2.49370118e-03 -1.26516297e-02 2.66760457e-02
      2.25470364e-02 -3.26049738e-02 -8.43239576e-03 1.90067906e-02
      4.58737928e-03 -1.06454757e-03 2.63134241e-02 -2.41178796e-02
      4.15898934e-02 -5.83502231e-03 1.45428181e-02 -8.41981079e-03
      -1.86570622e-02 -4.86023128e-02 2.24562343e-02 2.14942619e-02
      2.06597522e-02 3.32879238e-02 -1.00759873e-02 -3.84061597e-03
      -8.12850147e-03 -4.68239859e-02 6.15733676e-03 -5.42509109e-02
      -1.61901843e-02 -3.53294308e-03 -3.20787653e-02 3.80444783e-03
      -5.21559874e-03 -1.72432829e-02 4.63778488e-02 4.21140231e-02
      -1.23321125e-02 9.38256388e-04 -2.55783042e-03 -5.55894291e-03
      3.67533825e-02 2.43290849e-02 -1.64862424e-02 -2.58572046e-02
      2.19559204e-02 -1.66216248e-03 1.29466699e-02 2.15611942e-02
      1.85587835e-02 1.88551145e-04 1.84378326e-02 2.57768538e-02
      1.82209313e-02 -7.43785948e-02 2.38736137e-03 1.99156459e-02
      1.71602890e-02 -1.49472905e-02 -9.34252166e-04 5.34324953e-03
      1.18587376e-03 2.04374231e-02 -4.59135696e-02 6.92960387e-03
      2.86757909e-02 3.21000218e-02 2.62587704e-02 3.10971495e-02
      -2.26988737e-02 2.29705088e-02 -3.43948714e-02 2.24199630e-02
      -2.31398400e-02 -6.57199994e-02 4.67512943e-03 -2.95252423e-03
      -3.41953826e-03 2.22587176e-02 3.48893330e-02 4.08088835e-03
      1.29326405e-02 3.08066104e-02 -1.68176740e-02 2.38089357e-02
      -2.32597068e-02 -1.35055473e-02 -4.01727669e-02 4.18567657e-02
      1.45814260e-02 -1.01834256e-02 -1.33848712e-02 -8.64982232e-03
      -6.64627180e-03 -1.03625678e-01 -2.59739067e-02 1.64453797e-02
      4.57181707e-02 1.39377331e-02 2.25992110e-02 -2.31858883e-02
      -1.63280740e-02 9.75186005e-03 3.04897991e-03 -7.80598745e-02
      2.08921190e-02 -2.63865367e-02 -1.34077761e-02 -1.11617252e-01
      1.61684956e-02 -1.32048922e-02 6.71845675e-03 6.45638735e-04
      -3.08782049e-03 9.46575776e-03 2.80972533e-02 2.53526252e-02
      2.49630697e-02 2.15620808e-02 1.20662898e-02 -7.92899355e-03
      6.50114845e-03 -3.79288606e-02 5.26944101e-02 3.94464172e-02
      -4.09253649e-02 3.44821587e-02 1.42637733e-02 2.89746793e-03
      2.53670360e-03 3.59322540e-02 -2.75321156e-02 -4.20939503e-03
      1.07035749e-02 -3.97387929e-02 1.08397352e-02 1.48327742e-03
      -2.08655372e-02 -3.02744005e-02 -4.76447807e-04 5.38675580e-03
      -1.85684096e-02 -3.52875330e-02 5.74504286e-02 1.34957237e-02
      1.77333131e-02 1.25847925e-02 -1.13145774e-02 -2.96168961e-03
      2.54212096e-02 -9.01173502e-02 1.41298762e-02 3.28593291e-02
      1.80033036e-02 1.12317689e-02 -9.48252738e-04 1.24421706e-02
      3.18981148e-02 -4.53216434e-02 1.06677795e-02 1.47166904e-02
      -6.02200069e-03 -1.26404613e-01 -1.56400781e-02 -2.92456206e-02
      5.66742159e-02 -1.21184193e-01 -1.43436377e-03 7.39504118e-03
      3.36526632e-02 2.04770938e-02 1.39712626e-02 -5.61921066e-03
      -7.34854415e-02 -1.49279125e-02 6.62283972e-04 -6.36616070e-03
      -2.99475472e-02 2.39385981e-02 1.58990212e-02 1.15084946e-02
      -1.98433758e-03 1.98255535e-02 1.42924925e-02 2.13236939e-02
      -8.57189938e-04 4.00994234e-02 1.14737442e-02 -2.52324678e-02
      5.62428590e-03 -3.84907164e-02 2.56755315e-02 7.77606620e-03
      1.15477229e-02 -1.59052480e-02 -3.43485922e-02 1.77701060e-02
      -1.89637169e-02 4.44792304e-03 2.08981279e-02 2.55834144e-02
      -1.12420116e-02 1.95046291e-02 6.06881082e-02 -1.47951990e-02
      -4.33220016e-03 4.60395291e-02 7.40560191e-03 1.08226761e-02
      2.19413657e-02 2.84269992e-02 4.36491147e-02 7.46418082e-05
      -2.72471700e-02 4.19843011e-03 7.31247058e-03 -1.88822597e-02
      2.46343743e-02 1.01764416e-02 2.67254785e-02 9.96255130e-03
      1.79051999e-02 -1.07686467e-01 -2.41437508e-03 -6.13395125e-02
      2.05615927e-02 -1.97227374e-02 3.08441967e-02 1.24534583e-02
      1.95095297e-02 4.26609218e-02 8.58818274e-03 -9.94897261e-03
      1.58558265e-04 -2.06272863e-03 -2.09624581e-02 -1.33409262e-01
      -6.29784018e-02 3.35961170e-02 -1.24229053e-02 1.67025980e-02
      8.04040954e-03 -4.14940482e-03 -1.89431142e-02 -5.21551818e-02
      5.17965443e-02 -4.01031449e-02 1.39420368e-02 1.83356684e-02
      -1.36169633e-02 3.31628434e-02 -1.81989484e-02 3.79278231e-03
      -1.44563904e-02 9.63846501e-03 -5.29613048e-02 -7.15300441e-02
      -3.23251635e-02 -1.00988820e-02 8.69126990e-03 4.39328402e-02
      1.71089992e-02 2.69103218e-02 1.09093729e-02 3.17464359e-02
      -2.85731889e-02 2.67466754e-02 3.51840234e-03 -4.73969709e-03
      1.79972332e-02 1.76762808e-02 -9.93316900e-03 -2.59622224e-02
      2.32136995e-02 5.43396920e-03 2.75898930e-02 3.97795960e-02
      -1.29790418e-02 -2.70695798e-02 1.44655090e-02 -6.36644755e-03
      4.57126042e-03 6.84580952e-03 4.86473273e-03 2.02903524e-02
      4.84322980e-02 2.36912048e-03 6.42320188e-03 -1.27183087e-02
      1.56510528e-02 8.10341910e-03 -1.19348634e-02 1.30396187e-02
      -5.52249774e-02 2.52917893e-02 4.57487963e-02 6.57999068e-02
      -1.78366341e-02 -3.72122079e-02 -2.11065896e-02 7.32693775e-03
      4.38725390e-02 2.20522024e-02 -1.78524926e-02 1.66409593e-02
      1.60161778e-02 -6.52910210e-03 7.76146771e-05 -1.88859235e-02
      4.21093628e-02 -9.28612240e-03 1.69024654e-02 2.91995350e-02
      2.16545165e-02 8.58024042e-03 -1.76141853e-03 1.58018060e-02
      1.85520798e-02 -5.14932238e-02 4.26024245e-03 -2.51071639e-02
      -1.40672189e-03 2.26387326e-02 -1.41430041e-02 2.09085681e-02
      -2.27510910e-02 2.17192862e-02 1.16208242e-02 3.65379900e-02
      -3.82588021e-02 1.37279639e-02 1.99059676e-02 -2.30917986e-02
      -4.34173532e-02 3.70659702e-03 -2.26180861e-03 -1.05078500e-02
      -5.79284467e-02 2.94410381e-02 3.30032818e-02 -2.44158041e-02
      2.05349526e-03 -5.15033081e-02 3.64413708e-02 1.06679080e-02
      2.03545525e-04 7.96545949e-03 -6.15415946e-02 4.24722116e-03
      8.39962624e-03 9.79729183e-03 1.53693603e-02 5.84944040e-02
      2.20807288e-02 1.18034752e-02 -2.98637319e-02 -3.09164170e-03
      9.38106980e-03 2.61045042e-02 -7.96056539e-03 -3.28821316e-02
      -1.94501597e-02 2.28646696e-02 3.44285928e-02 3.44169214e-02
      -2.78542377e-02 -3.50666628e-03 1.26160737e-02 1.68771856e-02
      4.03988585e-02 -8.01834762e-02 -8.23731069e-03 -1.46768913e-02
      1.42831961e-02 -2.29876745e-03 -5.38589107e-03 -2.60920841e-02
      7.42665085e-04 7.82916788e-03 3.76857109e-02 -8.98453593e-03
      7.33012846e-03 -1.27573505e-01 4.41588573e-02 1.44584654e-02
      4.97051980e-03 -2.07422511e-03 2.21968684e-02 2.50029061e-02
      8.00366048e-03 1.96990240e-02 -9.79742315e-03 -7.37819495e-03
      4.50168885e-02 -1.47341102e-01 1.51438694e-02 1.14630591e-02
      1.05531355e-02 -3.02818082e-02 6.44762516e-02 1.77521780e-02
      -2.05719806e-02 -5.15294261e-03 1.28923468e-02 1.87415313e-02
      -5.51468786e-03 9.88628995e-03 -1.15029858e-02 3.15564163e-02
      -9.17503517e-03 -2.30050161e-02 -8.21230747e-03 -1.36576509e-02
      -2.48651616e-02 1.17825326e-02 1.63530651e-02 1.34337060e-02
      3.62645020e-03 -8.17644002e-04 7.30147725e-03 9.35580023e-03
      7.65974575e-04 3.70028242e-03 1.19553618e-02 6.79047487e-04
      -4.58876751e-02 8.91396031e-03 -3.70575022e-03 1.77796986e-02
      8.10910831e-04 9.27236397e-03 5.47715724e-02 -4.80637280e-03
      -2.70164441e-02 2.60971002e-02 4.16789427e-02 9.16205626e-03
      -2.25170180e-02 2.63710283e-02 2.36308319e-03 2.53569093e-02
      -7.19334325e-03 8.64961278e-03 -1.23559743e-01 3.81765631e-03
      2.08286550e-02 6.27729669e-03 -1.16546694e-02 3.13545354e-02
      2.68529188e-02 -1.40410475e-02 -2.57970449e-02 8.65290873e-03
      3.38285649e-03 -2.17560679e-02 2.35879105e-02 1.32059641e-02
      -3.27035785e-02 -9.68716200e-03 5.99939935e-03 -8.28231499e-03
      -5.84827317e-03 9.74424463e-03 -1.31702628e-02 -6.07629418e-02
      -1.05891181e-02 -6.63616322e-03 -8.79918505e-03 7.09640037e-04
      -4.46528606e-02 1.84937064e-02 3.42784300e-02 8.17881152e-03
      -1.23196412e-02 -1.52107803e-02 -3.23712826e-02 7.17262877e-03
      -1.54354400e-03 -1.20394547e-02 1.89547203e-02 2.77241934e-02
      1.88209340e-02 8.66597705e-03 -1.15536926e-02 -1.49000781e-02
      4.46382118e-03 2.30411887e-02 -8.97196680e-02 -9.19347182e-02
      2.35236660e-02 -7.25151971e-03 5.10581136e-02 4.50472813e-03
      -8.63704830e-02 -3.63086946e-02 4.26040404e-02 1.79334227e-02
      1.19453727e-03 6.61573897e-04 -4.83017303e-02 5.68953604e-02
      -1.27644287e-02 3.25976908e-02 1.66492220e-02 -1.49760833e-02
      2.04639956e-02 -2.09286977e-02 -2.87807677e-02 -2.33587530e-02
      9.61008854e-03 1.13251647e-02 8.04994721e-03 9.80092492e-03</_></support_vectors>
  <uncompressed_sv_total>113</uncompressed_sv_total>
  <uncompressed_support_vectors>
    <_>
      1.08303251e-02 0. 0. 7.22021656e-03 0. 0. 0. 0. 0. 0.
      1.80505414e-03 0. 0. 0. 0. 0. 0. 0. 0. 0. 0. 0. 0. 0. 0. 0.
      1.80505414e-03 0. 0. 0. 1.80505414e-03 0. 1.80505414e-03 0. 0. 0.
      1.80505414e-03 1.80505414e-03 0. 0. 0. 1.80505414e-03 0. 0. 0. 0.
      0. 1.80505414e-03 0. 0. 0. 0. 0. 0. 0. 0. 1.80505414e-03 0. 0.
      1.80505414e-03 0. 0. 1.80505414e-03 0. 0. 0. 0. 1.80505414e-03 0.
      0. 0. 1.80505414e-03 0. 1.08303251e-02 9.02527105e-03
      1.08303251e-02 7.22021656e-03 5.41516254e-03 0. 1.80505414e-03 0.
      0. 5.41516254e-03 0. 0. 5.41516254e-03 0. 1.80505414e-03 0.
      1.80505414e-03 0. 0. 0. 1.80505414e-03 0. 0. 3.61010828e-03 0.
      1.80505414e-03 0. 5.41516254e-03 0. 0. 0. 0. 0. 0. 1.80505414e-03
      0. 1.80505414e-03 9.02527105e-03 5.41516254e-03 0. 0. 0.
      1.80505414e-03 3.61010828e-03 0. 0. 1.80505414e-03 0. 0. 0. 0. 0.
      0. 0. 1.44404331e-02 0. 0. 0. 0. 0. 0. 5.41516254e-03 0.
      1.80505414e-03 0. 1.80505414e-03 0. 1.80505414e-03 0.
      3.61010828e-03 5.41516254e-03 0. 5.41516254e-03 1.80505414e-03 0.
      1.80505414e-03 0. 3.61010828e-03 0. 0. 1.80505414e-03 0. 0. 0. 0.
      0. 0. 0. 0. 0. 0. 5.41516254e-03 0. 1.80505414e-03 0.
      1.80505414e-03 0. 0. 0. 1.80505414e-03 1.80505414e-03
      1.80505414e-03 1.80505414e-03 1.80505414e-03 1.80505414e-03
      1.80505414e-03 5.41516254e-03 1.80505414e-03 1.80505414e-03 0. 0.
      0. 0. 0. 0. 0. 1.80505414e-03 0. 0. 0. 1.80505414e-03
      5.41516254e-03 1.80505414e-03 0. 0. 0. 1.80505414e-03 0. 0. 0. 0.
      0. 0. 0. 0. 0. 0. 0. 0. 1.80505414e-03 1.80505414e-03
      1.80505414e-03 0. 0. 0. 0. 1.80505414e-03 0. 0. 0. 0. 0.
      1.80505414e-03 0. 1.80505414e-03 0. 1.80505414e-03 1.80505414e-03
      0. 0. 0. 0. 0. 0. 1.80505414e-03 1.80505414e-03 0. 0. 0. 0. 0. 0.
      0. 0. 0. 0. 0. 0. 1.80505414e-03 0. 1.80505414e-03 0. 0.
      1.80505414e-03 0. 3.61010828e-03 1.80505414e-03 1.80505414e-03 0.
      0. 0. 0. 0. 0. 5.41516254e-03 5.41516254e-03 0. 3.61010828e-03
      1.08303251e-02 3.61010828e-03 0. 3.61010828e-03 0. 1.80505414e-03
      0. 1.80505414e-03 0. 0. 3.61010828e-03 0. 1.80505414e-03
      1.80505414e-03 3.61010828e-03 1.80505414e-03 1.80505414e-03 0. 0.
      0. 0. 0. 0. 1.80505414e-03 2.88808662e-02 0. 1.80505414e-03 0. 0.
      0. 0. 0. 1.80505414e-03 5.41516254e-03 1.80505414e-03
      3.61010828e-03 0. 0. 0. 0. 0. 1.80505414e-03 0. 0. 1.80505414e-03
      0. 0. 0. 0. 0. 0. 0. 0. 3.61010828e-03 9.02527105e-03 0. 0. 0. 0.
      0. 0. 0. 0. 1.80505414e-03 0. 0. 0. 0. 1.80505414e-03 0. 0.
      1.80505414e-03 0. 3.61010828e-03 0. 5.41516254e-03 1.80505414e-03
      0. 0. 0. 0. 3.61010828e-03 1.80505414e-03 7.22021656e-03 0. 0. 0.
      0. 0. 1.80505414e-03 0. 0. 0. 0. 0. 0. 0. 0. 1.80505414e-03 0. 0.
      1.80505414e-03 1.80505414e-03 0. 0. 0. 1.80505414e-03 0.
      1.80505414e-03 0. 0. 0. 0. 0. 0. 0. 0. 1.80505414e-03 0. 0.
      7.22021656e-03 1.80505414e-03 5.41516254e-03 1.80505414e-03 0. 0.
      0. 0. 0. 0. 0. 0. 0. 0. 1.80505414e-03 0. 0. 5.41516254e-03 0. 0.
      0. 0. 0. 1.80505414e-03 0. 0. 0. 0. 0. 0. 3.61010828e-03 0.
      5.41516254e-03 0. 0. 0. 0. 0. 0. 0. 3.61010828e-03 0.
      1.80505414e-03 0. 0. 0. 1.80505414e-03 5.41516254e-03 0.
      1.80505414e-03 0. 3.61010828e-03 0. 0. 0. 0. 0. 1.80505414e-03 0.
      1.80505414e-03 3.61010828e-03 0. 0. 0. 0. 0. 0. 0. 0.
      1.80505414e-03 0. 0. 0. 0. 1.80505414e-03 1.80505414e-03 0. 0. 0.
      1.80505414e-03 0. 0. 0. 0. 1.80505414e-03 0. 0. 0. 1.80505414e-03
      0. 3.61010828e-03 1.80505414e-03 0. 0. 1.80505414e-03 0. 0. 0. 0.
      1.80505414e-03 0. 0. 5.41516254e-03 0. 0. 0. 0. 0. 0. 0.
      5.41516254e-03 0. 0. 1.80505414e-03 1.80505414e-03 0. 0. 0.
      3.61010828e-03 0. 1.80505414e-03 3.61010828e-03 0. 3.61010828e-03
      3.61010828e-03 0. 0. 0. 1.80505414e-03 0. 0. 1.80505414e-03 0. 0.
      3.61010828e-03 0. 0. 0. 0. 0. 0. 0. 0. 0. 0. 0. 0. 0.
      1.80505414e-03 1.80505414e-03 3.61010828e-03 0. 0. 1.80505414e-03
      3.61010828e-03 0. 0. 1.80505414e-03 0. 1.80505414e-03
      9.02527105e-03 0. 0. 0. 0. 3.61010828e-03 0. 1.80505414e-03 0.
      1.80505414e-03 3.61010828e-03 0. 0. 0. 0. 1.80505414e-03
      1.80505414e-03 0. 0. 3.61010828e-03 1.80505414e-03 3.61010828e-03
      1.80505414e-03 0. 0. 0. 3.61010828e-03 0. 1.80505414e-03
      1.80505414e-03 0. 0. 0. 0. 0. 0. 0. 1.80505414e-03 1.80505414e-03
      0. 0. 0. 0. 0. 0. 0. 0. 1.80505414e-03 3.61010828e-03 0. 0. 0. 0.
      1.80505414e-03 1.80505414e-03 0. 0. 0. 0. 0. 0. 0. 3.61010828e-03
      0. 3.61010828e-03 3.61010828e-03 0. 0. 0. 0. 0. 0. 0.
      1.80505414e-03 0. 1.80505414e-03 0. 9.02527105e-03 0. 0.
      3.61010828e-03 1.80505414e-03 0. 1.80505414e-03 0. 0. 0. 0. 0. 0.
      0. 0. 0. 0. 1.80505414e-03 0. 3.61010828e-03 3.61010828e-03 0. 0.
      7.22021656e-03 0. 0. 0. 3.61010828e-03 0. 0. 0. 1.80505414e-03 0.
      0. 0. 1.80505414e-03 0. 0. 0. 1.80505414e-03 1.80505414e-03 0. 0.
      0. 0. 0. 1.80505414e-03 0. 0. 0. 0. 0. 3.61010828e-03
      5.41516254e-03 0. 0. 3.61010828e-03 1.80505414e-03 1.80505414e-03
      0. 1.80505414e-03 0. 0. 1.80505414e-03 0. 0. 0. 5.41516254e-03
      1.80505421e-02 0. 0. 0. 1.80505414e-03 0. 1.80505414e-03 0. 0. 0.
      0. 1.80505414e-03 0. 0. 0. 7.22021656e-03 1.80505414e-03 0. 0.
      5.41516254e-03 0. 0. 0. 1.80505414e-03 0. 1.80505414e-03 0. 0.
      1.80505414e-03 0. 0. 1.80505414e-03 0. 0. 0. 0. 1.80505414e-03
      1.62454881e-02 1.80505414e-03 0. 3.61010828e-03 0. 3.61010828e-03
      1.80505414e-03 0. 3.61010828e-03 0. 0. 0. 0. 0. 1.80505414e-03 0.
      0. 0. 0. 0. 3.61010828e-03 3.61010828e-03 0. 0. 0. 0.
      7.22021656e-03 0. 0. 1.80505414e-03 0. 0. 0. 0. 5.41516254e-03 0.
      1.80505414e-03 0. 0. 1.80505414e-03 1.80505414e-03 1.80505414e-03
      0. 0. 0. 0. 1.80505414e-03 0. 0. 0. 0. 1.80505414e-03 0. 0.
      1.80505414e-03 0. 0. 0. 0. 1.80505414e-03 1.80505414e-03 0.
      1.80505414e-03 5.41516254e-03 5.41516254e-03 0. 0. 0. 0. 0. 0. 0.
      0. 0. 1.80505414e-03 0. 0. 0. 0. 0. 3.61010828e-03 1.80505414e-03
      0. 3.61010828e-03 1.80505414e-03 0. 1.80505414e-03 0. 0.
      3.61010828e-03 0. 0. 1.80505414e-03 0. 7.22021656e-03 0.
      1.80505414e-03 0. 0. 0. 1.80505414e-03 1.80505414e-03 0.
      1.80505414e-03 0. 5.41516254e-03 5.41516254e-03 0. 0. 0.
      1.80505414e-03 1.80505414e-03 0. 3.61010828e-03 0. 0. 0. 0. 0.
      5.41516254e-03 0. 0. 0. 0. 0. 3.61010828e-03 1.80505414e-03 0. 0.
      0. 0. 0. 1.80505414e-03 0. 1.80505414e-03 0. 1.80505421e-02 0. 0.
      0. 3.61010828e-03 0. 0. 0. 1.80505414e-03 0. 0. 0. 0. 0.
      1.80505414e-03 0. 0. 0. 0. 1.80505414e-03 0. 0. 0. 0. 0.
      1.80505414e-03 0. 0. 5.41516254e-03 0. 3.61010828e-03 0.
      1.80505414e-03 0. 0. 1.80505414e-03 1.80505414e-03 0.
      1.80505414e-03 0. 0. 0. 5.41516254e-03 3.61010828e-03 0. 0.
      3.61010828e-03 0. 0. 0. 0. 0. 5.41516254e-03 0. 5.41516254e-03 0.
      3.61010828e-03 0. 0. 0. 0. 5.41516254e-03 3.61010828e-03 0. 0.
      1.80505414e-03 0. 1.80505414e-03 1.80505414e-03 0. 0. 0. 0. 0.
      1.80505414e-03 0. 1.80505414e-03 0. 1.80505414e-03 1.80505414e-03
      0. 0. 1.80505414e-03 0. 0. 1.80505414e-03 0. 0. 0. 0. 0. 0. 0. 0.
      0. 0. 0. 0. 1.80505414e-03 0. 1.80505414e-03 0. 0. 0. 0. 0. 0.
      1.80505414e-03 1.80505414e-03 0. 0. 0. 0. 0. 0. 0. 0. 0.
      1.80505414e-03 1.80505414e-03 0. 0. 0. 1.80505414e-03 0.
      3.61010828e-03 0. 0. 0. 1.80505414e-03 0.</_>
    <_>
      0. 1.72413792e-03 0. 2.58620689e-03 8.62068962e-04 1.72413792e-03
      4.31034481e-03 0. 0. 1.72413792e-03 0. 0. 0. 8.62068962e-04 0.
      2.58620689e-03 0. 0. 0. 1.72413792e-03 0. 1.72413792e-03 0.
      1.72413792e-03 8.62068962e-04 0. 0. 2.58620689e-03 3.44827585e-03
      3.44827585e-03 0. 8.62068962e-04 0. 2.58620689e-03 0.
      8.62068962e-04 0. 8.62068962e-04 1.72413792e-03 6.89655170e-03
      8.62068962e-04 0. 0. 0. 8.62068962e-04 0. 0. 6.89655170e-03
      6.03448274e-03 0. 2.58620689e-03 0. 3.44827585e-03 8.62068962e-04
      0. 0. 0. 0. 1.72413792e-03 3.44827585e-03 2.58620689e-03
      3.44827585e-03 0. 4.31034481e-03 1.03448275e-02 8.62068962e-04
      8.62068962e-04 0. 0. 0. 0. 8.62068962e-04 8.62068962e-04 0.
      1.72413792e-03 0. 3.44827585e-03 8.62068962e-04 8.62068962e-04 0.
      8.62068962e-04 0. 4.31034481e-03 8.62068962e-04 0. 0.
      8.62068962e-04 8.62068962e-04 0. 0. 8.62068962e-04 0. 0. 0.
      5.17241377e-03 8.62068962e-04 0. 8.62068962e-04 0. 2.58620689e-03
      0. 0. 8.62068962e-04 8.62068962e-04 0. 8.62068962e-04 0.
      8.62068962e-04 0. 1.72413792e-03 4.31034481e-03 0. 0.
      1.72413792e-03 8.62068962e-04 1.72413792e-03 0. 1.72413792e-03 0.
      8.62068962e-04 0. 8.62068962e-04 0. 8.62068962e-04 8.62068962e-04
      8.62068962e-04 0. 0. 0. 5.17241377e-03 0. 0. 3.44827585e-03 0.
      3.44827585e-03 8.62068962e-04 8.62068962e-04 0. 0. 0.
      8.62068962e-04 0. 6.89655170e-03 2.58620689e-03 0. 4.31034481e-03
      0. 0. 1.72413792e-03 0. 0. 0. 0. 0. 0. 0. 0. 1.72413792e-03 0. 0.
      0. 2.58620689e-03 0. 8.62068962e-04 1.72413792e-03 0.
      5.17241377e-03 0. 0. 0. 0. 0. 1.72413792e-03 8.62068962e-04
      8.62068962e-04 0. 0. 2.58620689e-03 4.31034481e-03 0.
      1.72413792e-03 0. 0. 6.03448274e-03 0. 0. 0. 0. 0. 0. 0. 0.
      8.62068962e-04 0. 1.72413792e-03 0. 8.62068962e-04 1.72413792e-03
      8.62068962e-04 8.62068962e-04 0. 0. 4.31034481e-03 1.46551728e-02
      0. 8.62068962e-04 1.72413792e-03 1.72413792e-03 8.62068962e-04 0.
      8.62068962e-04 8.62068962e-04 8.62068962e-04 0. 0. 8.62068962e-04
      2.58620689e-03 6.03448274e-03 0. 0. 0. 0. 0. 0. 0. 1.72413792e-03
      1.72413792e-03 2.58620689e-03 0. 8.62068962e-04 8.62068962e-04 0.
      4.31034481e-03 8.62068962e-04 2.58620689e-03 0. 1.72413792e-03
      2.58620689e-03 4.31034481e-03 1.72413792e-03 8.62068962e-04
      8.62068962e-04 4.31034481e-03 0. 8.62068962e-04 0. 0. 0.
      1.72413792e-03 0. 0. 0. 0. 0. 0. 2.58620689e-03 8.62068962e-04 0.
      0. 0. 0. 0. 0. 0. 8.62068962e-04 2.58620689e-03 2.58620689e-03
      6.89655170e-03 8.62068962e-04 5.17241377e-03 5.17241377e-03
      1.72413792e-03 8.62068962e-04 0. 0. 0. 1.72413792e-03
      8.62068962e-04 1.72413792e-03 0. 0. 8.62068962e-04 0. 0.
      8.62068962e-04 1.72413792e-03 0. 3.44827585e-03 0. 0.
      8.62068962e-04 0. 0. 2.58620689e-03 0. 5.17241377e-03 0. 0. 0. 0.
      0. 2.58620689e-03 8.62068962e-04 0. 0. 0. 0. 2.58620689e-03
      3.44827585e-03 0. 8.62068962e-04 8.62068962e-04 8.62068962e-04
      5.17241377e-03 0. 0. 2.58620689e-03 2.58620689e-03 8.62068962e-04
      2.58620689e-03 0. 8.62068962e-04 1.72413792e-03 0. 3.44827585e-03
      0. 0. 0. 0. 8.62068962e-04 0. 2.58620689e-03 0. 8.62068962e-04 0.
      0. 0. 8.62068962e-04 4.31034481e-03 2.58620689e-03 0. 0.
      8.62068962e-04 8.62068962e-04 0. 8.62068962e-04 3.44827585e-03
      1.72413792e-03 8.62068962e-04 0. 0. 0. 0. 2.58620689e-03
      2.58620689e-03 0. 0. 0. 0. 0. 1.72413792e-03 0. 0. 0. 0.
      1.72413792e-03 0. 0. 0. 0. 0. 0. 0. 0. 1.72413792e-03 0.
      8.62068962e-04 0. 0. 0. 0. 0. 0. 0. 0. 0. 0. 8.62068962e-04 0.
      8.62068962e-04 0. 0. 8.62068962e-04 1.72413792e-03 4.31034481e-03
      8.62068962e-04 0. 8.62068962e-04 0. 1.72413792e-03 0. 0.
      8.62068962e-04 4.31034481e-03 4.31034481e-03 0. 1.72413792e-03 0.
      1.72413792e-03 0. 8.62068962e-04 0. 0. 0. 0. 0. 8.62068962e-04 0.
      0. 0. 0. 8.62068962e-04 0. 0. 0. 0. 0. 8.62068962e-04
      1.72413792e-03 8.62068962e-04 1.72413792e-03 0. 0. 0. 0.
      8.62068962e-04 0. 2.58620689e-03 0. 8.62068962e-04 0.
      8.62068962e-04 0. 1.72413792e-03 5.17241377e-03 0. 0.
      4.31034481e-03 0. 2.58620689e-03 0. 1.72413792e-03 8.62068962e-04
      0. 0. 0. 1.72413792e-03 0. 1.72413792e-03 0. 0. 0. 0. 0. 0.
      1.72413792e-03 0. 8.62068962e-04 0. 1.72413792e-03 0.
      8.62068962e-04 0. 3.44827585e-03 0. 8.62068962e-04 0.
      1.72413792e-03 2.58620689e-03 6.89655170e-03 8.62068962e-04 0. 0.
      0. 0. 1.72413792e-03 0. 4.31034481e-03 8.62068962e-04 0. 0.
      8.62068962e-04 0. 2.58620689e-03 1.72413792e-03 0. 1.72413792e-03
      1.72413792e-03 0. 8.62068962e-04 0. 0. 8.62068962e-04 0. 0.
      8.62068962e-04 0. 0. 0. 0. 0. 8.62068962e-04 0. 0. 0. 0.
      1.72413792e-03 1.03448275e-02 0. 8.62068962e-04 0. 1.72413792e-03
      0. 0. 0. 8.62068962e-04 1.72413792e-03 0. 8.62068962e-04 0.
      1.12068970e-02 4.31034481e-03 0. 0. 0. 0. 8.62068962e-04
      8.62068962e-04 8.62068962e-04 0. 4.31034481e-03 0. 0.
      8.62068962e-04 0. 8.62068962e-04 8.62068962e-04 0. 1.72413792e-03
      0. 0. 0. 0. 0. 8.62068962e-04 0. 0. 8.62068962e-04 0. 0.
      2.58620689e-03 0. 4.31034481e-03 6.03448274e-03 0. 0.
      1.72413792e-03 0. 0. 0. 0. 0. 4.31034481e-03 8.62068962e-04
      1.03448275e-02 0. 0. 0. 6.03448274e-03 0. 0. 0. 0. 0. 0. 0. 0. 0.
      2.58620689e-03 8.62068962e-04 3.44827585e-03 8.62068962e-04 0. 0.
      1.72413792e-03 0. 0. 8.62068962e-04 0. 8.62068962e-04 0. 0. 0.
      1.72413792e-03 0. 0. 0. 0. 8.62068962e-04 8.62068962e-04 0. 0. 0.
      0. 0. 1.72413792e-03 0. 0. 1.72413792e-03 0. 0. 5.17241377e-03 0.
      0. 0. 6.03448274e-03 0. 0. 1.72413792e-03 5.17241377e-03 0. 0. 0.
      1.72413792e-03 8.62068962e-04 0. 0. 0. 8.62068962e-04 0. 0. 0.
      1.72413792e-03 0. 8.62068962e-04 3.44827585e-03 0. 0. 0. 0.
      8.62068962e-04 8.62068962e-04 0. 8.62068962e-04 1.72413792e-03
      2.58620689e-03 1.72413792e-03 0. 0. 0. 0. 1.72413792e-03 0. 0. 0.
      0. 4.31034481e-03 8.62068962e-04 1.72413792e-03 1.72413792e-03 0.
      0. 0. 0. 0. 0. 1.72413792e-03 3.44827585e-03 0. 1.72413792e-03
      8.62068962e-04 0. 6.03448274e-03 0. 3.44827585e-03 0.
      8.62068962e-04 0. 8.62068962e-04 0. 2.58620689e-03 0. 0. 0. 0. 0.
      0. 0. 0. 0. 8.62068962e-04 1.72413792e-03 8.62068962e-04
      2.58620689e-03 8.62068962e-04 0. 0. 0. 0. 0. 8.62068962e-04
      3.44827585e-03 0. 0. 0. 1.72413792e-03 0. 0. 0. 0. 0.
      1.72413792e-03 8.62068962e-04 4.31034481e-03 1.29310340e-02 0.
      5.17241377e-03 0. 0. 0. 8.62068962e-04 8.62068962e-04
      8.62068962e-04 2.58620689e-03 0. 0. 0. 0. 8.62068962e-04 0.
      6.89655170e-03 0. 8.62068962e-04 0. 0. 2.58620689e-03 0. 0. 0. 0.
      8.62068962e-04 0. 0. 0. 2.58620689e-03 0. 8.62068962e-04 0. 0.
      8.62068962e-04 0. 2.58620689e-03 0. 1.72413792e-03 2.58620689e-03
      8.62068962e-04 2.58620689e-03 0. 1.72413792e-03 8.62068962e-04 0.
      8.62068962e-04 1.72413792e-03 8.62068962e-04 0. 1.72413792e-03 0.
      3.44827585e-03 8.62068962e-04 0. 0. 0. 8.62068962e-04 0.
      1.72413792e-03 4.31034481e-03 0. 0. 0. 8.62068962e-04 0.
      8.62068962e-04 1.72413792e-03 1.72413792e-03 0. 0. 8.62068962e-04
      0. 0. 0. 0. 0. 0. 0. 0. 6.03448274e-03 8.62068962e-04
      5.17241377e-03 0. 0. 2.58620689e-03 0. 0. 5.17241377e-03
      8.62068962e-04 0. 0. 0. 0. 0. 0. 1.72413792e-03 0. 0. 0. 0. 0.
      2.58620689e-03 0. 0. 8.62068962e-04 0. 0. 0. 1.72413792e-03 0.
      1.72413792e-03 0. 0. 8.62068962e-04 0. 0. 5.17241377e-03 0. 0. 0.
      8.62068962e-04 8.62068962e-04 0. 0. 0. 8.62068962e-04
      4.31034481e-03 8.62068962e-04 8.62068962e-04 0. 8.62068962e-04
      7.75862066e-03 8.62068962e-04 1.72413792e-03 8.62068962e-04 0.
      8.62068962e-04 6.03448274e-03 0. 3.44827585e-03 0. 2.58620689e-03
      0. 2.41379309e-02 0. 0. 0. 0. 1.72413792e-03 1.72413792e-03
      5.17241377e-03 0. 0. 8.62068962e-04 0. 0. 8.62068962e-04 0. 0.
      3.44827585e-03 0. 0. 2.58620689e-03 0. 0. 8.62068962e-04 0. 0.
      3.44827585e-03 7.75862066e-03 0. 3.44827585e-03 8.62068962e-04
      1.72413792e-03 8.62068962e-04 2.58620689e-03 0. 3.44827585e-03 0.
      0. 8.62068962e-04 8.62068962e-04 8.62068962e-04 1.72413792e-03 0.
      3.44827585e-03 1.46551728e-02 0. 0. 8.62068962e-04 2.58620689e-03
      0. 0. 0. 1.72413792e-03 1.72413792e-03 0. 8.62068962e-04
      1.72413792e-03 0. 1.72413792e-03 0. 0. 0. 1.72413792e-03
      1.72413792e-03 0. 0. 0. 0. 0. 0. 8.62068962e-04 8.62068962e-04
      1.72413792e-03 1.72413792e-03 0. 3.44827585e-03 3.44827585e-03
      2.58620689e-03 0. 8.62068962e-04 8.62068962e-04 0. 6.03448274e-03
      1.72413792e-03 8.62068962e-04 8.62068962e-04 2.58620689e-03 0. 0.
      8.62068962e-04 4.31034481e-03 5.17241377e-03 1.72413792e-03
      8.62068962e-04 3.44827585e-03 8.62068962e-04 0. 0. 0. 0. 0.
      1.72413792e-03 0. 0. 0. 1.72413792e-03 8.62068962e-04 0. 0. 0. 0.
      8.62068962e-04 0. 0. 0. 8.62068962e-04 0. 0. 0. 0. 8.62068962e-04
      0. 8.62068962e-04 7.75862066e-03 8.62068962e-04 3.44827585e-03
      5.17241377e-03 8.62068962e-04 0. 0. 0. 1.72413792e-03</_>
    <_>
      0. 1.67364022e-03 0. 3.34728044e-03 0. 8.36820109e-04
      4.18410078e-03 0. 1.67364022e-03 0. 0. 0. 0. 5.85774053e-03 0. 0.
      0. 0. 8.36820109e-04 0. 0. 8.36820109e-04 0. 0. 0. 0. 0.
      9.20502096e-03 0. 0. 0. 0. 0. 0. 1.67364022e-03 0. 0. 0. 0.
      1.67364022e-03 8.36820109e-04 8.36820109e-04 0. 1.08786616e-02
      5.02092065e-03 8.36820109e-04 0. 0. 8.36820109e-04 3.09623443e-02
      0. 4.18410078e-03 3.34728044e-03 0. 3.34728044e-03 8.36820109e-04
      2.51046033e-03 0. 0. 0. 8.36820109e-04 8.36820109e-04
      1.67364022e-03 0. 8.36820109e-04 1.67364022e-03 4.18410078e-03
      8.36820109e-04 6.69456087e-03 1.67364022e-03 4.18410078e-03
      5.02092065e-03 0. 0. 0. 0. 1.17154811e-02 0. 0. 2.51046033e-03 0.
      0. 8.36820109e-04 8.36820109e-04 0. 0. 8.36820109e-04
      8.36820109e-04 0. 5.85774053e-03 8.36820155e-03 8.36820109e-04 0.
      8.36820109e-04 0. 2.51046033e-03 8.36820109e-04 0. 8.36820109e-04
      0. 8.36820109e-04 0. 8.36820109e-04 0. 8.36820109e-04
      8.36820109e-04 4.18410078e-03 8.36820109e-04 0. 8.36820109e-04
      5.02092065e-03 8.36820109e-04 0. 0. 1.67364022e-03 0. 0. 0. 0. 0.
      0. 8.36820109e-04 0. 0. 0. 0. 0. 8.36820109e-04 0. 6.69456087e-03
      1.67364022e-03 1.67364022e-03 0. 3.34728044e-03 0. 1.67364022e-03
      8.36820109e-04 0. 0. 8.36820109e-04 8.36820109e-04 0.
      8.36820109e-04 8.36820109e-04 8.36820109e-04 8.36820109e-04 0.
      3.34728044e-03 1.67364022e-03 0. 8.36820109e-04 8.36820109e-04 0.
      0. 0. 0. 5.02092065e-03 0. 4.18410078e-03 0. 0. 0. 0.
      8.36820109e-04 8.36820109e-04 6.69456087e-03 0. 0. 0.
      1.67364022e-03 0. 0. 0. 0. 2.51046033e-03 8.36820109e-04 0. 0. 0.
      8.36820109e-04 3.34728044e-03 1.67364022e-03 0. 3.34728044e-03
      8.36820109e-04 0. 0. 1.67364022e-03 1.67364022e-03 0.
      8.36820109e-04 0. 8.36820109e-04 8.36820109e-04 8.36820109e-04 0.
      0. 0. 0. 0. 8.36820109e-04 8.36820109e-04 8.36820109e-04 0. 0. 0.
      1.67364022e-03 0. 0. 0. 0. 0. 2.51046033e-03 1.67364022e-03 0. 0.
      8.36820109e-04 0. 0. 0. 0. 0. 0. 8.36820109e-04 0. 8.36820109e-04
      7.53138121e-03 8.36820109e-04 0. 8.36820109e-04 0. 8.36820109e-04
      0. 0. 0. 0. 0. 8.36820109e-04 1.67364022e-03 0. 3.34728044e-03 0.
      0. 0. 0. 3.34728044e-03 8.36820109e-04 0. 0. 6.69456087e-03
      1.67364022e-03 0. 0. 8.36820109e-04 8.36820109e-04 0. 0. 0. 0. 0.
      0. 0. 1.67364022e-03 0. 0. 3.34728044e-03 0. 8.36820109e-04
      8.36820109e-04 1.67364022e-03 8.36820109e-04 0. 0. 0. 0. 0. 0. 0.
      0. 0. 1.67364022e-03 8.36820109e-04 0. 0. 0. 8.36820109e-04 0.
      8.36820109e-04 1.67364022e-03 0. 8.36820109e-04 0. 0. 0. 0.
      4.18410078e-03 1.67364022e-03 0. 3.34728044e-03 0. 0.
      2.51046033e-03 0. 8.36820109e-04 0. 1.67364022e-03 0.
      8.36820109e-04 1.67364022e-03 5.02092065e-03 8.36820109e-04 0. 0.
      6.69456087e-03 8.36820109e-04 0. 4.18410078e-03 8.36820109e-04 0.
      0. 2.51046033e-03 0. 0. 1.67364022e-03 0. 8.36820109e-04 0. 0. 0.
      1.67364022e-03 8.36820109e-04 0. 0. 5.85774053e-03 0. 0.
      8.36820109e-04 1.08786616e-02 0. 8.36820109e-04 8.36820109e-04 0.
      0. 0. 8.36820109e-04 7.53138121e-03 0. 0. 0. 8.36820109e-04
      8.36820109e-04 0. 0. 8.36820109e-04 0. 0. 8.36820109e-04 0.
      1.67364022e-03 0. 8.36820109e-04 0. 0. 0. 0. 3.34728044e-03 0. 0.
      8.36820109e-04 0. 0. 0. 0. 8.36820109e-04 0. 0. 0. 0.
      2.51046033e-03 0. 0. 0. 5.02092065e-03 8.36820109e-04 0.
      8.36820109e-04 4.18410078e-03 0. 0. 0. 1.67364022e-03
      3.34728044e-03 0. 0. 0. 0. 0. 0. 0. 0. 1.67364022e-03
      8.36820109e-04 0. 0. 0. 0. 0. 8.36820109e-04 0. 0. 0.
      8.36820109e-04 1.67364022e-03 0. 0. 0. 1.67364022e-03
      8.36820109e-04 0. 0. 0. 0. 0. 0. 0. 0. 2.51046033e-03 0. 0. 0. 0.
      0. 0. 0. 0. 2.51046033e-03 8.36820109e-04 2.25941427e-02 0.
      2.51046033e-03 0. 0. 1.67364022e-03 1.67364022e-03 5.85774053e-03
      0. 8.36820109e-04 8.36820109e-04 0. 0. 8.36820109e-04 0. 0. 0.
      8.36820109e-04 8.36820109e-04 2.51046033e-03 0. 0. 4.18410078e-03
      0. 5.02092065e-03 1.67364022e-03 8.36820109e-04 1.67364022e-03 0.
      0. 0. 0. 1.67364022e-03 1.08786616e-02 8.36820109e-04 0. 0. 0.
      3.34728044e-03 8.36820109e-04 8.36820109e-04 0. 0. 0.
      8.36820109e-04 0. 0. 8.36820109e-04 2.51046033e-03 0.
      8.36820109e-04 0. 0. 0. 0. 0. 3.34728044e-03 0. 0. 8.36820109e-04
      0. 0. 2.51046033e-03 0. 0. 0. 0. 4.18410078e-03 1.67364022e-03 0.
      0. 0. 0. 0. 0. 0. 3.34728044e-03 0. 8.36820109e-04 2.51046033e-03
      0. 1.67364022e-03 0. 0. 0. 0. 0. 8.36820109e-04 0. 3.34728044e-03
      0. 0. 8.36820109e-04 0. 8.36820109e-04 0. 0. 0. 0. 0.
      6.69456087e-03 8.36820109e-04 0. 0. 0. 0. 0. 0. 0. 8.36820109e-04
      0. 0. 0. 0. 0. 0. 0. 0. 0. 1.67364022e-03 0. 0. 0. 0.
      1.67364022e-03 4.18410078e-03 0. 0. 0. 0. 8.36820109e-04 0. 0.
      8.36820109e-04 0. 8.36820109e-04 8.36820109e-04 0. 0.
      4.18410078e-03 1.67364022e-03 0. 0. 8.36820109e-04 1.08786616e-02
      1.25523014e-02 0. 0. 0. 8.36820109e-04 8.36820109e-04 0. 0. 0. 0.
      0. 3.34728044e-03 0. 1.33891217e-02 0. 0. 0. 5.85774053e-03 0. 0.
      8.36820109e-04 8.36820109e-04 0. 0. 0. 8.36820109e-04 0. 0.
      8.36820109e-04 0. 0. 0. 0. 0. 0. 0. 0. 0. 0. 3.34728044e-03 0. 0.
      6.69456087e-03 0. 0. 0. 8.36820109e-04 8.36820109e-04
      8.36820109e-04 0. 0. 2.51046033e-03 8.36820109e-04 0. 0.
      1.08786616e-02 0. 0. 0. 0. 0. 0. 0. 0. 8.36820109e-04
      2.51046033e-03 8.36820109e-04 8.36820109e-04 0. 2.51046033e-03
      2.51046033e-03 3.34728044e-03 0. 0. 0. 1.67364022e-03
      4.18410078e-03 8.36820109e-04 8.36820109e-04 0. 6.69456087e-03
      8.36820109e-04 0. 0. 8.36820109e-04 8.36820109e-04 8.36820109e-04
      0. 0. 0. 1.67364022e-03 0. 1.67364022e-03 8.36820109e-04 0.
      8.36820109e-04 0. 0. 1.67364022e-03 0. 0. 8.36820109e-04
      1.67364022e-03 8.36820109e-04 0. 0. 0. 0. 0. 0. 0. 1.67364022e-03
      0. 0. 1.67364022e-03 0. 0. 0. 0. 1.67364022e-03 0. 1.67364022e-03
      8.36820109e-04 0. 8.36820109e-04 0. 0. 1.50627624e-02 0.
      5.85774053e-03 0. 0. 0. 8.36820109e-04 8.36820109e-04 0. 0. 0. 0.
      0. 1.67364022e-03 1.67364022e-03 0. 2.51046033e-03 0. 0. 0. 0. 0.
      8.36820109e-04 0. 0. 8.36820109e-04 0. 1.08786616e-02 0. 0. 0. 0.
      0. 5.02092065e-03 0. 8.36820109e-04 0. 0. 0. 0. 0. 8.36820109e-04
      8.36820109e-04 0. 0. 0. 0. 0. 8.36820109e-04 0. 0. 0.
      8.36820109e-04 0. 0. 0. 8.36820109e-04 0. 1.67364022e-03 0. 0.
      1.67364022e-03 0. 0. 8.36820109e-04 1.67364022e-03 0. 0.
      8.36820109e-04 0. 0. 2.51046033e-03 1.67364022e-03 0.
      1.67364022e-03 0. 1.67364022e-03 8.36820109e-04 0. 0. 0. 0.
      8.36820109e-04 8.36820109e-04 0. 1.67364022e-03 0. 0. 0.
      3.34728044e-03 0. 0. 6.69456087e-03 0. 0. 3.34728044e-03
      6.69456087e-03 0. 0. 0. 0. 0. 0. 0. 0. 0. 1.67364022e-03
      1.67364022e-03 0. 0. 0. 0. 0. 0. 8.36820109e-04 8.36820109e-04
      8.36820109e-04 0. 8.36820109e-04 5.85774053e-03 2.51046033e-03
      8.36820109e-04 0. 0. 0. 0. 0. 8.36820109e-04 0. 0. 0. 0.
      8.36820109e-04 6.69456087e-03 0. 0. 0. 1.67364022e-03 0. 0. 0. 0.
      0. 1.67364022e-03 1.67364022e-03 8.36820109e-04 0. 5.85774053e-03
      0. 0. 1.67364022e-03 0. 0. 8.36820109e-04 8.36820109e-04 0. 0. 0.
      0. 0. 3.34728044e-03 8.36820109e-04 0. 8.36820109e-04
      3.34728044e-03 0. 0. 8.36820109e-04 0. 4.18410078e-03
      1.08786616e-02 0. 1.92468632e-02 8.36820109e-04 3.34728044e-03 0.
      2.51046033e-03 1.50627624e-02 1.67364022e-03 1.67364022e-03 0. 0.
      0. 0. 0. 1.67364022e-03 8.36820109e-04 0. 0. 8.36820109e-04 0.
      2.51046033e-03 0. 0. 0. 8.36820109e-04 0. 0. 0. 8.36820109e-04 0.
      6.69456087e-03 1.67364022e-03 0. 0. 1.67364022e-03 0. 0.
      1.67364022e-03 3.34728044e-03 0. 4.18410078e-03 8.36820109e-04
      2.84518842e-02 2.51046033e-03 2.51046033e-03 8.36820109e-04
      1.67364022e-03 0. 0. 1.67364022e-03 0. 0. 0. 0. 2.51046033e-03 0.
      0. 0. 8.36820109e-04 0. 3.34728044e-03 1.67364022e-03
      8.36820109e-04 1.67364022e-03 8.36820109e-04 0. 0. 2.51046033e-03
      8.36820109e-04 0. 0. 8.36820109e-04 0. 0. 0. 8.36820109e-04
      2.51046033e-03 0. 0. 0. 0. 8.36820109e-04 8.36820109e-04
      8.36820109e-04 0. 0. 0. 0. 8.36820109e-04 0. 0. 8.36820155e-03
      8.36820109e-04 1.67364022e-03 8.36820109e-04 0. 2.51046033e-03
      8.36820109e-04 1.67364022e-03 0. 4.18410078e-03 0. 8.36820109e-04
      0. 0. 0. 2.51046033e-03 1.67364022e-03 8.36820109e-04 0.
      4.18410078e-03 8.36820109e-04 0. 0. 6.69456087e-03 0. 0. 0. 0. 0.</_>
    <_>
      1.17924530e-03 0. 0. 2.35849060e-03 0. 0. 0. 0. 2.35849060e-03
      4.71698120e-03 2.35849060e-03 0. 7.07547180e-03 1.17924530e-03
      2.35849060e-03 4.71698120e-03 0. 0. 0. 0. 5.89622650e-03
      1.17924530e-03 0. 7.07547180e-03 3.53773590e-03 0. 0.
      1.17924530e-03 0. 0. 0. 0. 1.17924530e-03 0. 0. 2.35849060e-03 0.
      0. 0. 2.35849060e-03 2.35849060e-03 0. 0. 0. 8.25471710e-03 0. 0.
      0. 0. 1.17924530e-03 5.89622650e-03 0. 1.17924530e-03 0. 0. 0.
      3.53773590e-03 1.17924530e-03 0. 1.17924530e-03 1.17924530e-03
      7.07547180e-03 1.17924530e-03 0. 1.17924530e-03 1.17924530e-03
      1.17924530e-03 0. 0. 0. 0. 0. 0. 0. 1.17924530e-03 0.
      1.17924530e-02 0. 1.17924530e-03 0. 0. 0. 3.53773590e-03 0. 0. 0.
      0. 0. 0. 3.53773590e-03 0. 2.35849060e-03 0. 0. 0. 3.53773590e-03
      0. 0. 0. 5.89622650e-03 0. 0. 0. 1.17924530e-03 1.17924530e-03
      2.35849060e-03 0. 2.35849060e-03 0. 0. 0. 0. 0. 0. 7.07547180e-03
      1.17924530e-03 0. 5.89622650e-03 0. 0. 0. 0. 0. 1.17924530e-03 0.
      0. 0. 0. 0. 0. 0. 0. 9.43396240e-03 0. 0. 1.17924530e-03
      1.17924530e-03 1.17924530e-03 0. 0. 0. 0. 7.07547180e-03 0. 0. 0.
      0. 2.35849060e-03 0. 0. 1.17924530e-03 0. 0. 0. 0. 0.
      2.35849060e-03 1.17924530e-03 1.17924530e-03 0. 0. 3.53773590e-03
      0. 7.07547180e-03 1.17924530e-03 2.35849060e-03 0. 1.17924530e-03
      0. 0. 0. 0. 1.17924530e-03 3.53773590e-03 3.53773590e-03
      1.17924530e-03 1.17924530e-03 1.17924530e-03 0. 0. 3.53773590e-03
      1.17924530e-03 0. 0. 0. 0. 0. 0. 0. 0. 0. 0. 1.17924530e-03 0. 0.
      0. 0. 0. 0. 0. 1.17924530e-03 1.17924530e-03 1.17924530e-03
      1.41509436e-02 0. 0. 7.07547180e-03 1.17924530e-02 0. 0. 0. 0.
      1.17924530e-03 0. 0. 0. 0. 0. 0. 1.17924530e-03 0. 0. 0. 0. 0.
      3.53773590e-03 4.71698120e-03 0. 0. 1.17924530e-03 0. 0. 0.
      1.17924530e-03 0. 0. 0. 2.35849060e-03 3.53773590e-03 0.
      2.35849060e-03 0. 0. 3.53773590e-03 1.17924530e-03 0. 0. 0. 0. 0.
      0. 0. 0. 0. 0. 1.17924530e-03 0. 1.17924530e-03 0. 0. 0. 0.
      2.35849060e-03 0. 0. 0. 2.35849060e-03 4.71698120e-03 0.
      1.17924530e-02 0. 0. 0. 0. 0. 0. 1.17924530e-03 0. 0. 0. 0.
      1.17924530e-03 0. 1.17924530e-03 0. 0. 1.17924530e-03
      2.35849060e-03 0. 0. 1.17924530e-03 0. 3.53773590e-03
      9.43396240e-03 0. 3.53773590e-03 0. 0. 2.35849060e-03 0. 0.
      4.71698120e-03 0. 0. 0. 0. 0. 1.17924530e-03 5.89622650e-03 0.
      4.71698120e-03 2.35849060e-03 0. 2.35849060e-03 0. 1.17924530e-03
      3.53773590e-03 0. 1.17924530e-03 1.17924530e-03 1.17924530e-03 0.
      0. 0. 1.17924530e-03 0. 1.17924530e-03 0. 0. 0. 0. 0.
      1.17924530e-03 0. 0. 0. 0. 2.35849060e-03 1.17924530e-03
      1.17924530e-03 0. 0. 0. 0. 0. 0. 0. 0. 0. 0. 5.89622650e-03
      1.17924530e-03 1.17924530e-03 0. 4.71698120e-03 0. 0. 0. 0. 0. 0.
      0. 0. 0. 0. 1.17924530e-03 0. 0. 1.17924530e-03 0. 0. 0. 0. 0.
      1.17924530e-03 1.17924530e-03 2.35849060e-03 1.17924530e-03 0. 0.
      0. 1.17924530e-03 0. 1.17924530e-03 0. 0. 1.17924530e-03 0. 0. 0.
      0. 0. 0. 1.17924530e-03 3.53773590e-03 0. 0. 1.17924530e-03 0. 0.
      1.17924530e-03 0. 0. 0. 2.35849060e-03 0. 0. 0. 4.71698120e-03 0.
      0. 0. 2.35849060e-03 1.17924530e-03 0. 0. 1.17924530e-03 0. 0. 0.
      0. 1.17924530e-03 0. 0. 0. 0. 2.35849060e-03 0. 4.71698120e-03
      1.17924530e-03 0. 1.17924530e-03 0. 0. 0. 0. 0. 1.06132077e-02 0.
      3.53773590e-03 0. 0. 1.17924530e-03 0. 3.53773590e-03 0. 0. 0.
      2.35849060e-03 0. 0. 0. 0. 0. 0. 2.35849060e-03 2.35849060e-03
      2.35849060e-03 0. 0. 0. 1.17924530e-03 1.17924530e-03 0.
      1.17924530e-03 1.17924530e-03 0. 5.89622650e-03 0. 3.53773590e-03
      0. 0. 0. 3.53773590e-03 0. 0. 0. 0. 0. 1.17924530e-03
      1.17924530e-03 0. 0. 0. 0. 1.17924530e-03 0. 4.71698120e-03
      7.07547180e-03 0. 0. 1.17924530e-03 0. 0. 0. 0. 3.53773590e-03
      2.35849060e-03 2.35849060e-03 0. 0. 0. 0. 0. 7.07547180e-03 0.
      1.17924530e-03 0. 1.17924530e-03 1.17924530e-03 0. 1.17924530e-03
      0. 2.35849060e-03 0. 0. 0. 0. 0. 0. 0. 0. 0. 0. 0. 0. 0. 0. 0. 0.
      0. 1.17924530e-03 0. 2.35849060e-03 2.35849060e-03 0. 0. 0. 0. 0.
      3.53773590e-03 1.76886804e-02 1.17924530e-03 3.53773590e-03 0. 0.
      0. 0. 1.17924530e-03 0. 0. 0. 0. 0. 0. 0. 0. 0. 1.17924530e-03
      3.53773590e-03 2.35849060e-03 0. 0. 0. 0. 0. 0. 1.17924530e-03 0.
      0. 0. 0. 5.89622650e-03 1.17924530e-03 2.35849060e-03 0. 0. 0. 0.
      0. 1.17924530e-03 3.53773590e-03 0. 0. 0. 0. 0. 0. 3.53773590e-03
      0. 3.53773590e-03 1.17924530e-03 0. 2.35849060e-03 2.35849060e-03
      1.17924530e-02 0. 0. 0. 0. 0. 0. 0. 1.17924530e-03 1.17924530e-03
      0. 0. 0. 0. 2.35849060e-03 0. 0. 1.17924530e-03 0. 0. 0. 0. 0.
      1.17924530e-03 1.17924530e-03 0. 5.89622650e-03 0. 1.17924530e-03
      0. 1.17924530e-03 1.17924530e-03 0. 1.17924530e-03 1.17924530e-03
      2.35849060e-03 0. 0. 1.17924530e-03 1.17924530e-03 0. 0.
      2.12264154e-02 2.35849060e-03 0. 0. 0. 0. 0. 0. 1.17924530e-03
      1.17924530e-03 0. 0. 1.17924530e-03 0. 0. 0. 0. 0. 0. 0.
      1.17924530e-03 0. 0. 1.17924530e-03 0. 0. 0. 0. 2.35849060e-03 0.
      1.17924530e-03 0. 0. 1.17924530e-03 0. 0. 0. 0. 0. 2.35849060e-03
      1.65094342e-02 1.17924530e-03 0. 0. 0. 0. 0. 2.35849060e-03 0. 0.
      0. 3.53773590e-03 0. 0. 0. 0. 0. 0. 3.53773590e-03 0. 0. 0.
      2.35849060e-03 1.17924530e-03 0. 0. 0. 2.35849060e-03
      1.17924530e-03 0. 0. 0. 4.71698120e-03 0. 3.53773590e-03
      1.17924530e-03 2.35849060e-03 0. 0. 1.17924530e-03 0. 0. 0. 0.
      1.17924530e-03 5.89622650e-03 0. 1.17924530e-03 0. 5.89622650e-03
      0. 0. 0. 4.71698120e-03 3.53773590e-03 0. 3.53773590e-03 0. 0.
      1.17924530e-03 0. 1.17924530e-03 0. 3.53773590e-03 0.
      1.41509436e-02 1.17924530e-03 0. 0. 0. 0. 0. 1.17924530e-03 0. 0.
      2.35849060e-03 0. 0. 1.17924530e-03 0. 0. 0. 0. 0. 3.53773590e-03
      0. 2.35849060e-03 1.17924530e-03 2.35849060e-03 1.17924530e-03 0.
      0. 0. 0. 0. 1.17924530e-03 0. 0. 2.35849060e-03 1.17924530e-03 0.
      0. 0. 2.35849060e-03 0. 0. 1.17924530e-03 0. 1.17924530e-03 0. 0.
      0. 0. 0. 0. 0. 0. 2.35849060e-03 2.35849060e-03 0. 0. 0. 0. 0.
      2.35849060e-03 0. 2.35849060e-03 1.17924530e-03 1.17924530e-03 0.
      3.53773590e-03 0. 0. 5.89622650e-03 0. 1.17924530e-03 0.
      8.25471710e-03 0. 0. 0. 0. 0. 0. 4.71698120e-03 0. 0. 0. 0. 0.
      2.35849060e-03 0. 1.17924530e-03 0. 0. 0. 0. 5.89622650e-03 0. 0.
      0. 0. 1.17924530e-03 0. 0. 2.35849060e-03 0. 2.35849060e-03 0.
      2.35849060e-03 4.71698120e-03 0. 0. 1.17924530e-03 0.
      2.35849060e-03 2.35849060e-03 0. 0. 0. 1.65094342e-02 0. 0. 0. 0.
      5.89622650e-03 4.71698120e-03 0. 4.71698120e-03 0. 2.35849060e-03
      0. 1.17924530e-02 0. 0. 0. 0. 0. 0. 1.17924530e-03 0. 0.
      1.17924530e-03 0. 1.53301889e-02 0. 1.17924530e-03 0.
      3.53773590e-03 0. 0. 0. 0. 0. 1.17924530e-03 0. 0. 3.53773590e-03
      0. 0. 0. 1.17924530e-03 0. 0. 0. 0. 0. 0. 2.35849060e-03
      1.17924530e-03 0. 0. 0. 2.35849060e-03 0. 2.35849060e-03
      1.17924530e-03 0. 0. 2.35849060e-03 1.17924530e-03 0. 0. 0.
      1.17924530e-03 1.17924530e-03 0. 4.71698120e-03 0. 0. 0. 0. 0. 0.
      0. 0. 0. 0. 0. 1.17924530e-03 0. 1.17924530e-03 0. 3.53773590e-03
      1.17924530e-02 1.17924530e-03 1.17924530e-03 0. 8.25471710e-03 0.
      0. 0. 0. 3.53773590e-03 2.35849060e-03 5.89622650e-03 0.
      4.71698120e-03 0. 0. 0. 1.17924530e-03 0. 3.53773590e-03 0.
      7.07547180e-03 0. 0. 0. 2.35849060e-03 0. 1.17924530e-03 0. 0. 0.
      2.35849060e-03 0. 0. 0. 0. 8.25471710e-03 0. 0. 3.53773590e-03 0.
      0. 0. 0. 0. 3.53773590e-03 0. 2.35849060e-03 0. 0. 0. 0. 0.
      1.17924530e-03 2.35849060e-03 0. 0. 0. 0.</_>
    <_>
      0. 0. 0. 2.49376567e-03 4.98753134e-03 0. 0. 0. 0. 0. 0.
      4.98753134e-03 0. 0. 0. 0. 0. 0. 2.49376567e-03 0. 0. 0. 0. 0. 0.
      0. 0. 0. 0. 0. 0. 0. 0. 0. 0. 2.49376567e-03 0. 0. 2.49376567e-03
      0. 0. 0. 2.49376567e-03 0. 0. 0. 0. 0. 0. 0. 2.49376567e-03 0. 0.
      0. 0. 4.98753134e-03 0. 4.98753134e-03 0. 0. 0. 0. 0. 0. 0.
      4.98753134e-03 0. 0. 0. 0. 2.49376567e-03 0. 0. 2.49376567e-03
      2.49376567e-03 3.24189551e-02 7.48129701e-03 2.49376567e-03 0. 0.
      0. 0. 0. 0. 0. 4.98753134e-03 0. 2.49376567e-03 2.74314228e-02 0.
      0. 0. 0. 0. 0. 0. 0. 4.98753134e-03 0. 0. 0. 0. 0. 0. 0. 0. 0. 0.
      0. 0. 1.99501254e-02 0. 0. 0. 2.49376567e-03 0. 0. 0. 0. 0.
      2.49376567e-03 4.98753134e-03 0. 0. 0. 0. 0. 0. 0. 2.49376567e-03
      0. 0. 4.98753134e-03 0. 0. 4.98753134e-03 0. 0. 0. 0.
      4.23940159e-02 0. 0. 0. 0. 0. 0. 0. 0. 0. 0. 0. 0. 0.
      2.49376567e-03 0. 0. 0. 2.49376567e-03 2.49376567e-03 0. 0. 0. 0.
      0. 2.49376567e-03 0. 0. 0. 0. 0. 0. 0. 0. 0. 0. 0. 0.
      2.49376558e-02 0. 2.49376567e-03 0. 0. 0. 0. 0. 0. 0. 0. 0. 0. 0.
      0. 0. 2.49376567e-03 2.49376567e-03 0. 0. 7.48129701e-03 0. 0. 0.
      0. 0. 0. 0. 0. 0. 9.97506268e-03 0. 0. 2.49376567e-03 0. 0. 0. 0.
      0. 2.49376567e-03 0. 0. 2.49376567e-03 0. 2.49376567e-03 0.
      2.49376567e-03 2.49376567e-03 2.49376567e-03 0. 2.49376567e-03 0.
      0. 0. 2.49376567e-03 0. 0. 0. 9.97506268e-03 0. 0. 2.49376567e-03
      0. 0. 0. 0. 0. 0. 0. 2.49376567e-03 0. 0. 0. 7.48129701e-03 0. 0.
      0. 0. 0. 0. 0. 0. 0. 0. 0. 2.49376567e-03 0. 0. 0. 0. 0. 0. 0. 0.
      7.48129701e-03 0. 0. 0. 0. 2.49376567e-03 2.49376567e-03 0.
      7.48129701e-03 0. 0. 0. 0. 0. 0. 0. 0. 0. 0. 0. 0. 0. 0.
      1.49625940e-02 2.49376567e-03 0. 0. 0. 0. 2.49376567e-03 0. 0. 0.
      2.49376567e-03 0. 0. 0. 3.74064855e-02 2.49376567e-03 0. 0. 0.
      4.98753134e-03 0. 0. 2.49376567e-03 2.49376567e-03 0. 0. 0. 0. 0.
      0. 0. 0. 0. 0. 0. 0. 0. 0. 0. 0. 0. 0. 0. 0. 0. 0. 0.
      1.24688279e-02 0. 2.49376567e-03 0. 0. 0. 2.49376567e-03 0.
      2.49376567e-03 0. 0. 0. 0. 0. 2.49376567e-03 0. 0. 0. 0. 0. 0. 0.
      0. 0. 0. 0. 2.49376567e-03 0. 0. 0. 0. 2.49376567e-03
      4.98753134e-03 0. 0. 0. 0. 0. 0. 0. 0. 0. 0. 0. 0. 0.
      4.98753134e-03 0. 0. 0. 0. 0. 0. 0. 0. 0. 0. 0. 0. 4.98753134e-03
      0. 2.49376567e-03 0. 0. 0. 2.49376567e-03 0. 0. 0. 0. 0. 0.
      4.98753134e-03 2.49376567e-03 0. 1.24688279e-02 0. 0. 0. 0. 0. 0.
      0. 0. 0. 0. 0. 0. 2.49376567e-03 0. 0. 0. 0. 0. 0. 9.97506268e-03
      0. 1.24688279e-02 0. 0. 0. 0. 0. 0. 0. 0. 0. 0. 0. 0. 0. 0. 0. 0.
      0. 0. 0. 2.49376567e-03 0. 0. 2.49376567e-03 0. 0. 0. 0.
      1.49625940e-02 0. 4.98753134e-03 0. 0. 0. 0. 0. 0. 0. 0. 0. 0.
      2.49376567e-03 0. 0. 0. 2.49376567e-03 4.98753134e-03 0. 0. 0. 0.
      0. 0. 0. 0. 0. 0. 0. 0. 0. 0. 0. 0. 0. 0. 0. 4.98753134e-03 0. 0.
      0. 0. 0. 0. 0. 0. 2.49376567e-03 4.98753134e-03 2.49376567e-03 0.
      2.49376567e-03 0. 0. 0. 0. 0. 2.49376567e-03 0. 2.49376567e-03 0.
      0. 0. 2.49376567e-03 2.49376567e-03 0. 0. 0. 0. 0. 2.49376567e-03
      0. 0. 0. 0. 0. 0. 0. 4.98753134e-03 2.49376567e-03 2.49376567e-03
      0. 0. 0. 0. 0. 0. 0. 0. 0. 0. 7.48129701e-03 0. 0. 0. 0. 0.
      4.98753134e-03 2.49376567e-03 2.49376567e-03 0. 0. 0.
      2.49376567e-03 0. 0. 0. 0. 0. 0. 0. 0. 0. 0. 0. 0. 0. 0. 0.
      2.49376567e-03 0. 0. 0. 2.49376567e-03 0. 0. 0. 0. 0. 0. 0. 0.
      4.98753134e-03 0. 0. 0. 0. 0. 0. 2.49376567e-03 0. 0.
      2.49376567e-03 0. 0. 0. 0. 0. 2.49376567e-03 0. 0. 4.98753134e-03
      0. 0. 2.49376567e-03 0. 0. 2.49376567e-03 4.98753134e-03 0. 0.
      4.98753134e-03 0. 0. 0. 0. 4.98753134e-03 0. 0. 0. 0. 0. 0. 0.
      2.49376567e-03 0. 0. 0. 0. 0. 0. 0. 0. 0. 2.49376567e-03 0.
      4.98753134e-03 0. 0. 7.48129701e-03 0. 0. 0. 7.48129701e-03 0.
      7.48129701e-03 2.49376567e-03 0. 0. 0. 0. 0. 0. 0. 0. 0.
      2.49376567e-03 2.49376567e-03 0. 2.49376567e-03 0. 0. 0. 0. 0. 0.
      0. 0. 2.49376567e-03 0. 0. 0. 0. 2.49376567e-03 2.49376567e-03 0.
      0. 0. 2.49376567e-03 2.49376567e-03 0. 0. 2.49376567e-03 0. 0.
      2.49376567e-03 0. 0. 0. 0. 0. 0. 2.49376567e-03 0. 4.98753134e-03
      0. 0. 2.49376567e-03 0. 0. 7.48129701e-03 0. 0. 2.49376567e-03
      2.49376567e-03 0. 0. 0. 0. 0. 0. 0. 0. 0. 0. 0. 0. 0. 0. 0. 0.
      2.49376567e-03 0. 0. 2.49376567e-03 0. 0. 0. 0. 0. 0. 0.
      2.49376567e-03 0. 0. 0. 0. 2.49376567e-03 2.49376567e-03 0. 0. 0.
      9.97506268e-03 0. 0. 0. 0. 0. 0. 0. 0. 0. 0. 0. 0. 0. 0. 0.
      4.98753134e-03 0. 0. 0. 0. 7.48129701e-03 0. 4.98753134e-03 0. 0.
      4.98753134e-03 4.98753134e-03 2.49376567e-03 0. 0. 0. 0.
      2.49376567e-03 0. 0. 2.49376567e-03 0. 0. 0. 2.49376567e-03 0. 0.
      0. 4.98753134e-03 0. 4.98753134e-03 0. 0. 2.49376567e-03 0. 0. 0.
      0. 0. 2.49376567e-03 0. 0. 0. 0. 0. 4.98753134e-03 0. 0. 0. 0. 0.
      0. 0. 0. 0. 0. 0. 2.49376567e-03 0. 0. 2.49376567e-03 0. 0. 0. 0.
      0. 1.99501254e-02 0. 2.49376567e-03 0. 0. 2.49376567e-03 0. 0. 0.
      0. 0. 0. 0. 0. 2.49376567e-03 0. 0. 0. 0. 0. 0. 0. 0. 0. 0. 0. 0.
      0. 0. 0. 0. 0. 0. 0. 0. 0. 0. 2.49376567e-03 0. 0. 0. 0.
      4.98753134e-03 0. 0. 0. 0. 1.24688279e-02 0. 0. 0. 0. 0. 0. 0. 0.
      0. 0. 0. 2.49376567e-03 0. 2.49376567e-03 0. 0. 0. 2.49376567e-03
      0. 2.49376567e-03 0. 2.49376567e-03 2.49376567e-03 0. 0. 0. 0.
      2.49376567e-03 0. 0. 0. 1.49625940e-02 0. 0. 2.49376567e-03 0. 0.
      0. 0. 0. 0. 0. 0. 0. 0. 4.98753134e-03 0. 0. 0. 7.48129701e-03 0.
      2.49376567e-03 0. 0. 0. 0. 0. 0. 0. 4.98753134e-03 0. 0.
      7.48129701e-03 0. 0. 0. 0. 0. 0. 0. 0. 0. 0. 0. 2.49376567e-03 0.
      0. 0. 4.98753134e-03 0. 2.49376567e-03 0. 0. 2.49376567e-03 0.
      2.49376567e-03 0. 0. 0. 0. 0. 0. 1.99501254e-02 9.97506268e-03
      2.49376567e-03 2.49376567e-03 4.98753134e-03 0. 0. 0. 0. 0. 0. 0.
      0. 2.24438906e-02 0. 0. 0. 0. 2.49376567e-03</_>
    <_>
      5.34759369e-03 0. 0. 1.33689847e-02 2.67379684e-03 0. 0. 0.
      5.34759369e-03 0. 2.67379684e-03 0. 0. 0. 0. 0. 0. 0. 0.
      2.67379684e-03 0. 0. 0. 0. 0. 2.67379684e-03 0. 0. 0. 0. 0. 0. 0.
      0. 0. 0. 0. 0. 0. 0. 0. 0. 0. 0. 1.33689847e-02 2.67379684e-03 0.
      0. 0. 0. 0. 0. 5.34759369e-03 2.67379684e-03 0. 0. 0. 0. 0. 0. 0.
      0. 5.34759369e-03 2.67379684e-03 0. 0. 5.34759369e-03 0.
      5.34759369e-03 0. 0. 5.34759369e-03 0. 0. 0. 0. 2.67379684e-03
      2.67379684e-03 0. 0. 5.34759369e-03 0. 0. 0. 0. 0. 0.
      2.67379684e-03 0. 0. 0. 0. 0. 0. 0. 0. 0. 2.67379684e-03 0. 0. 0.
      0. 0. 0. 0. 0. 0. 2.67379684e-03 0. 0. 2.67379684e-03 0.
      2.67379684e-03 0. 0. 0. 0. 0. 0. 1.06951874e-02 2.67379684e-03 0.
      2.67379684e-03 0. 2.67379684e-03 0. 0. 5.34759369e-03
      2.67379684e-03 0. 0. 0. 2.67379684e-03 5.34759369e-03
      2.67379684e-03 0. 0. 0. 0. 0. 0. 0. 0. 0. 0. 0. 0. 0. 0. 0. 0. 0.
      0. 0. 0. 0. 2.67379684e-03 0. 0. 0. 0. 0. 0. 0. 2.67379684e-03 0.
      0. 0. 0. 0. 1.06951874e-02 0. 0. 0. 0. 0. 2.67379684e-03 0. 0. 0.
      0. 5.34759369e-03 0. 0. 0. 0. 0. 2.67379684e-03 2.67379684e-03 0.
      0. 0. 0. 0. 0. 0. 8.02139007e-03 0. 0. 0. 0. 0. 0. 0. 0. 0. 0. 0.
      0. 0. 0. 0. 0. 0. 0. 0. 0. 5.34759369e-03 0. 0. 0. 0. 0. 0. 0.
      2.67379684e-03 2.67379684e-03 0. 2.67379684e-03 0. 5.34759369e-03
      0. 0. 0. 5.34759369e-03 0. 2.67379684e-03 0. 0. 0. 2.67379684e-03
      0. 2.67379684e-03 0. 0. 0. 0. 0. 0. 0. 0. 0. 0. 0. 0. 0. 0. 0.
      1.06951874e-02 0. 2.67379684e-03 0. 1.06951874e-02 0. 0. 0. 0. 0.
      2.67379684e-03 2.67379684e-03 0. 5.34759369e-03 2.67379684e-03
      2.67379684e-03 8.02139007e-03 0. 0. 0. 0. 5.34759369e-03 0.
      2.67379684e-03 0. 0. 3.47593576e-02 0. 0. 0. 2.67379684e-03 0. 0.
      0. 0. 0. 0. 0. 2.67379684e-03 0. 0. 2.67379684e-03 0. 0.
      2.67379684e-03 0. 2.67379684e-03 0. 0. 0. 0. 0. 0. 2.67379684e-03
      0. 0. 0. 0. 2.67379684e-03 0. 0. 2.67379684e-03 0. 0. 0. 0. 0.
      3.47593576e-02 0. 0. 0. 2.67379684e-03 2.67379684e-03 0. 0. 0. 0.
      0. 0. 2.67379684e-03 2.67379684e-03 0. 5.34759369e-03 0. 0. 0. 0.
      0. 5.34759369e-03 2.67379684e-03 1.06951874e-02 0. 0. 0. 0.
      5.34759369e-03 0. 0. 0. 2.67379684e-03 0. 0. 2.67379684e-03 0. 0.
      0. 2.67379684e-03 0. 0. 0. 0. 0. 0. 0. 2.67379684e-03 0. 0. 0. 0.
      0. 2.67379684e-03 5.34759369e-03 2.67379684e-03 0. 0. 0.
      5.34759369e-03 0. 0. 2.67379684e-03 2.67379684e-03 2.67379684e-03
      8.02139007e-03 0. 2.67379684e-03 2.67379684e-03 0. 2.67379684e-03
      0. 0. 0. 0. 0. 0. 0. 2.67379684e-03 0. 0. 5.34759369e-03 0. 0. 0.
      0. 8.02139007e-03 0. 0. 0. 0. 0. 0. 0. 0. 0. 0. 0. 0. 0. 0. 0. 0.
      0. 0. 8.02139007e-03 0. 0. 2.67379684e-03 0. 0. 0. 5.34759369e-03
      0. 0. 5.34759369e-03 0. 0. 1.33689847e-02 0. 0. 0. 0. 0. 0. 0.
      2.67379684e-03 0. 0. 0. 0. 0. 2.67379684e-03 0. 2.67379684e-03 0.
      0. 0. 0. 0. 0. 0. 0. 0. 0. 0. 2.67379684e-03 0. 0. 0.
      1.60427801e-02 0. 2.67379684e-03 0. 2.67379684e-03 0. 0. 0. 0.
      2.67379684e-03 0. 2.67379684e-03 2.67379684e-03 0. 0. 0. 0. 0.
      2.67379684e-03 5.34759369e-03 0. 2.67379684e-03 0. 0. 0. 0. 0. 0.
      8.02139007e-03 0. 0. 0. 0. 0. 0. 2.67379684e-03 0. 0. 0. 0.
      8.02139007e-03 0. 0. 0. 0. 0. 2.67379684e-03 0. 0. 0. 0. 0. 0. 0.
      0. 2.67379684e-03 2.67379684e-03 0. 5.34759369e-03 8.02139007e-03
      0. 0. 5.34759369e-03 2.67379684e-03 0. 0. 5.34759369e-03
      2.67379684e-03 2.67379684e-03 0. 0. 0. 0. 2.67379684e-03 0.
      5.34759369e-03 2.67379684e-03 0. 0. 0. 0. 0. 0. 0. 0. 0. 0.
      2.67379684e-03 8.02139007e-03 0. 0. 0. 0. 0. 0. 0. 2.67379684e-03
      0. 0. 0. 5.34759369e-03 0. 0. 0. 0. 0. 0. 0. 0. 0. 2.67379684e-03
      0. 0. 0. 2.67379684e-03 0. 0. 0. 0. 0. 0. 0. 2.67379684e-03 0. 0.
      0. 0. 2.67379684e-03 2.67379684e-03 0. 0. 0. 0. 0. 0. 0. 0.
      8.02139007e-03 0. 0. 0. 0. 0. 0. 2.67379684e-03 0. 0. 0. 0. 0. 0.
      0. 2.67379684e-03 0. 0. 0. 0. 2.67379684e-03 2.67379684e-03 0. 0.
      2.67379684e-03 0. 0. 0. 0. 2.67379684e-03 0. 0. 0. 0. 0. 0.
      1.60427801e-02 5.34759369e-03 0. 0. 0. 0. 0. 8.02139007e-03 0. 0.
      0. 2.67379684e-03 5.34759369e-03 0. 0. 0. 0. 0. 2.67379684e-03 0.
      0. 0. 0. 0. 0. 0. 0. 5.34759369e-03 0. 0. 0. 2.67379684e-03 0.
      5.34759369e-03 0. 0. 0. 0. 0. 0. 0. 0. 0. 0. 0. 0. 0. 0. 0. 0. 0.
      0. 0. 2.67379684e-03 0. 0. 0. 0. 0. 0. 0. 0. 0. 0. 0. 0. 0. 0. 0.
      0. 0. 2.67379684e-03 0. 0. 2.67379684e-03 2.67379684e-03 0.
      2.67379684e-03 2.67379684e-03 0. 2.67379684e-03 8.02139007e-03
      2.67379684e-03 2.67379684e-03 0. 0. 2.67379684e-03 0. 0. 0.
      2.67379684e-03 0. 0. 2.67379684e-03 0. 0. 2.67379684e-03 0. 0. 0.
      0. 0. 0. 0. 0. 0. 0. 0. 0. 0. 0. 0. 0. 0. 0. 0. 2.67379684e-03 0.
      0. 0. 0. 0. 0. 0. 0. 0. 0. 0. 0. 0. 0. 0. 5.34759369e-03 0. 0. 0.
      0. 0. 0. 0. 0. 0. 0. 0. 5.34759369e-03 0. 2.67379684e-03 0.
      5.34759369e-03 0. 0. 2.67379684e-03 0. 0. 0. 0. 0. 0. 0. 0.
      2.67379684e-03 5.34759369e-03 2.67379684e-03 0. 2.67379684e-03
      2.67379684e-03 0. 0. 2.13903747e-02 0. 0. 5.34759369e-03 0.
      2.67379684e-03 0. 0. 8.02139007e-03 0. 0. 2.40641721e-02 0.
      2.67379684e-03 0. 0. 0. 0. 0. 8.02139007e-03 0. 0. 0. 0.
      5.34759369e-03 2.67379684e-03 0. 2.67379684e-03 0. 0. 0. 0. 0. 0.
      2.67379684e-03 0. 0. 0. 0. 5.34759369e-03 0. 0. 0. 0. 0. 0. 0. 0.
      0. 0. 0. 0. 2.67379684e-03 1.06951874e-02 0. 0. 0. 5.34759369e-03
      0. 0. 0. 0. 0. 0. 0. 0. 0. 0. 0. 0. 0. 0. 0. 0. 0. 0.
      2.67379684e-03 0. 0. 0. 0. 2.67379684e-03 0. 0. 0. 0. 0. 0.
      5.34759369e-03 0. 0. 0. 0. 2.67379684e-03 0. 0. 0. 0. 0. 0.
      2.67379684e-03 0. 0. 0. 0. 0. 5.34759369e-03 0. 0. 0.
      5.34759369e-03 0. 0. 0. 5.34759369e-03 0. 0. 0. 0. 0. 0.
      2.67379684e-03 0. 0. 0. 0. 2.67379684e-03 0. 0. 0. 0. 0. 0. 0. 0.
      5.34759369e-03 0. 0. 2.67379684e-03 0. 0. 5.34759369e-03 0. 0. 0.
      5.34759369e-03 0. 0. 0. 0. 0. 0. 0. 0. 0. 0. 0. 2.67379684e-03
      5.34759369e-03 0. 0. 0. 0. 0. 0. 0. 2.67379684e-03 2.67379684e-03
      0. 0. 0. 0. 2.67379684e-03 0. 2.67379684e-03 0. 0. 0. 0. 0. 0. 0.
      0. 0.</_>
    <_>
      0. 4.01606411e-03 0. 2.00803205e-02 0. 4.01606411e-03 0. 0.
      4.01606411e-03 0. 0. 0. 0. 0. 0. 8.03212821e-03 0. 0. 0. 0. 0. 0.
      0. 8.03212821e-03 0. 0. 0. 4.01606411e-03 0. 8.03212821e-03 0. 0.
      0. 0. 4.01606411e-03 0. 0. 0. 0. 4.01606411e-03 4.01606411e-03 0.
      0. 0. 1.20481923e-02 0. 0. 4.01606411e-03 0. 0. 0. 4.01606411e-03
      0. 0. 0. 0. 0. 0. 0. 0. 0. 0. 0. 0. 0. 0. 0. 0. 0. 0. 0. 0. 0. 0.
      4.01606411e-03 0. 0. 0. 4.01606411e-03 0. 0. 0. 0. 0. 0. 0. 0. 0.
      0. 0. 8.03212821e-03 0. 0. 0. 0. 0. 0. 4.01606411e-03 0.
      4.01606411e-03 4.01606411e-03 0. 0. 0. 0. 0. 0. 0. 0.
      4.01606411e-03 0. 0. 0. 0. 0. 0. 0. 4.01606411e-03 0. 0. 0.
      8.03212821e-03 0. 0. 0. 0. 0. 0. 0. 4.01606411e-03 4.01606411e-03
      0. 0. 8.03212821e-03 0. 8.03212821e-03 0. 0. 0. 0. 4.01606411e-03
      0. 0. 0. 4.01606411e-03 8.03212821e-03 0. 4.01606411e-03 0. 0.
      4.01606411e-03 0. 0. 0. 0. 0. 0. 0. 0. 0. 0. 0. 0. 0. 0.
      4.01606411e-03 0. 0. 0. 0. 0. 0. 0. 0. 4.01606411e-03 0.
      4.01606411e-03 0. 0. 4.01606411e-03 0. 0. 0. 0. 0. 0. 0. 0. 0. 0.
      0. 0. 0. 0. 0. 0. 8.03212821e-03 0. 0. 0. 0. 0. 0. 8.03212821e-03
      0. 0. 0. 0. 0. 0. 0. 0. 0. 0. 0. 0. 0. 0. 1.20481923e-02 0. 0. 0.
      0. 0. 8.03212821e-03 0. 4.01606411e-03 8.03212821e-03 0. 0. 0. 0.
      0. 0. 4.01606411e-03 0. 0. 8.03212821e-03 0. 0. 4.01606411e-03 0.
      0. 4.01606411e-03 0. 0. 0. 0. 0. 4.01606411e-03 0. 0. 0. 0. 0. 0.
      0. 0. 0. 0. 0. 0. 4.01606411e-03 0. 0. 0. 0. 4.01606411e-03 0. 0.
      1.20481923e-02 0. 0. 0. 0. 0. 0. 0. 0. 0. 4.01606411e-03 0. 0. 0.
      0. 0. 0. 0. 0. 0. 0. 0. 0. 0. 0. 0. 0. 0. 0. 0. 0. 0. 0.
      4.01606411e-03 0. 0. 0. 0. 8.03212821e-03 0. 0. 0. 0. 0. 0. 0.
      4.01606411e-03 0. 0. 0. 0. 0. 0. 0. 0. 1.20481923e-02 0. 0. 0. 0.
      0. 0. 0. 4.01606411e-03 0. 0. 0. 0. 0. 0. 0. 0. 0. 0. 0.
      1.20481923e-02 0. 0. 0. 0. 0. 0. 0. 0. 0. 0. 0. 0. 0. 0. 0. 0. 0.
      0. 0. 0. 0. 0. 0. 0. 0. 0. 0. 0. 0. 0. 0. 0. 0. 0. 0. 0. 0. 0. 0.
      4.01606411e-03 8.03212821e-03 0. 0. 0. 0. 0. 0. 4.01606411e-03 0.
      0. 0. 0. 0. 0. 0. 0. 0. 0. 0. 0. 0. 0. 0. 0. 0. 0. 1.20481923e-02
      0. 0. 4.01606411e-03 0. 0. 0. 0. 0. 0. 0. 0. 0. 0. 0. 0. 0. 0. 0.
      0. 0. 8.03212821e-03 0. 4.01606411e-03 0. 8.03212821e-03 0. 0. 0.
      0. 0. 1.20481923e-02 8.03212821e-03 0. 4.01606411e-03
      4.01606411e-03 0. 0. 0. 0. 4.01606411e-03 0. 0. 0. 0.
      4.01606411e-03 0. 4.01606411e-03 0. 4.01606411e-03 0.
      4.01606411e-03 4.01606411e-03 1.60642564e-02 0. 0. 0. 0.
      4.01606411e-03 0. 0. 0. 1.20481923e-02 0. 0. 0. 0. 0. 0. 0. 0.
      4.01606411e-03 4.01606411e-03 0. 0. 0. 4.01606411e-03 0. 0. 0. 0.
      0. 0. 0. 0. 0. 0. 0. 4.01606411e-03 0. 0. 0. 0. 0. 0. 0. 0.
      8.03212821e-03 0. 0. 0. 0. 0. 4.01606411e-03 0. 4.01606411e-03
      4.01606411e-03 0. 0. 0. 0. 0. 0. 0. 0. 0. 0. 0. 0. 0. 0. 0. 0. 0.
      0. 8.03212821e-03 0. 0. 0. 0. 0. 0. 0. 0. 4.01606411e-03 0.
      4.01606411e-03 0. 0. 0. 0. 0. 0. 0. 4.01606411e-03 0. 0. 0. 0. 0.
      0. 0. 0. 0. 0. 0. 0. 0. 4.01606411e-03 4.01606411e-03 0. 0. 0. 0.
      0. 0. 0. 0. 0. 0. 8.03212821e-03 0. 2.00803205e-02 0. 0. 0. 0. 0.
      0. 1.60642564e-02 0. 0. 0. 0. 0. 0. 4.01606411e-03 0. 0. 0. 0.
      4.01606411e-03 0. 0. 0. 0. 0. 4.01606411e-03 0. 0. 0. 0. 0. 0. 0.
      0. 0. 0. 0. 8.03212821e-03 0. 0. 0. 0. 0. 0. 0. 4.01606411e-03 0.
      0. 0. 1.20481923e-02 0. 4.01606411e-03 0. 1.60642564e-02 0. 0. 0.
      0. 0. 0. 0. 0. 0. 0. 0. 1.20481923e-02 0. 1.20481923e-02 0.
      1.20481923e-02 4.01606411e-03 0. 8.03212821e-03 0. 0. 0. 0. 0. 0.
      0. 0. 0. 0. 8.03212821e-03 0. 0. 0. 0. 0. 4.01606411e-03 0. 0. 0.
      4.01606411e-03 4.01606411e-03 0. 0. 0. 1.20481923e-02 0. 0.
      4.01606411e-03 0. 0. 8.03212821e-03 0. 0. 0. 0. 0. 0. 0. 0. 0. 0.
      0. 0. 0. 0. 0. 0. 0. 0. 0. 0. 0. 0. 0. 0. 0. 0. 0. 0. 0. 0. 0. 0.
      4.01606411e-03 8.03212821e-03 1.20481923e-02 4.01606411e-03 0. 0.
      0. 0. 0. 0. 0. 0. 0. 0. 0. 4.01606411e-03 0. 0. 4.01606411e-03 0.
      0. 0. 0. 0. 0. 0. 0. 0. 4.01606411e-03 0. 0. 4.01606411e-03 0.
      4.01606411e-03 0. 4.01606411e-03 0. 0. 0. 0. 0. 0. 4.01606411e-03
      0. 8.03212821e-03 0. 0. 4.01606411e-03 0. 0. 0. 4.01606411e-03 0.
      0. 0. 0. 0. 0. 0. 0. 0. 0. 0. 0. 0. 4.01606411e-03 0. 0. 0. 0.
      4.01606411e-03 0. 0. 0. 0. 0. 0. 0. 0. 0. 0. 0. 0. 0.
      8.03212821e-03 0. 0. 0. 0. 0. 0. 0. 0. 0. 0. 0. 0. 0.
      4.01606411e-03 0. 0. 0. 0. 0. 0. 0. 8.03212821e-03 0.
      4.01606411e-03 0. 0. 0. 0. 8.03212821e-03 4.01606411e-03 0. 0. 0.
      0. 0. 0. 4.01606411e-03 0. 0. 0. 0. 0. 0. 0. 0. 0. 0. 0. 0.
      4.01606411e-03 0. 1.20481923e-02 0. 0. 0. 0. 0. 0. 8.03212821e-03
      0. 0. 0. 0. 2.00803205e-02 0. 0. 0. 0. 0. 4.01606411e-03 0. 0. 0.
      0. 0. 4.01606411e-03 0. 0. 0. 0. 0. 0. 0. 0. 0. 4.01606411e-03 0.
      0. 0. 0. 0. 0. 0. 0. 0. 0. 0. 0. 8.03212821e-03 4.01606411e-03 0.
      0. 0. 0. 0. 0. 4.01606411e-03 0. 0. 0. 0. 0. 0. 4.01606411e-03 0.
      0. 0. 0. 0. 0. 0. 0. 0. 0. 0. 0. 0. 0. 0. 0. 0. 0. 0. 0. 0. 0. 0.
      0. 1.20481923e-02 0. 0. 4.01606411e-03 0. 0. 0. 4.01606411e-03 0.
      0. 0. 0. 1.60642564e-02 0. 0. 0. 0. 4.01606411e-03 0. 0. 0. 0. 0.
      0. 8.03212821e-03 0. 0. 0. 0. 4.01606411e-03 0. 0. 0. 0.
      4.01606411e-03 0. 0. 0. 0. 0. 0. 0. 0. 8.03212821e-03 0. 0. 0. 0.
      0. 0. 0. 4.01606411e-03 0. 0. 0. 0.</_>
    <_>
      2.73224036e-03 0. 0. 1.09289614e-02 2.73224036e-03 0. 0. 0. 0. 0.
      0. 0. 0. 0. 0. 0. 0. 0. 2.73224036e-03 0. 0. 0. 5.46448072e-03 0.
      0. 0. 5.46448072e-03 0. 0. 0. 0. 0. 2.73224036e-03 0. 0. 0.
      1.09289614e-02 0. 0. 0. 2.73224036e-03 0. 0. 0. 0. 2.73224036e-03
      0. 0. 0. 0. 0. 0. 0. 5.46448072e-03 2.73224036e-03 8.19672085e-03
      2.73224036e-03 0. 0. 0. 0. 0. 0. 0. 0. 0. 0. 0. 0. 0. 0. 0. 0. 0.
      0. 0. 8.19672085e-03 2.73224036e-03 0. 0. 0. 2.73224036e-03 0. 0.
      0. 0. 0. 0. 0. 0. 0. 0. 0. 0. 0. 0. 8.19672085e-03 0. 0. 0.
      2.73224036e-03 0. 2.73224036e-03 0. 5.46448072e-03 0. 0. 0. 0. 0.
      0. 2.73224036e-03 2.73224036e-03 0. 0. 0. 0. 0. 1.09289614e-02
      5.46448072e-03 5.46448072e-03 2.73224036e-03 0. 0. 2.73224036e-03
      5.46448072e-03 0. 1.09289614e-02 2.73224036e-03 2.73224036e-03
      2.73224036e-03 0. 0. 2.73224036e-03 0. 0. 0. 0. 0. 0. 0. 0.
      2.73224036e-03 5.46448072e-03 0. 0. 2.73224036e-03 0. 0. 0. 0. 0.
      1.09289614e-02 2.73224036e-03 0. 0. 0. 0. 0. 0. 0. 0. 0. 0.
      2.73224036e-03 0. 2.73224036e-03 0. 0. 0. 0. 0. 0. 0. 0. 0.
      5.46448072e-03 0. 0. 2.73224036e-03 0. 0. 2.73224036e-03 0.
      2.73224036e-03 0. 0. 0. 0. 0. 0. 0. 0. 2.73224036e-03 0. 0.
      2.73224036e-03 0. 0. 0. 0. 0. 0. 0. 0. 0. 0. 0. 0. 8.19672085e-03
      0. 0. 0. 0. 0. 0. 0. 0. 0. 0. 0. 0. 0. 0. 0. 0. 0. 0. 0.
      2.73224036e-03 0. 5.46448072e-03 0. 0. 0. 0. 0. 0. 0. 0. 0. 0. 0.
      0. 0. 0. 0. 0. 0. 0. 0. 0. 0. 0. 5.46448072e-03 0. 0. 0. 0. 0. 0.
      5.46448072e-03 8.19672085e-03 0. 0. 0. 0. 0. 5.46448072e-03 0. 0.
      0. 0. 0. 5.46448072e-03 2.73224036e-03 0. 0. 0. 2.73224036e-03 0.
      8.19672085e-03 0. 2.73224036e-03 2.73224036e-03 0. 0. 0. 0. 0. 0.
      0. 0. 0. 0. 0. 0. 0. 0. 0. 8.19672085e-03 0. 0. 0. 0. 0. 0. 0.
      2.73224036e-03 0. 0. 0. 2.73224036e-03 0. 2.73224036e-03 0.
      2.73224036e-03 0. 0. 0. 5.46448072e-03 0. 0. 0. 0. 3.55191231e-02
      0. 0. 0. 8.19672085e-03 2.73224036e-03 0. 0. 0. 0. 0.
      2.73224036e-03 0. 0. 0. 1.36612020e-02 0. 0. 0. 0. 0. 0. 0. 0. 0.
      0. 0. 0. 0. 0. 0. 0. 2.73224036e-03 0. 0. 0. 0. 0. 0. 0. 0.
      2.73224036e-03 0. 0. 0. 1.09289614e-02 0. 0. 0. 0. 0. 0.
      2.73224036e-03 8.19672085e-03 0. 0. 0. 0. 0. 0. 2.73224036e-03 0.
      1.36612020e-02 0. 0. 8.19672085e-03 0. 0. 0. 0. 0. 0. 0.
      2.73224036e-03 0. 0. 0. 0. 0. 0. 0. 2.73224036e-03 0. 0. 0.
      2.73224036e-03 0. 0. 0. 1.91256832e-02 8.19672085e-03 0. 0. 0. 0.
      0. 0. 0. 0. 8.19672085e-03 0. 0. 0. 0. 0. 0. 0. 0. 0. 0. 0. 0.
      2.18579229e-02 5.46448072e-03 0. 0. 0. 0. 0. 0. 1.63934417e-02 0.
      0. 0. 0. 0. 0. 0. 0. 0. 0. 0. 2.73224036e-03 0. 2.73224036e-03 0.
      0. 2.73224036e-03 2.73224036e-03 0. 0. 0. 0. 0. 0. 0.
      1.36612020e-02 0. 0. 0. 1.36612020e-02 0. 0. 0. 0. 0. 0.
      2.73224036e-03 0. 2.73224036e-03 0. 0. 0. 0. 2.73224036e-03 0. 0.
      0. 2.73224036e-03 0. 0. 0. 0. 0. 0. 0. 0. 0. 0. 0. 2.73224036e-03
      0. 0. 2.73224036e-03 0. 2.73224036e-03 0. 0. 0. 5.46448072e-03 0.
      0. 0. 0. 5.46448072e-03 0. 0. 0. 0. 0. 0. 0. 0. 0. 2.73224036e-03
      0. 0. 0. 0. 2.73224036e-03 2.73224036e-03 0. 0. 0. 0. 0.
      2.73224036e-03 2.73224036e-03 0. 0. 0. 0. 0. 0. 0. 0. 0. 0. 0. 0.
      0. 0. 0. 0. 0. 0. 2.73224036e-03 2.73224036e-03 0. 0. 0. 0. 0. 0.
      2.73224036e-03 0. 0. 0. 0. 0. 0. 0. 0. 0. 2.73224036e-03 0. 0. 0.
      2.73224036e-03 5.46448072e-03 0. 0. 0. 2.73224036e-03
      8.19672085e-03 0. 0. 0. 0. 2.73224036e-03 0. 0. 0. 0. 0. 0.
      1.36612020e-02 2.73224036e-03 0. 0. 0. 2.73224036e-03
      2.73224036e-03 0. 0. 0. 0. 2.73224036e-03 0. 0. 0. 2.73224036e-03
      0. 2.73224036e-03 0. 0. 0. 0. 2.73224036e-03 0. 2.73224036e-03 0.
      0. 0. 0. 0. 0. 0. 0. 0. 2.73224036e-03 2.73224036e-03 0. 0. 0. 0.
      0. 2.73224036e-03 0. 0. 0. 2.73224036e-03 0. 5.46448072e-03 0. 0.
      5.46448072e-03 0. 0. 0. 2.73224036e-03 2.73224036e-03 0. 0. 0.
      1.09289614e-02 0. 0. 0. 0. 0. 0. 0. 2.73224036e-03 0. 0. 0. 0. 0.
      0. 0. 0. 2.73224036e-03 0. 0. 0. 8.19672085e-03 0. 0. 0.
      2.73224036e-03 0. 0. 0. 0. 0. 0. 0. 0. 0. 0. 0. 0. 0.
      2.73224036e-03 0. 5.46448072e-03 0. 0. 0. 0. 0. 5.46448072e-03 0.
      0. 0. 0. 0. 0. 0. 2.73224036e-03 0. 0. 0. 0. 2.73224036e-03 0. 0.
      0. 0. 0. 0. 0. 0. 0. 2.73224036e-03 5.46448072e-03 5.46448072e-03
      0. 0. 0. 0. 0. 0. 0. 0. 0. 0. 0. 2.73224036e-03 0. 0. 0. 0. 0. 0.
      0. 0. 0. 0. 0. 0. 0. 0. 0. 0. 2.73224036e-03 0. 0. 0. 0. 0. 0. 0.
      0. 0. 0. 0. 0. 0. 0. 0. 0. 0. 5.46448072e-03 2.73224036e-03 0. 0.
      0. 0. 0. 0. 0. 0. 5.46448072e-03 0. 0. 0. 0. 0. 0. 0. 0. 0. 0. 0.
      0. 0. 0. 0. 0. 0. 0. 2.73224036e-03 2.73224036e-03 0. 0. 0. 0. 0.
      0. 8.19672085e-03 0. 0. 2.73224036e-03 0. 0. 2.73224036e-03 0.
      2.18579229e-02 0. 8.19672085e-03 2.18579229e-02 0. 8.19672085e-03
      0. 0. 0. 2.73224036e-03 0. 0. 0. 0. 0. 0. 0. 0. 0. 0. 0. 0.
      5.46448072e-03 0. 0. 5.46448072e-03 0. 0. 0. 0. 0. 0. 0.
      8.19672085e-03 0. 0. 0. 0. 2.73224036e-03 0. 0. 0. 0. 0.
      5.46448072e-03 1.63934417e-02 0. 0. 0. 0. 0. 0. 0. 2.73224036e-03
      0. 0. 2.73224036e-03 0. 0. 0. 0. 0. 0. 0. 2.73224036e-03 0. 0. 0.
      8.19672085e-03 0. 2.73224036e-03 0. 0. 0. 0. 0. 0. 0.
      5.46448072e-03 0. 2.73224036e-03 0. 0. 2.73224036e-03 0. 0. 0. 0.
      1.09289614e-02 0. 0. 0. 0. 0. 0. 2.73224036e-03 0. 8.19672085e-03
      0. 0. 0. 2.73224036e-03 0. 0. 0. 0. 2.45901626e-02 0. 0. 0. 0.
      2.73224036e-03 1.09289614e-02 2.73224036e-03 0. 0. 0. 0. 0. 0. 0.
      0. 0. 0. 0. 0. 0. 0. 0. 0. 0. 0. 0. 0. 0. 0. 0. 0. 0. 0. 0.
      2.73224036e-03 0. 0. 2.73224036e-03 0. 0. 0. 0. 0. 5.46448072e-03
      0. 0. 0. 0. 0. 0. 0. 0. 2.73224036e-03 0. 2.73224036e-03 0.
      2.73224036e-03 0. 0. 0. 0. 0. 0. 0. 0. 0. 0. 0. 0.</_>
    <_>
      0. 0. 0. 2.63157897e-02 0. 0. 0. 0. 0. 3.28947371e-03
      3.28947371e-03 0. 3.28947371e-03 0. 0. 3.28947371e-03 0. 0.
      3.28947371e-03 0. 6.57894742e-03 0. 0. 0. 0. 3.28947371e-03 0. 0.
      0. 0. 0. 0. 0. 0. 0. 0. 3.28947371e-03 0. 0. 0. 0. 0. 0. 0. 0. 0.
      0. 0. 0. 0. 3.28947371e-03 0. 0. 0. 1.31578948e-02 0. 0. 0. 0.
      3.28947371e-03 3.28947371e-03 0. 0. 0. 0. 0. 0. 0. 0. 0. 0. 0. 0.
      0. 9.86842066e-03 0. 6.57894742e-03 3.28947371e-03 0. 0.
      3.28947371e-03 3.28947371e-03 0. 0. 0. 0. 0. 0. 0. 0. 0. 0. 0. 0.
      0. 0. 3.28947371e-03 0. 0. 0. 3.28947371e-03 0. 0. 0. 0. 0.
      3.28947371e-03 0. 0. 0. 0. 3.28947371e-03 0. 0. 3.28947371e-03
      6.57894742e-03 0. 0. 0. 0. 0. 0. 0. 0. 0. 0. 0. 9.86842066e-03 0.
      6.57894742e-03 0. 0. 0. 6.57894742e-03 0. 0. 0. 0. 3.28947371e-03
      0. 0. 0. 0. 0. 0. 3.28947371e-03 0. 0. 0. 0. 0. 0. 0. 0. 0. 0. 0.
      0. 0. 6.57894742e-03 0. 0. 0. 3.28947371e-03 0. 0. 0.
      3.28947371e-03 0. 0. 3.28947371e-03 3.28947371e-03 0. 0. 0. 0.
      3.28947371e-03 3.28947371e-03 0. 0. 0. 3.28947371e-03 0. 0.
      3.28947371e-03 0. 0. 0. 0. 3.28947371e-03 0. 0. 0. 0. 0. 0.
      1.97368413e-02 0. 0. 0. 0. 0. 0. 0. 0. 0. 0. 0. 0. 3.28947371e-03
      0. 3.28947371e-03 0. 0. 0. 3.28947371e-03 0. 0. 0. 0. 0. 0. 0. 0.
      0. 0. 0. 0. 0. 6.57894742e-03 6.57894742e-03 0. 0. 3.28947371e-03
      3.28947371e-03 0. 0. 0. 0. 0. 0. 0. 6.57894742e-03 0. 0. 0. 0. 0.
      3.28947371e-03 0. 0. 0. 0. 0. 6.57894742e-03 0. 0. 0. 0. 0. 0. 0.
      0. 0. 0. 0. 0. 3.28947371e-03 0. 0. 0. 9.86842066e-03 0. 0.
      6.57894742e-03 0. 0. 9.86842066e-03 9.86842066e-03 3.28947371e-03
      0. 0. 0. 0. 0. 3.28947371e-03 0. 3.28947371e-03 9.86842066e-03 0.
      0. 0. 0. 0. 0. 0. 0. 0. 0. 0. 0. 0. 0. 0. 0. 0. 3.28947371e-03 0.
      1.31578948e-02 0. 0. 0. 0. 0. 0. 3.28947371e-03 0. 6.57894742e-03
      0. 0. 0. 0. 0. 0. 0. 0. 0. 0. 3.28947371e-03 1.64473690e-02 0. 0.
      0. 0. 0. 0. 0. 0. 0. 0. 0. 3.28947371e-03 9.86842066e-03 0. 0. 0.
      3.28947371e-03 0. 0. 0. 0. 0. 0. 0. 0. 0. 0. 0. 0. 0. 0.
      3.28947371e-03 0. 0. 0. 0. 0. 0. 0. 0. 0. 0. 0. 0. 9.86842066e-03
      0. 0. 0. 0. 0. 0. 0. 0. 0. 0. 3.28947371e-03 0. 0. 0. 0. 0.
      9.86842066e-03 0. 0. 0. 0. 0. 3.28947371e-03 6.57894742e-03
      3.28947371e-03 3.28947371e-03 0. 0. 0. 0. 0. 0. 0. 0. 0.
      3.28947371e-03 0. 3.28947371e-03 0. 0. 6.57894742e-03
      3.28947371e-03 0. 6.57894742e-03 0. 0. 0. 0. 0. 0. 0.
      1.64473690e-02 0. 0. 0. 3.28947371e-03 0. 0. 0. 0. 0. 0.
      3.28947371e-03 0. 3.28947371e-03 0. 0. 0. 6.57894742e-03 0. 0.
      1.31578948e-02 0. 1.31578948e-02 0. 0. 0. 0. 0. 0. 0. 0. 0. 0.
      3.28947371e-03 3.28947371e-03 3.28947371e-03 0. 0. 0.
      3.28947371e-03 0. 0. 0. 0. 0. 3.28947371e-03 0. 6.57894742e-03
      6.57894742e-03 1.31578948e-02 0. 0. 0. 0. 0. 0. 0. 0. 0. 0. 0. 0.
      0. 0. 0. 0. 0. 3.28947371e-03 0. 0. 0. 3.28947371e-03
      3.28947371e-03 0. 0. 0. 3.28947371e-03 0. 0. 6.57894742e-03 0. 0.
      0. 0. 0. 0. 0. 0. 0. 3.28947371e-03 3.28947371e-03 0. 0. 0. 0. 0.
      0. 0. 0. 0. 0. 0. 3.28947371e-03 0. 0. 6.57894742e-03 0. 0. 0. 0.
      3.28947371e-03 0. 3.28947371e-03 0. 0. 9.86842066e-03 0. 0. 0. 0.
      0. 0. 0. 0. 0. 0. 0. 0. 0. 0. 6.57894742e-03 0. 0. 0.
      1.31578948e-02 3.28947371e-03 0. 6.57894742e-03 0. 0. 0. 0. 0. 0.
      0. 3.28947371e-03 3.28947371e-03 0. 0. 3.28947371e-03 0. 0. 0. 0.
      0. 0. 0. 0. 0. 0. 0. 0. 0. 0. 0. 0. 0. 0. 3.28947371e-03
      3.28947371e-03 3.28947371e-03 6.57894742e-03 3.28947371e-03 0. 0.
      0. 0. 0. 0. 0. 0. 6.57894742e-03 0. 0. 0. 0. 0. 0. 0.
      3.28947371e-03 3.28947371e-03 0. 0. 0. 0. 0. 0. 0. 0.
      3.28947371e-03 0. 0. 0. 0. 3.28947371e-03 0. 0. 0. 0. 0. 0.
      6.57894742e-03 0. 0. 0. 0. 0. 0. 0. 3.28947371e-03 0. 0. 0. 0.
      3.28947371e-03 0. 0. 0. 0. 0. 0. 0. 0. 0. 0. 0. 0. 0. 0. 0. 0. 0.
      0. 0. 0. 0. 3.28947371e-03 0. 0. 0. 0. 0. 0. 6.57894742e-03 0.
      9.86842066e-03 3.28947371e-03 0. 0. 0. 0. 0. 0. 0. 0.
      6.57894742e-03 0. 0. 0. 0. 0. 0. 0. 6.57894742e-03 0. 0. 0. 0. 0.
      0. 0. 0. 0. 0. 0. 6.57894742e-03 3.28947371e-03 0. 0.
      3.28947371e-03 3.28947371e-03 0. 0. 0. 0. 0. 0. 1.97368413e-02 0.
      0. 0. 0. 0. 0. 1.31578948e-02 0. 0. 0. 0. 0. 0. 0. 0. 0. 0. 0. 0.
      0. 0. 0. 0. 3.28947371e-03 0. 0. 0. 0. 0. 0. 0. 0. 0. 0. 0. 0. 0.
      3.28947371e-03 0. 0. 0. 0. 0. 0. 0. 0. 0. 3.28947371e-03 0.
      3.28947371e-03 0. 3.28947371e-03 0. 0. 0. 0. 0. 0. 0. 0. 0.
      3.28947371e-03 0. 0. 0. 0. 0. 3.28947371e-03 0. 0. 0.
      3.28947371e-03 0. 0. 0. 0. 0. 0. 0. 0. 0. 0. 0. 0. 0. 0. 0. 0.
      3.28947371e-03 0. 0. 0. 0. 0. 0. 3.28947371e-03 0. 0.
      3.28947371e-03 0. 0. 0. 0. 1.97368413e-02 0. 3.28947371e-03
      3.28947371e-03 0. 0. 0. 0. 3.28947371e-03 0. 0. 0. 0. 0. 0.
      3.28947371e-03 0. 0. 0. 0. 3.28947371e-03 0. 0. 0. 0.
      3.28947371e-03 0. 0. 0. 0. 1.97368413e-02 0. 0. 0. 0. 0. 0. 0. 0.
      0. 0. 0. 6.57894742e-03 0. 0. 0. 6.57894742e-03 0. 0. 0. 0. 0. 0.
      0. 3.28947371e-03 0. 0. 0. 0. 0. 0. 3.28947371e-03 0. 0. 0. 0. 0.
      0. 0. 0. 0. 9.86842066e-03 3.28947371e-03 0. 0. 0. 0.
      3.28947371e-03 0. 0. 0. 0. 0. 0. 0. 3.28947371e-03 0. 0. 0.
      3.28947371e-03 3.28947371e-03 0. 0. 3.28947371e-03 0. 0. 0. 0. 0.
      0. 0. 0. 0. 0. 0. 0. 0. 6.57894742e-03 0. 0. 0. 6.57894742e-03
      6.57894742e-03 0. 9.86842066e-03 0. 0. 6.57894742e-03 0. 0. 0.
      3.28947371e-03 0. 0. 0. 0. 3.28947371e-03 0. 0. 0. 0. 0. 0. 0.
      6.57894742e-03 6.57894742e-03 0. 0. 0. 0. 0. 0. 0. 0. 0. 0. 0. 0.
      0. 0. 3.28947371e-03 3.28947371e-03 0. 0. 0. 9.86842066e-03 0. 0.
      0. 0. 0. 0. 0. 0. 3.28947371e-03 0. 0. 0. 0. 0. 0. 0. 0.</_>
    <_>
      2.77777780e-02 0. 0. 2.77777780e-02 0. 0. 0. 0. 0. 0. 0. 0. 0. 0.
      0. 0. 0. 0. 9.25925933e-03 0. 0. 0. 0. 0. 0. 0. 0. 0. 0. 0. 0.
      4.62962966e-03 0. 4.62962966e-03 4.62962966e-03 4.62962966e-03 0.
      0. 4.62962966e-03 0. 0. 0. 0. 0. 0. 4.62962966e-03 0. 0. 0. 0. 0.
      0. 4.62962966e-03 0. 0. 0. 0. 4.62962966e-03 0. 0. 0. 0. 0. 0. 0.
      0. 0. 0. 0. 0. 0. 0. 0. 0. 0. 0. 9.25925933e-03 0. 0. 0. 0.
      1.85185187e-02 0. 0. 0. 0. 0. 0. 0. 0. 0. 0. 0. 0. 4.62962966e-03
      0. 4.62962966e-03 4.62962966e-03 0. 0. 0. 0. 0. 0. 0. 0. 0. 0. 0.
      0. 0. 0. 0. 0. 0. 4.62962966e-03 4.62962966e-03 0. 0.
      9.25925933e-03 4.62962966e-03 0. 0. 0. 0. 0. 9.25925933e-03
      1.38888890e-02 4.62962966e-03 0. 0. 0. 0. 0. 0. 0. 0. 0. 0. 0. 0.
      0. 4.62962966e-03 0. 0. 0. 0. 0. 0. 0. 0. 0. 0. 0. 0. 0. 0. 0. 0.
      0. 0. 0. 0. 0. 9.25925933e-03 0. 0. 0. 0. 0. 4.62962966e-03 0. 0.
      0. 4.62962966e-03 0. 0. 0. 0. 0. 0. 0. 9.25925933e-03 0. 0. 0.
      4.62962966e-03 0. 0. 0. 0. 0. 0. 0. 0. 0. 0. 0. 0. 0. 0. 0. 0.
      4.62962966e-03 0. 4.62962966e-03 0. 0. 0. 0. 0. 0. 0. 0. 0. 0. 0.
      0. 0. 0. 0. 0. 0. 0. 0. 0. 0. 0. 0. 0. 0. 0. 0. 0. 0. 0. 0. 0. 0.
      0. 0. 0. 0. 0. 0. 0. 0. 0. 0. 0. 0. 0. 0. 0. 0. 0. 0.
      4.62962966e-03 0. 0. 0. 0. 0. 0. 0. 0. 0. 0. 0. 0. 0.
      1.38888890e-02 0. 0. 0. 0. 0. 4.62962966e-03 0. 0. 0.
      4.62962966e-03 0. 0. 0. 0. 0. 0. 9.25925933e-03 4.62962966e-03 0.
      0. 0. 0. 0. 0. 0. 0. 0. 0. 0. 0. 0. 0. 0. 0. 4.62962966e-03 0. 0.
      0. 0. 4.62962966e-03 0. 0. 0. 0. 4.62962966e-03 0. 0. 0. 0. 0. 0.
      0. 0. 4.62962966e-03 0. 0. 0. 1.38888890e-02 0. 0. 0. 0. 0. 0. 0.
      0. 0. 0. 0. 0. 0. 0. 0. 4.62962966e-03 0. 0. 9.25925933e-03 0. 0.
      0. 0. 4.62962966e-03 0. 0. 0. 4.62962966e-03 0. 0. 0. 0. 0. 0. 0.
      0. 0. 0. 0. 0. 0. 4.62962966e-03 0. 0. 0. 0. 0. 0. 0. 0. 0. 0. 0.
      4.62962966e-03 0. 0. 0. 1.38888890e-02 0. 0. 9.25925933e-03
      2.31481493e-02 0. 0. 0. 0. 0. 4.62962966e-03 0. 0. 0. 0. 0.
      4.62962966e-03 0. 0. 4.62962966e-03 0. 0. 0. 0. 0. 0. 0. 0. 0. 0.
      0. 0. 0. 0. 0. 0. 0. 0. 0. 0. 4.62962966e-03 0. 0. 0. 0. 0. 0. 0.
      0. 0. 0. 4.62962966e-03 0. 0. 0. 0. 0. 4.62962966e-03 0. 0. 0. 0.
      0. 0. 0. 0. 0. 0. 0. 0. 0. 0. 0. 0. 0. 0. 0. 0. 0. 0. 0.
      9.25925933e-03 0. 0. 4.62962966e-03 4.62962966e-03 0. 0.
      6.48148134e-02 0. 0. 0. 0. 0. 0. 0. 0. 4.62962966e-03 0. 0. 0. 0.
      0. 0. 0. 4.62962966e-03 0. 0. 0. 0. 0. 0. 0. 0. 0. 0. 0. 0. 0. 0.
      0. 0. 0. 0. 0. 4.62962966e-03 0. 4.62962966e-03 9.25925933e-03 0.
      0. 0. 0. 9.25925933e-03 9.25925933e-03 9.25925933e-03 0. 0.
      4.62962966e-03 0. 0. 0. 0. 0. 0. 0. 0. 0. 0. 9.25925933e-03 0. 0.
      0. 0. 0. 0. 0. 0. 0. 0. 0. 0. 0. 0. 0. 0. 0. 4.62962966e-03 0. 0.
      0. 0. 0. 0. 4.62962966e-03 0. 0. 0. 0. 0. 0. 0. 0. 0. 0. 0. 0. 0.
      0. 0. 0. 0. 0. 0. 0. 0. 0. 4.62962966e-03 0. 0. 0. 0.
      4.62962966e-03 0. 4.62962966e-03 0. 9.25925933e-03 4.62962966e-03
      0. 0. 0. 4.62962966e-03 0. 0. 1.85185187e-02 0. 0. 0. 0. 0. 0. 0.
      0. 0. 0. 0. 0. 0. 4.62962966e-03 9.25925933e-03 0. 4.62962966e-03
      9.25925933e-03 0. 0. 0. 0. 0. 4.62962966e-03 0. 0. 4.62962966e-03
      0. 0. 0. 0. 0. 0. 0. 0. 0. 0. 0. 0. 0. 0. 0. 0. 0. 4.62962966e-03
      0. 0. 0. 0. 4.62962966e-03 0. 0. 4.62962966e-03 0. 0. 0. 0. 0.
      4.62962966e-03 0. 0. 0. 4.62962966e-03 0. 0. 4.62962966e-03 0. 0.
      0. 0. 0. 4.62962966e-03 0. 0. 0. 0. 0. 0. 0. 4.62962966e-03 0. 0.
      0. 9.25925933e-03 0. 0. 0. 0. 0. 0. 0. 0. 0. 0. 2.31481493e-02 0.
      0. 0. 0. 0. 0. 0. 0. 0. 0. 0. 0. 0. 0. 0. 4.62962966e-03 0. 0. 0.
      0. 0. 0. 0. 0. 0. 0. 0. 0. 0. 0. 0. 0. 4.62962966e-03 0. 0. 0.
      4.62962966e-03 0. 0. 0. 0. 4.62962966e-03 0. 0. 0. 0. 0.
      4.62962966e-03 0. 0. 0. 0. 0. 0. 0. 0. 0. 9.25925933e-03
      4.62962966e-03 0. 0. 0. 0. 4.62962966e-03 0. 0. 0. 0. 0. 0. 0. 0.
      0. 0. 0. 0. 0. 0. 0. 0. 0. 0. 0. 4.62962966e-03 0. 0. 0.
      4.62962966e-03 0. 0. 0. 0. 0. 0. 0. 0. 0. 0. 0. 1.38888890e-02 0.
      0. 4.62962966e-03 4.62962966e-03 0. 0. 0. 0. 0. 0. 0. 0.
      4.62962966e-03 0. 0. 0. 0. 0. 0. 1.38888890e-02 0. 0.
      9.25925933e-03 0. 0. 0. 0. 4.62962966e-03 0. 0. 1.38888890e-02 0.
      0. 0. 0. 0. 0. 0. 0. 0. 0. 0. 0. 0. 0. 0. 0. 0. 0. 0. 0. 0. 0. 0.
      0. 0. 0. 0. 0. 0. 0. 0. 0. 0. 0. 0. 0. 0. 0. 0. 0. 0.
      1.85185187e-02 0. 4.62962966e-03 0. 0. 0. 0. 0. 0. 0. 0. 0. 0. 0.
      0. 0. 0. 0. 0. 0. 1.38888890e-02 0. 0. 0. 0. 0. 0. 0.
      9.25925933e-03 0. 4.62962966e-03 0. 0. 0. 0. 1.38888890e-02
      4.62962966e-03 0. 0. 0. 0. 0. 0. 4.62962966e-03 0. 0.
      4.62962966e-03 0. 0. 0. 0. 0. 4.62962966e-03 0. 0. 0. 0. 0. 0. 0.
      0. 4.62962966e-03 0. 0. 0. 4.62962966e-03 0. 0. 4.62962966e-03 0.
      0. 0. 0. 0. 0. 0. 0. 0. 0. 0. 0. 0. 0. 0. 0. 0. 0. 0. 0. 0. 0.
      4.62962966e-03 0. 0. 0. 0. 0. 0. 0. 0. 0. 4.62962966e-03 0. 0. 0.
      0. 0. 0. 0. 0. 0. 0. 0. 9.25925933e-03 0. 0. 0. 0. 9.25925933e-03
      4.62962966e-03 0. 0. 0. 0. 0. 0. 9.25925933e-03 0. 0. 0. 0.</_>
    <_>
      0. 0. 1.48148148e-03 8.88888910e-03 0. 0. 1.48148148e-03 0. 0. 0.
      0. 0. 0. 1.48148148e-03 0. 5.92592591e-03 0. 0. 1.48148148e-03 0.
      2.96296296e-03 0. 0. 2.96296296e-03 0. 0. 0. 0. 0. 1.48148148e-03
      2.96296296e-03 0. 0. 0. 0. 0. 0. 0. 1.48148148e-03 0.
      1.48148148e-03 0. 0. 0. 0. 1.48148148e-03 0. 0. 0. 0. 0. 0.
      1.48148148e-03 0. 0. 0. 0. 0. 0. 0. 1.48148148e-03 1.48148148e-03
      0. 0. 1.48148148e-03 0. 0. 0. 0. 0. 0. 0. 0. 1.33333337e-02 0.
      2.96296296e-03 2.96296296e-03 0. 1.48148148e-03 0. 0. 0.
      2.96296296e-03 0. 0. 0. 2.96296296e-03 0. 0. 1.48148148e-03 0. 0.
      0. 0. 0. 1.48148148e-03 0. 0. 0. 1.48148148e-03 1.48148148e-03 0.
      0. 0. 1.48148148e-03 0. 7.40740728e-03 0. 0. 0. 4.44444455e-03 0.
      1.48148148e-03 0. 4.44444455e-03 0. 0. 0. 0. 0. 0. 1.48148148e-03
      2.96296296e-03 2.96296296e-03 0. 0. 1.48148148e-03 1.18518518e-02
      0. 0. 0. 0. 0. 1.48148148e-03 0. 1.48148148e-03 1.48148148e-03 0.
      0. 0. 0. 0. 2.96296296e-03 1.48148148e-03 0. 1.48148148e-03 0. 0.
      0. 0. 0. 0. 0. 0. 0. 0. 2.96296296e-03 0. 0. 0. 0. 1.48148148e-03
      0. 0. 1.48148148e-03 1.48148148e-03 2.96296296e-03 4.44444455e-03
      1.48148148e-03 0. 0. 0. 1.48148148e-03 0. 1.48148148e-03 0. 0. 0.
      2.96296296e-03 0. 4.44444455e-03 2.96296296e-03 0. 2.96296296e-03
      1.48148148e-03 0. 0. 0. 0. 0. 1.48148148e-03 0. 0. 4.44444455e-03
      1.48148148e-03 0. 0. 2.96296296e-03 0. 0. 0. 0. 0. 4.44444455e-03
      0. 0. 1.18518518e-02 1.48148148e-03 0. 0. 1.48148148e-03 0. 0. 0.
      0. 0. 0. 2.96296296e-03 0. 0. 0. 0. 0. 0. 0. 1.48148146e-02
      1.48148148e-03 0. 0. 0. 4.44444455e-03 0. 0. 2.96296296e-03
      4.44444455e-03 1.48148148e-03 0. 0. 2.96296296e-03 0.
      1.48148148e-03 0. 2.96296296e-03 0. 0. 1.48148148e-03 0. 0.
      2.96296296e-03 0. 0. 0. 0. 0. 0. 1.48148148e-03 0. 1.48148148e-03
      2.96296296e-03 0. 0. 0. 0. 0. 0. 0. 0. 2.96296296e-03 0.
      1.62962954e-02 0. 8.88888910e-03 1.48148148e-03 1.48148148e-03 0.
      0. 0. 0. 1.48148148e-03 2.96296296e-03 1.48148148e-03 0. 0. 0. 0.
      2.96296296e-03 0. 4.44444455e-03 5.92592591e-03 0. 0. 0.
      1.48148148e-03 1.03703700e-02 1.48148148e-03 7.40740728e-03 0. 0.
      0. 0. 0. 0. 0. 0. 1.48148148e-03 1.48148148e-03 0. 0.
      1.48148148e-03 0. 0. 0. 0. 0. 0. 2.96296296e-03 2.96296296e-03
      2.96296296e-03 0. 1.48148148e-03 1.48148148e-03 0. 0. 0. 0. 0. 0.
      0. 0. 4.44444455e-03 0. 0. 0. 1.48148148e-03 0. 0. 1.48148148e-03
      2.96296296e-03 1.48148148e-03 1.48148148e-03 0. 0. 1.48148148e-03
      0. 0. 0. 1.48148148e-03 0. 0. 0. 4.44444455e-03 0. 0.
      1.48148148e-03 0. 1.48148148e-03 1.48148148e-03 0. 0. 0.
      1.48148148e-03 0. 0. 0. 0. 1.48148148e-03 0. 0. 0. 0. 0. 0. 0. 0.
      1.48148148e-03 0. 0. 1.48148148e-03 0. 0. 1.48148148e-03 0. 0. 0.
      0. 1.92592591e-02 0. 1.48148148e-03 0. 0. 1.48148148e-03 0. 0. 0.
      1.48148148e-03 0. 1.48148148e-03 0. 0. 1.48148148e-03 0. 0. 0. 0.
      0. 0. 0. 0. 7.40740728e-03 0. 0. 0. 0. 0. 0. 0. 1.48148148e-03 0.
      1.48148148e-03 0. 0. 0. 0. 0. 0. 0. 2.96296296e-03 0.
      2.96296296e-03 0. 2.96296296e-03 1.48148148e-03 0. 0. 0. 0. 0.
      1.18518518e-02 0. 1.62962954e-02 0. 0. 0. 1.48148148e-03
      2.96296296e-03 0. 0. 1.48148148e-03 1.48148148e-03 0.
      1.48148148e-03 0. 0. 0. 0. 0. 0. 2.96296296e-03 0. 4.44444455e-03
      1.48148148e-03 0. 0. 0. 0. 0. 0. 5.92592591e-03 0. 0. 0.
      1.48148148e-03 0. 0. 4.44444455e-03 5.92592591e-03 0.
      2.96296296e-03 0. 0. 0. 1.48148148e-03 0. 0. 1.48148148e-03
      1.48148148e-03 0. 2.96296296e-03 0. 2.96296296e-03 5.92592591e-03
      0. 1.48148148e-03 1.48148148e-03 0. 0. 0. 1.48148148e-03
      1.48148148e-03 2.96296296e-03 0. 1.48148148e-03 0. 1.48148148e-03
      0. 5.92592591e-03 0. 0. 2.96296296e-03 0. 0. 0. 1.48148148e-03 0.
      0. 2.96296296e-03 4.44444455e-03 1.48148148e-03 0. 0. 0. 0. 0. 0.
      1.48148148e-03 0. 0. 0. 0. 0. 1.48148148e-03 0. 0. 2.96296296e-03
      0. 0. 0. 2.96296296e-03 0. 0. 1.48148148e-03 0. 1.48148148e-03
      2.96296296e-03 0. 2.96296296e-03 0. 0. 0. 0. 0. 0. 0. 0. 0. 0. 0.
      0. 0. 1.48148148e-03 0. 0. 0. 0. 0. 0. 0. 0. 0. 1.48148148e-03 0.
      0. 0. 0. 0. 0. 1.48148148e-03 0. 0. 0. 0. 0. 0. 0. 0. 0. 0. 0. 0.
      1.48148148e-03 1.48148148e-03 0. 0. 0. 0. 2.96296296e-03 0. 0.
      1.48148148e-03 0. 1.48148148e-03 1.48148148e-03 0. 0. 0. 0. 0. 0.
      1.48148148e-03 1.48148148e-03 0. 0. 0. 0. 0. 0. 2.96296296e-03 0.
      0. 1.48148148e-03 0. 0. 0. 0. 0. 1.48148148e-03 1.48148148e-03 0.
      1.48148148e-03 1.48148148e-03 0. 0. 0. 0. 1.48148148e-03 0.
      1.48148148e-03 1.48148148e-03 0. 0. 0. 0. 1.48148148e-03 0.
      1.48148148e-03 2.96296296e-03 0. 0. 0. 1.62962954e-02
      1.48148148e-03 1.48148148e-03 1.48148148e-03 4.44444455e-03
      4.44444455e-03 1.48148148e-03 5.92592591e-03 0. 0. 0.
      1.48148148e-03 2.96296296e-03 1.48148148e-03 0. 0. 0. 0.
      4.44444455e-03 0. 1.48148148e-03 0. 0. 0. 0. 0. 0. 0.
      2.96296296e-03 0. 1.48148148e-03 0. 1.48148148e-03 0. 0. 0. 0. 0.
      0. 0. 0. 8.88888910e-03 1.48148148e-03 0. 0. 0. 0. 0. 0. 0. 0.
      4.44444455e-03 0. 0. 1.48148148e-03 0. 0. 0. 0. 0. 0. 0.
      1.77777782e-02 0. 1.48148148e-03 0. 2.96296296e-03 0. 0. 0.
      2.96296296e-03 0. 0. 1.48148148e-03 2.37037037e-02 5.92592591e-03
      0. 2.96296296e-03 0. 0. 0. 1.48148148e-03 0. 0. 0. 0. 0. 0. 0.
      2.96296296e-03 2.96296296e-03 1.48148148e-03 0. 1.03703700e-02
      2.07407400e-02 2.96296296e-03 0. 0. 0. 0. 1.48148148e-03 0. 0.
      2.96296296e-03 1.48148148e-03 0. 0. 0. 0. 0. 0. 0. 0. 0. 0.
      4.44444455e-03 1.48148148e-03 0. 0. 0. 1.48148148e-03 0. 0. 0. 0.
      0. 4.44444455e-03 0. 0. 2.96296296e-03 0. 1.48148148e-03
      2.96296296e-03 0. 0. 0. 0. 0. 0. 0. 0. 0. 0. 1.48148148e-03 0. 0.
      1.48148148e-03 0. 0. 1.48148148e-03 0. 0. 8.88888910e-03 0. 0. 0.
      0. 0. 0. 0. 2.96296296e-03 0. 1.48148148e-03 0. 0. 4.44444455e-03
      0. 0. 0. 0. 0. 0. 1.48148148e-03 1.48148148e-03 2.96296296e-03
      4.44444455e-03 0. 0. 2.96296296e-03 1.48148148e-03 0. 0. 0. 0. 0.
      5.92592591e-03 0. 1.48148148e-03 0. 0. 0. 0. 0. 0. 0. 0. 0.
      1.48148148e-03 2.96296296e-03 0. 0. 0. 0. 1.62962954e-02
      1.48148148e-03 0. 0. 0. 0. 4.44444455e-03 4.44444455e-03
      1.48148148e-03 1.48148148e-03 1.48148148e-03 2.96296296e-03 0. 0.
      0. 0. 1.48148148e-03 1.77777782e-02 0. 0. 0. 1.48148148e-03 0. 0.
      1.48148148e-03 1.48148148e-03 1.48148148e-03 0. 0. 0.
      1.48148148e-03 0. 0. 1.48148148e-03 2.96296296e-03 0. 0. 0. 0. 0.
      0. 1.48148148e-03 0. 0. 0. 2.96296296e-03 0. 0. 0. 0. 0.
      1.48148148e-03 0. 0. 4.44444455e-03 0. 4.44444455e-03
      1.48148148e-03 4.44444455e-03 0. 4.44444455e-03 0. 0. 0. 0. 0.
      2.96296296e-03 0. 5.92592591e-03 1.48148148e-03 0. 0. 0. 0. 0. 0.
      0. 0. 0. 1.48148148e-03 0. 0. 7.40740728e-03 0. 0. 0. 0. 0.
      1.48148148e-03 1.48148148e-03 0. 1.48148148e-03 4.44444455e-03 0.
      0. 0. 0. 0. 0. 0. 0. 0. 1.48148148e-03 0. 0. 0. 4.44444455e-03 0.
      5.92592591e-03 1.48148148e-03 0. 0. 0. 0. 0. 1.48148148e-03 0. 0.
      0. 0. 2.96296296e-03 1.48148148e-03 2.96296296e-03 1.03703700e-02
      0. 4.44444455e-03 0. 1.48148148e-03 5.92592591e-03 0.
      1.48148148e-03 0. 0. 0. 1.48148148e-03 1.48148148e-03
      5.92592591e-03 0. 0. 1.48148148e-03 0. 0. 0. 1.48148148e-03 0. 0.
      0. 0.</_>
    <_>
      0. 2.80504907e-03 1.40252453e-03 5.61009813e-03 0. 0. 0. 0.
      1.40252453e-03 0. 0. 0. 0. 4.20757383e-03 1.40252453e-03
      1.40252453e-03 0. 1.40252453e-03 5.61009813e-03 0. 4.20757383e-03
      0. 0. 0. 0. 0. 1.40252453e-03 5.61009813e-03 1.40252453e-03 0. 0.
      1.40252453e-03 1.40252453e-03 0. 0. 0. 0. 0. 1.40252453e-03 0. 0.
      0. 0. 0. 0. 0. 0. 4.20757383e-03 0. 5.61009813e-03 0.
      1.40252453e-03 2.80504907e-03 1.40252453e-03 0. 0. 0. 0. 0.
      1.40252453e-03 4.20757383e-03 1.40252453e-03 0. 4.20757383e-03 0.
      0. 0. 0. 1.40252453e-03 0. 0. 5.61009813e-03 0. 0. 4.20757383e-03
      0. 1.40252453e-03 0. 2.80504907e-03 1.40252453e-03 0. 0.
      2.80504907e-03 1.40252453e-03 0. 1.40252453e-03 0. 0. 0.
      1.40252453e-03 4.20757383e-03 0. 2.80504907e-03 0. 0.
      7.01262243e-03 1.40252453e-03 0. 5.61009813e-03 1.40252453e-03 0.
      0. 0. 5.61009813e-03 0. 0. 5.61009813e-03 2.80504907e-03 0. 0.
      1.40252453e-03 0. 0. 0. 0. 0. 0. 0. 0. 1.40252453e-03 0. 0. 0. 0.
      1.40252453e-03 1.40252453e-03 0. 2.80504907e-03 0. 2.80504907e-03
      0. 5.61009813e-03 0. 0. 0. 0. 1.40252453e-03 1.40252453e-03 0. 0.
      1.40252453e-03 0. 1.40252453e-03 0. 0. 2.80504907e-03 0.
      2.80504907e-03 0. 0. 0. 2.80504907e-03 0. 0. 0. 0. 4.20757383e-03
      2.80504907e-03 1.40252453e-03 0. 0. 1.40252453e-03 1.40252453e-03
      0. 0. 4.20757383e-03 0. 2.80504907e-03 0. 0. 1.40252453e-03 0. 0.
      0. 4.20757383e-03 0. 1.40252453e-03 2.80504907e-03 0. 0.
      1.40252453e-03 0. 1.40252453e-03 0. 0. 0. 0. 2.80504907e-03 0. 0.
      0. 0. 2.80504907e-03 0. 1.40252453e-03 0. 0. 0. 0. 0. 0. 0. 0. 0.
      0. 0. 8.41514766e-03 0. 0. 1.40252453e-03 0. 0. 0. 2.80504907e-03
      0. 0. 1.40252453e-03 0. 0. 4.20757383e-03 0. 0. 0. 0. 0.
      1.40252453e-03 1.40252453e-03 4.20757383e-03 0. 1.40252453e-03 0.
      1.40252453e-03 0. 0. 0. 0. 2.80504907e-03 1.40252453e-03
      1.40252453e-03 0. 5.61009813e-03 0. 7.01262243e-03 0.
      1.40252453e-03 0. 0. 0. 0. 0. 1.40252453e-03 0. 0. 1.40252453e-03
      0. 1.40252453e-03 2.80504907e-03 0. 0. 0. 0. 1.40252453e-03
      1.40252453e-03 0. 0. 1.40252453e-03 0. 7.01262243e-03
      1.40252453e-03 0. 0. 2.80504907e-03 0. 0. 0. 0. 1.40252453e-03 0.
      1.40252453e-03 1.40252453e-03 0. 1.40252453e-03 0. 0. 0. 0. 0.
      1.40252453e-03 0. 0. 0. 1.40252453e-03 1.40252453e-03
      2.80504907e-03 0. 9.81767196e-03 0. 0. 0. 0. 0. 1.40252453e-03
      1.40252453e-03 0. 0. 0. 0. 0. 4.20757383e-03 0. 1.40252453e-03 0.
      0. 4.20757383e-03 0. 0. 0. 0. 1.40252453e-03 0. 0. 0.
      1.40252453e-03 0. 0. 1.40252453e-03 4.20757383e-03 0. 0.
      5.61009813e-03 0. 1.40252453e-03 1.40252453e-03 8.41514766e-03
      1.40252453e-03 0. 0. 1.26227206e-02 0. 0. 0. 0. 1.40252453e-03
      1.40252453e-03 1.40252453e-03 0. 0. 0. 4.20757383e-03 0. 0. 0.
      1.40252453e-03 0. 0. 0. 5.61009813e-03 0. 1.40252453e-03 0. 0. 0.
      0. 0. 0. 1.40252453e-03 1.40252453e-03 0. 0. 0. 0. 0.
      4.20757383e-03 1.40252453e-03 0. 1.40252453e-03 0. 0. 0. 0.
      1.40252453e-03 0. 0. 0. 0. 2.80504907e-03 9.81767196e-03 0.
      2.80504907e-03 0. 0. 0. 2.80504907e-03 0. 2.80504907e-03 0. 0. 0.
      2.80504907e-03 2.80504907e-03 0. 0. 0. 1.40252453e-03 0. 0. 0. 0.
      2.80504907e-03 1.40252453e-03 0. 0. 0. 0. 0. 0. 7.01262243e-03 0.
      0. 0. 0. 0. 0. 0. 0. 0. 1.40252453e-03 0. 0. 0. 0. 1.40252453e-03
      0. 0. 0. 0. 0. 5.61009813e-03 4.20757383e-03 1.40252453e-03 0. 0.
      0. 0. 1.40252453e-03 0. 0. 4.20757383e-03 1.40252453e-03 0. 0. 0.
      2.80504907e-03 0. 0. 1.40252453e-03 1.40252453e-03 0. 0.
      1.40252453e-03 0. 2.80504907e-03 0. 0. 0. 0. 0. 1.40252453e-03 0.
      0. 0. 0. 0. 0. 0. 0. 0. 1.40252453e-03 0. 0. 2.80504907e-03 0. 0.
      0. 1.40252453e-03 2.80504907e-03 0. 1.40252453e-03 0. 0. 0. 0. 0.
      8.41514766e-03 4.20757383e-03 1.40252453e-03 2.80504907e-03 0. 0.
      0. 2.80504907e-03 0. 0. 4.20757383e-03 2.80504907e-03
      1.40252453e-03 0. 2.80504907e-03 0. 1.40252453e-03 0. 0. 0. 0. 0.
      0. 1.40252453e-03 1.40252453e-03 1.96353439e-02 0. 0. 0. 0. 0. 0.
      1.40252453e-03 0. 0. 0. 0. 0. 1.40252453e-03 0. 0. 0. 0. 0.
      2.80504907e-03 0. 0. 0. 0. 0. 0. 1.40252453e-03 2.80504907e-03 0.
      0. 0. 0. 0. 0. 0. 1.40252453e-03 0. 0. 0. 0. 0. 0. 4.20757383e-03
      4.20757383e-03 4.20757383e-03 0. 0. 0. 0. 0. 0. 0. 1.40252453e-03
      0. 1.40252453e-03 1.40252453e-03 5.61009813e-03 0. 0.
      1.12201963e-02 1.40252453e-03 0. 0. 7.01262243e-03 0. 0.
      2.80504907e-03 0. 0. 0. 4.20757383e-03 1.40252453e-03 0. 0. 0. 0.
      0. 7.01262243e-03 0. 0. 0. 0. 1.40252453e-03 0. 0. 1.40252453e-03
      0. 0. 0. 0. 0. 2.80504907e-03 1.40252453e-03 2.80504907e-03 0. 0.
      0. 0. 0. 1.40252453e-03 0. 0. 0. 2.80504907e-03 0. 0.
      2.80504907e-03 5.61009813e-03 5.61009813e-03 0. 0. 1.40252453e-03
      1.40252453e-03 0. 0. 0. 5.61009813e-03 2.80504907e-03
      2.80504907e-03 0. 0. 0. 0. 1.40252453e-03 1.40252453e-03 0. 0. 0.
      0. 0. 0. 0. 0. 0. 2.80504907e-03 1.82328187e-02 0. 0. 0.
      1.40252453e-03 1.40252453e-03 1.40252453e-03 2.80504907e-03 0.
      9.81767196e-03 0. 0. 1.40252453e-03 0. 0. 0. 2.80504907e-03 0. 0.
      2.80504907e-03 1.40252453e-03 0. 5.61009813e-03 0. 0. 0. 0. 0. 0.
      0. 2.80504907e-03 0. 0. 0. 0. 7.01262243e-03 0. 1.40252453e-03
      1.40252453e-03 0. 2.80504907e-03 0. 0. 0. 0. 0. 0. 1.40252453e-03
      0. 0. 5.61009813e-03 1.40252453e-03 0. 0. 0. 0. 4.20757383e-03
      1.40252453e-03 0. 0. 1.40252453e-03 0. 0. 0. 0. 0. 0.
      2.80504907e-03 0. 0. 2.80504907e-03 4.20757383e-03 0.
      2.80504907e-03 0. 0. 0. 0. 4.20757383e-03 0. 1.40252453e-03 0. 0.
      0. 0. 0. 1.40252453e-03 1.40252453e-03 0. 5.61009813e-03 0. 0.
      1.40252453e-03 0. 0. 0. 0. 2.80504907e-03 2.80504907e-03
      1.40252453e-03 0. 0. 4.20757383e-03 0. 0. 0. 0. 1.40252453e-03 0.
      1.40252453e-03 0. 0. 2.80504907e-03 0. 0. 0. 1.40252453e-03 0. 0.
      7.01262243e-03 1.40252453e-03 0. 0. 0. 4.20757383e-03
      1.40252453e-03 1.40252453e-03 1.40252453e-03 0. 0. 1.40252453e-03
      0. 0. 0. 0. 0. 0. 0. 0. 0. 2.80504907e-03 0. 7.01262243e-03 0. 0.
      1.40252453e-03 0. 0. 0. 0. 0. 0. 1.40252453e-03 0. 2.80504907e-03
      1.40252453e-03 0. 0. 0. 1.40252453e-03 0. 1.40252453e-03 0. 0. 0.
      1.40252453e-03 1.40252453e-03 1.40252453e-03 4.20757383e-03
      1.40252453e-03 1.40252453e-03 1.40252453e-03 0. 0. 1.40252453e-03
      0. 1.40252453e-03 2.80504907e-03 0. 0. 0. 2.80504907e-03 0. 0. 0.
      0. 0. 0. 0. 7.01262243e-03 0. 1.40252453e-03 0. 1.40252453e-03
      1.40252453e-03 0. 0. 4.20757383e-03 0. 2.80504907e-03
      2.80504907e-03 0. 0. 8.41514766e-03 2.80504907e-03 1.40252453e-03
      1.26227206e-02 0. 0. 0. 0. 0. 8.41514766e-03 0. 1.40252453e-03 0.
      4.20757383e-03 0. 1.40252453e-03 0. 0. 1.40252453e-03
      1.40252453e-03 1.40252453e-03 0. 0. 0. 0. 2.80504907e-03 0. 0. 0.
      2.80504907e-03 2.80504907e-03 1.40252453e-03 0. 0. 0. 0. 0. 0. 0.
      1.40252453e-03 0. 1.40252453e-03 1.40252453e-03 0. 1.68302953e-02
      0. 0. 1.40252453e-03 0. 0. 1.40252453e-03 0. 0. 0. 0. 0. 0.
      1.40252453e-03 0. 0. 5.61009813e-03 1.40252453e-03 1.40252453e-03
      2.80504907e-03 0. 5.61009813e-03 8.41514766e-03 0. 1.40252453e-03
      0. 2.80504907e-03 2.80504907e-03 0. 1.40252453e-03 1.40252453e-03
      0. 0. 0. 4.20757383e-03 0. 0. 0. 0. 1.40252453e-03 4.20757383e-03
      1.40252453e-03 1.40252453e-03 0. 2.80504907e-03 2.80504907e-03 0.
      5.61009813e-03 0. 1.40252453e-03 0. 0. 0. 0. 1.40252453e-03
      1.40252453e-03 0. 0. 2.80504907e-03 0. 1.40252453e-03 0.
      2.80504907e-03 0. 0. 0. 2.80504907e-03 1.40252453e-03 0. 0. 0. 0.
      8.41514766e-03 0. 0. 0. 0. 0. 0. 0. 1.40252453e-03 0. 0. 0. 0. 0.
      0. 0. 0. 0. 4.20757383e-03 0. 1.40252453e-03 0. 0. 0. 0. 0. 0.
      1.40252453e-03</_>
    <_>
      3.81679391e-03 0. 0. 1.52671756e-02 0. 0. 1.90839695e-03 0. 0. 0.
      0. 0. 0. 0. 0. 1.90839695e-03 0. 0. 3.81679391e-03 0. 0. 0. 0.
      1.90839695e-03 1.90839695e-03 3.81679391e-03 0. 0. 0. 0.
      1.90839695e-03 1.90839695e-03 1.90839695e-03 3.81679391e-03 0. 0.
      3.81679391e-03 0. 0. 1.90839695e-03 0. 1.90839695e-03 0. 0.
