<?xml version="1.0"?>
<opencv_storage>
<opencv_ml_svm>
  <format>3</format>
  <svmType>C_SVC</svmType>
  <kernel>
    <type>LINEAR</type></kernel>
  <C>1.</C>
  <term_criteria><iterations>100</iterations></term_criteria>
  <var_count>1000</var_count>
  <class_count>2</class_count>
  <class_labels type_id="opencv-matrix">
    <rows>2</rows>
    <cols>1</cols>
    <dt>i</dt>
    <data>
      -1 1</data></class_labels>
  <sv_total>1</sv_total>
  <support_vectors>
    <_>
      3.83457518e-03 1.92065109e-02 2.96910554e-02 1.09898344e-01
      -2.47933399e-02 2.05714498e-02 7.84325972e-03 -1.18033802e-02
      -8.07087868e-03 -1.14741651e-02 1.23573849e-02 -8.51866230e-03
      -1.85205019e-03 7.29674920e-02 1.44867366e-02 -1.13046374e-02
      -1.77781563e-02 8.22947361e-03 3.47790942e-02 2.86735650e-02
      -8.74473248e-03 7.47389207e-03 2.64670160e-02 2.00088043e-02
      -5.39836884e-02 -4.93632106e-04 2.75575276e-02 -2.84146611e-03
      1.05021903e-02 -1.73259024e-02 2.29856055e-02 1.12463832e-02
      -9.27438494e-03 -4.91040712e-03 3.12753916e-02 -5.96602028e-03
      -4.49965242e-03 1.30913733e-02 7.10896030e-03 1.83039904e-02
      9.57623869e-03 2.53681112e-02 -6.52017891e-02 -4.31123376e-03
      7.99907520e-02 -1.51252011e-02 -4.31900397e-02 1.11934841e-02
      -7.69629236e-03 6.38622865e-02 -5.38524315e-02 8.81630648e-03
      -3.16895731e-02 -2.91089173e-02 -8.76401179e-03 1.67525355e-02
      1.89002859e-03 -2.65993271e-02 1.23261809e-02 -1.90672837e-02
      -2.36837240e-03 -7.37788081e-02 7.62773901e-02 -8.34333524e-03
      -6.49755970e-02 -2.30432618e-02 5.56880515e-03 9.37218033e-03
      2.24413034e-02 -1.94881540e-02 3.64212994e-03 1.64569486e-02
      -2.66098753e-02 9.89394728e-03 8.19402095e-03 -4.86434363e-02
      -4.78177555e-02 3.68385799e-02 4.35057655e-02 -4.98576462e-03
      1.25910100e-02 7.33178407e-02 -2.41887663e-02 1.88756660e-02
      -6.82482962e-04 2.78699538e-03 -8.74719955e-03 9.58770327e-03
      -4.83916923e-02 6.00537807e-02 -8.88475403e-03 -7.65863387e-03
      -3.89214456e-02 -5.49705476e-07 6.26982003e-02 -1.69718079e-03
      -1.21867405e-02 1.08618720e-03 1.95049196e-02 2.33800225e-02
      -2.92265264e-04 -1.46070467e-02 1.46364914e-02 -1.03649925e-02
      1.27699832e-03 -3.66251580e-02 1.74183846e-02 1.23683214e-02
      -1.85439233e-02 4.07759622e-02 2.55723558e-02 1.28126601e-02
      -1.32692149e-02 3.62568982e-02 -2.05395650e-02 -3.69515121e-02
      2.80078407e-02 -5.54245226e-02 2.19339021e-02 1.89477851e-05
      -2.82833781e-02 -8.77669826e-03 -4.66076769e-02 -1.05051873e-02
      2.62255352e-02 3.24977674e-02 2.30333749e-02 -1.49755841e-02
      -1.26317414e-02 3.33757810e-02 1.36839468e-02 8.74640048e-03
      -1.03060436e-02 4.80248891e-02 1.06297461e-02 1.52908498e-02
      -4.61928640e-03 3.79970344e-03 3.19300639e-03 -1.14596389e-01
      -5.63952737e-02 1.32991094e-02 -2.09502354e-02 2.90494226e-02
      6.29738569e-02 4.28164937e-02 1.79638863e-02 -3.23610351e-04
      -1.33705754e-02 4.02214518e-03 2.63884179e-02 8.93800892e-03
      2.16364441e-03 -3.53046246e-02 3.62127051e-02 -1.05385128e-02
      -2.50576846e-02 -3.13220429e-03 -2.84611452e-02 1.43857123e-02
      1.32693071e-03 -1.19277574e-02 2.83843353e-02 -7.69198537e-02
      -2.24524736e-02 9.94129106e-04 1.31182307e-02 -1.20935189e-02
      -1.69578020e-03 1.52205082e-03 -2.35446356e-03 2.23749261e-02
      -8.24536681e-02 6.51167706e-03 -5.04482631e-03 3.66670080e-03
      -1.90649852e-02 -3.08083631e-02 4.85317484e-02 2.75079324e-03
      3.01436223e-02 1.21795489e-02 6.46566041e-04 -2.63109915e-02
      -2.33272673e-03 8.84730183e-03 9.32726823e-03 9.35142580e-03
      1.96711849e-02 -8.76977518e-02 -1.79861374e-02 -4.23206501e-02
      -2.06375476e-02 3.17308046e-02 6.10010885e-03 -1.74800865e-02
      6.20609056e-03 -1.11032333e-02 1.72528252e-02 -1.63795725e-02
      1.45431235e-02 2.09975475e-03 3.84506918e-02 7.24540278e-02
      -3.00263613e-02 2.28750575e-02 1.77374035e-02 2.84194723e-02
      2.66050696e-02 -2.76797991e-02 -5.84375672e-02 -7.11870939e-03
      -3.10128052e-02 -1.59337483e-02 7.40098720e-03 1.61868166e-02
      -1.08956341e-02 -1.46624483e-02 -8.07985961e-02 -7.41888722e-03
      -2.50908633e-04 1.73904244e-02 6.77776895e-03 1.57681908e-02
      6.18490577e-03 9.71656293e-03 -4.01752219e-02 2.76951189e-03
      9.85197816e-03 -2.46802401e-02 1.66232791e-02 -1.26731237e-02
      -1.09397410e-03 -4.87704128e-02 -9.18660220e-03 2.52978262e-02
      2.65889764e-02 3.03808898e-02 2.31425613e-02 3.61336134e-02
      1.68696735e-02 2.82302387e-02 1.62913706e-02 2.51392704e-02
      -2.01412034e-03 6.46618567e-03 8.91049206e-03 2.39939727e-02
      1.45705407e-02 -4.11443114e-02 -4.88214269e-02 -5.81761543e-03
      3.26408148e-02 1.81447566e-02 -1.44922240e-02 -1.34452358e-02
      1.92664359e-02 1.07385665e-02 1.50458002e-02 1.69263128e-02
      -5.32922242e-03 -2.43700314e-02 2.52458118e-02 -1.24360975e-02
      -1.60991792e-02 8.09878558e-02 -1.82718486e-02 2.14596484e-02
      -4.21332866e-02 1.19037274e-02 -7.58217182e-03 -2.40854099e-02
      1.15848053e-02 -3.82041633e-02 2.78696064e-02 1.26149459e-03
      -1.88049302e-02 -2.80197170e-02 1.23635493e-02 -1.60896238e-02
      1.25946170e-02 5.25408499e-02 1.00135868e-02 -2.23776493e-02
      -1.52528659e-02 -1.07219871e-02 -2.33876402e-03 1.43477367e-03
      -3.47417384e-01 -1.48902535e-02 6.86411187e-03 -1.43425027e-02
      1.45329582e-02 -6.28034323e-02 3.16908062e-02 1.12246238e-01
      -2.18878798e-02 2.49619205e-02 7.45849544e-03 -1.55162225e-02
      3.16158123e-02 1.90217216e-02 3.07169557e-02 -3.70842218e-02
      -4.07861657e-02 7.00414553e-03 -6.36618957e-02 -2.49973461e-02
      1.21622216e-02 -8.13282281e-03 -1.15815690e-02 5.96353272e-03
      -3.62445302e-02 -2.55177133e-02 3.70847690e-03 1.22697782e-02
      -3.32166813e-02 3.62259485e-02 2.14660484e-02 -1.20881051e-02
      8.37471113e-02 5.80641581e-03 -9.90127865e-03 -3.58147696e-02
      2.67711300e-02 5.02459146e-02 3.61127853e-02 2.91726552e-02
      -1.06690126e-02 1.46720232e-02 -1.38799683e-03 -2.19397359e-02
      -1.15759186e-02 2.14311536e-02 5.82725555e-03 8.08849640e-04
      3.86429508e-03 2.35698503e-02 2.79760566e-02 1.17511731e-02
      3.84762138e-02 3.69059213e-04 6.26729662e-03 1.58655569e-02
      1.76855773e-02 -1.06793828e-02 9.40043293e-03 1.42739015e-02
      5.08803278e-02 -4.02817987e-02 -2.27633864e-02 -8.71667452e-03
      2.86553055e-02 -2.26498134e-02 1.65293738e-02 -6.33169115e-02
      -3.01740511e-04 -2.64043454e-03 7.42406817e-03 5.66115556e-03
      2.04535527e-03 9.93335247e-03 7.23761413e-03 -1.89225620e-03
      1.04065286e-02 9.51594673e-03 -8.70593078e-03 -6.03850037e-02
      2.19262671e-02 1.86301284e-02 2.70548817e-02 -7.23357312e-03
      1.31413918e-02 -4.53104731e-03 3.57373208e-02 4.53531668e-02
      -3.86856816e-04 -8.34196049e-04 3.01538054e-02 4.74285953e-05
      1.70057137e-02 -4.88544665e-02 -3.12578790e-02 1.02398684e-02
      3.12689990e-02 5.46187013e-02 8.54937546e-03 4.87329438e-03
      3.64879961e-05 -9.57391132e-03 -2.02135090e-02 -2.07675472e-02
      1.13746542e-02 -8.82692263e-03 1.08510163e-02 -1.26808900e-02
      -5.26843742e-02 -1.99538004e-02 -2.02672631e-02 2.62956247e-02
      2.54028048e-02 -1.52719561e-02 1.78533271e-02 -5.20594977e-03
      -4.69767228e-02 5.69520227e-04 -4.67240717e-03 1.76914444e-03
      3.42252217e-02 -1.20840240e-02 -5.48729859e-03 1.88818504e-03
      1.64194237e-02 1.80070046e-02 -2.44987290e-03 9.72459372e-03
      -9.95716546e-03 2.44890060e-02 -9.89811346e-02 1.82606804e-03
      1.11706629e-02 1.32357609e-02 -7.72645930e-03 -3.84415053e-02
      2.12582126e-02 9.38554574e-03 8.97800829e-03 -4.11934964e-02
      1.44667532e-02 -2.44990513e-02 6.97309896e-03 1.78451575e-02
      -1.09014194e-02 6.28623739e-03 1.21597331e-02 -3.55014503e-02
      7.96324015e-03 1.81296933e-02 -3.47219594e-02 3.58034521e-02
      2.15794966e-02 -2.17636465e-03 -5.19864783e-02 7.40039488e-03
      -4.65384312e-02 -3.04073561e-02 2.69073509e-02 1.86375100e-02
      -8.17597844e-03 -3.65172587e-02 -5.98202795e-02 -1.12636136e-02
      4.05237004e-02 -3.83354630e-03 -1.32572383e-01 3.10654473e-02
      -1.20548062e-01 -2.05514543e-02 -3.74090672e-03 3.55734602e-02
      1.54121444e-02 -1.02254367e-02 -1.89437252e-02 -3.15476134e-02
      2.00703330e-02 1.38407610e-02 4.66794930e-02 2.46388675e-03
      1.92609150e-02 4.99763340e-03 -1.20003186e-02 -2.05129106e-02
      -1.00180227e-02 -3.13901086e-03 1.58727076e-02 2.53015943e-02
      2.98567824e-02 -1.06070423e-02 -2.56741815e-03 -1.51348987e-03
      -3.13772857e-02 9.25897062e-03 -2.79378202e-02 -3.99360172e-02
      4.80149388e-02 1.65724158e-02 2.73289997e-03 8.80720560e-03
      4.74086497e-03 5.87636605e-03 2.93433596e-03 -6.05211332e-02
      -1.06355259e-02 -1.93918161e-02 -8.21874291e-03 3.07733119e-02
      -1.72952600e-02 -5.66089246e-03 -2.74533648e-02 6.04730798e-03
      2.54078582e-03 -1.85525827e-02 1.94694456e-02 -8.23504198e-03
      9.33090523e-02 3.02692335e-02 2.13870686e-02 -3.20675131e-03
      -2.42412854e-02 3.08476072e-02 -1.61363706e-02 2.32402198e-02
      -2.56116781e-03 2.19116528e-02 -4.39602323e-02 5.24638109e-02
      -1.82991978e-02 -2.57289363e-03 -9.48735233e-03 -6.67223660e-03
      -1.84461214e-02 2.19782759e-02 2.57352870e-02 -2.05199774e-02
      -4.79174871e-03 -2.13182444e-04 -1.22724194e-02 2.16958448e-02
      4.74508218e-02 5.21970913e-02 -1.58569347e-02 3.13451439e-02
      1.53131420e-02 1.04456414e-02 -1.43574728e-02 9.28499829e-03
      1.14538260e-01 2.49181055e-02 -7.34908730e-02 2.08918093e-04
      1.40703944e-02 1.48151554e-02 -1.99352670e-02 4.20503970e-03
      1.08212680e-02 1.13616353e-02 -3.60967368e-02 -2.55116746e-02
      1.03666829e-02 1.81846246e-02 2.41075084e-02 -2.40822397e-02
      -1.20827658e-02 3.19826081e-02 3.41948122e-02 1.21207042e-02
      -2.50551593e-03 7.84942787e-03 1.45507539e-02 -2.12496128e-02
      -1.53438384e-02 2.31337976e-02 -4.71722195e-03 6.64203390e-02
      -5.06332852e-02 -5.31533035e-03 -3.63622420e-02 -3.14997546e-02
      6.97300117e-03 -3.94820841e-03 1.17576681e-02 1.91921219e-02
      2.33704746e-02 3.64539288e-02 1.36977006e-02 1.08986162e-02
      -2.39761248e-02 -1.45785222e-02 -1.54585149e-02 -5.66252042e-04
      1.34680234e-02 2.32857801e-02 -1.60482316e-03 5.12225553e-03
      3.83979492e-02 -1.67013817e-02 7.08147837e-03 1.40039260e-02
      2.50952989e-02 -4.85716984e-02 -1.47446925e-02 2.72977352e-02
      5.25476877e-03 1.91556774e-02 2.13262308e-02 2.17782110e-02
      -6.11759461e-02 2.96626170e-03 -8.44226312e-03 8.04596115e-03
      8.67637526e-03 1.86345913e-02 1.36252341e-03 2.65622288e-02
      3.85509967e-03 -7.98255857e-03 -7.84107894e-02 -2.22031586e-02
      4.38603712e-03 1.63278021e-02 -7.89792761e-02 7.60863023e-03
      7.77395722e-03 -3.24520767e-02 2.70975847e-02 5.41716721e-03
      2.44303029e-02 1.61839109e-02 1.56306047e-02 -2.25312635e-02
      7.13279471e-03 1.33250188e-02 1.25610512e-02 1.56479161e-02
      6.18785416e-05 1.32399965e-02 2.25239079e-02 -2.48042084e-02
      4.63197660e-03 -6.42858772e-03 -1.51333541e-01 1.63351167e-02
      2.38163061e-02 3.81392688e-02 7.49928236e-04 1.30433533e-02
      -2.59326454e-02 2.93108169e-03 5.88864535e-02 1.81138515e-02
      1.15787778e-02 -3.11697298e-03 1.45720458e-02 -3.07307020e-03
      8.29724781e-03 1.70174229e-03 -1.39487244e-03 5.73380943e-03
      -6.89309789e-03 5.95118515e-02 3.78997158e-03 2.17501018e-02
      3.74179780e-02 5.26296124e-02 6.88199839e-03 -1.21556856e-02
      -1.07498683e-01 -2.64371675e-03 -8.68119523e-02 2.19476037e-02
      5.67450933e-02 -3.51712443e-02 3.15467082e-02 9.39258095e-03
      9.20950808e-03 1.09270580e-01 -2.22823825e-02 -4.65555973e-02
      -1.13534052e-02 -4.80472052e-04 6.40124502e-03 7.64555763e-03
      1.13822771e-02 -1.11185730e-01 -2.25174297e-02 5.11979545e-03
      -2.31477991e-02 7.93055538e-03 6.78737415e-03 2.86938879e-03
      2.39633042e-02 -1.78387517e-03 3.31735425e-03 2.53230408e-02
      1.77109463e-03 5.28595448e-02 -3.38182151e-02 -2.14620363e-02
      4.78014583e-03 2.56653856e-02 -3.47273014e-02 1.38757273e-03
      4.64650197e-03 -6.04747757e-02 1.03350636e-02 -8.65101069e-03
      6.99070375e-03 1.04083493e-02 1.48045802e-02 -3.65029424e-02
      1.26700029e-02 -6.10804185e-03 -4.23704088e-02 2.18893066e-02
      -1.39712635e-02 -1.75447073e-02 -2.63820142e-02 -7.78086204e-03
      1.34411519e-02 3.69342379e-02 3.03934179e-02 4.75622825e-02
      -8.05434957e-02 -1.12132505e-02 1.64290853e-02 2.47653127e-02
      1.93423741e-02 1.12674022e-02 9.63342190e-03 -1.13688000e-02
      3.94610828e-03 -3.14105637e-02 -4.94195223e-02 4.68444638e-02
      -8.27786163e-04 6.67029573e-03 -1.04707887e-03 3.56096728e-03
      -3.19022359e-03 -3.90167758e-02 1.80646982e-02 6.43342435e-02
      -1.42262205e-01 -9.59194265e-03 -2.44629607e-02 -6.39783917e-04
      -3.03702001e-02 5.20367734e-03 -3.19921435e-03 -2.05175392e-02
      5.65885380e-03 -1.83791537e-02 -3.87839973e-03 3.16695794e-02
      3.71318050e-02 -1.03292977e-02 -1.31054018e-02 -3.16417613e-03
      4.18472327e-02 -3.94346341e-02 1.68906022e-02 -1.41521078e-02
      -2.06454238e-03 -8.25109659e-04 4.13857109e-04 -1.19406190e-02
      -3.38604376e-02 -1.53888837e-02 6.23394502e-03 -1.89444497e-02
      -2.95025855e-03 -9.61816462e-04 -1.40747298e-02 1.77016575e-02
      1.09071363e-04 4.50048782e-03 -1.08616157e-02 5.81664555e-02
      2.63690995e-03 -1.15607744e-02 -1.33742662e-02 -2.79578026e-02
      2.99268658e-03 9.39163938e-03 5.23500424e-03 -8.68052896e-03
      1.04949912e-02 -7.91480858e-03 3.08984937e-03 -2.38543227e-02
      5.55219240e-02 2.36396166e-03 1.02169134e-01 2.69447733e-03
      6.14325330e-03 2.49233656e-02 4.84134480e-02 -2.27429178e-02
      -2.77737211e-02 3.29415634e-05 2.10464164e-03 3.61129455e-02
      -2.26610377e-02 -1.78591479e-02 -1.66585017e-02 3.47578287e-04
      -1.02807075e-01 2.44634971e-02 -7.37508712e-03 -8.00809730e-03
      -5.27562946e-03 -4.14391086e-02 4.49475972e-03 5.06719314e-02
      1.31319752e-02 2.17695832e-02 2.19183732e-02 -7.30122812e-03
      1.83883961e-02 1.33422762e-02 8.74744542e-03 -1.13204336e-02
      1.69551782e-02 1.28217060e-02 -7.91266188e-02 -8.98153707e-03
      3.53318639e-02 2.52436660e-02 1.71386413e-02 -3.81754339e-02
      -3.69256735e-03 -7.07359612e-02 -2.20543193e-03 1.82627365e-02
      2.19683759e-02 6.79893373e-03 -3.50775546e-03 -1.35741636e-01
      3.96161573e-04 2.42001507e-02 -1.14948526e-02 1.89810453e-04
      -1.71102874e-03 7.45347468e-03 2.23862939e-02 -2.44800642e-04
      -2.10379763e-03 -1.43668419e-02 -2.04354478e-03 -7.78114125e-02
      -4.13905792e-02 -7.57008884e-03 1.81650128e-02 -2.46115914e-03
      1.31184291e-02 -9.20715556e-03 4.05250378e-02 -8.19024164e-03
      4.48887749e-03 2.09643617e-02 1.71912443e-02 2.08202153e-02
      -2.97347251e-02 -1.83263852e-03 -2.93034762e-02 5.71375107e-03
      -2.21924111e-02 4.79518287e-02 2.09251773e-02 1.46813812e-02
      -8.56464263e-03 -8.40714388e-03 -7.72334542e-03 1.86429173e-02
      1.28949597e-03 -1.71230710e-03 7.67211430e-03 2.40732655e-02
      2.25036386e-02 -1.02024954e-02 -3.97371911e-02 -1.68830883e-02
      -4.50370414e-03 -1.21712619e-02 -2.18436439e-02 2.57036183e-02
      1.62198152e-02 -1.47644412e-02 -1.50907296e-03 -4.18342883e-03
      -3.24737039e-06 8.03633630e-02 -1.92783587e-02 1.12136863e-02
      9.82157304e-04 -2.11665477e-03 1.61518864e-02 1.70420278e-02
      -5.74164744e-03 -5.68926614e-03 2.03221105e-02 -2.09471816e-03
      -8.28356668e-03 -8.67346418e-04 -2.94608250e-02 -2.11627898e-03
      7.54101388e-03 -1.28651632e-03 -6.33026334e-03 2.47406475e-02
      -2.84497607e-02 -2.97594965e-02 -3.33506204e-02 -2.13113893e-02
      1.27734374e-02 -9.18315817e-03 -6.48531690e-03 -2.16836836e-02
      1.21268658e-02 7.50333117e-03 -5.65490387e-02 -3.33013479e-03
      4.68818424e-03 -2.74740346e-02 2.54736003e-03 -2.51189508e-02
      -3.59559394e-02 1.05509432e-02 -1.39397159e-01 3.86715010e-02
      1.65725779e-02 -3.47236097e-02 1.11582000e-02 -3.94671923e-03
      8.79916176e-03 2.45005474e-03 1.37450430e-03 7.49118952e-03
      -3.42825428e-02 1.00424094e-02 5.72982728e-02 -3.76170734e-03
      1.15790004e-02 1.87656318e-03 3.21162911e-03 4.64784540e-03
      2.23856531e-02 -1.01615060e-02 -3.19177750e-03 1.71271358e-02
      6.68604299e-03 2.80219316e-02 -1.76437255e-02 -9.90169588e-03
      -6.03121053e-03 -6.70076674e-03 -4.67446186e-02 -8.04944523e-03
      2.93366984e-03 1.57254860e-02 1.58451665e-02 4.23087999e-02
      -1.08564468e-02 1.05722183e-02 -6.86518569e-03 -1.42298627e-03
      1.07878661e-02 -1.48431247e-03 1.12803848e-02 -4.72156182e-02
      5.27124386e-03 3.55432485e-03 1.87349822e-02 -2.06284318e-02
      -1.47769431e-04 -1.35485474e-02 -3.13553028e-02 -1.61850266e-02
      1.75932553e-02 -4.00560722e-03 8.04327708e-03 7.17198476e-03
      2.39170883e-02 8.57308600e-03 5.68178557e-02 5.69442799e-03
      -1.13387965e-02 -2.78761834e-02 1.55770108e-02 -1.17471647e-02
      3.36565413e-02 1.95444878e-02 -1.19202910e-02 -2.06649546e-02
      1.54124033e-02 -1.16129201e-02 4.42483369e-03 -9.33433697e-03
      2.23750685e-04 -6.90443590e-02 1.79459285e-02 -2.19690450e-03
      2.33698841e-02 5.09622693e-03 8.87217820e-02 1.02207186e-02
      9.26056039e-03 3.45430430e-03 1.03414990e-02 -1.45138437e-02</_></support_vectors>
  <uncompressed_sv_total>124</uncompressed_sv_total>
  <uncompressed_support_vectors>
    <_>
      5.56328241e-03 0. 0. 1.39082056e-02 1.39082060e-03 0. 0. 0. 0. 0.
      0. 0. 0. 0. 0. 0. 0. 0. 0. 0. 1.39082060e-03 0. 0. 2.78164120e-03
      1.39082060e-03 0. 0. 0. 1.39082060e-03 6.95410278e-03 0. 0.
      1.39082060e-03 0. 0. 1.39082060e-03 1.39082060e-03 0.
      2.78164120e-03 0. 0. 0. 0. 0. 0. 0. 1.39082060e-03 4.17246204e-03
      0. 0. 0. 0. 0. 5.56328241e-03 3.75521556e-02 0. 0. 0. 0. 0. 0.
      9.73574445e-03 0. 1.39082060e-03 0. 2.78164120e-03 0.
      2.78164120e-03 0. 0. 0. 2.78164120e-03 0. 4.17246204e-03
      1.39082060e-03 2.78164120e-03 5.28511815e-02 0. 1.39082060e-03
      1.39082060e-03 1.39082060e-03 0. 1.39082060e-03 1.39082060e-03 0.
      0. 0. 0. 1.39082060e-03 0. 0. 1.39082060e-03 1.39082060e-03 0.
      1.39082060e-03 4.17246204e-03 0. 0. 0. 0. 1.39082060e-03 0. 0. 0.
      0. 0. 0. 1.39082060e-03 0. 1.39082060e-03 0. 0. 1.39082060e-03 0.
      4.17246204e-03 1.39082060e-03 2.78164120e-03 0. 0. 9.73574445e-03
      2.78164120e-03 0. 0. 0. 1.39082060e-03 0. 1.39082060e-03
      8.34492408e-03 0. 0. 0. 2.78164120e-03 1.39082060e-03 0.
      1.39082060e-03 0. 0. 0. 0. 0. 1.39082060e-03 0. 1.39082060e-03 0.
      1.39082060e-03 4.17246204e-03 0. 1.39082060e-03 0. 0. 0. 0.
      2.78164120e-03 5.56328241e-03 0. 0. 0. 1.39082060e-03 0. 0. 0.
      1.39082060e-03 0. 5.56328241e-03 1.39082060e-03 2.78164120e-03 0.
      0. 0. 2.78164120e-03 0. 0. 2.78164120e-03 0. 0. 0. 5.56328241e-03
      5.56328241e-03 1.39082060e-03 1.39082060e-03 0. 0. 0. 0.
      1.39082060e-03 0. 0. 0. 0. 5.56328241e-03 0. 6.95410278e-03
      1.39082060e-03 0. 0. 0. 2.78164120e-03 0. 0. 0. 4.17246204e-03 0.
      0. 0. 1.39082060e-03 0. 0. 0. 0. 0. 2.78164120e-03 0.
      2.78164120e-03 0. 0. 1.39082060e-03 0. 2.78164120e-03
      2.78164120e-03 0. 0. 0. 0. 0. 0. 0. 6.95410278e-03 0. 0.
      6.95410278e-03 0. 0. 0. 0. 0. 0. 0. 0. 0. 0. 0. 0. 0. 0. 0. 0. 0.
      1.39082060e-03 0. 8.34492408e-03 1.39082060e-03 0. 0.
      1.39082060e-03 0. 0. 0. 0. 0. 0. 1.39082060e-03 0. 0. 0.
      1.39082060e-03 0. 1.39082060e-03 1.39082060e-03 0. 1.39082060e-03
      2.78164120e-03 6.95410278e-03 0. 1.39082060e-03 0. 0.
      1.39082060e-03 1.39082060e-03 0. 0. 0. 2.78164120e-03 0. 0. 0. 0.
      1.39082060e-03 0. 1.94714889e-02 4.17246204e-03 0. 0. 0.
      1.39082060e-03 0. 0. 0. 0. 0. 0. 0. 0. 0. 8.34492408e-03 0. 0.
      1.39082060e-03 1.39082060e-03 2.78164120e-03 6.95410278e-03
      4.17246204e-03 0. 1.39082060e-03 2.78164120e-03 0. 0.
      4.17246204e-03 0. 2.78164120e-03 0. 0. 1.39082060e-03
      1.39082060e-03 0. 0. 2.78164120e-03 0. 0. 0. 4.17246204e-03
      1.39082060e-03 1.39082060e-03 0. 0. 0. 0. 0. 0. 0. 0. 0. 0. 0. 0.
      0. 0. 0. 2.78164120e-03 0. 0. 1.39082060e-03 0. 0. 0. 0. 0. 0.
      1.39082060e-03 0. 0. 1.39082060e-03 1.39082060e-03 0. 0. 0.
      1.39082060e-03 0. 0. 0. 0. 0. 0. 1.39082060e-03 0. 0. 0. 0.
      1.39082060e-03 1.39082060e-03 0. 0. 0. 0. 0. 0. 0. 0.
      1.39082060e-03 0. 0. 1.39082056e-02 1.39082060e-03 0. 0. 0.
      1.39082060e-03 2.78164120e-03 2.78164120e-03 4.17246204e-03 0. 0.
      0. 0. 0. 4.17246204e-03 0. 0. 2.78164120e-03 0. 0. 1.39082060e-03
      0. 0. 0. 2.78164120e-03 0. 0. 5.56328241e-03 2.78164120e-03 0. 0.
      0. 0. 1.39082060e-03 0. 0. 1.39082060e-03 0. 1.39082060e-03 0.
      1.39082060e-03 1.39082060e-03 0. 0. 0. 0. 1.39082060e-03 0.
      2.78164120e-03 0. 0. 0. 2.78164120e-03 1.39082060e-03
      4.17246204e-03 0. 0. 0. 0. 2.78164120e-03 1.39082060e-03
      1.39082060e-03 0. 0. 1.39082060e-03 0. 1.39082060e-03 0. 0. 0.
      4.17246204e-03 0. 4.17246204e-03 0. 0. 4.17246204e-03 0. 0. 0.
      1.39082060e-03 0. 4.17246204e-03 0. 0. 0. 1.11265648e-02 0. 0. 0.
      0. 0. 2.78164120e-03 1.39082060e-03 0. 0. 0. 0. 0. 4.17246204e-03
      0. 2.78164120e-03 4.17246204e-03 0. 0. 0. 0. 1.39082060e-03 0.
      1.39082060e-03 0. 1.39082060e-03 2.78164120e-03 0. 0. 0. 0.
      1.39082060e-03 0. 1.39082060e-03 0. 0. 0. 1.39082060e-03 0. 0.
      1.52990269e-02 0. 2.78164120e-03 0. 0. 0. 0. 2.78164120e-03 0. 0.
      1.39082060e-03 2.78164120e-03 0. 5.56328241e-03 0. 0. 0. 0. 0.
      1.39082060e-03 0. 1.39082060e-03 0. 8.34492408e-03 0. 0.
      2.78164120e-03 1.39082060e-03 1.39082060e-03 0. 2.78164120e-03
      1.39082060e-03 0. 1.39082060e-03 0. 0. 0. 0. 0. 0. 0. 0. 0.
      1.39082060e-03 0. 2.78164120e-03 5.56328241e-03 1.39082060e-03 0.
      0. 0. 1.25173852e-02 0. 0. 0. 0. 2.78164120e-03 0. 0.
      1.39082060e-03 0. 1.39082060e-03 0. 0. 0. 0. 0. 0. 0. 0. 0. 0. 0.
      0. 1.39082060e-03 2.78164120e-03 0. 0. 0. 1.39082060e-03 0.
      1.39082060e-03 0. 0. 1.39082060e-03 1.39082060e-03 1.39082060e-03
      0. 0. 1.39082060e-03 0. 2.78164120e-03 0. 0. 0. 0. 1.39082060e-03
      0. 6.95410278e-03 0. 0. 1.39082060e-03 0. 1.39082060e-03 0. 0. 0.
      0. 0. 1.39082060e-03 0. 0. 0. 0. 0. 6.95410278e-03 0. 0.
      1.39082060e-03 0. 0. 0. 0. 1.39082060e-03 0. 0. 0. 0. 0. 0. 0.
      1.39082060e-03 0. 0. 0. 1.39082060e-03 2.78164120e-03 0. 0.
      2.78164120e-03 0. 0. 1.39082060e-03 6.95410278e-03 0. 0. 0. 0. 0.
      0. 0. 1.39082060e-03 4.17246204e-03 0. 0. 4.17246204e-03 0. 0. 0.
      5.56328241e-03 0. 0. 0. 0. 1.39082060e-03 0. 0. 2.78164120e-03
      4.17246204e-03 0. 0. 2.78164120e-03 0. 0. 0. 1.39082060e-03 0. 0.
      1.39082060e-03 0. 0. 0. 0. 0. 4.17246204e-03 0. 0. 2.78164120e-03
      0. 0. 0. 0. 0. 0. 0. 0. 0. 1.39082060e-03 0. 0. 0. 0. 0. 0. 0. 0.
      0. 1.39082060e-03 1.39082060e-03 2.78164120e-03 0. 0.
      1.39082060e-03 0. 1.39082060e-03 0. 1.39082060e-03 6.95410278e-03
      1.39082060e-03 4.17246204e-03 0. 1.39082060e-03 0. 0.
      2.78164120e-03 1.39082060e-03 1.39082060e-03 1.39082060e-03 0.
      2.78164120e-03 1.39082060e-03 0. 0. 0. 4.17246204e-03 0. 0. 0.
      4.17246204e-03 0. 1.39082060e-03 1.39082060e-03 0. 0. 0. 0. 0. 0.
      1.39082060e-03 2.78164120e-03 0. 0. 0. 0. 0. 0. 4.17246204e-03
      2.78164120e-03 0. 0. 1.39082060e-03 0. 0. 1.39082060e-03 0. 0. 0.
      1.39082060e-03 0. 1.39082060e-03 0. 1.39082060e-03 0. 0. 0. 0. 0.
      2.78164120e-03 0. 1.39082060e-03 0. 2.78164120e-03 0.
      1.39082060e-03 1.39082060e-03 0. 0. 0. 0. 0. 0. 0. 1.39082060e-03
      0. 0. 0. 0. 0. 1.39082060e-03 4.17246204e-03 0. 0. 1.39082060e-03
      0. 1.39082060e-03 0. 0. 0. 0. 0. 0. 1.39082060e-03 8.34492408e-03
      0. 0. 1.39082060e-03 0. 0. 0. 0. 0. 0. 0. 0. 4.17246204e-03 0.
      1.39082060e-03 0. 2.78164120e-03 0. 0. 0. 2.78164120e-03 0.
      1.39082060e-03 1.39082060e-03 0. 5.56328241e-03 1.39082060e-03
      1.39082060e-03 0. 0. 0. 0. 0. 0. 0. 0. 1.39082060e-03 0.
      1.39082060e-03 0. 0. 0. 1.39082060e-03 2.78164120e-03 0. 0.
      2.78164120e-03 0. 0. 0. 0. 0. 1.39082060e-03 0. 0. 0. 0. 0. 0. 0.
      0. 2.78164120e-03 0. 4.17246204e-03 0. 0. 0. 0. 1.39082060e-03 0.
      2.78164120e-03 2.78164120e-03 0. 0. 1.39082060e-03 6.95410278e-03
      0. 1.39082060e-03 2.78164120e-03 1.39082060e-03 1.39082060e-03 0.
      0. 6.95410278e-03 0. 1.39082060e-03 2.78164120e-03 0.
      4.17246204e-03 1.39082060e-03 0. 0. 0. 0. 0. 0. 2.78164120e-03 0.
      0. 0. 0. 0. 0. 1.39082060e-03 2.78164120e-03 0. 0. 1.39082060e-03
      0. 0. 0. 1.39082060e-03 0. 0. 1.39082060e-03 0. 0. 0.
      4.17246204e-03 1.39082060e-03 0. 0. 0. 0. 0. 1.39082060e-03 0.
      2.78164120e-03 1.39082060e-03 0. 0. 0. 2.78164120e-03 0. 0. 0. 0.
      0. 0. 0. 1.39082060e-03 0. 0. 0. 0. 0. 1.39082060e-03 0. 0. 0. 0.
      2.78164120e-03 0. 0. 1.39082060e-03 1.80806685e-02 4.17246204e-03
      0. 0. 0. 1.39082060e-03 0. 6.95410278e-03 0. 0. 0. 0. 0.
      1.39082060e-03 0. 1.39082060e-03 0. 0.</_>
    <_>
      2.33918126e-03 0. 0. 9.35672503e-03 4.67836251e-03 7.01754354e-03
      0. 0. 0. 0. 0. 0. 0. 0. 0. 2.33918126e-03 1.16959063e-03 0. 0. 0.
      1.16959063e-03 0. 0. 0. 5.84795326e-03 4.67836251e-03
      1.16959063e-03 5.84795326e-03 0. 4.67836251e-03 0. 0. 0.
      2.33918126e-03 0. 1.16959063e-03 0. 0. 0. 0. 0. 2.33918126e-03 0.
      0. 0. 1.16959063e-03 2.33918126e-03 0. 0. 0. 0. 1.16959063e-03 0.
      2.33918126e-03 1.05263153e-02 1.16959063e-03 0. 1.16959063e-03 0.
      0. 0. 1.16959065e-02 0. 2.33918126e-03 0. 0. 2.33918126e-03
      1.16959063e-03 0. 3.50877177e-03 0. 0. 2.33918126e-03
      1.16959063e-03 4.67836251e-03 2.33918126e-03 3.62573080e-02 0.
      1.16959063e-03 0. 0. 0. 3.50877177e-03 0. 0. 0. 3.50877177e-03 0.
      2.33918126e-03 0. 0. 0. 0. 0. 0. 1.16959063e-03 0. 2.33918126e-03
      0. 0. 0. 0. 0. 1.16959063e-03 0. 1.16959063e-03 0. 0. 0. 0. 0. 0.
      0. 1.16959063e-03 1.16959063e-03 3.50877177e-03 0. 0.
      1.16959063e-03 0. 5.84795326e-03 0. 0. 4.67836251e-03 0. 0. 0.
      1.52046783e-02 2.33918126e-03 0. 0. 0. 0. 0. 1.16959063e-03 0. 0.
      0. 0. 0. 0. 0. 0. 1.16959063e-03 0. 0. 1.16959063e-03 0.
      1.16959063e-03 0. 1.16959063e-03 0. 0. 1.16959063e-03 0. 0. 0. 0.
      3.50877177e-03 0. 0. 1.16959063e-03 0. 2.33918126e-03 0. 0.
      2.33918126e-03 1.16959063e-03 0. 0. 0. 2.33918126e-03
      5.84795326e-03 0. 3.50877177e-03 0. 2.33918126e-03 1.16959063e-03
      0. 1.16959063e-03 1.16959063e-03 0. 1.16959063e-03 0.
      1.16959063e-03 0. 1.16959063e-03 0. 0. 3.50877177e-03
      1.16959063e-03 4.67836251e-03 1.16959063e-03 0. 0. 0.
      2.33918126e-03 0. 0. 0. 0. 1.16959063e-03 0. 0. 0. 1.16959063e-03
      0. 0. 1.16959063e-03 0. 2.33918126e-03 0. 0. 3.50877177e-03 0. 0.
      0. 1.16959063e-03 0. 0. 0. 0. 0. 0. 0. 0. 3.50877177e-03
      1.16959063e-03 0. 3.50877177e-03 2.33918126e-03 0. 0.
      1.16959063e-03 1.16959063e-03 0. 1.16959063e-03 0. 0. 0. 0. 0. 0.
      0. 0. 0. 0. 0. 1.16959063e-03 0. 9.35672503e-03 0. 0. 0.
      1.16959063e-03 0. 0. 1.16959063e-03 3.50877177e-03 0. 0.
      1.16959063e-03 0. 0. 1.16959063e-03 0. 2.33918126e-03
      1.16959063e-03 0. 3.50877177e-03 1.16959063e-03 4.67836251e-03
      3.50877177e-03 1.16959063e-03 0. 0. 1.16959063e-03 1.16959063e-03
      1.16959063e-03 4.67836251e-03 0. 0. 0. 3.50877177e-03
      4.67836251e-03 4.67836251e-03 0. 0. 3.39181274e-02 2.33918126e-03
      0. 0. 0. 4.67836251e-03 0. 0. 0. 1.16959063e-03 0. 0. 0. 0. 0. 0.
      4.67836251e-03 0. 1.16959063e-03 0. 0. 0. 1.16959063e-03 0. 0.
      7.01754354e-03 3.50877177e-03 0. 3.50877177e-03 0. 4.67836251e-03
      0. 7.01754354e-03 1.16959063e-03 1.16959063e-03 5.84795326e-03 0.
      2.33918126e-03 0. 0. 0. 0. 3.50877177e-03 3.50877177e-03
      9.35672503e-03 1.16959063e-03 0. 2.33918126e-03 0. 0. 0. 0. 0.
      1.16959063e-03 1.16959063e-03 0. 0. 7.01754354e-03 0. 0. 0.
      1.16959063e-03 1.16959063e-03 0. 0. 1.16959063e-03 0.
      4.67836251e-03 0. 1.16959063e-03 0. 0. 0. 1.16959063e-03 0. 0. 0.
      0. 0. 1.16959063e-03 1.16959063e-03 0. 0. 0. 0. 0. 0. 0.
      1.16959063e-03 0. 1.16959063e-03 0. 0. 0. 0. 0. 2.33918126e-03 0.
      0. 1.16959063e-03 0. 0. 4.67836251e-03 3.50877177e-03
      1.16959063e-03 1.16959063e-03 0. 0. 0. 0. 8.18713475e-03 0. 0.
      4.67836251e-03 0. 0. 1.16959063e-03 2.33918126e-03 0. 0. 0. 0. 0.
      0. 1.16959063e-03 0. 1.16959063e-03 0. 3.50877177e-03
      2.33918126e-03 4.67836251e-03 0. 0. 3.50877177e-03 7.01754354e-03
      0. 1.16959063e-03 0. 1.16959063e-03 0. 1.16959063e-03
      3.50877177e-03 2.33918126e-03 1.16959063e-03 0. 1.16959063e-03 0.
      1.16959063e-03 0. 0. 0. 0. 5.84795326e-03 1.16959063e-03
      1.16959063e-03 3.50877177e-03 3.50877177e-03 1.16959063e-03 0. 0.
      1.16959063e-03 2.33918126e-03 4.67836251e-03 1.16959063e-03 0. 0.
      0. 0. 3.50877177e-03 0. 5.84795326e-03 0. 0. 0. 1.16959063e-03 0.
      0. 1.16959063e-03 1.16959063e-03 0. 0. 1.16959063e-03 0.
      5.84795326e-03 3.50877177e-03 2.33918126e-03 0. 8.18713475e-03 0.
      1.16959063e-03 1.16959063e-03 0. 2.33918126e-03 0. 0.
      1.16959063e-03 0. 1.16959063e-03 0. 1.16959063e-03 2.33918126e-03
      0. 1.16959063e-03 2.33918126e-03 1.16959063e-03 0. 1.16959063e-03
      0. 3.50877177e-03 0. 4.67836251e-03 1.16959063e-03 0. 0.
      1.16959063e-03 0. 0. 1.16959063e-03 0. 1.16959063e-03
      1.16959063e-03 0. 2.33918126e-03 0. 0. 0. 1.16959063e-03
      3.50877177e-03 3.50877177e-03 0. 0. 0. 4.67836251e-03 0.
      1.16959063e-03 0. 0. 8.18713475e-03 0. 1.16959063e-03 0. 0. 0. 0.
      0. 0. 1.16959063e-03 0. 2.33918126e-03 0. 3.50877177e-03 0. 0. 0.
      0. 0. 0. 0. 1.16959063e-03 0. 0. 0. 0. 0. 0. 0. 0. 0.
      3.50877177e-03 0. 0. 5.84795326e-03 5.84795326e-03 0.
      1.16959063e-03 0. 2.33918126e-03 0. 2.33918126e-03 0.
      1.16959063e-03 0. 0. 1.16959063e-03 1.16959063e-03 0. 0.
      1.16959063e-03 1.16959063e-03 1.16959063e-03 0. 1.16959063e-03
      1.16959063e-03 0. 0. 0. 0. 0. 0. 0. 0. 2.33918126e-03
      1.16959063e-03 1.16959063e-03 0. 0. 0. 0. 0. 0. 0. 2.33918126e-03
      0. 0. 0. 2.33918126e-03 0. 1.16959063e-03 1.16959063e-03 0. 0. 0.
      1.05263153e-02 3.50877177e-03 1.16959063e-03 0. 0. 1.16959063e-03
      0. 0. 1.16959063e-03 1.16959063e-03 0. 2.33918126e-03 0.
      1.16959063e-03 0. 0. 1.16959063e-03 0. 1.16959063e-03 0.
      1.16959063e-03 0. 0. 0. 0. 0. 0. 0. 0. 0. 0. 2.33918126e-03
      1.16959063e-03 1.16959063e-03 0. 0. 1.16959063e-03 1.16959063e-03
      0. 0. 0. 0. 0. 1.16959063e-03 0. 3.50877177e-03 0. 2.33918126e-03
      0. 0. 0. 1.16959063e-03 0. 0. 0. 0. 2.33918126e-03 5.84795326e-03
      1.16959063e-03 0. 1.16959063e-03 0. 0. 0. 0. 0. 1.16959063e-03
      1.16959063e-03 0. 0. 0. 1.16959063e-03 0. 0. 0. 0. 2.33918126e-03
      2.33918126e-03 0. 0. 2.33918126e-03 4.67836251e-03 0.
      1.16959063e-03 0. 2.33918126e-03 2.33918130e-02 0. 0.
      1.16959063e-03 0. 0. 1.16959063e-03 0. 3.50877177e-03 0. 0. 0. 0.
      0. 2.33918126e-03 0. 0. 0. 0. 0. 0. 0. 0. 7.01754354e-03 0.
      1.16959063e-03 0. 2.33918126e-03 0. 0. 0. 3.50877177e-03 0.
      1.16959065e-02 0. 0. 9.35672503e-03 2.33918126e-03 0. 0.
      2.33918126e-03 0. 2.33918126e-03 0. 0. 3.50877177e-03
      1.16959063e-03 0. 1.16959063e-03 0. 2.33918126e-03 0. 0. 0. 0. 0.
      0. 0. 0. 1.16959063e-03 0. 1.16959063e-03 0. 5.84795326e-03 0.
      1.16959063e-03 0. 0. 0. 0. 0. 0. 0. 0. 1.16959063e-03
      4.67836251e-03 1.16959063e-03 0. 1.16959063e-03 1.16959063e-03 0.
      0. 0. 0. 0. 0. 0. 0. 0. 0. 0. 0. 0. 0. 0. 0. 0. 1.16959063e-03 0.
      0. 1.16959063e-03 1.16959063e-03 0. 0. 1.16959063e-03 0. 0. 0.
      1.16959063e-03 0. 0. 0. 0. 0. 1.16959063e-03 0. 0. 0.
      4.67836251e-03 0. 0. 1.16959063e-03 0. 3.50877177e-03
      2.33918126e-03 0. 0. 0. 0. 0. 0. 0. 0. 0. 1.16959063e-03 0. 0.
      2.33918126e-03 1.16959063e-03 0. 0. 1.16959063e-03 0.
      3.50877177e-03 0. 1.16959063e-03 0. 0. 0. 0. 0. 0. 0. 0. 0. 0.
      1.16959063e-03 1.16959063e-03 0. 0. 0. 0. 0. 0. 0. 0. 0. 0. 0.
      1.16959063e-03 0. 0. 0. 2.33918126e-03 1.16959063e-03 0. 0.
      1.16959063e-03 2.33918126e-03 0. 1.16959063e-03 0. 0. 0. 0. 0. 0.
      3.50877177e-03 0. 0. 0. 0. 5.84795326e-03 0. 0. 3.50877177e-03 0.
      0. 1.16959063e-03 0. 0. 1.16959063e-03 0. 0. 0. 2.33918126e-03
      1.16959063e-03 5.84795326e-03 0. 1.16959063e-03 0. 0. 0. 0.
      1.16959063e-03 1.16959063e-03 3.50877177e-03 0. 0. 0.
      3.50877177e-03 0. 2.33918126e-03 0. 0. 1.16959063e-03 0.
      2.33918126e-03 0. 0. 5.84795326e-03 0. 0. 0. 1.16959063e-03
      4.67836251e-03 0. 0. 1.16959063e-03 0. 0. 2.33918126e-03 0.
      1.16959063e-03 0. 1.16959063e-03 0. 1.16959063e-03 1.16959063e-03
      3.50877177e-03 2.33918126e-03 0. 1.16959063e-03 0. 0. 0. 0. 0.
      1.16959063e-03 0. 0. 0. 0. 2.33918126e-03 0. 0. 0. 2.33918126e-03
      0. 1.16959063e-03 1.16959063e-03 1.16959063e-03 0. 0. 0. 0. 0.
      2.33918126e-03 0. 0. 0. 1.16959063e-03 0. 1.16959063e-03 0.
      2.33918126e-03 2.33918126e-03 0. 0. 0. 0. 3.50877177e-03
      2.33918126e-03 2.33918126e-03 1.16959063e-03 0. 0. 0. 0. 0. 0.
      1.16959063e-03 0. 0.</_>
    <_>
      0. 1.56739808e-03 0. 1.56739808e-03 3.13479616e-03 0. 0. 0. 0. 0.
      0. 1.56739808e-03 0. 0. 0. 0. 0. 3.13479616e-03 0. 0. 0. 0. 0.
      1.56739808e-03 1.56739808e-03 0. 1.56739808e-03 4.70219413e-03 0.
      3.13479616e-03 0. 0. 1.56739808e-03 1.56739808e-03 0. 0. 0. 0. 0.
      0. 0. 0. 9.40438826e-03 0. 0. 0. 4.70219413e-03 0. 0. 0.
      1.56739808e-03 0. 1.56739808e-03 0. 5.79937287e-02 0. 0.
      3.13479616e-03 0. 6.26959233e-03 0. 0. 0. 0. 0. 0. 3.13479616e-03
      0. 0. 4.70219413e-03 0. 0. 1.56739808e-03 0. 1.56739808e-03
      3.13479616e-03 3.29153612e-02 4.70219413e-03 0. 3.13479616e-03 0.
      4.70219413e-03 1.56739808e-03 0. 0. 0. 3.13479616e-03 0.
      1.56739808e-03 0. 0. 0. 4.70219413e-03 0. 0. 1.56739808e-03
      1.56739808e-03 1.56739808e-03 0. 0. 0. 1.56739808e-03 0. 0. 0.
      9.40438826e-03 0. 0. 1.56739808e-03 0. 0. 1.56739808e-03
      1.56739808e-03 0. 1.56739808e-03 4.70219413e-03 0. 1.56739808e-03
      0. 3.13479616e-03 3.13479616e-03 1.56739808e-03 0. 1.56739801e-02
      0. 0. 0. 4.70219413e-03 3.13479616e-03 0. 0. 0. 0. 0. 0. 0. 0. 0.
      0. 1.56739808e-03 6.26959233e-03 0. 4.70219413e-03 0. 0. 0. 0.
      1.56739808e-03 0. 0. 0. 0. 0. 1.56739808e-03 0. 0. 0.
      1.56739808e-03 6.26959233e-03 0. 0. 7.83699006e-03 0. 0.
      3.13479616e-03 0. 0. 0. 1.56739808e-03 0. 0. 1.56739808e-03
      1.88087765e-02 0. 0. 0. 0. 1.56739808e-03 0. 0. 0. 0. 0. 0.
      1.56739808e-03 0. 0. 1.56739808e-03 0. 1.72413792e-02 0.
      1.56739808e-03 1.56739808e-03 0. 0. 0. 0. 1.56739808e-03 0.
      1.56739808e-03 0. 0. 0. 0. 1.56739808e-03 4.70219413e-03 0. 0. 0.
      0. 6.26959233e-03 0. 0. 0. 0. 0. 1.56739808e-03 1.56739808e-03
      1.56739808e-03 0. 0. 0. 0. 0. 0. 1.56739808e-03 7.83699006e-03
      1.56739808e-03 0. 1.56739808e-03 0. 0. 0. 1.56739808e-03
      1.56739808e-03 0. 0. 0. 0. 0. 0. 0. 0. 0. 0. 0. 0. 0. 0.
      3.13479616e-03 3.13479616e-03 0. 0. 0. 3.13479616e-03
      4.70219413e-03 0. 0. 0. 0. 0. 0. 1.56739808e-03 1.56739808e-03 0.
      0. 0. 0. 0. 0. 1.56739808e-03 1.56739808e-03 0. 0. 0. 0.
      1.56739808e-03 0. 3.13479616e-03 3.13479616e-03 0. 0. 0.
      1.56739808e-03 0. 3.13479616e-03 1.56739808e-03 0. 7.83699006e-03
      3.13479616e-03 0. 0. 0. 3.13479616e-03 3.13479616e-03
      3.13479616e-03 0. 0. 0. 1.56739808e-03 0. 0. 1.56739808e-03
      4.70219413e-03 0. 0. 3.13479616e-03 1.56739808e-03 0. 0.
      1.56739808e-03 0. 0. 1.56739808e-03 0. 0. 0. 0. 3.13479616e-03
      3.13479616e-03 0. 1.56739808e-03 0. 1.56739808e-03 0.
      1.56739808e-03 0. 0. 0. 1.56739808e-03 0. 1.56739808e-03 0. 0. 0.
      0. 0. 0. 0. 0. 3.13479616e-03 0. 0. 0. 0. 0. 0. 0. 1.56739808e-03
      0. 3.13479616e-03 0. 0. 1.56739808e-03 0. 1.56739808e-03 0. 0. 0.
      0. 0. 7.83699006e-03 1.56739808e-03 0. 0. 0. 0. 6.26959233e-03 0.
      0. 0. 0. 3.13479616e-03 0. 0. 0. 0. 1.56739808e-03 1.56739808e-03
      1.56739808e-03 1.56739808e-03 0. 0. 0. 0. 0. 0. 0. 0. 0.
      6.26959233e-03 1.56739808e-03 0. 0. 7.83699006e-03 4.70219413e-03
      0. 0. 1.56739808e-03 0. 0. 0. 0. 0. 1.56739808e-03 0. 0. 0. 0. 0.
      0. 0. 1.56739808e-03 0. 1.56739808e-03 0. 0. 1.56739808e-03 0. 0.
      0. 0. 0. 3.13479616e-03 0. 0. 0. 1.56739808e-03 0. 0.
      1.56739808e-03 0. 0. 0. 0. 0. 0. 7.83699006e-03 3.13479616e-03 0.
      0. 0. 3.13479616e-03 1.56739808e-03 7.83699006e-03 0. 0. 0.
      3.13479616e-03 6.26959233e-03 0. 0. 0. 0. 6.26959233e-03 0.
      1.09717865e-02 3.13479616e-03 0. 0. 3.13479616e-03 0.
      1.56739808e-03 0. 0. 0. 0. 4.70219413e-03 0. 0. 3.13479616e-03
      1.56739808e-03 0. 0. 0. 1.56739808e-03 0. 0. 0. 0. 3.13479616e-03
      0. 0. 0. 0. 0. 0. 1.56739808e-03 3.13479616e-03 1.56739808e-03 0.
      0. 0. 3.13479616e-03 0. 0. 3.13479616e-03 0. 1.56739808e-03 0. 0.
      0. 0. 0. 0. 0. 0. 1.56739808e-03 0. 0. 0. 0. 3.13479616e-03 0.
      1.56739808e-03 4.70219413e-03 0. 0. 0. 0. 0. 0. 0. 0. 0. 0. 0. 0.
      0. 0. 0. 0. 0. 0. 1.56739808e-03 1.56739808e-03 0. 0.
      3.13479616e-03 0. 0. 1.56739808e-03 1.56739808e-03 0.
      1.56739808e-03 0. 0. 0. 0. 0. 0. 3.13479616e-03 0. 0.
      3.13479616e-03 0. 0. 0. 0. 0. 4.70219413e-03 0. 3.13479616e-03 0.
      4.70219413e-03 0. 4.70219413e-03 3.13479616e-03 1.56739808e-03 0.
      1.56739808e-03 1.56739808e-03 0. 0. 0. 4.70219413e-03
      1.56739808e-03 0. 0. 0. 0. 0. 0. 0. 0. 0. 0. 0. 0. 0. 0. 0. 0. 0.
      0. 0. 3.13479616e-03 0. 0. 3.13479616e-03 0. 1.56739808e-03 0.
      1.56739808e-03 0. 0. 3.13479616e-03 1.56739808e-03 0.
      1.56739808e-03 6.26959233e-03 3.13479616e-03 0. 1.56739808e-03 0.
      0. 4.70219413e-03 0. 0. 0. 0. 0. 0. 3.13479616e-03 0. 0. 0. 0. 0.
      0. 1.72413792e-02 0. 0. 0. 0. 0. 3.13479616e-03 1.56739808e-03
      7.83699006e-03 0. 0. 0. 0. 1.56739808e-03 0. 0. 1.56739808e-03 0.
      0. 0. 0. 1.56739808e-03 1.56739808e-03 0. 0. 1.56739808e-03 0. 0.
      6.26959233e-03 0. 0. 1.56739808e-03 0. 0. 0. 0. 0. 1.56739808e-03
      0. 0. 1.56739808e-03 0. 0. 4.70219413e-03 0. 0. 0. 0. 0. 0.
      3.13479616e-03 0. 0. 0. 0. 0. 1.56739808e-03 3.13479616e-03 0. 0.
      3.13479616e-03 0. 0. 0. 0. 0. 1.56739808e-03 0. 0. 1.56739801e-02
      0. 1.56739808e-03 3.13479616e-03 0. 1.56739808e-03 0.
      1.56739808e-03 1.56739808e-03 0. 0. 1.56739808e-03 0.
      3.13479616e-03 0. 0. 0. 0. 0. 0. 0. 0. 1.56739808e-03
      3.13479616e-03 0. 1.56739808e-03 0. 0. 0. 0. 3.13479616e-03
      1.56739808e-03 0. 1.56739808e-03 0. 0. 0. 3.13479616e-03 0.
      1.56739808e-03 0. 0. 1.56739808e-03 0. 0. 1.56739808e-03 0. 0. 0.
      0. 0. 0. 0. 0. 1.56739808e-03 3.13479616e-03 3.13479616e-03
      6.26959233e-03 0. 0. 1.56739808e-03 1.56739808e-03 0. 0.
      1.56739808e-03 0. 0. 0. 0. 0. 0. 0. 0. 0. 0. 0. 6.26959233e-03 0.
      0. 0. 1.56739808e-03 0. 0. 0. 0. 0. 0. 0. 0. 0. 1.56739808e-03 0.
      0. 1.56739808e-03 9.40438826e-03 0. 0. 1.56739808e-03 0. 0.
      1.56739808e-03 0. 0. 0. 0. 3.13479616e-03 1.56739808e-03
      1.56739808e-03 1.56739808e-03 0. 0. 0. 0. 0. 0. 1.56739808e-03
      1.56739808e-03 3.13479616e-03 0. 0. 0. 0. 1.56739801e-02 0. 0. 0.
      0. 0. 9.40438826e-03 0. 0. 0. 0. 0. 1.56739808e-03 0. 0. 0. 0. 0.
      6.26959233e-03 0. 3.13479616e-03 0. 1.56739808e-03 0. 0. 0. 0. 0.
      1.56739808e-03 0. 0. 1.56739808e-03 1.56739808e-03 0. 0. 0. 0. 0.
      0. 0. 0. 0. 0. 0. 0. 0. 0. 0. 3.13479616e-03 0. 4.70219413e-03
      3.13479616e-03 3.13479616e-03 0. 0. 0. 0. 0. 1.56739808e-03 0. 0.
      1.56739808e-03 1.56739808e-03 0. 0. 0. 0. 0. 1.56739808e-03
      6.26959233e-03 0. 0. 0. 1.56739808e-03 0. 0. 0. 0. 0.
      1.56739808e-03 1.56739808e-03 0. 0. 1.56739808e-03 0.
      1.56739808e-03 0. 0. 1.56739808e-03 1.56739808e-03 0. 0. 0. 0. 0.
      0. 0. 0. 0. 1.56739808e-03 1.56739808e-03 0. 0. 0. 0. 0. 0. 0. 0.
      3.13479616e-03 0. 0. 0. 0. 0. 0. 0. 1.41065829e-02 3.13479616e-03
      0. 0. 0. 0. 0. 1.56739808e-03 4.70219413e-03 0. 0. 0. 0. 0. 0. 0.
      0. 3.13479616e-03 0. 0. 0. 1.56739808e-03 0. 1.56739808e-03 0.
      3.13479616e-03 0. 0. 0. 0. 0. 0. 0. 0. 0. 0. 0. 0. 0. 0. 0.
      1.56739808e-03 0. 0. 9.40438826e-03 0. 0. 0. 0. 0. 0.
      1.56739808e-03 0. 0. 0. 0. 0. 0. 0. 0. 0. 1.56739808e-03</_>
    <_>
      0. 1.34770887e-03 0. 0. 1.34770887e-03 1.34770887e-03
      5.39083546e-03 0. 0. 0. 2.69541773e-03 0. 0. 6.73854444e-03 0.
      2.69541773e-03 0. 0. 0. 1.34770887e-03 1.34770887e-03 0. 0.
      4.04312648e-03 1.34770887e-03 0. 0. 4.04312648e-03 0. 0. 0. 0.
      1.34770887e-03 1.34770887e-03 0. 4.04312648e-03 2.69541773e-03 0.
      1.34770887e-03 0. 1.34770887e-03 0. 0. 0. 0. 0. 0. 0.
      2.69541773e-03 0. 0. 0. 0. 0. 2.69541773e-03 0. 1.34770887e-03
      2.69541773e-03 0. 0. 2.96495948e-02 0. 2.69541773e-03 0. 0. 0.
      4.04312648e-03 0. 0. 1.34770887e-03 4.04312648e-03 0. 0.
      4.04312648e-03 0. 1.34770887e-03 2.69541773e-03 2.69541773e-03 0.
      1.34770887e-03 0. 1.34770887e-03 4.04312648e-03 0. 1.34770887e-03
      0. 1.34770887e-03 4.04312648e-03 0. 0. 0. 1.34770887e-03
      1.34770887e-03 0. 0. 1.34770887e-03 1.34770887e-03 0. 0. 0. 0. 0.
      0. 0. 0. 1.34770887e-03 0. 2.69541773e-03 2.69541773e-03 0. 0. 0.
      2.69541773e-03 5.39083546e-03 0. 2.69541773e-03 1.34770887e-03 0.
      1.34770887e-03 0. 1.34770887e-03 0. 0. 0. 0. 1.34770887e-03 0.
      2.69541773e-03 0. 1.34770887e-03 0. 0. 0. 0. 1.34770887e-03 0. 0.
      4.04312648e-03 2.69541773e-03 1.21293794e-02 9.43396240e-03 0. 0.
      0. 5.39083546e-03 0. 0. 0. 4.04312648e-03 0. 0. 0. 1.34770887e-03
      0. 0. 0. 0. 0. 0. 0. 1.34770887e-03 6.73854444e-03 0. 0. 0.
      1.34770887e-03 0. 1.34770887e-03 0. 0. 0. 1.34770887e-03
      1.34770887e-03 0. 0. 0. 0. 0. 1.34770887e-03 0. 0. 0.
      1.34770887e-03 2.69541773e-03 0. 0. 0. 0. 1.34770887e-03 0.
      4.04312648e-03 0. 0. 0. 0. 0. 0. 0. 0. 1.34770887e-03 0. 0.
      1.34770887e-03 0. 2.69541773e-03 0. 1.34770887e-03 1.34770887e-03
      0. 0. 1.34770887e-03 0. 1.34770887e-03 0. 0. 0. 0. 1.34770887e-03
      6.73854444e-03 1.34770887e-03 0. 0. 0. 0. 0. 0. 1.34770887e-03 0.
      0. 0. 0. 1.34770887e-03 0. 1.34770887e-03 0. 0. 6.73854444e-03 0.
      1.34770887e-03 0. 0. 0. 0. 0. 1.34770887e-03 0. 0. 0. 0.
      4.04312648e-03 0. 1.34770887e-03 2.69541773e-03 1.34770887e-03 0.
      1.34770887e-03 0. 0. 0. 0. 0. 0. 0. 0. 0. 0. 0. 0. 5.39083546e-03
      2.69541773e-03 0. 1.34770887e-03 0. 0. 1.34770887e-03 0. 0.
      2.69541773e-03 5.39083546e-03 1.34770887e-03 1.34770887e-03 0. 0.
      0. 0. 0. 0. 0. 4.04312648e-03 0. 0. 1.61725059e-02 0. 0. 0.
      1.34770887e-03 0. 0. 0. 0. 0. 0. 0. 1.34770889e-02 0. 0.
      2.69541773e-03 0. 0. 5.39083546e-03 0. 0. 0. 6.73854444e-03
      4.04312648e-03 0. 4.04312648e-03 0. 0. 2.69541773e-03
      4.04312648e-03 1.34770887e-03 0. 1.34770887e-03 0. 0.
      1.34770887e-03 0. 1.34770887e-03 0. 0. 4.04312648e-03
      4.04312648e-03 0. 1.34770887e-03 0. 1.34770887e-03 0. 0.
      1.34770887e-03 0. 0. 0. 1.34770887e-03 0. 0. 0. 0. 0.
      4.04312648e-03 1.34770887e-03 2.69541773e-03 0. 0. 0.
      6.73854444e-03 2.69541773e-03 0. 0. 0. 0. 0. 0. 1.34770887e-03
      2.69541773e-03 0. 2.69541773e-03 4.04312648e-03 0. 0. 0.
      2.69541773e-03 0. 2.69541773e-03 2.69541773e-03 0. 0. 0. 0. 0. 0.
      1.34770887e-03 1.07816709e-02 0. 0. 0. 4.04312648e-03
      1.34770887e-03 0. 0. 2.69541773e-03 0. 0. 1.34770887e-03
      1.34770887e-03 0. 1.34770887e-03 0. 0. 0. 0. 1.34770887e-03 0. 0.
      0. 0. 0. 0. 0. 0. 1.34770887e-03 0. 0. 1.34770887e-03
      1.34770887e-03 4.04312648e-03 0. 2.69541773e-03 5.39083546e-03 0.
      0. 0. 0. 2.69541773e-03 1.34770887e-03 0. 1.34770887e-03
      1.34770887e-03 0. 0. 0. 4.04312648e-03 0. 0. 0. 0. 1.34770887e-03
      0. 0. 9.43396240e-03 0. 0. 0. 0. 0. 0. 0. 1.34770887e-03 0. 0. 0.
      0. 0. 0. 2.69541773e-03 0. 2.69541773e-03 5.39083546e-03 0.
      1.34770887e-03 6.73854444e-03 4.04312648e-03 0. 4.04312648e-03 0.
      0. 0. 4.04312648e-03 0. 0. 5.39083546e-03 2.69541773e-03 0. 0. 0.
      2.69541773e-03 0. 0. 0. 0. 0. 0. 0. 6.73854444e-03 1.34770887e-03
      0. 2.69541773e-03 0. 0. 1.34770887e-03 0. 0. 1.34770887e-03
      2.69541773e-03 0. 0. 0. 0. 2.69541773e-03 0. 1.34770887e-03 0. 0.
      0. 0. 4.04312648e-03 0. 0. 1.61725059e-02 1.34770887e-03 0. 0. 0.
      0. 0. 1.34770887e-03 0. 0. 0. 0. 0. 1.34770887e-03 0.
      1.34770887e-03 0. 0. 1.34770887e-03 0. 1.34770887e-03 0. 0. 0.
      1.34770887e-03 0. 0. 0. 2.69541773e-03 0. 0. 1.34770887e-03
      1.34770887e-03 0. 1.34770887e-03 0. 0. 1.34770887e-03 0.
      1.34770887e-03 1.34770887e-03 0. 0. 0. 0. 0. 0. 0. 1.34770887e-03
      0. 0. 1.34770887e-03 2.69541773e-03 1.34770887e-03 1.34770887e-03
      0. 1.34770887e-03 0. 0. 6.73854444e-03 1.34770887e-03 0.
      2.69541773e-03 0. 1.34770887e-03 0. 0. 1.34770887e-03 0. 0. 0. 0.
      1.34770887e-03 0. 1.34770887e-03 0. 0. 0. 1.34770887e-03 0. 0.
      1.34770887e-03 0. 2.69541773e-03 0. 0. 0. 0. 2.69541773e-03 0. 0.
      4.04312648e-03 0. 2.69541773e-03 2.69541773e-03 1.34770887e-03
      1.34770887e-03 0. 1.34770887e-03 2.69541773e-03 0. 1.34770887e-03
      0. 1.34770887e-03 0. 2.15633418e-02 0. 0. 0. 1.34770887e-03
      2.69541773e-03 0. 1.34770887e-03 1.34770887e-03 0. 0. 0.
      1.34770887e-03 0. 0. 0. 0. 9.43396240e-03 1.34770887e-03 0.
      2.69541773e-03 0. 0. 0. 0. 1.34770887e-03 0. 0. 0. 0. 0.
      1.34770887e-03 5.39083546e-03 1.34770887e-03 0. 2.69541773e-03 0.
      0. 0. 2.69541773e-03 0. 0. 0. 0. 2.69541773e-03 2.56064683e-02 0.
      0. 1.34770887e-03 0. 1.48247974e-02 0. 2.69541773e-03 0.
      1.34770887e-03 1.34770887e-03 1.34770887e-03 0. 0. 0.
      4.04312648e-03 0. 0. 2.69541773e-03 0. 1.34770887e-03 0. 0. 0.
      1.34770887e-03 0. 0. 0. 0. 0. 0. 0. 2.69541773e-03 0.
      1.34770887e-03 2.69541773e-03 1.34770887e-03 2.69541773e-03
      1.34770887e-03 6.73854444e-03 2.69541773e-03 0. 0. 0. 0. 0.
      1.34770887e-03 0. 0. 0. 0. 0. 0. 6.73854444e-03 1.07816709e-02 0.
      0. 0. 1.34770887e-03 0. 0. 0. 1.34770887e-03 0. 0. 0.
      4.04312648e-03 0. 0. 0. 2.69541773e-03 0. 0. 0. 0. 0.
      1.34770887e-03 1.34770887e-03 2.69541773e-03 0. 0. 0. 0. 0.
      2.69541773e-03 0. 4.04312648e-03 2.69541773e-03 0. 6.73854444e-03
      0. 1.34770887e-03 0. 4.04312648e-03 1.34770887e-03 1.34770887e-03
      4.04312648e-03 0. 0. 0. 0. 0. 1.34770887e-03 0. 0. 2.69541773e-03
      1.34770887e-03 0. 0. 0. 0. 0. 0. 0. 1.34770887e-03 1.34770887e-03
      1.34770887e-03 0. 0. 1.34770887e-03 2.69541773e-03 2.69541773e-03
      0. 2.69541773e-03 0. 1.34770887e-03 0. 0. 1.34770887e-03 0. 0. 0.
      0. 2.69541773e-03 0. 2.69541773e-03 0. 0. 0. 1.34770887e-03 0. 0.
      0. 2.69541773e-03 0. 2.69541773e-03 2.69541773e-03 1.34770887e-03
      0. 1.34770887e-03 1.34770887e-03 0. 0. 0. 1.34770887e-03 0.
      1.34770887e-03 0. 0. 1.34770887e-03 0. 0. 0. 4.04312648e-03 0. 0.
      0. 0. 0. 0. 0. 0. 0. 1.34770887e-03 0. 0. 0. 4.04312648e-03
      1.34770887e-03 2.69541773e-03 0. 2.69541773e-03 1.34770887e-03 0.
      1.34770887e-03 0. 0. 0. 0. 0. 1.34770887e-03 0. 0. 0. 0. 0.
      5.39083546e-03 0. 0. 0. 0. 0. 0. 0. 2.69541773e-03 0. 0.
      1.34770887e-03 0. 0. 0. 2.69541773e-03 0. 1.34770887e-03 0. 0. 0.
      0. 0. 4.04312648e-03 0. 1.34770887e-03 1.34770887e-03 0. 0. 0.
      1.34770887e-03 0. 0. 0. 0. 0. 0. 0. 0. 1.34770887e-03
      1.34770887e-03 0. 0. 1.34770887e-03 0. 0. 0. 1.34770887e-03
      1.34770887e-03 0. 1.34770887e-03 0. 0. 0. 1.34770887e-03 0.
      6.73854444e-03 2.69541773e-03 0. 0. 0. 1.34770887e-03
      1.34770887e-03 0. 5.39083546e-03 1.34770887e-03 1.34770887e-03
      8.08625296e-03 8.08625296e-03 0. 0. 0. 0. 0. 1.34770887e-03
      1.34770887e-03 0. 0. 0. 1.34770887e-03 2.69541773e-03 0. 0. 0. 0.
      0. 0. 1.34770887e-03 0. 0. 1.34770887e-03 0. 0. 0. 0. 0. 0. 0. 0.
      0. 1.34770887e-03 0. 0. 1.34770887e-03 2.69541773e-03
      1.34770887e-03 2.69541773e-03 0. 4.04312648e-03 1.34770887e-03
      1.34770887e-03 1.34770887e-03 0. 0. 0. 0. 0. 0. 0. 1.34770887e-03
      0. 0. 1.34770887e-03 0. 0. 1.34770887e-03 0. 1.34770887e-03 0. 0.
      0. 0. 0. 0. 0. 0. 0. 0. 5.39083546e-03 1.34770887e-03
      1.34770887e-03 0. 0. 0. 0. 1.34770887e-03</_>
    <_>
      4.51467279e-03 0. 1.12866820e-03 2.25733640e-03 3.38600460e-03
      1.12866820e-03 0. 2.25733640e-03 0. 0. 0. 1.12866820e-03 0.
      1.12866820e-03 0. 3.38600460e-03 0. 1.12866820e-03 0.
      1.12866820e-03 0. 3.38600460e-03 0. 1.12866820e-03 2.25733640e-03
      0. 0. 0. 0. 0. 0. 2.25733640e-03 2.25733640e-03 0. 0.
      2.25733640e-03 0. 0. 0. 1.12866820e-03 0. 0. 1.12866820e-03 0. 0.
      0. 0. 0. 1.12866820e-03 6.77200919e-03 1.12866820e-03
      1.12866820e-03 2.25733640e-03 0. 0. 0. 2.25733640e-03
      1.12866820e-03 1.12866820e-03 1.12866820e-03 0. 2.25733640e-03 0.
      1.12866820e-03 0. 3.38600460e-03 7.90067762e-03 0. 0.
      3.38600460e-03 2.25733640e-03 5.64334076e-03 0. 1.12866820e-03
      3.38600460e-03 3.38600460e-03 4.51467279e-03 0. 1.12866820e-03
      2.25733640e-03 0. 0. 0. 0. 0. 0. 1.12866820e-03 0. 0.
      1.01580136e-02 6.77200919e-03 2.25733640e-03 1.12866820e-03
      3.38600460e-03 0. 1.12866820e-03 0. 1.12866820e-03 2.25733640e-03
      0. 1.12866820e-03 2.25733640e-03 1.12866820e-03 4.51467279e-03 0.
      2.25733640e-03 1.12866820e-03 0. 1.12866820e-03 0. 0.
      5.64334076e-03 0. 1.12866820e-03 0. 1.12866820e-03 0.
      2.25733640e-03 1.12866820e-03 1.12866820e-03 1.12866820e-03
      1.12866820e-03 3.38600460e-03 6.77200919e-03 0. 0. 1.12866820e-03
      9.02934559e-03 0. 1.12866820e-03 0. 1.12866820e-03 1.12866820e-03
      0. 0. 0. 1.12866820e-03 5.64334076e-03 0. 0. 0. 0. 2.25733640e-03
      0. 1.12866820e-03 0. 0. 0. 0. 0. 0. 0. 0. 0. 1.12866820e-03
      3.38600460e-03 0. 0. 0. 4.51467279e-03 0. 0. 0. 1.12866820e-03
      4.51467279e-03 1.12866820e-03 0. 0. 0. 0. 1.12866820e-03 0. 0. 0.
      0. 0. 1.12866820e-03 0. 0. 5.64334076e-03 1.12866820e-03 0. 0.
      1.12866820e-03 0. 0. 0. 0. 1.12866820e-03 0. 2.25733640e-03
      3.38600460e-03 0. 0. 3.38600460e-03 5.64334076e-03 0. 0. 0.
      1.12866820e-03 0. 0. 0. 2.25733640e-03 0. 0. 0. 0. 0. 0. 0.
      1.12866820e-03 1.12866820e-03 2.25733640e-03 1.12866820e-03
      2.25733640e-03 0. 0. 0. 0. 1.12866820e-03 0. 0. 1.12866820e-03
      1.12866820e-03 1.12866820e-03 1.12866820e-03 0. 1.12866820e-03 0.
      0. 0. 0. 1.12866820e-03 0. 0. 2.25733640e-03 1.12866820e-03
      2.25733640e-03 0. 0. 3.38600460e-03 0. 0. 0. 0. 2.25733640e-03
      1.12866820e-03 0. 4.51467279e-03 0. 2.25733640e-03 0.
      2.25733640e-03 0. 0. 0. 0. 0. 1.12866820e-03 2.25733640e-03 0. 0.
      0. 0. 1.12866820e-03 0. 0. 3.38600460e-03 0. 0. 0. 0. 0. 0. 0. 0.
      1.12866820e-03 1.12866820e-03 0. 5.64334076e-03 1.12866820e-03 0.
      0. 1.12866820e-03 2.25733640e-03 3.38600460e-03 0. 3.38600460e-03
      0. 0. 2.25733640e-03 0. 0. 1.12866820e-03 3.38600460e-03
      1.12866820e-03 1.12866820e-03 0. 0. 1.12866820e-03 1.12866820e-03
      0. 1.12866820e-03 0. 0. 2.25733640e-03 1.12866820e-03 0. 0.
      2.25733640e-03 0. 0. 3.38600460e-03 3.38600460e-03 0.
      7.90067762e-03 0. 2.25733640e-03 1.12866820e-03 3.38600460e-03
      2.25733640e-03 0. 1.12866820e-03 0. 0. 2.25733640e-03 0. 0. 0. 0.
      0. 0. 1.12866820e-03 2.25733640e-03 0. 2.25733640e-03
      4.51467279e-03 1.12866820e-03 0. 0. 0. 1.12866820e-03 0. 0.
      3.38600460e-03 0. 1.12866820e-03 0. 1.12866820e-03 1.12866820e-03
      1.12866820e-03 0. 0. 1.12866820e-03 0. 1.12866820e-03 0. 0. 0. 0.
      0. 3.38600460e-03 1.12866820e-03 2.25733640e-03 1.12866820e-03 0.
      4.51467279e-03 1.12866820e-03 0. 0. 0. 0. 0. 4.51467279e-03
      2.25733640e-03 0. 0. 0. 0. 0. 0. 0. 0. 2.25733640e-03 0. 0. 0. 0.
      0. 1.12866820e-03 9.02934559e-03 0. 1.12866820e-03 0.
      1.12866820e-03 0. 0. 0. 0. 1.12866820e-03 1.12866820e-03
      1.12866820e-03 2.25733640e-03 0. 0. 0. 1.12866820e-03 0.
      2.25733640e-03 0. 1.12866820e-03 0. 3.38600460e-03 0.
      2.25733640e-03 0. 4.51467279e-03 3.38600460e-03 0. 4.51467279e-03
      0. 0. 1.12866820e-03 0. 0. 0. 0. 0. 0. 0. 0. 0. 0. 0.
      6.77200919e-03 1.12866820e-03 0. 4.51467279e-03 2.25733640e-03 0.
      0. 1.12866820e-03 0. 6.77200919e-03 2.25733640e-03 0. 0. 0.
      1.12866820e-03 0. 0. 1.12866820e-03 0. 0. 0. 2.25733640e-03 0. 0.
      0. 1.12866820e-03 3.38600460e-03 0. 0. 2.25733640e-03 0.
      1.12866820e-03 3.38600460e-03 1.12866820e-03 3.38600460e-03 0. 0.
      0. 0. 0. 2.25733640e-03 0. 0. 0. 2.25733640e-03 0. 0.
      3.38600460e-03 1.12866815e-02 1.12866820e-03 1.12866820e-03 0. 0.
      0. 0. 1.12866820e-03 0. 0. 1.12866820e-03 2.25733640e-03 0.
      1.12866820e-03 0. 3.38600460e-03 0. 3.38600460e-03 0. 0. 0.
      2.25733640e-03 1.12866820e-03 0. 0. 0. 2.25733640e-03 0.
      1.12866820e-03 0. 0. 0. 3.38600460e-03 0. 2.25733640e-03 0. 0. 0.
      0. 1.12866820e-03 3.38600460e-03 0. 0. 0. 0. 0. 3.38600460e-03
      2.25733640e-03 0. 0. 1.12866820e-03 0. 0. 0. 0. 0. 1.12866820e-03
      0. 0. 0. 0. 0. 2.25733640e-03 1.12866820e-03 5.64334076e-03 0. 0.
      0. 0. 2.25733640e-03 1.12866820e-03 0. 3.38600460e-03 0. 0. 0. 0.
      2.25733640e-03 0. 2.25733640e-03 1.12866820e-03 1.12866820e-03 0.
      0. 0. 0. 3.38600460e-03 2.25733640e-03 4.51467279e-03 0. 0. 0. 0.
      0. 2.25733640e-03 2.25733640e-03 0. 0. 5.64334076e-03
      2.25733640e-03 0. 0. 1.12866820e-03 0. 0. 0. 1.12866820e-03 0.
      5.64334076e-03 0. 1.12866820e-03 4.51467279e-03 0. 0. 0. 0. 0. 0.
      1.12866820e-03 0. 0. 0. 0. 0. 6.77200919e-03 1.12866820e-03 0.
      1.12866820e-03 1.12866820e-03 0. 0. 0. 0. 0. 0. 0. 0. 0.
      2.25733640e-03 0. 0. 3.38600460e-03 5.64334076e-03 0. 0. 0. 0. 0.
      0. 0. 1.12866820e-03 0. 0. 0. 0. 3.38600460e-03 2.25733640e-03
      1.12866820e-03 2.25733640e-03 0. 1.12866820e-03 1.12866820e-03
      2.25733640e-03 2.25733640e-03 0. 0. 0. 0. 1.12866820e-03
      7.90067762e-03 0. 0. 0. 9.02934559e-03 0. 0. 1.12866820e-03 0.
      1.12866820e-03 0. 2.25733640e-03 0. 3.38600460e-03 1.12866820e-03
      4.51467279e-03 0. 0. 1.12866820e-03 0. 0. 0. 1.12866820e-03
      2.25733640e-03 0. 0. 3.38600460e-03 1.12866820e-03 1.12866820e-03
      0. 0. 0. 0. 0. 0. 0. 1.12866820e-03 1.12866820e-03 2.25733640e-03
      0. 0. 0. 0. 1.12866820e-03 0. 1.12866820e-03 0. 0. 0.
      1.12866820e-03 1.12866820e-03 0. 2.25733640e-03 0. 0.
      1.12866820e-03 2.25733640e-03 4.51467279e-03 0. 4.51467279e-03
      2.25733640e-03 1.12866820e-03 1.12866820e-03 0. 3.38600460e-03
      1.12866820e-03 2.25733640e-03 0. 2.25733640e-03 0. 1.12866820e-03
      2.25733640e-03 2.25733640e-03 0. 0. 0. 0. 2.25733640e-03 0. 0.
      7.90067762e-03 2.25733640e-03 0. 0. 4.51467279e-03 0.
      2.25733640e-03 0. 0. 0. 0. 0. 0. 0. 1.12866820e-03 0. 0. 0.
      2.25733640e-03 0. 2.25733640e-03 0. 0. 0. 0. 0. 0. 0.
      1.12866820e-03 2.25733640e-03 1.12866820e-03 1.12866820e-03 0. 0.
      0. 0. 5.64334076e-03 0. 2.25733640e-03 0. 1.12866820e-03
      2.25733640e-03 1.12866820e-03 0. 1.12866820e-03 1.12866820e-03 0.
      4.51467279e-03 0. 0. 0. 1.12866820e-03 1.12866820e-03 0.
      3.38600460e-03 0. 0. 0. 0. 0. 0. 0. 0. 0. 0. 2.25733640e-03
      2.25733640e-03 1.12866820e-03 0. 4.51467279e-03 0. 3.38600460e-03
      0. 1.12866820e-03 0. 1.12866820e-03 0. 2.25733640e-03
      1.12866820e-03 2.25733640e-03 3.38600460e-03 2.25733640e-03
      2.25733640e-03 1.12866820e-03 0. 0. 1.12866820e-03 0.
      2.25733640e-03 1.12866820e-03 2.25733640e-03 0. 0. 0.
      2.25733640e-03 3.38600460e-03 0. 0. 0. 0. 4.51467279e-03 0. 0. 0.
      0. 0. 0. 4.51467279e-03 0. 0. 2.25733640e-03 0. 1.12866820e-03
      2.25733640e-03 0. 2.25733640e-03 0. 0. 4.51467279e-03 0.
      2.25733640e-03 0. 3.38600460e-03 0. 3.38600460e-03 2.25733640e-03
      0. 5.64334076e-03 1.12866820e-03 0. 1.12866820e-03 1.12866820e-03
      1.12866820e-03 0. 0. 1.12866820e-03 0. 3.38600460e-03 0. 0.
      1.12866820e-03 0. 5.64334076e-03 2.25733640e-03 0. 0.
      1.12866820e-03 0. 0. 3.38600460e-03 0. 0. 0. 0. 1.12866820e-03 0.
      2.25733640e-03 0. 0. 0. 0. 0. 1.12866820e-03 1.12866820e-03 0. 0.
      1.12866820e-03 2.25733640e-03 6.77200919e-03 0. 0. 0.
      2.25733640e-03 0. 1.12866820e-03 0. 0. 0. 2.25733640e-03
      1.12866820e-03 1.12866820e-03 0. 0. 2.25733640e-03 2.25733640e-03
      0. 1.12866820e-03 0. 1.12866820e-03 9.02934559e-03 1.12866820e-03
      2.25733640e-03 3.38600460e-03 0. 1.12866820e-03 2.25733640e-03 0.
      1.12866820e-03 0. 0. 0. 1.12866820e-03 4.51467279e-03
      4.51467279e-03 0. 0. 2.25733640e-03 0. 6.77200919e-03
      1.12866820e-03 0. 2.25733640e-03 0. 1.12866820e-03 0. 0.
      1.12866820e-03 1.12866820e-03 1.12866820e-03 1.12866820e-03 0.
      3.38600460e-03 0. 0. 0. 0. 3.38600460e-03 3.38600460e-03 0. 0. 0.
      2.25733640e-03 0. 0. 1.12866820e-03 1.12866820e-03 0.
      1.12866820e-03 1.12866820e-03 1.12866820e-03 1.12866820e-03 0.
      1.12866820e-03 0. 2.25733640e-03 4.51467279e-03 1.12866820e-03 0.
      1.12866820e-03 2.25733640e-03 2.25733640e-03 0. 0. 1.12866820e-03
      0. 0. 0. 0. 0. 0. 3.38600460e-03 1.12866820e-03 0. 0.
      2.25733640e-03 1.12866820e-03 0. 1.12866820e-03</_>
    <_>
      1.07642624e-03 0. 0. 2.15285248e-03 0. 4.30570496e-03 0. 0.
      1.07642624e-03 0. 0. 0. 0. 0. 0. 1.07642624e-03 1.07642624e-03 0.
      0. 0. 0. 0. 0. 4.30570496e-03 0. 7.53498357e-03 0. 1.07642624e-03
      0. 6.45855721e-03 0. 0. 0. 0. 0. 8.61140992e-03 0. 0.
      1.07642624e-03 0. 0. 0. 0. 0. 0. 0. 2.15285248e-03 0. 0. 0.
      3.22927861e-03 3.22927861e-03 1.07642624e-03 2.15285248e-03
      2.47578043e-02 0. 0. 0. 0. 0. 0. 0. 0. 0. 0. 0. 0. 1.07642624e-03
      0. 1.07642624e-03 1.07642624e-03 0. 0. 3.22927861e-03
      1.07642624e-03 1.29171144e-02 3.76749188e-02 0. 0. 0. 0.
      2.15285248e-03 0. 0. 0. 3.22927861e-03 5.38213132e-03
      1.07642624e-03 2.15285248e-03 2.15285248e-03 0. 0. 0. 0. 0. 0.
      2.15285248e-03 0. 0. 0. 0. 1.07642624e-03 1.07642624e-03
      1.07642624e-03 0. 1.07642624e-03 0. 0. 0. 0. 0. 6.45855721e-03
      1.07642624e-03 6.45855721e-03 0. 1.07642624e-03 0. 0. 0. 0. 0. 0.
      0. 3.22927861e-03 2.15285248e-03 2.15285248e-03 0. 6.45855721e-03
      1.07642624e-03 0. 0. 0. 1.07642624e-03 0. 0. 0. 2.15285248e-03
      1.07642624e-03 1.07642624e-03 1.93756726e-02 1.61463935e-02
      4.30570496e-03 1.07642624e-03 0. 5.38213132e-03 0. 0. 0. 0. 0. 0.
      0. 0. 6.45855721e-03 0. 0. 0. 1.07642624e-03 1.07642624e-03
      1.07642624e-03 0. 0. 0. 1.07642624e-03 0. 0. 0. 0. 2.15285248e-03
      0. 1.07642624e-03 2.15285248e-03 0. 0. 1.07642624e-03 0. 0.
      2.15285248e-03 0. 0. 0. 0. 0. 3.22927861e-03 1.07642624e-03 0. 0.
      0. 0. 0. 1.07642624e-03 3.22927861e-03 2.15285248e-03 0. 0. 0.
      2.15285248e-03 0. 0. 0. 2.15285248e-03 0. 0. 0. 0. 4.30570496e-03
      0. 0. 0. 0. 2.15285248e-03 0. 1.07642624e-03 1.07642624e-03
      2.15285248e-03 1.07642624e-03 0. 0. 6.45855721e-03 0. 0. 0. 0. 0.
      2.15285248e-03 0. 3.22927861e-03 0. 0. 1.07642624e-03
      1.07642624e-03 0. 1.07642624e-03 1.07642624e-03 0. 0.
      2.15285248e-03 0. 0. 0. 0. 0. 0. 7.53498357e-03 1.07642624e-03 0.
      0. 0. 0. 0. 2.15285248e-03 0. 0. 0. 3.22927861e-03 0. 0. 0. 0. 0.
      1.07642624e-03 4.30570496e-03 0. 0. 0. 0. 0. 0. 1.18406890e-02
      2.15285248e-03 1.07642624e-03 3.22927861e-03 1.07642624e-03 0.
      2.15285248e-03 0. 0. 0. 2.15285248e-03 0. 3.22927861e-03 0. 0.
      1.07642624e-03 1.07642624e-03 0. 0. 2.15285248e-03 5.48977368e-02
      1.07642624e-03 2.15285248e-03 2.15285248e-03 0. 0. 1.07642624e-03
      1.07642624e-03 0. 1.07642624e-03 0. 0. 2.15285248e-03 0.
      1.07642624e-03 0. 4.30570496e-03 0. 0. 0. 1.07642624e-03
      8.61140992e-03 0. 0. 6.45855721e-03 3.22927861e-03 0.
      2.15285248e-03 1.07642624e-03 0. 0. 3.22927861e-03 0. 0.
      1.07642624e-03 0. 1.07642624e-03 0. 1.07642624e-03 1.07642624e-03
      1.07642624e-03 1.07642624e-03 0. 1.07642624e-03 0. 0.
      1.07642624e-03 0. 1.07642624e-03 0. 0. 1.07642624e-03
      1.07642624e-03 0. 0. 0. 0. 4.30570496e-03 0. 0. 0. 2.15285248e-03
      0. 0. 0. 2.15285248e-03 1.07642624e-03 0. 0. 0. 0. 0.
      1.07642624e-03 1.07642624e-03 0. 0. 0. 0. 0. 0. 0. 0. 0.
      1.07642624e-03 0. 0. 1.07642624e-03 0. 3.22927861e-03
      1.07642624e-03 2.15285248e-03 1.07642624e-03 0. 1.07642624e-03
      1.29171144e-02 0. 0. 1.07642624e-03 0. 1.07642624e-03 0.
      1.07642624e-03 5.38213132e-03 6.45855721e-03 0. 0. 1.07642624e-03
      0. 0. 0. 4.30570496e-03 2.15285248e-03 0. 0. 0. 1.07642624e-03
      2.15285248e-03 0. 0. 0. 0. 0. 0. 1.07642624e-03 1.07642624e-03 0.
      0. 0. 2.15285248e-03 0. 1.29171144e-02 0. 0. 0. 0. 0. 0. 0. 0. 0.
      0. 7.53498357e-03 0. 0. 0. 0. 2.15285248e-03 0. 1.07642624e-03
      2.15285248e-03 1.07642624e-03 1.07642624e-03 1.07642624e-03 0. 0.
      1.07642624e-03 0. 0. 0. 0. 1.07642624e-03 2.15285248e-03
      2.15285248e-03 2.15285248e-03 0. 2.15285248e-03 1.07642624e-03
      1.07642624e-03 1.07642624e-03 0. 0. 0. 1.07642624e-03
      1.07642624e-03 1.07642624e-03 1.07642624e-03 0. 0. 1.07642624e-03
      0. 0. 0. 1.07642624e-03 6.45855721e-03 0. 4.30570496e-03 0.
      5.38213132e-03 0. 0. 2.15285248e-03 2.15285248e-03 0. 0.
      1.07642624e-03 0. 0. 0. 0. 1.07642624e-03 4.30570496e-03 0. 0.
      2.15285248e-03 0. 3.22927861e-03 0. 0. 0. 1.07642624e-03 0. 0.
      1.07642624e-03 2.15285248e-03 1.07642624e-03 0. 0. 0. 0. 0.
      1.07642624e-03 2.15285248e-03 0. 1.07642624e-03 0. 0.
      3.22927861e-03 0. 0. 0. 0. 1.07642624e-03 0. 0. 0. 0. 0.
      2.15285248e-03 0. 0. 1.07642624e-03 0. 0. 0. 0. 0. 0.
      1.07642624e-03 1.07642624e-03 0. 1.07642626e-02 0. 0.
      2.15285248e-03 0. 0. 0. 0. 0. 0. 1.07642624e-03 0. 0. 0.
      1.07642624e-03 2.15285248e-03 3.22927861e-03 0. 1.07642624e-03 0.
      0. 1.07642624e-03 2.15285248e-03 0. 0. 0. 1.07642624e-03 0.
      1.07642624e-03 0. 0. 1.07642624e-03 0. 0. 0. 0. 0. 4.30570496e-03
      0. 0. 1.07642624e-03 3.22927861e-03 2.15285248e-03 0. 0. 0. 0. 0.
      0. 0. 0. 2.15285248e-03 0. 3.22927861e-03 0. 0. 3.22927861e-03 0.
      0. 0. 0. 5.38213132e-03 0. 1.07642624e-03 2.15285248e-03
      1.07642624e-03 0. 1.07642624e-03 7.53498357e-03 3.22927861e-03 0.
      1.07642624e-03 2.15285248e-03 3.22927861e-03 1.07642624e-03
      3.22927861e-03 0. 0. 0. 0. 0. 0. 0. 2.15285248e-03 0. 0. 0. 0.
      1.07642624e-03 1.07642624e-03 0. 1.07642624e-03 3.22927861e-03 0.
      0. 0. 0. 1.07642624e-03 0. 2.15285248e-03 0. 0. 1.07642624e-03 0.
      0. 6.45855721e-03 0. 0. 2.15285248e-03 0. 2.15285248e-03 0. 0. 0.
      0. 0. 1.07642624e-03 0. 6.45855721e-03 1.07642624e-03
      5.38213132e-03 0. 1.07642624e-03 1.07642624e-03 0. 0. 0. 0. 0. 0.
      1.07642624e-03 0. 3.22927861e-03 0. 0. 6.45855721e-03 0.
      2.15285248e-03 2.15285248e-03 0. 0. 1.07642624e-03 0.
      3.22927861e-03 0. 0. 0. 0. 3.22927861e-03 0. 0. 0. 2.15285248e-03
      0. 1.07642624e-03 0. 0. 0. 1.07642626e-02 0. 0. 0. 0.
      3.22927861e-03 2.15285248e-03 0. 0. 0. 1.07642624e-03
      1.07642624e-03 1.07642624e-03 1.07642624e-03 0. 0. 0. 0.
      1.07642624e-03 0. 0. 1.07642624e-03 2.15285248e-03 0. 0. 0. 0.
      3.22927861e-03 1.07642624e-03 0. 0. 0. 1.07642624e-03
      1.07642624e-03 0. 0. 1.07642624e-03 2.15285248e-03 0. 0. 0. 0. 0.
      2.15285248e-03 1.07642624e-03 0. 1.07642624e-03 0. 0. 0. 0.
      2.15285248e-03 1.07642624e-03 0. 0. 0. 0. 0. 0. 0. 0.
      2.15285248e-03 0. 0. 0. 1.07642624e-03 0. 1.29171144e-02 0. 0. 0.
      0. 0. 1.07642624e-03 1.07642624e-03 3.22927861e-03 0. 0. 0. 0. 0.
      2.15285248e-03 0. 2.15285248e-03 0. 0. 2.15285248e-03
      1.07642624e-03 0. 0. 0. 0. 0. 1.07642624e-03 0. 2.15285248e-03
      1.07642624e-03 3.22927861e-03 1.07642624e-03 0. 4.30570496e-03 0.
      0. 2.15285248e-03 3.22927861e-03 0. 0. 0. 0. 0. 2.15285248e-03
      1.07642624e-03 0. 4.30570496e-03 2.15285248e-03 0. 0. 0.
      4.30570496e-03 0. 0. 0. 2.15285248e-03 5.38213132e-03 0. 0. 0. 0.
      1.07642624e-03 0. 1.07642624e-03 1.07642624e-03 1.07642624e-03
      1.07642624e-03 1.07642624e-03 0. 1.07642624e-03 0. 1.07642624e-03
      0. 0. 0. 0. 2.15285248e-03 1.07642624e-03 0. 0. 1.07642624e-03 0.
      1.07642624e-03 0. 0. 0. 0. 0. 1.07642624e-03 1.07642624e-03 0. 0.
      1.07642624e-03 0. 0. 0. 0. 0. 0. 2.15285248e-03 0. 0. 0. 0. 0.
      1.07642624e-03 3.22927861e-03 0. 1.07642624e-03 0. 2.15285248e-03
      0. 0. 0. 3.22927861e-03 3.22927861e-03 0. 0. 0. 0. 0. 0.
      2.15285248e-03 0. 0. 0. 2.15285248e-03 0. 0. 1.07642624e-03 0.
      2.15285248e-03 1.07642624e-03 0. 0. 2.15285248e-03 0. 0. 0. 0.
      3.22927861e-03 1.07642624e-03 0. 4.30570496e-03 0. 0.
      1.07642624e-03 0. 0. 0. 0. 0. 0. 0. 0. 1.82992462e-02 0. 0.
      5.38213132e-03 0. 1.07642624e-03 3.22927861e-03 2.15285248e-03 0.
      0. 0. 0. 0. 0. 0. 0. 0. 0. 0. 0. 0. 2.15285248e-03 1.07642624e-03
      0. 0. 0. 1.07642624e-03 0. 1.07642624e-03 0. 0. 0. 1.07642624e-03
      0. 0. 0. 0. 0. 0. 0. 0. 0. 0. 0. 0. 0. 0. 0. 0. 0. 0. 0. 0. 0. 0.
      2.15285248e-03 0. 0. 0. 0. 0. 1.07642624e-03 1.07642624e-03
      1.07642624e-03 4.30570496e-03 0. 0. 0. 0. 2.15285248e-03 0.
      8.61140992e-03 0. 0. 0. 0. 0. 0. 2.15285248e-03 0. 0.
      1.07642624e-03</_>
    <_>
      1.82481750e-03 0. 0. 7.29927002e-03 0. 0. 0. 0. 0. 0. 0. 0.
      3.64963501e-03 0. 0. 3.64963501e-03 0. 0. 3.64963501e-03 0.
      1.82481750e-03 0. 0. 0. 1.82481750e-03 0. 0. 0. 1.82481750e-03
      5.47445239e-03 0. 0. 1.82481750e-03 0. 0. 0. 0. 0. 0. 0. 0. 0. 0.
      0. 0. 1.82481750e-03 0. 1.82481750e-03 0. 0. 1.82481750e-03
      3.64963501e-03 1.82481750e-03 1.82481750e-03 5.47445239e-03 0.
      1.82481750e-03 3.64963501e-03 0. 1.82481750e-03 0. 0. 0. 0.
      1.82481750e-03 3.64963501e-03 1.82481750e-03 0. 1.82481750e-03 0.
      0. 0. 0. 1.82481750e-03 1.82481750e-03 3.64963501e-03 0. 0. 0.
      1.82481750e-03 0. 0. 1.82481750e-03 0. 0. 0. 0. 1.82481750e-03
      9.12408717e-03 0. 0. 0. 0. 0. 0. 0. 0. 1.82481750e-03 0.
      3.64963501e-03 0. 1.82481750e-03 0. 3.64963501e-03 0. 0. 0. 0.
      5.47445239e-03 0. 0. 3.64963501e-03 5.47445239e-03 0.
      1.82481750e-03 0. 1.82481750e-03 3.64963501e-03 0. 1.82481750e-03
      0. 1.82481750e-03 0. 0. 0. 0. 0. 1.82481750e-03 1.82481750e-03 0.
      0. 0. 1.82481750e-03 1.82481750e-03 1.82481750e-03 0.
      1.82481750e-03 0. 0. 1.82481750e-03 0. 1.82481750e-03
      1.82481750e-03 0. 0. 1.82481750e-03 1.82481750e-03 0.
      1.82481750e-03 0. 1.82481750e-03 0. 0. 1.82481750e-03 0. 0. 0. 0.
      0. 0. 0. 1.82481750e-03 0. 0. 0. 0. 0. 5.47445239e-03 0. 0.
      1.82481750e-03 0. 3.64963501e-03 1.82481750e-03 1.82481750e-03 0.
      1.82481750e-03 0. 0. 0. 0. 0. 0. 1.82481750e-03 0. 1.82481750e-03
      0. 0. 3.64963501e-03 0. 1.82481750e-03 0. 0. 0. 0. 0. 0. 0. 0.
      1.82481750e-03 0. 1.82481750e-03 0. 0. 1.82481750e-03 0. 0. 0. 0.
      5.47445239e-03 0. 0. 0. 1.82481750e-03 1.82481750e-03 0.
      1.82481750e-03 1.82481750e-03 0. 0. 0. 0. 0. 0. 0. 0.
      3.64963501e-03 1.82481750e-03 5.47445239e-03 3.64963501e-03
      1.82481750e-03 0. 0. 0. 0. 0. 0. 0. 0. 0. 0. 0. 0. 0. 0. 0. 0.
      1.82481750e-03 0. 1.82481750e-03 1.82481750e-03 0. 0. 0. 0. 0. 0.
      0. 0. 0. 0. 3.64963501e-03 0. 0. 0. 1.82481750e-03 3.64963501e-03
      3.64963501e-03 5.47445239e-03 0. 0. 1.82481750e-03 0. 0.
      1.82481750e-03 1.82481750e-03 0. 7.29927002e-03 0. 1.82481750e-03
      0. 0. 0. 0. 0. 1.82481750e-03 0. 0. 0. 0. 0. 0. 1.82481750e-03 0.
      0. 1.82481750e-03 0. 0. 0. 1.82481750e-03 0. 0. 0. 1.82481750e-03
      0. 0. 0. 3.64963501e-03 3.64963501e-03 0. 1.82481750e-03 0. 0. 0.
      0. 0. 1.82481750e-03 0. 0. 1.82481750e-03 0. 0. 1.82481750e-03 0.
      0. 3.64963501e-03 1.82481750e-03 0. 1.82481750e-03 0.
      9.12408717e-03 0. 0. 0. 0. 0. 0. 0. 0. 0. 0. 0. 0. 0. 0. 0.
      5.47445239e-03 0. 0. 0. 0. 1.82481750e-03 1.82481750e-03 0. 0.
      1.82481750e-03 0. 1.82481750e-03 0. 0. 3.64963501e-03
      1.82481750e-03 1.82481750e-03 0. 0. 0. 1.82481750e-03
      1.82481750e-03 0. 0. 0. 3.64963501e-03 0. 1.82481750e-03 0. 0. 0.
      1.82481750e-03 0. 0. 1.82481750e-03 0. 1.82481750e-03 0. 0.
      1.82481750e-03 0. 7.29927002e-03 0. 0. 1.82481750e-03 0.
      1.82481750e-03 0. 0. 1.82481750e-03 3.64963501e-03 0.
      1.82481750e-03 0. 0. 0. 0. 1.82481750e-03 3.64963501e-03 0.
      9.12408717e-03 0. 1.82481750e-03 0. 5.47445239e-03 1.82481750e-03
      1.82481750e-03 0. 0. 1.82481750e-03 5.47445239e-03 1.82481750e-03
      3.64963501e-03 0. 0. 1.82481750e-03 0. 0. 1.82481750e-03 0. 0.
      1.82481750e-03 0. 0. 1.82481750e-03 0. 0. 0. 0. 0. 1.82481750e-03
      3.64963501e-03 1.82481750e-03 0. 0. 0. 3.64963501e-03 0. 0. 0. 0.
      0. 0. 5.47445239e-03 0. 0. 0. 1.82481750e-03 1.82481750e-03 0. 0.
      3.64963501e-03 0. 0. 0. 0. 0. 1.82481750e-03 0. 1.82481750e-03 0.
      0. 0. 0. 0. 5.47445239e-03 0. 0. 0. 1.82481750e-03 0. 0. 0. 0. 0.
      0. 0. 0. 3.64963501e-03 3.64963501e-03 1.82481750e-03 0. 0. 0.
      3.64963501e-03 0. 1.82481750e-03 1.82481750e-03 0. 0.
      1.82481750e-03 0. 0. 0. 0. 0. 0. 0. 0. 0. 0. 0. 0. 1.82481750e-03
      0. 0. 0. 0. 0. 0. 3.64963501e-03 0. 0. 0. 0. 0. 0. 0. 0.
      3.64963501e-03 0. 0. 0. 0. 0. 5.47445239e-03 1.82481750e-03
      1.82481750e-03 3.64963501e-03 1.82481750e-03 0. 1.82481750e-03
      1.82481750e-03 0. 0. 1.82481750e-03 3.64963501e-03 1.82481750e-03
      0. 0. 1.82481750e-03 1.82481750e-03 0. 0. 0. 0. 0. 1.82481750e-03
      0. 0. 0. 1.82481750e-03 0. 1.82481750e-03 5.47445239e-03
      3.64963501e-03 0. 0. 0. 0. 0. 0. 0. 0. 0. 0. 0. 0. 0.
      1.82481750e-03 0. 0. 0. 0. 0. 0. 1.82481750e-03 0. 0. 0. 0. 0. 0.
      3.64963501e-03 1.82481750e-03 0. 0. 1.82481750e-03 3.64963501e-03
      0. 1.82481750e-03 1.82481750e-03 1.82481750e-03 3.64963501e-03 0.
      0. 0. 0. 0. 0. 0. 3.64963501e-03 0. 0. 0. 0. 0. 0. 0.
      1.82481750e-03 2.00729929e-02 0. 3.64963501e-03 5.47445239e-03 0.
      0. 0. 0. 1.82481750e-03 0. 1.82481750e-03 0. 0. 1.09489048e-02
      1.82481750e-03 0. 0. 0. 0. 0. 1.82481750e-03 3.64963501e-03 0. 0.
      0. 0. 0. 1.82481750e-03 1.82481750e-03 0. 3.64963501e-03 0. 0. 0.
      0. 3.64963501e-03 0. 0. 1.82481750e-03 0. 0. 0. 1.82481750e-03 0.
      1.82481750e-03 0. 0. 0. 0. 0. 1.82481750e-03 0. 1.82481750e-03 0.
      0. 0. 0. 3.64963501e-03 0. 1.82481750e-03 0. 0. 0. 1.09489048e-02
      0. 0. 0. 0. 1.82481750e-03 3.64963501e-03 0. 0. 0. 0.
      1.82481750e-03 0. 0. 1.82481750e-03 0. 0. 0. 0. 0. 0. 0.
      3.64963501e-03 0. 0. 1.82481750e-03 0. 0. 0. 0. 0. 0.
      5.47445239e-03 0. 0. 0. 0. 1.82481750e-03 1.82481750e-03 0. 0. 0.
      0. 0. 5.47445239e-03 0. 0. 1.82481750e-03 0. 0. 0. 0. 0.
      5.47445239e-03 0. 0. 0. 0. 1.82481750e-03 0. 0. 0. 0. 0. 0.
      3.64963501e-03 1.82481750e-03 0. 3.64963501e-03 0. 1.82481750e-03
      0. 0. 0. 0. 3.64963501e-03 1.82481750e-03 0. 1.82481750e-03 0. 0.
      0. 5.47445239e-03 1.82481750e-03 0. 1.82481750e-03 0.
      5.47445239e-03 0. 0. 0. 0. 5.47445239e-03 3.64963501e-03 0. 0.
      1.82481750e-03 0. 0. 1.82481750e-03 1.82481750e-03 0. 0. 0.
      3.64963501e-03 0. 0. 0. 1.82481750e-03 0. 0. 0. 1.82481750e-03
      3.64963501e-03 0. 1.82481750e-03 1.82481750e-03 3.64963501e-03 0.
      1.82481750e-03 1.82481750e-03 0. 0. 0. 0. 1.82481750e-03 0. 0.
      1.82481750e-03 0. 0. 0. 0. 1.82481750e-03 1.82481750e-03
      3.64963501e-03 1.82481750e-03 1.82481750e-03 0. 0. 3.64963501e-03
      1.82481750e-03 0. 0. 0. 0. 0. 0. 9.12408717e-03 0. 3.64963501e-03
      5.47445239e-03 0. 0. 0. 3.64963501e-03 3.64963501e-03 0. 0. 0.
      5.47445239e-03 3.64963501e-03 9.12408717e-03 0. 0. 0. 0. 0.
      3.64963501e-03 0. 0. 0. 1.82481750e-03 0. 0. 0. 1.82481750e-03 0.
      1.82481750e-03 0. 0. 0. 1.82481750e-03 0. 0. 3.64963501e-03 0. 0.
      1.82481750e-03 0. 1.82481750e-03 1.82481750e-03 1.82481750e-03 0.
      1.82481750e-03 0. 0. 1.82481750e-03 1.82481750e-03 0. 0. 0. 0.
      1.82481750e-03 0. 0. 0. 0. 0. 5.47445239e-03 5.47445239e-03
      1.82481750e-03 0. 0. 3.64963501e-03 1.82481750e-03 0. 0.
      3.64963501e-03 3.64963501e-03 0. 0. 0. 1.82481750e-03
      3.64963501e-03 1.09489048e-02 1.82481750e-03 0. 0. 1.82481750e-03
      0. 0. 0. 1.82481750e-03 7.29927002e-03 0. 3.64963501e-03 0. 0. 0.
      0. 0. 1.82481750e-03 0. 0. 7.29927002e-03 0. 1.82481750e-03 0. 0.
      0. 3.64963501e-03 1.82481750e-03 0. 0. 5.47445239e-03 0. 0. 0.
      7.29927002e-03 0. 0. 0. 1.82481750e-03 0. 0. 0. 9.12408717e-03 0.
      0. 0. 1.82481750e-03 0. 1.82481750e-03 5.47445239e-03
      1.82481750e-03 0. 0. 1.82481750e-03 0. 0. 5.47445239e-03 0.
      9.12408717e-03 1.82481750e-03 0. 0. 0. 0. 3.64963501e-03 0. 0. 0.
      1.82481750e-03 1.82481750e-03 0. 0. 1.82481750e-03 0. 0. 0. 0. 0.
      2.91970801e-02 3.64963501e-03 0. 0. 0. 9.12408717e-03
      5.47445239e-03 0. 0. 0. 0. 0. 0. 0. 0. 0. 0. 0.</_>
    <_>
      9.56937764e-03 0. 0. 1.91387553e-02 4.78468882e-03 0. 0. 0. 0. 0.
      0. 0. 0. 4.78468882e-03 0. 0. 0. 0. 0. 0. 4.78468882e-03 0. 0. 0.
      0. 0. 4.78468882e-03 0. 0. 0. 0. 0. 9.56937764e-03 0. 0. 0.
      9.56937764e-03 0. 0. 0. 0. 0. 4.78468882e-03 0. 0. 4.78468882e-03
      0. 0. 4.78468882e-03 0. 0. 0. 0. 0. 2.39234436e-02 0. 0. 0. 0.
      9.56937764e-03 0. 0. 0. 0. 0. 0. 0. 0. 0. 0. 0. 0. 0.
      4.78468882e-03 0. 0. 2.87081338e-02 4.78468882e-03 0.
      4.78468882e-03 0. 0. 0. 0. 0. 0. 0. 0. 4.78468882e-03
      4.78468882e-03 0. 0. 1.43540669e-02 0. 0. 0. 1.91387553e-02 0. 0.
      0. 0. 0. 0. 0. 0. 0. 0. 0. 0. 0. 0. 0. 0. 0. 0. 0. 0. 0. 0. 0.
      4.78468882e-03 0. 0. 0. 0. 0. 0. 4.78468882e-03 0. 0. 0. 0. 0.
      4.78468882e-03 0. 0. 0. 0. 0. 9.56937764e-03 0. 0. 4.78468882e-03
      0. 0. 0. 0. 0. 0. 0. 0. 0. 0. 0. 0. 0. 0. 0. 0. 0. 0. 0. 0. 0.
      1.43540669e-02 0. 0. 0. 0. 0. 0. 0. 0. 0. 0. 0. 0. 0. 0. 0. 0. 0.
      0. 4.78468882e-03 0. 0. 4.78468882e-03 0. 0. 4.78468882e-03 0. 0.
      0. 0. 0. 0. 4.78468882e-03 0. 0. 0. 0. 0. 0. 0. 0. 0. 0. 0.
      4.78468882e-03 4.78468882e-03 2.39234436e-02 0. 0. 0. 0. 0.
      4.78468882e-03 0. 0. 0. 0. 0. 0. 0. 0. 0. 0. 0. 0. 4.78468882e-03
      0. 0. 0. 0. 0. 0. 0. 0. 0. 0. 0. 0. 0. 0. 0. 0. 0. 0. 0. 0. 0. 0.
      0. 0. 0. 0. 0. 0. 0. 0. 0. 0. 0. 0. 0. 0. 0. 0. 9.56937764e-03 0.
      0. 0. 0. 0. 0. 0. 0. 0. 4.78468882e-03 4.78468882e-03
      9.56937764e-03 0. 0. 0. 1.43540669e-02 0. 0. 0. 0. 0.
      4.78468882e-03 0. 0. 0. 0. 0. 0. 0. 0. 0. 0. 4.78468882e-03 0. 0.
      4.78468882e-03 0. 0. 0. 1.91387553e-02 4.78468882e-03 0. 0. 0. 0.
      0. 0. 9.56937764e-03 0. 0. 0. 0. 0. 0. 0. 0. 4.78468882e-03
      4.78468882e-03 0. 0. 9.56937764e-03 4.78468882e-03 0. 0. 0. 0. 0.
      0. 0. 0. 0. 0. 9.56937764e-03 0. 0. 0. 0. 0. 4.78468882e-03
      9.56937764e-03 0. 0. 9.56937764e-03 0. 0. 0. 0. 0. 0. 0. 0. 0. 0.
      0. 0. 0. 0. 0. 0. 0. 0. 0. 0. 0. 0. 0. 0. 0. 0. 0. 0. 0. 0. 0. 0.
      0. 0. 0. 0. 0. 0. 4.78468882e-03 0. 0. 0. 0. 0. 0. 0. 0. 0. 0. 0.
      0. 0. 0. 0. 4.78468882e-03 0. 0. 0. 0. 0. 0. 0. 0. 0. 0. 0. 0. 0.
      0. 0. 0. 0. 0. 0. 0. 0. 0. 0. 0. 0. 0. 0. 0. 0. 0. 0. 0. 0.
      4.78468882e-03 4.78468882e-03 0. 0. 0. 0. 0. 0. 0. 0. 0. 0. 0.
      4.78468882e-03 9.56937764e-03 0. 0. 9.56937764e-03 0. 0. 0. 0. 0.
      0. 0. 0. 0. 0. 0. 0. 0. 4.78468882e-03 0. 0. 0. 4.78468873e-02 0.
      0. 4.78468882e-03 0. 0. 0. 0. 0. 0. 0. 0. 0. 0. 0. 0.
      9.56937764e-03 4.78468882e-03 9.56937764e-03 0. 0. 0. 0. 0. 0. 0.
      0. 0. 4.78468882e-03 0. 4.78468882e-03 0. 0. 0. 0. 4.78468882e-03
      0. 0. 4.78468882e-03 4.78468882e-03 0. 0. 4.78468882e-03 0. 0. 0.
      0. 4.78468882e-03 0. 0. 0. 0. 0. 0. 0. 0. 0. 0. 0. 0. 0. 0. 0. 0.
      0. 0. 0. 4.78468882e-03 0. 0. 0. 0. 0. 4.78468882e-03 0. 0.
      9.56937764e-03 0. 0. 0. 0. 0. 0. 0. 0. 0. 4.78468882e-03 0. 0. 0.
      0. 0. 0. 0. 0. 0. 0. 0. 0. 0. 4.78468882e-03 0. 0. 0. 0. 0. 0. 0.
      0. 0. 4.78468882e-03 0. 0. 0. 1.43540669e-02 0. 0. 0. 0. 0. 0. 0.
      0. 0. 0. 0. 4.78468882e-03 0. 0. 0. 0. 0. 0. 0. 0. 0. 0. 0. 0. 0.
      0. 0. 0. 0. 4.78468882e-03 0. 0. 4.78468882e-03 4.78468882e-03 0.
      0. 0. 0. 0. 0. 9.56937764e-03 0. 0. 0. 0. 0. 0. 0. 0. 0. 0. 0. 0.
      0. 0. 0. 0. 0. 0. 0. 0. 0. 0. 0. 0. 0. 0. 0. 0. 0. 0. 0. 0. 0. 0.
      0. 0. 0. 0. 0. 0. 0. 4.78468882e-03 0. 0. 0. 0. 0. 0. 0. 0. 0. 0.
      0. 0. 0. 0. 0. 0. 0. 0. 0. 0. 4.78468882e-03 0. 0. 0. 0. 0. 0. 0.
      0. 0. 0. 0. 0. 0. 0. 0. 0. 0. 0. 4.78468882e-03 0. 0. 0. 0. 0. 0.
      0. 0. 0. 0. 0. 0. 0. 4.78468882e-03 0. 0. 0. 0. 0. 0. 0. 0. 0. 0.
      0. 0. 1.43540669e-02 0. 0. 0. 0. 4.78468882e-03 0. 0. 0. 0.
      4.78468882e-03 0. 0. 0. 0. 0. 0. 0. 0. 0. 0. 0. 0. 0. 0. 0. 0.
      4.78468882e-03 0. 0. 0. 0. 1.43540669e-02 0. 0. 0. 0. 0. 0. 0. 0.
      0. 0. 0. 0. 0. 0. 0. 0. 0. 0. 0. 0. 0. 0. 0. 0. 9.56937764e-03 0.
      0. 0. 0. 0. 0. 0. 0. 0. 0. 0. 0. 0. 9.56937764e-03 0. 0. 0. 0. 0.
      0. 0. 0. 9.56937764e-03 0. 0. 4.78468882e-03 0. 4.78468882e-03 0.
      0. 9.56937764e-03 0. 0. 0. 0. 0. 0. 0. 0. 0. 0. 0. 9.56937764e-03
      9.56937764e-03 0. 0. 0. 0. 4.78468882e-03 0. 0. 0. 0. 0. 0. 0.
      4.78468882e-03 0. 0. 0. 0. 0. 0. 0. 0. 4.78468882e-03 0. 0. 0. 0.
      0. 0. 2.39234436e-02 1.91387553e-02 0. 0. 0. 0. 0. 0.
      4.78468882e-03 0. 0. 0. 0. 4.78468882e-03 0. 0. 0. 0. 0. 0. 0. 0.
      0. 0. 0. 0. 0. 0. 4.78468882e-03 0. 0. 0. 4.78468882e-03 0. 0. 0.
      0. 0. 4.78468882e-03 0. 0. 0. 0. 0. 0. 0. 0. 0. 0. 0. 0.
      1.43540669e-02 9.56937764e-03 0. 0. 0. 0. 0. 0. 0. 0. 0. 0. 0. 0.
      0. 0. 0. 0. 0. 0. 0. 4.78468882e-03 0. 0. 0. 0. 4.78468882e-03 0.
      0. 0. 0. 0. 0. 0. 4.78468882e-03 0. 0. 0. 0. 4.78468882e-03 0.
      9.56937764e-03 0. 0. 0. 9.56937764e-03 0. 0. 0. 0. 0. 0. 0. 0. 0.
      0. 0. 0. 0. 0. 9.56937764e-03 0. 0. 9.56937764e-03 0. 0. 0. 0.
      9.56937764e-03 4.78468882e-03 0. 0. 0. 0. 0. 0. 0. 4.78468882e-03
      0. 0.</_>
    <_>
      1.77935942e-03 0. 0. 0. 1.77935942e-03 0. 0. 1.77935942e-03 0. 0.
      0. 0. 3.55871883e-03 0. 0. 0. 0. 0. 0. 0. 0. 0. 0. 1.77935942e-03
      1.77935942e-03 0. 0. 3.55871883e-03 0. 5.33807836e-03 0. 0.
      1.77935942e-03 0. 1.77935942e-03 0. 0. 0. 0. 0. 0. 0.
      7.11743766e-03 0. 3.55871883e-03 0. 0. 0. 0. 0. 1.77935942e-03 0.
      0. 1.77935942e-03 1.42348753e-02 3.55871883e-03 0. 0. 0. 0. 0.
      1.77935942e-03 0. 0. 0. 1.77935942e-03 0. 0. 0. 0. 0.
      3.55871883e-03 5.33807836e-03 0. 1.77935942e-03 0. 2.84697507e-02
      3.55871883e-03 0. 5.33807836e-03 0. 0. 7.11743766e-03 0. 0. 0. 0.
      0. 8.89679696e-03 0. 0. 0. 0. 0. 0. 1.77935942e-03 3.55871883e-03
      0. 0. 0. 1.77935942e-03 0. 1.77935942e-03 0. 0. 0. 0. 0. 0. 0. 0.
      0. 3.55871883e-03 0. 7.11743766e-03 1.77935942e-03 0.
      1.06761567e-02 0. 0. 1.77935942e-03 0. 1.77935942e-03
      3.55871883e-03 0. 0. 1.77935942e-03 7.11743766e-03 0. 0. 0. 0.
      1.42348753e-02 0. 0. 0. 0. 0. 0. 0. 1.77935942e-03 0. 0. 0. 0. 0.
      0. 0. 1.77935942e-03 0. 1.77935942e-03 0. 0. 0. 0. 0. 0.
      1.77935942e-03 0. 0. 0. 5.33807836e-03 0. 0. 0. 0. 0. 0. 0. 0.
      3.55871883e-03 0. 5.33807836e-03 0. 0. 0. 3.55871883e-03
      1.77935942e-03 0. 0. 0. 0. 1.77935942e-03 3.55871883e-03
      1.77935942e-03 0. 1.77935942e-03 0. 1.77935942e-03 1.06761567e-02
      1.77935942e-03 5.33807836e-03 0. 0. 0. 1.77935942e-03 0.
      3.55871883e-03 0. 0. 0. 0. 0. 1.77935942e-03 0. 1.77935942e-03 0.
      0. 0. 0. 1.77935942e-03 0. 0. 1.77935942e-03 0. 0. 0.
      1.77935942e-03 3.55871883e-03 0. 0. 0. 0. 0. 0. 3.55871883e-03 0.
      0. 0. 3.55871883e-03 0. 0. 0. 0. 1.77935942e-03 0. 0. 0.
      1.77935942e-03 0. 0. 0. 0. 0. 0. 0. 0. 0. 0. 0. 0. 1.77935942e-03
      0. 0. 1.77935942e-03 1.77935942e-03 1.77935942e-03 1.77935942e-03
      0. 0. 0. 0. 8.89679696e-03 1.77935942e-03 0. 1.77935942e-03 0.
      1.77935942e-03 0. 5.33807836e-03 0. 3.55871883e-03 0.
      1.77935942e-03 3.55871883e-03 0. 0. 3.55871883e-03 0.
      5.33807836e-03 0. 0. 0. 0. 0. 0. 0. 1.77935942e-03 1.42348753e-02
      0. 5.33807836e-03 0. 0. 0. 0. 0. 5.33807836e-03 0. 0. 0. 0. 0. 0.
      0. 0. 0. 5.33807836e-03 1.77935942e-03 0. 0. 1.77935942e-03 0. 0.
      0. 0. 3.55871883e-03 0. 0. 0. 0. 0. 1.77935942e-03 0. 0. 0.
      1.77935942e-03 0. 0. 1.77935942e-03 0. 0. 3.55871883e-03 0. 0.
      1.77935942e-03 0. 1.77935942e-03 0. 0. 1.77935942e-03
      7.11743766e-03 1.77935942e-03 1.77935942e-03 0. 0. 0.
      3.55871883e-03 0. 0. 1.77935942e-03 0. 3.55871883e-03 0. 0. 0. 0.
      0. 0. 0. 0. 0. 0. 1.77935942e-03 0. 1.77935942e-03 0. 0.
      1.77935942e-03 0. 0. 0. 0. 0. 5.33807836e-03 0. 0. 1.77935942e-03
      1.77935942e-03 1.77935942e-03 1.77935942e-03 1.77935942e-03
      3.55871883e-03 0. 0. 0. 0. 0. 1.77935942e-03 3.55871883e-03
      1.77935942e-03 0. 3.55871883e-03 0. 0. 1.77935942e-03 0. 0. 0.
      1.77935942e-03 0. 0. 3.55871883e-03 0. 3.55871883e-03
      1.77935942e-03 0. 1.77935942e-03 1.77935942e-03 0. 0.
      1.77935942e-03 1.77935942e-03 1.77935942e-03 0. 3.55871883e-03 0.
      3.55871883e-03 0. 0. 0. 0. 3.55871883e-03 1.77935942e-03 0. 0. 0.
      3.55871883e-03 3.55871883e-03 0. 1.77935942e-03 0. 0. 0. 0. 0. 0.
      1.77935942e-03 1.95729528e-02 0. 1.77935942e-03 0. 0.
      1.77935942e-03 0. 3.55871883e-03 0. 0. 0. 0. 1.77935942e-03 0.
      1.77935942e-03 0. 0. 8.89679696e-03 0. 5.33807836e-03
      8.89679696e-03 0. 0. 0. 0. 3.55871883e-03 0. 0. 1.77935942e-03
      1.77935942e-03 0. 0. 0. 0. 1.77935942e-03 0. 1.77935942e-03 0.
      3.55871883e-03 0. 3.55871883e-03 0. 0. 0. 0. 1.77935942e-03 0. 0.
      0. 0. 3.55871883e-03 3.55871883e-03 0. 1.77935942e-03
      1.06761567e-02 0. 3.55871883e-03 1.77935942e-03 0. 1.77935942e-03
      0. 1.77935942e-03 0. 0. 1.77935942e-03 1.77935942e-03 0. 0.
      1.77935942e-03 0. 0. 0. 0. 1.77935942e-03 0. 0. 0. 5.33807836e-03
      1.77935942e-03 0. 0. 0. 0. 0. 0. 0. 0. 0. 3.55871883e-03 0. 0. 0.
      0. 1.77935942e-03 1.77935942e-03 0. 0. 1.77935942e-03 0. 0. 0.
      5.33807836e-03 0. 0. 3.55871883e-03 0. 1.77935942e-03 0. 0. 0.
      1.77935942e-03 0. 0. 1.77935942e-03 0. 1.77935942e-03
      1.77935942e-03 0. 0. 3.55871883e-03 0. 0. 0. 3.55871883e-03 0. 0.
      0. 0. 0. 3.55871883e-03 1.77935942e-03 0. 0. 0. 0. 0. 0. 0.
      7.11743766e-03 3.55871883e-03 0. 1.77935942e-03 0. 1.77935942e-03
      0. 0. 0. 3.55871883e-03 0. 0. 0. 0. 0. 1.77935942e-03
      1.77935942e-03 0. 3.55871883e-03 3.55871883e-03 0. 1.77935942e-03
      1.77935942e-03 0. 0. 0. 7.11743766e-03 1.77935942e-03
      1.77935942e-03 1.77935942e-03 1.77935942e-03 5.33807836e-03 0. 0.
      0. 5.33807836e-03 0. 0. 0. 0. 0. 0. 0. 0. 1.77935942e-03 0. 0. 0.
      0. 0. 0. 0. 1.77935942e-03 0. 3.55871883e-03 3.55871883e-03 0. 0.
      3.55871883e-03 0. 1.77935942e-03 0. 0. 0. 0. 0. 3.55871883e-03 0.
      0. 0. 0. 0. 1.77935942e-03 1.77935942e-03 0. 0. 1.77935942e-03
      7.11743766e-03 0. 0. 3.55871883e-03 0. 0. 0. 0. 0. 1.77935942e-03
      0. 0. 0. 0. 3.55871883e-03 0. 0. 0. 1.77935942e-03 0. 0.
      3.55871883e-03 0. 1.77935942e-03 0. 0. 0. 0. 0. 5.33807836e-03
      1.77935942e-03 1.77935942e-03 1.77935942e-03 3.55871883e-03
      1.77935942e-03 0. 1.77935942e-03 0. 5.33807836e-03 0. 0.
      1.77935942e-03 0. 1.77935942e-03 0. 1.77935942e-03 0.
      3.55871883e-03 0. 0. 1.77935942e-03 0. 0. 0. 0. 0. 0. 0. 0.
      1.77935942e-03 3.55871883e-03 0. 0. 0. 0. 0. 0. 0. 0.
      1.77935942e-03 0. 0. 1.77935942e-03 0. 0. 0. 0. 0. 1.77935942e-03
      0. 1.77935942e-03 1.77935942e-03 0. 0. 0. 0. 1.77935942e-03
      1.77935942e-03 0. 1.77935942e-03 1.06761567e-02 0. 1.77935942e-03
      1.77935942e-03 0. 3.55871883e-03 0. 3.55871883e-03 0. 0.
      1.77935942e-03 3.55871883e-03 1.77935942e-03 0. 0. 0. 0. 0. 0. 0.
      1.77935942e-03 0. 0. 0. 0. 0. 0. 0. 0. 1.77935942e-03 0. 0. 0. 0.
      0. 1.77935942e-03 0. 0. 0. 1.77935942e-03 0. 0. 1.77935942e-03 0.
      0. 0. 0. 0. 0. 3.55871883e-03 1.77935942e-03 0. 5.33807836e-03 0.
      5.33807836e-03 1.77935942e-03 0. 0. 0. 1.77935942e-03 0. 0. 0. 0.
      0. 0. 0. 3.55871883e-03 1.77935942e-03 0. 0. 0. 1.42348753e-02 0.
      0. 0. 0. 3.55871883e-03 0. 0. 0. 0. 5.33807836e-03 0. 0.
      7.11743766e-03 3.55871883e-03 1.77935942e-03 1.06761567e-02 0. 0.
      0. 0. 0. 0. 3.55871883e-03 0. 0. 0. 7.11743766e-03 0. 0. 0. 0. 0.
      0. 0. 5.33807836e-03 3.55871883e-03 0. 7.11743766e-03 0. 0. 0. 0.
      0. 0. 0. 0. 0. 1.77935942e-03 0. 0. 0. 0. 0. 0. 3.55871883e-03 0.
      0. 0. 0. 0. 1.77935942e-03 1.77935942e-03 1.77935942e-03 0. 0. 0.
      0. 1.77935942e-03 0. 0. 0. 0. 0. 1.77935942e-03 1.77935942e-03
      1.77935942e-03 1.77935942e-03 0. 0. 1.77935942e-03 0. 0. 0.
      1.77935942e-03 0. 0. 3.55871883e-03 0. 5.33807836e-03 0.
      5.33807836e-03 0. 1.77935942e-03 0. 0. 0. 0. 1.77935942e-03
      1.77935942e-03 0. 0. 0. 0. 0. 0. 0. 1.77935942e-03 0.
      1.77935942e-03 0. 0. 0. 0. 0. 1.77935942e-03 0. 0. 0.
      1.77935942e-03 0. 0. 1.77935942e-03 0. 0. 1.77935942e-03 0. 0. 0.
      1.77935942e-03 1.77935942e-03 1.77935942e-03 0. 1.77935942e-03
      1.77935942e-03 0. 0. 1.77935942e-03 1.77935942e-03 0. 0. 0. 0. 0.
      1.77935942e-03 0. 0. 0. 0. 1.77935942e-03 0. 0. 1.77935942e-03
      3.55871883e-03 0. 1.77935942e-03 0. 0. 0. 0. 0. 0. 0. 0. 0. 0. 0.
      0. 0. 1.77935942e-03 0. 3.55871883e-03 0. 1.77935942e-03 0. 0. 0.
      0. 0. 0. 0. 0. 0. 0. 0. 0.</_>
    <_>
      0. 0. 0. 2.07336526e-02 1.59489631e-03 7.97448121e-03 0. 0. 0.
      1.59489631e-03 0. 0. 0. 0. 0. 1.59489631e-03 1.59489631e-03
      1.59489631e-03 0. 0. 0. 0. 0. 3.18979262e-03 0. 1.59489631e-03 0.
      1.59489631e-03 0. 0. 0. 0. 0. 1.59489631e-03 0. 0. 1.59489631e-03
      0. 0. 0. 0. 1.59489631e-03 0. 1.59489631e-03 1.59489631e-03 0.
      1.59489631e-03 1.59489631e-03 0. 0. 4.78468882e-03 1.59489631e-03
      1.59489631e-03 1.59489631e-03 7.97448121e-03 1.59489631e-03 0. 0.
      0. 1.59489631e-03 0. 1.59489631e-03 0. 1.59489631e-03 0. 0.
      4.78468882e-03 1.59489631e-03 0. 0. 0. 0. 0. 0. 0. 1.59489631e-03
      6.37958525e-03 0. 0. 0. 0. 1.59489631e-03 0. 0. 0. 0.
      1.59489631e-03 0. 1.59489631e-03 0. 9.56937764e-03 1.59489631e-03
      1.59489631e-03 0. 0. 0. 3.18979262e-03 0. 0. 0. 0. 0. 0. 0. 0.
      3.18979262e-03 0. 0. 0. 0. 0. 0. 0. 9.56937764e-03 0. 0.
      4.78468882e-03 0. 0. 3.18979262e-03 0. 0. 4.78468882e-03 0. 0. 0.
      0. 1.11642741e-02 4.78468882e-03 0. 0. 0. 1.59489631e-03 0. 0. 0.
      0. 0. 1.11642741e-02 6.37958525e-03 0. 0. 1.59489631e-03
      3.18979262e-03 7.97448121e-03 0. 1.59489631e-03 0. 0. 0.
      1.59489631e-03 0. 0. 1.59489631e-03 0. 1.59489631e-03
      1.75438598e-02 0. 0. 0. 0. 1.59489631e-03 0. 1.59489631e-03 0.
      1.59489631e-03 1.59489631e-03 0. 1.59489631e-03 1.59489631e-03 0.
      0. 0. 0. 0. 0. 0. 3.18979262e-03 0. 0. 0. 0. 0. 0. 0. 0. 0. 0. 0.
      0. 0. 0. 0. 0. 0. 0. 0. 0. 0. 4.78468882e-03 0. 4.78468882e-03 0.
      0. 0. 0. 0. 0. 0. 0. 1.59489631e-03 0. 3.18979262e-03 0. 0. 0. 0.
      0. 6.37958525e-03 0. 0. 0. 0. 0. 0. 1.59489631e-03 0.
      1.59489631e-03 0. 1.59489631e-03 0. 0. 1.59489631e-03
      1.59489631e-03 4.78468882e-03 0. 0. 0. 1.59489631e-03 0.
      1.59489631e-03 0. 0. 0. 1.59489631e-03 1.59489631e-03 0.
      1.59489631e-03 0. 3.18979262e-03 3.18979262e-03 1.59489631e-03 0.
      0. 0. 0. 0. 0. 1.59489631e-03 0. 0. 0. 1.59489631e-03
      1.59489631e-03 1.59489631e-03 1.59489631e-03 0. 0. 9.56937764e-03
      0. 1.59489631e-03 3.18979262e-03 3.18979262e-03 3.18979262e-03 0.
      4.78468882e-03 1.59489631e-03 0. 0. 0. 4.78468882e-03 0. 0. 0.
      3.18979262e-03 0. 0. 0. 2.23285481e-02 0. 0. 0. 0. 0. 0. 0.
      1.59489631e-03 0. 0. 3.18979262e-03 0. 0. 0. 1.59489631e-03 0. 0.
      0. 0. 0. 4.78468882e-03 0. 1.59489631e-03 0. 7.97448121e-03 0. 0.
      0. 0. 3.18979262e-03 0. 0. 1.59489631e-03 0. 0. 0. 1.59489631e-03
      1.59489631e-03 0. 1.59489631e-03 1.59489631e-03 1.59489631e-03
      3.18979262e-03 1.59489631e-03 0. 0. 0. 0. 0. 0. 0. 0. 0. 0. 0. 0.
      0. 0. 0. 0. 1.59489631e-03 1.27591705e-02 0. 0. 0. 0. 0. 0. 0.
      1.59489631e-03 0. 1.59489631e-03 1.59489631e-03 1.59489631e-03 0.
      0. 0. 0. 3.18979262e-03 0. 0. 0. 0. 0. 0. 0. 0. 0. 0. 0. 0. 0. 0.
      0. 0. 1.59489631e-03 0. 0. 1.59489631e-03 0. 0. 0. 4.78468882e-03
      0. 0. 0. 0. 6.37958525e-03 0. 0. 0. 0. 0. 0. 0. 1.59489631e-03 0.
      0. 1.59489631e-03 0. 0. 0. 0. 0. 0. 0. 0. 3.18979262e-03 0. 0. 0.
      0. 0. 0. 1.59489631e-03 1.59489631e-03 0. 1.59489631e-03
      1.59489631e-03 4.78468882e-03 1.59489631e-03 1.59489631e-03 0. 0.
      0. 0. 0. 1.59489631e-03 0. 3.18979262e-03 0. 0. 0. 1.43540669e-02
      3.18979262e-03 3.18979262e-03 6.37958525e-03 0. 0. 1.59489631e-03
      1.59489631e-03 1.59489631e-03 0. 0. 0. 3.18979262e-03 0. 0.
      1.59489631e-03 0. 1.59489631e-03 0. 0. 0. 0. 0. 1.59489631e-03 0.
      4.78468882e-03 0. 3.18979262e-03 0. 3.18979262e-03 3.18979262e-03
      0. 0. 6.37958525e-03 0. 1.59489631e-03 6.37958525e-03
      1.59489631e-03 0. 3.18979262e-03 0. 4.78468882e-03 0. 0. 0.
      1.59489631e-03 1.11642741e-02 1.59489631e-03 0. 0. 0.
      4.78468882e-03 0. 0. 0. 4.78468882e-03 7.97448121e-03 0. 0.
      3.18979262e-03 0. 0. 0. 0. 0. 0. 3.18979262e-03 7.97448121e-03 0.
      0. 0. 0. 0. 0. 0. 0. 0. 0. 3.18979262e-03 0. 0. 1.59489631e-03 0.
      7.97448121e-03 0. 0. 1.59489631e-03 0. 1.59489631e-03 0. 0. 0. 0.
      0. 3.18979262e-03 1.59489631e-03 4.78468882e-03 0. 0.
      4.78468882e-03 0. 0. 0. 0. 0. 0. 0. 0. 0. 3.18979262e-03
      1.59489631e-03 0. 0. 0. 0. 0. 0. 1.59489631e-03 0. 0.
      4.78468882e-03 0. 0. 0. 3.18979262e-03 0. 0. 0. 0. 0. 0. 0. 0. 0.
      3.18979262e-03 0. 1.59489631e-03 0. 0. 0. 0. 0. 0. 1.59489631e-03
      0. 0. 1.59489631e-03 0. 3.18979262e-03 3.18979262e-03 0.
      1.59489631e-03 0. 0. 3.18979262e-03 1.59489631e-03 4.78468882e-03
      3.18979262e-03 0. 0. 1.59489631e-03 0. 0. 0. 0. 0. 1.59489631e-03
      0. 3.18979262e-03 4.78468882e-03 0. 0. 0. 0. 6.37958525e-03 0. 0.
      3.18979262e-03 0. 1.59489631e-03 0. 1.59489631e-03 0. 0. 0. 0. 0.
      0. 3.18979262e-03 0. 0. 1.59489631e-03 0. 0. 0. 0. 0. 0. 0. 0. 0.
      0. 0. 1.59489631e-03 0. 0. 0. 0. 0. 0. 4.78468882e-03 0. 0. 0.
      3.18979262e-03 0. 0. 0. 0. 1.59489631e-03 0. 1.59489631e-03 0. 0.
      4.78468882e-03 1.59489631e-03 0. 0. 0. 1.59489631e-03 0.
      3.18979262e-03 0. 0. 0. 0. 0. 1.59489631e-03 0. 1.59489631e-03
      1.59489631e-03 0. 0. 0. 4.78468882e-03 1.59489631e-03
      3.18979262e-03 0. 4.78468882e-03 0. 1.59489631e-03 0. 0.
      3.18979262e-03 4.78468882e-03 0. 0. 9.56937764e-03 1.59489631e-03
      0. 0. 0. 0. 0. 9.56937764e-03 0. 0. 0. 0. 0. 0. 0. 1.59489631e-03
      0. 0. 0. 0. 4.78468882e-03 0. 3.18979262e-03 9.56937764e-03 0.
      4.78468882e-03 0. 0. 0. 0. 1.59489631e-03 0. 0. 0. 0. 0. 0.
      1.11642741e-02 0. 0. 0. 1.59489631e-03 0. 0. 0. 0. 0. 0.
      1.59489631e-03 0. 0. 0. 0. 3.18979262e-03 1.59489631e-03
      1.59489631e-03 0. 0. 3.18979262e-03 0. 0. 0. 1.59489631e-03 0. 0.
      0. 0. 0. 0. 0. 0. 0. 1.59489631e-03 6.37958525e-03 0.
      1.59489631e-03 4.78468882e-03 0. 0. 0. 0. 0. 0. 0. 0. 0.
      3.18979262e-03 3.18979262e-03 1.59489631e-03 6.37958525e-03
      1.59489631e-03 0. 1.59489631e-03 0. 0. 1.59489631e-03 0.
      3.18979262e-03 1.59489631e-03 1.59489631e-03 0. 0. 4.78468882e-03
      0. 0. 1.59489631e-03 0. 0. 0. 0. 3.18979262e-03 0. 0. 0.
      1.59489631e-03 6.37958525e-03 0. 0. 0. 0. 0. 0. 1.59489631e-03 0.
      0. 0. 0. 1.59489631e-03 6.37958525e-03 0. 0. 0. 1.59489631e-03 0.
      0. 0. 0. 0. 3.18979262e-03 0. 0. 0. 1.59489631e-03 0. 0. 0. 0. 0.
      0. 0. 0. 0. 0. 1.59489631e-03 0. 1.59489631e-03 0. 1.91387553e-02
      0. 1.59489631e-03 0. 0. 0. 0. 0. 0. 6.37958525e-03 0. 0.
      3.18979262e-03 0. 0. 1.59489631e-03 0. 1.59489631e-03 0. 0. 0. 0.
      0. 0. 0. 0. 1.59489631e-03 0. 0. 0. 0. 0. 0. 0. 1.59489631e-03
      1.59489631e-03 0. 3.18979262e-03 1.59489631e-03 0. 0. 0. 0. 0.
      3.18979262e-03 1.59489631e-03 1.59489631e-03 0. 1.59489631e-03 0.
      7.97448121e-03 0. 0. 0. 4.78468882e-03 0. 0. 1.59489631e-03 0.
      3.18979262e-03 0. 0. 1.59489624e-02 0. 0. 3.18979262e-03 0. 0. 0.
      0. 0. 0. 0. 0. 0. 0. 1.43540669e-02 0. 0. 1.59489631e-03 0. 0. 0.
      0. 0. 0. 3.18979262e-03 0. 1.59489631e-03 0. 1.59489631e-03 0. 0.
      0. 0. 0. 1.59489631e-03 0. 0. 0. 0. 0. 0. 0. 0. 0. 0.
      1.59489631e-03 0. 0. 0. 0. 1.59489631e-03 0. 0. 0. 0. 0. 0. 0. 0.
      0. 0. 1.59489631e-03 0. 1.59489631e-03 4.78468882e-03 0. 0. 0. 0.
      1.59489631e-03 0. 1.59489631e-03 1.59489631e-03 1.59489631e-03 0.
      0. 0. 0. 3.18979262e-03 0. 0. 0.</_>
    <_>
      2.12765951e-03 0. 0. 6.38297852e-03 0. 0. 0. 4.25531901e-03 0.
      4.25531901e-03 0. 2.12765951e-03 2.12765951e-03 0. 0. 0. 0. 0. 0.
      0. 2.12765951e-03 0. 0. 4.25531901e-03 4.25531901e-03 0. 0. 0. 0.
      2.12765951e-03 0. 4.25531901e-03 4.25531901e-03 6.38297852e-03 0.
      0. 2.12765951e-03 0. 0. 0. 0. 2.12765951e-03 4.25531901e-03
      2.12765951e-03 0. 0. 2.12765951e-03 0. 0. 0. 2.12765951e-03
      2.12765951e-03 2.12765951e-03 4.25531901e-03 3.40425521e-02 0. 0.
      0. 0. 0. 0. 4.25531901e-03 4.25531901e-03 0. 0. 2.12765951e-03
      6.38297852e-03 0. 0. 2.12765951e-03 0. 0. 0. 4.25531901e-03
      2.12765951e-03 0. 8.51063803e-03 0. 0. 0. 0. 0. 0. 2.12765951e-03
      0. 4.25531901e-03 0. 4.25531901e-03 2.12765951e-03 0. 0.
      2.12765951e-03 4.25531901e-03 0. 6.38297852e-03 6.38297852e-03
      4.25531901e-03 0. 0. 0. 2.12765951e-03 0. 0. 0. 2.12765951e-03 0.
      2.12765951e-03 0. 0. 4.25531901e-03 0. 2.12765951e-03 0. 0.
      4.25531901e-03 2.12765951e-03 0. 1.27659570e-02 0. 0. 0. 0.
      2.12765951e-03 2.12765951e-03 0. 0. 0. 2.12765951e-03
      2.12765951e-03 2.12765951e-03 0. 0. 0. 0. 2.12765951e-03 0.
      8.51063803e-03 0. 0. 6.38297852e-03 2.12765951e-03 0. 0. 0. 0. 0.
      0. 0. 0. 0. 0. 0. 0. 0. 0. 0. 2.12765951e-03 0. 4.25531901e-03
      2.12765951e-03 0. 2.12765951e-03 0. 0. 0. 2.12765951e-03 0.
      2.12765951e-03 0. 0. 0. 2.12765951e-03 0. 0. 2.12765951e-03
      6.38297852e-03 0. 2.12765951e-03 0. 0. 2.12765951e-03 0.
      2.12765951e-03 2.12765951e-03 0. 0. 0. 0. 0. 2.12765951e-03 0.
      2.12765951e-03 0. 0. 0. 0. 8.51063803e-03 0. 0. 0. 2.12765951e-03
      0. 0. 0. 0. 0. 0. 0. 0. 2.12765951e-03 0. 2.12765951e-03
      2.12765951e-03 8.51063803e-03 0. 2.12765951e-03 2.12765951e-03 0.
      0. 0. 0. 0. 0. 0. 0. 0. 1.27659570e-02 4.25531901e-03 0. 0. 0. 0.
      4.25531901e-03 0. 2.12765951e-03 0. 0. 0. 0. 0. 0. 0.
      2.12765951e-03 0. 2.12765951e-03 0. 0. 0. 0. 2.12765951e-03
      4.25531901e-03 2.12765951e-03 0. 0. 0. 0. 2.12765951e-03 0. 0. 0.
      0. 4.25531901e-03 0. 0. 0. 2.12765951e-03 2.12765951e-03 0. 0. 0.
      0. 2.12765951e-03 2.12765951e-03 2.12765951e-03 0. 0. 0. 0. 0. 0.
      2.12765951e-03 0. 0. 0. 0. 0. 0. 0. 2.12765951e-03 2.12765951e-03
      0. 0. 0. 0. 0. 0. 2.12765951e-03 0. 0. 2.12765951e-03 0. 0. 0. 0.
      0. 0. 0. 6.38297852e-03 0. 0. 0. 2.12765951e-03 2.12765951e-03 0.
      0. 2.12765951e-03 2.12765951e-03 0. 2.12765951e-03 2.12765951e-03
      0. 0. 2.12765951e-03 8.51063803e-03 0. 0. 2.12765951e-03 0.
      2.12765951e-03 0. 0. 0. 0. 0. 0. 0. 0. 0. 0. 4.25531901e-03 0.
      6.38297852e-03 0. 0. 0. 0. 0. 8.51063803e-03 0. 0. 2.12765951e-03
      6.38297852e-03 0. 4.25531901e-03 2.12765951e-03 4.25531901e-03 0.
      0. 0. 0. 0. 0. 0. 0. 0. 2.12765951e-03 0. 0. 0. 2.12765951e-03 0.
      2.12765951e-03 0. 0. 0. 0. 0. 0. 0. 0. 0. 0. 8.51063803e-03 0.
      6.38297852e-03 0. 0. 0. 0. 0. 0. 0. 0. 0. 0. 2.12765951e-03 0. 0.
      2.12765951e-03 0. 0. 0. 0. 2.12765951e-03 0. 0. 6.38297852e-03 0.
      2.12765951e-03 0. 0. 0. 2.12765951e-03 0. 2.12765951e-03 0. 0.
      2.12765951e-03 0. 0. 0. 0. 2.12765951e-03 2.12765951e-03
      2.12765951e-03 0. 0. 0. 0. 0. 0. 0. 0. 2.12765951e-03 0. 0. 0. 0.
      0. 0. 2.12765951e-03 0. 0. 4.25531901e-03 0. 0. 0. 0. 0. 0. 0. 0.
      0. 0. 2.12765951e-03 0. 8.51063803e-03 0. 0. 0. 0. 0.
      2.12765951e-03 0. 0. 0. 0. 0. 0. 0. 0. 2.12765951e-03 0.
      2.12765951e-03 4.25531901e-03 6.38297852e-03 0. 0. 0. 0. 0. 0.
      4.25531901e-03 0. 0. 0. 0. 0. 2.12765951e-03 2.12765951e-03
      8.51063803e-03 6.38297852e-03 2.12765951e-03 0. 0. 0. 0. 0.
      2.12765951e-03 0. 0. 0. 0. 0. 0. 2.12765951e-03 0. 0.
      6.38297852e-03 0. 0. 2.12765951e-03 0. 0. 0. 4.25531901e-03
      2.12765951e-03 0. 0. 4.25531901e-03 0. 4.25531901e-03
      2.12765951e-03 0. 0. 2.12765951e-03 0. 0. 2.12765951e-03 0. 0. 0.
      2.12765951e-03 0. 0. 0. 0. 0. 2.12765951e-03 2.12765951e-03 0.
      6.38297852e-03 6.38297852e-03 2.12765951e-03 0. 0. 0. 0. 0. 0. 0.
      0. 0. 0. 0. 0. 2.12765951e-03 0. 0. 0. 0. 0. 2.12765951e-03
      4.25531901e-03 0. 0. 0. 0. 0. 0. 0. 0. 0. 0. 0. 0. 0. 0.
      8.51063803e-03 0. 0. 0. 2.12765951e-03 0. 0. 0. 0. 0. 0. 0.
      2.12765951e-03 0. 0. 4.25531901e-03 4.25531901e-03 0. 0. 0.
      2.12765951e-03 0. 0. 0. 0. 0. 0. 0. 2.12765951e-03 0.
      2.12765951e-03 0. 2.12765951e-03 0. 0. 2.12765951e-03 0. 0. 0. 0.
      0. 0. 0. 0. 2.12765951e-03 0. 2.12765951e-03 0. 0. 2.12765951e-03
      0. 0. 2.12765951e-03 0. 0. 1.27659570e-02 0. 0. 0. 0. 0.
      4.25531901e-03 0. 0. 0. 0. 0. 0. 0. 2.12765951e-03 2.12765951e-03
      0. 0. 0. 2.12765951e-03 0. 4.25531901e-03 6.38297852e-03
      4.25531901e-03 2.12765951e-03 0. 0. 0. 4.25531901e-03 0. 0. 0. 0.
      0. 0. 2.12765951e-03 0. 0. 0. 0. 0. 0. 4.25531901e-03 0. 0. 0. 0.
      0. 0. 0. 0. 0. 2.12765951e-03 0. 0. 4.25531901e-03 0. 0. 0. 0. 0.
      0. 2.12765951e-03 0. 0. 0. 2.12765951e-03 2.12765951e-03 0. 0. 0.
      0. 0. 0. 0. 0. 0. 6.38297852e-03 0. 2.12765951e-03 2.12765951e-03
      0. 0. 0. 0. 0. 0. 2.12765951e-03 0. 4.25531901e-03 0. 0.
      2.12765951e-03 6.38297852e-03 0. 0. 0. 6.38297852e-03 0. 0. 0.
      6.38297852e-03 0. 0. 0. 4.25531901e-03 0. 0. 0. 2.12765951e-03 0.
      2.12765951e-03 2.12765951e-03 0. 2.12765951e-03 0. 6.38297852e-03
      0. 0. 0. 0. 2.12765951e-03 6.38297852e-03 0. 4.25531901e-03 0. 0.
      0. 0. 2.12765951e-03 0. 0. 0. 0. 2.12765951e-03 0. 0. 0. 0.
      4.25531901e-03 0. 0. 2.12765951e-03 0. 4.25531901e-03 0. 0. 0.
      2.12765951e-03 0. 0. 0. 0. 0. 0. 0. 0. 0. 0. 8.51063803e-03 0.
      2.12765951e-03 0. 4.25531901e-03 0. 0. 0. 0. 0. 0. 4.25531901e-03
      0. 0. 0. 0. 0. 0. 0. 0. 0. 0. 0. 4.25531901e-03 0. 0. 0. 0. 0. 0.
      0. 0. 6.38297852e-03 0. 0. 2.12765951e-03 0. 2.12765951e-03 0.
      2.12765951e-03 2.12765951e-03 0. 0. 2.12765951e-03 0. 0. 0.
      2.12765951e-03 0. 0. 2.12765951e-03 0. 0. 0. 2.12765951e-03 0. 0.
      2.12765951e-03 0. 2.12765951e-03 2.12765951e-03 0. 2.12765951e-03
      2.12765951e-03 0. 0. 0. 0. 0. 0. 4.25531901e-03 0. 0. 0.
      2.12765951e-03 0. 0. 2.12765951e-03 4.25531901e-03 0. 0. 0. 0.
      2.12765951e-03 2.12765951e-03 0. 0. 0. 2.12765951e-03 0. 0.
      2.12765951e-03 0. 2.12765951e-03 0. 0. 0. 0. 0. 4.25531901e-03 0.
      0. 0. 2.12765951e-03 0. 4.25531901e-03 4.25531901e-03 0. 0.
      2.12765951e-03 6.38297852e-03 2.12765951e-03 0. 0. 2.12765951e-03
      0. 0. 0. 4.25531901e-03 0. 0. 6.38297852e-03 0. 0. 4.25531901e-03
      4.25531901e-03 6.38297852e-03 0. 0. 0. 0. 0. 1.06382975e-02 0. 0.
      0. 0. 0. 0. 0. 0. 2.12765951e-03 2.12765951e-03 0. 0. 0. 0. 0. 0.
      0. 0. 0. 0. 0. 2.12765951e-03 2.12765951e-03 4.25531901e-03 0. 0.
      0. 2.12765951e-03 2.12765951e-03 0. 0. 0. 0. 0. 0. 0.
      6.38297852e-03 2.12765951e-03 2.12765951e-03 0. 0. 0.
      2.12765951e-03 0. 0. 0. 0. 2.12765951e-03 2.12765951e-03
      2.12765951e-03 0. 2.12765951e-03 0. 0. 4.25531901e-03 0. 0. 0. 0.
      0. 0. 0. 0. 0. 0. 0. 0. 0. 0. 0. 0. 0. 4.25531901e-03 0. 0.</_>
    <_>
      3.40136047e-03 0. 0. 1.36054419e-02 3.40136047e-03 0. 0. 0.
      3.40136047e-03 0. 0. 0. 3.40136047e-03 0. 0. 0. 0. 0. 0. 0.
      3.40136047e-03 0. 0. 0. 0. 0. 0. 0. 0. 0. 0. 3.40136047e-03 0.
      3.40136047e-03 0. 0. 3.40136047e-03 0. 0. 0. 0. 0. 1.70068033e-02
