<?xml version="1.0"?>
<opencv_storage>
<opencv_ml_svm>
  <format>3</format>
  <svmType>C_SVC</svmType>
  <kernel>
    <type>LINEAR</type></kernel>
  <C>1.</C>
  <term_criteria><iterations>100</iterations></term_criteria>
  <var_count>1000</var_count>
  <class_count>2</class_count>
  <class_labels type_id="opencv-matrix">
    <rows>2</rows>
    <cols>1</cols>
    <dt>i</dt>
    <data>
      -1 1</data></class_labels>
  <sv_total>1</sv_total>
  <support_vectors>
    <_>
      3.40761319e-02 5.10930317e-03 2.19737161e-02 -2.09236577e-01
      -4.04318050e-03 6.73061758e-02 -3.79096121e-01 4.96332208e-03
      1.73026361e-02 4.75995737e-04 1.13337589e-02 -8.76002247e-04
      1.18561042e-02 -5.55153728e-01 1.20371943e-02 9.69502330e-03
      3.96358781e-03 9.79596097e-03 -2.63069454e-03 2.82386057e-02
      2.11796574e-02 -1.36422560e-01 1.33079337e-03 -4.56576794e-02
      1.39286621e-02 9.37266834e-03 5.67237381e-04 -1.55897379e-01
      7.77016208e-03 3.57028954e-02 4.69761994e-03 -3.61927450e-02
      1.11559099e-02 1.88787952e-02 2.95772702e-02 1.15960687e-02
      9.88916028e-04 6.44166814e-03 3.18322936e-03 7.58579746e-03
      1.45108961e-02 1.02709150e-02 4.00007330e-02 -3.70312519e-02
      -1.12145459e-02 9.16441611e-04 2.20226459e-02 1.75828710e-02
      6.75318064e-03 -1.78245440e-01 2.55687349e-02 3.27858292e-02
      1.87077112e-02 2.23572534e-02 -1.67435408e-01 4.04907344e-03
      -2.13843659e-02 1.06419679e-02 2.46398244e-03 1.17306923e-02
      9.81858838e-03 2.81913336e-02 -2.81456530e-01 3.74340452e-02
      3.91840972e-02 1.27607407e-02 4.45922539e-02 8.12226441e-03
      1.76839437e-02 5.50390035e-02 -1.21416777e-01 -4.24625248e-01
      2.21406482e-02 3.79480817e-03 2.05446053e-02 2.29209494e-02
      -4.72310662e-01 2.30476800e-02 -4.95411875e-03 -3.12072225e-04
      -7.78885209e-04 -1.13761902e-01 3.20276096e-02 2.31339000e-02
      2.33514998e-02 1.07407924e-02 -6.18836805e-02 8.26141983e-03
      5.99931590e-02 -8.91166627e-02 -6.62714103e-03 -2.29068194e-02
      3.08297127e-02 1.92221701e-02 -1.89026818e-01 3.07447426e-02
      2.03917921e-02 1.84810273e-02 1.11640682e-02 1.16662960e-02
      3.30163725e-02 8.40387028e-03 5.62952459e-03 1.96445789e-02
      1.12552196e-02 -6.29534200e-02 9.52327100e-04 1.25733744e-02
      -4.90609603e-03 -1.17589369e-01 -3.92466821e-02 1.24427956e-02
      1.37929861e-02 7.40796998e-02 1.56086972e-02 5.54306060e-03
      -4.26077880e-02 1.94021109e-02 1.19381081e-02 1.85539350e-02
      6.36718282e-03 1.64721012e-02 -7.23012444e-03 3.09155099e-02
      -1.41521161e-02 -1.10234357e-02 1.75556783e-02 1.00025004e-02
      2.15568859e-02 3.14587876e-02 2.37505161e-03 2.32753996e-02
      2.22641937e-02 2.03665327e-02 1.91024337e-02 -7.92811066e-02
      1.91774517e-02 2.68989727e-02 1.68599915e-02 4.40557413e-02
      5.10883443e-02 6.42661937e-03 1.38528822e-02 1.36977071e-02
      7.39908963e-02 3.37279178e-02 2.02232637e-02 -3.50391679e-02
      3.24127041e-02 1.80555228e-02 1.96987130e-02 9.85472556e-03
      1.57238804e-02 1.68408714e-02 -3.46984565e-02 4.27925289e-02
      -9.38269217e-03 4.82362462e-03 2.39126217e-02 2.80723218e-02
      2.81179640e-02 -7.52654597e-02 8.30030721e-03 2.68676337e-02
      2.22821031e-02 -5.67679945e-03 -6.33450178e-03 5.61505044e-03
      6.70140097e-03 4.13805284e-02 1.78613756e-02 4.42458354e-02
      2.01247875e-02 3.44979460e-03 1.75817637e-03 1.73414834e-02
      1.76311247e-02 4.19546627e-02 -7.46890604e-02 4.06332947e-02
      -6.73701987e-02 1.29369888e-02 1.19179776e-02 2.90847048e-02
      1.67930629e-02 2.94051599e-02 9.43352561e-03 1.75398849e-02
      -1.10666482e-02 3.57232727e-02 -3.05694863e-02 3.07552014e-02
      3.28649627e-03 2.70264247e-03 1.14950603e-02 1.32294651e-02
      1.94989685e-02 1.90983573e-03 -1.54619664e-01 8.30180664e-03
      -3.27081908e-03 4.51291073e-03 -1.88886791e-01 6.85281469e-04
      3.38825444e-03 2.17626002e-02 1.69542059e-02 4.08616289e-03
      5.15952408e-02 1.73532460e-02 2.38841139e-02 2.58307811e-03
      2.58623865e-02 -2.58786213e-02 -8.25997151e-04 8.78405571e-03
      -1.03976084e-02 3.45803015e-02 1.70652941e-02 1.08055593e-02
      -5.80322114e-04 1.58149749e-02 -3.13976586e-01 1.48815708e-02
      2.78474800e-02 3.78700607e-02 5.91891482e-02 2.15518959e-02
      4.36621159e-03 2.31716614e-02 1.11699896e-03 -2.76807975e-02
      1.26797101e-02 5.93367871e-03 1.44846402e-02 7.86552951e-03
      7.63096334e-03 2.34825611e-02 1.05427168e-02 2.65597738e-02
      -3.16154398e-03 1.47192972e-02 1.77955050e-02 2.69974954e-03
      1.23707866e-02 9.67742223e-03 -1.01914667e-02 6.87935483e-03
      1.40266735e-02 1.72395036e-02 3.39431912e-02 3.13132033e-02
      5.54551966e-02 1.99366640e-03 4.08694819e-02 2.89638154e-02
      2.67979316e-02 7.88900722e-03 5.08506922e-03 7.86462706e-03
      3.09416149e-02 1.05659096e-02 1.88435819e-02 9.95259453e-03
      2.96074804e-02 -3.17818820e-01 2.06594691e-02 1.81196798e-02
      6.60308218e-03 5.11874305e-03 2.09147967e-02 5.25423065e-02
      1.08862724e-02 1.02612283e-02 1.83897112e-02 1.60179120e-02
      -1.72086731e-02 5.67327589e-02 3.89609300e-02 1.09504703e-02
      2.30811872e-02 -2.05427632e-02 1.14627862e-02 1.34548900e-04
      1.14323283e-02 1.02937967e-02 3.40254582e-03 1.12505890e-02
      1.00625187e-01 1.29608074e-02 -3.47213484e-02 3.87205668e-02
      6.70263031e-03 2.16530710e-02 1.07244228e-03 -2.63268173e-01
      1.01190386e-02 2.63470982e-04 1.07432967e-02 2.41536810e-03
      6.98508024e-02 1.53132137e-02 -5.84775070e-03 4.69578244e-02
      1.72838271e-02 -2.54025264e-03 2.73055825e-02 1.26485626e-04
      -4.30958020e-03 2.68732123e-02 3.36059406e-02 5.82756707e-03
      -6.36124704e-03 3.26911546e-02 4.36280221e-02 1.12212030e-02
      2.23330874e-02 9.99379996e-03 -1.75420493e-01 2.26314589e-02
      7.88509771e-02 6.61196634e-02 1.13356272e-02 -9.98215517e-04
      1.60864671e-03 -4.75889742e-02 -1.58363909e-01 -4.70136711e-03
      1.53726675e-02 5.01060076e-02 6.21499959e-03 3.47817056e-02
      1.54892094e-02 1.45934485e-02 -4.38533984e-02 2.25079507e-02
      -2.65825205e-02 -1.29129291e-01 1.88575592e-02 1.52505860e-02
      1.17245978e-02 9.90996510e-03 4.31685671e-02 8.55442416e-03
      1.12329628e-02 3.73033411e-03 1.16299400e-02 2.09270064e-02
      9.32751223e-03 4.00564484e-02 -6.96700737e-02 9.26551502e-03
      8.73978436e-03 2.57559754e-02 5.80097688e-03 6.79940283e-02
      8.12333450e-03 1.71748884e-02 2.13926248e-02 2.57223472e-02
      1.75185651e-02 1.63592454e-02 5.16738333e-02 3.41249406e-02
      4.32622395e-02 9.84981842e-03 -4.18406241e-02 -1.40984105e-02
      1.05595738e-02 -1.53041231e-02 6.88152155e-03 1.34502267e-02
      4.94586350e-03 7.06933113e-03 -2.01834634e-01 -7.78611898e-02
      6.53500669e-03 1.73998270e-02 2.28850059e-02 7.79041043e-03
      3.25394347e-02 1.69092007e-02 -2.09681801e-02 2.73244246e-03
      2.96727102e-02 2.35847458e-02 -1.33918166e-01 1.37823736e-02
      1.25192082e-03 8.71147774e-03 -8.83154478e-03 3.82034294e-02
      5.74533734e-03 -1.06312176e-02 -7.77708590e-02 -1.74982861e-01
      2.43679881e-02 1.46992179e-02 4.27505672e-02 1.23218279e-02
      -3.04949796e-03 5.96327009e-03 1.20299058e-02 1.52310971e-02
      1.77121032e-02 3.64979096e-02 2.02657934e-02 3.43672484e-02
      -3.25474120e-03 -9.47314948e-02 1.99354570e-02 8.70217104e-03
      8.77971668e-03 2.58784909e-02 2.12061908e-02 3.85924578e-02
      -1.23113091e-03 -1.60192661e-02 5.61203063e-02 -3.55775617e-02
      8.77971668e-03 -1.66686475e-02 9.31419432e-03 -2.67672446e-02
      8.26011354e-04 1.16763590e-02 2.26021595e-02 1.19050732e-02
      -2.34030057e-02 4.61236984e-02 1.05119301e-02 1.07119028e-02
      2.53713336e-02 9.19289980e-03 1.56302415e-02 -1.23029433e-01
      1.96006615e-02 6.43228814e-02 -4.86504240e-03 5.40775768e-02
      1.47313494e-02 4.26315190e-03 -3.61230187e-02 3.70678827e-02
      1.22242384e-02 2.10819785e-02 7.70021789e-03 -6.25213385e-02
      7.39892526e-03 2.76459139e-02 2.33778823e-02 8.30287673e-03
      -4.95986231e-02 2.79103611e-02 8.86876285e-02 5.03005534e-02
      3.10582668e-02 4.14911322e-02 -7.10100532e-02 2.22528260e-02
      -1.64168403e-02 1.88344531e-02 1.46885933e-02 4.47945017e-03
      2.39191819e-02 2.94996202e-02 5.57943992e-03 1.60277709e-02
      -9.62228887e-03 5.61370142e-02 3.70485596e-02 2.90492848e-02
      1.38826179e-03 5.35757057e-02 2.51533906e-03 1.72232226e-01
      9.79713071e-03 2.15011463e-02 -8.02859606e-04 3.15581146e-03
      3.15395184e-02 1.16174212e-02 3.06617133e-02 4.55325693e-02
      -3.37082036e-02 -5.28079458e-03 -2.56555229e-02 1.18500069e-02
      3.67662869e-02 6.00241218e-03 2.67180372e-02 2.52597276e-02
      1.00202169e-02 2.00370094e-03 2.63947695e-02 1.03010479e-02
      1.53803844e-02 9.30972677e-03 6.46358915e-03 9.07261763e-03
      6.76763952e-02 8.71440303e-03 1.68293994e-02 1.27066597e-02
      -3.72172683e-01 -5.51808104e-02 3.29537131e-03 7.57793197e-03
      6.80964347e-03 -1.16263762e-01 1.65743066e-03 1.02873407e-02
      4.41687973e-03 2.86241006e-02 4.92682494e-03 -9.21820402e-02
      5.57641638e-03 -9.35172383e-03 2.71034315e-02 1.02536045e-02
      3.19592841e-03 1.30903069e-02 5.17742336e-02 5.43021187e-02
      -6.33795261e-02 1.66211575e-02 1.92636400e-02 7.26831099e-03
      5.53848892e-02 -9.10867974e-02 6.51941169e-03 -1.45429984e-01
      5.35244728e-03 1.20947920e-02 3.82614806e-02 1.04413098e-02
      4.40283045e-02 1.72639266e-02 6.19350113e-02 1.52365724e-02
      -3.71148076e-06 4.31231260e-02 1.42878685e-02 7.62114814e-03
      1.68966549e-03 1.80870444e-02 -5.38914055e-02 1.33727305e-02
      4.99590253e-03 2.60607693e-02 3.40489019e-03 1.11685013e-02
      3.32414955e-02 -1.31101251e-01 9.92027670e-03 1.75691191e-02
      1.54006984e-02 -4.87973467e-02 2.76020188e-02 4.61402116e-03
      5.94669301e-03 -8.98885890e-04 4.64342013e-02 -1.91948414e-01
      3.07839327e-02 -2.14693040e-01 3.50774601e-02 1.85745824e-02
      4.00072671e-02 -2.66092680e-02 2.74415929e-02 -1.24225169e-02
      8.50534253e-03 1.43471146e-02 5.27967745e-03 1.17157195e-02
      2.25009164e-03 2.93553062e-02 5.71458554e-03 3.38351412e-04
      -7.18305062e-04 1.10013159e-02 -2.22816281e-02 1.11949176e-03
      3.04063410e-02 -8.90404638e-03 -4.03145589e-02 4.87260800e-03
      7.45727913e-03 1.20805996e-02 9.24542267e-03 3.37681808e-02
      9.37004853e-03 1.07945967e-02 3.63413841e-02 2.84903236e-02
      1.08942911e-02 7.32182711e-03 2.71179564e-02 9.20154911e-04
      1.09933754e-02 1.84501745e-02 2.14782674e-02 1.49080753e-02
      7.29285041e-03 1.21176997e-02 3.68714705e-02 4.15355787e-02
      1.41575662e-02 2.77071632e-02 4.30272669e-02 2.18238663e-02
      3.15680937e-03 -5.58313318e-02 1.13214003e-02 1.46853188e-02
      5.46360482e-03 1.40252453e-03 1.63539220e-02 -2.77911755e-03
      1.34172020e-02 6.17618862e-05 1.71724893e-02 -1.42139033e-04
      3.83426584e-02 5.45054264e-02 5.73281292e-03 1.23443799e-02
      1.26882102e-02 2.76636239e-03 2.15322040e-02 4.09014290e-03
      1.07225040e-02 -1.35437474e-01 1.94349512e-02 1.23687228e-02
      1.41176619e-02 3.85632589e-02 4.86368760e-02 1.08718807e-02
      -3.72345414e-04 2.52291635e-02 1.16603766e-02 1.65803246e-02
      1.25256535e-02 7.75502948e-03 1.85508467e-02 1.06041217e-02
      1.81577615e-02 -1.14786020e-02 -7.51610333e-03 3.26933675e-02
      -2.28700146e-01 5.03347181e-02 5.27623855e-03 7.97154382e-03
      -4.35382836e-02 -7.84239452e-03 7.06929043e-02 -7.44076148e-02
      2.17538290e-02 1.40657788e-02 -9.91248190e-02 8.17175582e-03
      6.67954888e-03 1.25321791e-01 1.71727035e-02 2.60849390e-02
      1.50209339e-02 1.17792338e-02 4.28987667e-02 5.81807550e-03
      3.55768041e-03 5.02634048e-02 2.90502626e-02 3.75833409e-03
      3.60387266e-02 6.53481856e-03 1.28809921e-02 1.77001692e-02
      6.78262673e-03 5.63177560e-03 1.94830392e-02 -1.76085636e-01
      9.63256229e-03 1.06477011e-02 1.00790681e-02 1.18562989e-02
      3.01391305e-03 2.86220815e-02 -1.01039618e-01 1.53443832e-02
      2.56389286e-03 2.82530440e-04 2.07604524e-02 1.77683067e-02
      2.96533983e-02 -8.81038010e-02 2.58833244e-02 2.47692522e-02
      2.19006129e-02 3.13097164e-02 1.87121239e-02 -2.86406986e-02
      1.06671341e-02 1.79207847e-02 1.78375766e-02 1.23067899e-02
      8.84522684e-03 -7.85615966e-02 1.13298511e-02 -8.32056105e-02
      2.79816296e-02 6.94001280e-03 6.74728006e-02 2.32540071e-04
      -2.80570332e-02 -3.86423260e-01 9.88889765e-03 8.19115620e-03
      1.69322621e-02 2.62207389e-02 4.04505879e-02 4.33613583e-02
      2.83986609e-02 -3.22880894e-01 2.15742402e-02 1.54381543e-02
      1.19150579e-02 2.11721472e-03 9.16981883e-03 -1.12774307e-02
      1.44162606e-02 2.44673006e-02 2.58639697e-02 2.45700241e-03
      2.89096870e-02 -4.66550793e-03 2.60299705e-02 2.25017667e-02
      6.02168916e-03 8.72254279e-03 2.98774317e-02 -6.66222535e-04
      4.26877365e-02 6.43404946e-03 9.80357733e-03 -1.02006257e-01
      3.50413024e-02 1.01018166e-02 -5.23052365e-02 2.02768985e-02
      7.37846224e-03 1.28360875e-02 1.00787869e-02 1.65538769e-02
      4.14088927e-02 7.14043668e-03 2.90063006e-04 2.59822030e-02
      1.67850200e-02 1.05748186e-02 1.68010127e-02 -2.26961840e-02
      2.20491402e-02 1.05248084e-02 7.46261887e-03 4.36476469e-02
      1.12802340e-02 -3.23366653e-03 -2.73667648e-02 2.80970056e-02
      -1.86141431e-01 1.59552265e-02 1.85483005e-02 1.32317711e-02
      -2.03588121e-02 1.63591783e-02 1.69219170e-02 6.06616493e-03
      2.81897318e-02 2.38915868e-02 -3.39120984e-01 -1.54963911e-01
      8.86367541e-03 1.33750020e-02 8.17885399e-02 4.98172035e-03
      -6.32625967e-02 7.81544764e-03 -1.34115657e-02 1.91868916e-02
      3.00572067e-02 1.48622589e-02 1.62596554e-02 1.29603306e-02
      3.13344523e-02 -1.90227607e-03 1.52728185e-02 3.90780903e-02
      3.83489276e-03 -1.61138009e-02 3.72536946e-03 1.85452119e-01
      1.20471688e-02 -1.33698940e-01 1.10927252e-02 1.60364415e-02
      7.33484607e-03 1.78318731e-02 1.02577470e-02 -6.52872073e-03
      3.64498496e-02 1.60468277e-02 3.42276394e-02 7.12298835e-03
      1.28544299e-02 -3.18198800e-02 4.73101158e-03 2.36899164e-02
      3.57375033e-02 1.53512880e-02 8.55858903e-03 1.16855120e-02
      1.30235618e-02 2.37114616e-02 1.65884178e-02 3.65226939e-02
      -6.40991256e-02 -9.48585744e-04 -1.18210046e-02 -7.02543999e-04
      -3.11940573e-02 3.85856954e-03 -9.33602173e-03 1.29664717e-02
      -1.09396093e-02 8.22181255e-02 -2.17535323e-03 2.96079572e-02
      7.49542098e-03 3.05791441e-02 -3.02900709e-02 1.00915888e-02
      6.45764731e-03 8.77268054e-03 4.39138636e-02 2.29903087e-02
      2.31612623e-02 7.86398165e-03 -1.32119879e-01 -7.15562627e-02
      6.55268272e-03 2.59445645e-02 3.34233940e-02 2.12033335e-02
      -2.66665131e-01 2.09706798e-02 1.06439590e-02 -2.64009889e-02
      -1.79908553e-03 5.15260966e-03 3.53241712e-02 -6.35336482e-06
      -5.67573123e-02 1.51990196e-02 -1.72077923e-03 2.83590890e-03
      7.61239603e-03 -4.65883315e-02 8.79389886e-03 2.82432772e-02
      1.24400500e-02 2.58081518e-02 6.49293419e-03 -1.30091026e-01
      1.14760001e-03 1.33056482e-02 -5.85205369e-02 -2.33681258e-02
      5.67537500e-03 -1.95516646e-02 1.64755844e-02 8.66294000e-03
      2.96064802e-02 3.10343169e-02 -2.07973868e-01 2.55881194e-02
      2.27662511e-02 -2.69043036e-02 3.12851742e-02 1.58658773e-02
      -5.75687038e-03 5.20024635e-03 1.96123347e-02 1.37493126e-02
      -4.76261638e-02 2.87876520e-02 8.84465408e-03 1.16456198e-02
      6.95204269e-03 9.35339555e-03 2.67442353e-02 1.42410127e-02
      -3.63288708e-02 1.38172843e-02 -1.95708368e-02 -1.28311396e-03
      8.63153674e-03 1.14796814e-02 -4.61237971e-04 2.14995183e-02
      1.78978760e-02 5.15198149e-02 1.11507252e-02 4.71962662e-03
      2.51678340e-02 4.22882522e-03 2.89778896e-02 3.80192660e-02
      -1.44441230e-02 3.21613811e-02 -9.75809246e-02 3.44944745e-02
      -7.25393295e-02 5.69267711e-03 2.02394761e-02 3.77714336e-02
      2.34293845e-02 1.57714896e-02 4.80888970e-02 8.64448119e-03
      -4.15560603e-03 1.68820228e-02 -6.37312606e-02 1.03274649e-02
      1.42019028e-02 5.93749853e-03 6.56395266e-03 2.37553976e-02
      -4.40225974e-02 -1.02535989e-02 6.67670835e-03 1.36710349e-02
      1.53184757e-02 1.23371473e-02 3.16703692e-02 1.64881833e-02
      -9.63724963e-03 -7.65422210e-02 1.56055521e-02 3.76627482e-02
      6.03058422e-03 1.33009506e-02 -4.40394832e-03 1.61587931e-02
      1.15910685e-02 -1.57656129e-02 -1.06197365e-01 2.12654844e-02
      1.40097793e-02 1.78918671e-02 1.34717450e-02 1.45212095e-02
      2.34860089e-02 9.71283019e-03 4.43622889e-03 1.66905746e-02
      3.18301320e-02 3.14769484e-02 4.13605943e-03 -2.45572031e-02
      -3.28578018e-02 5.91482874e-03 3.43644433e-02 -7.10833701e-05
      1.15647204e-02 3.14902328e-02 -1.15486808e-01 2.59245727e-02
      -3.91558890e-04 3.30011509e-02 -9.88309179e-03 1.25329057e-02
      8.73333775e-03 9.46901552e-03 2.57031508e-02 -5.20462729e-02
      7.10689975e-03 1.57302842e-02 6.75381743e-04 1.05094789e-02
      6.45318301e-03 -1.76759511e-02 -3.57528389e-01 1.92703307e-02
      6.42766152e-03 1.07259462e-02 -2.11863895e-04 1.36187384e-02</_></support_vectors>
  <uncompressed_sv_total>82</uncompressed_sv_total>
  <uncompressed_support_vectors>
    <_>
      0. 0. 2.10526325e-02 0. 0. 0. 0. 0. 0. 0. 0. 1.05263162e-02 0. 0.
      0. 0. 0. 0. 0. 0. 0. 0. 0. 0. 0. 0. 0. 0. 0. 0. 0. 0. 0. 0. 0. 0.
      0. 0. 1.05263162e-02 0. 0. 0. 0. 0. 0. 0. 0. 0. 0. 0. 0. 0. 0. 0.
      0. 0. 0. 0. 0. 0. 0. 1.05263162e-02 0. 0. 0. 0. 0. 0. 0. 0. 0. 0.
      0. 2.10526325e-02 0. 0. 0. 0. 0. 0. 0. 1.05263162e-02 0. 0. 0. 0.
      0. 0. 0. 0. 0. 1.05263162e-02 0. 0. 0. 0. 0. 0. 0. 0. 0. 0. 0. 0.
      0. 0. 0. 0. 0. 0. 0. 0. 0. 0. 0. 0. 1.05263162e-02 0. 0. 0. 0. 0.
      0. 0. 2.10526325e-02 0. 0. 0. 0. 0. 1.05263162e-02 0. 0. 0. 0. 0.
      0. 0. 0. 0. 0. 0. 0. 0. 0. 0. 0. 0. 0. 0. 0. 0. 0. 0.
      1.05263162e-02 0. 0. 0. 0. 0. 0. 0. 0. 0. 0. 0. 0. 0. 0. 0. 0. 0.
      0. 0. 0. 0. 0. 0. 0. 0. 1.05263162e-02 0. 0. 0. 0. 0. 0. 0. 0. 0.
      0. 0. 0. 0. 0. 0. 0. 0. 0. 0. 0. 0. 0. 0. 0. 0. 0. 0. 0. 0. 0. 0.
      0. 0. 0. 0. 1.05263162e-02 0. 2.10526325e-02 0. 0. 0. 0. 0. 0. 0.
      0. 0. 0. 0. 0. 0. 0. 0. 0. 0. 1.05263162e-02 0. 0. 0.
      1.05263162e-02 2.10526325e-02 0. 0. 0. 0. 0. 0. 0. 0.
      1.05263162e-02 0. 0. 0. 0. 0. 0. 0. 0. 0. 0. 0. 0. 0. 0. 0. 0. 0.
      0. 0. 0. 0. 0. 0. 0. 0. 0. 0. 0. 0. 0. 0. 0. 0. 0. 0. 0. 0. 0. 0.
      0. 0. 0. 0. 0. 0. 0. 0. 0. 1.05263162e-02 0. 1.05263162e-02
      1.05263162e-02 0. 0. 0. 0. 0. 2.10526325e-02 1.05263162e-02 0. 0.
      0. 0. 0. 0. 0. 0. 0. 0. 0. 0. 0. 0. 0. 0. 3.15789506e-02 0. 0. 0.
      0. 0. 0. 0. 0. 0. 0. 0. 0. 0. 0. 0. 0. 0. 0. 0. 0. 0. 0. 0. 0. 0.
      0. 0. 0. 0. 0. 0. 0. 0. 0. 0. 0. 0. 0. 0. 0. 0. 0. 0. 0. 0. 0. 0.
      0. 0. 0. 0. 0. 0. 0. 0. 0. 0. 0. 0. 0. 0. 0. 0. 0. 0. 0. 0. 0. 0.
      0. 0. 0. 0. 1.05263162e-02 0. 0. 0. 0. 0. 0. 0. 0. 0. 0. 0.
      1.05263162e-02 1.05263162e-02 0. 0. 0. 0. 3.15789506e-02 0. 0. 0.
      0. 0. 0. 1.05263162e-02 0. 0. 4.21052650e-02 0. 0. 0. 0. 0. 0. 0.
      0. 0. 2.10526325e-02 0. 0. 0. 0. 0. 0. 0. 0. 0. 0. 0. 0. 0. 0. 0.
      0. 0. 0. 0. 0. 0. 0. 0. 0. 0. 0. 0. 0. 0. 0. 0. 0. 0. 0. 0.
      1.05263162e-02 0. 0. 0. 0. 0. 0. 0. 0. 0. 0. 2.10526325e-02
      1.05263162e-02 0. 0. 0. 0. 0. 0. 0. 0. 0. 0. 0. 0. 0. 0. 0. 0. 0.
      0. 0. 0. 0. 0. 0. 0. 0. 0. 0. 0. 0. 0. 0. 0. 0. 0. 0. 0. 0. 0. 0.
      0. 0. 0. 0. 0. 2.10526325e-02 0. 0. 0. 0. 0. 0. 0. 0. 0. 0. 0. 0.
      0. 0. 0. 0. 0. 0. 0. 0. 0. 2.10526325e-02 0. 0. 0. 0. 0. 0.
      1.05263162e-02 0. 0. 0. 0. 0. 0. 0. 0. 0. 0. 1.05263162e-02 0. 0.
      0. 2.10526325e-02 0. 0. 0. 0. 0. 0. 0. 0. 0. 0. 0. 0. 0. 0. 0. 0.
      0. 0. 0. 0. 0. 0. 0. 0. 0. 0. 0. 0. 0. 0. 0. 0. 0. 0. 0. 0. 0. 0.
      0. 0. 0. 0. 0. 0. 0. 0. 0. 0. 0. 0. 0. 0. 0. 0. 1.05263162e-02 0.
      0. 0. 0. 0. 0. 0. 0. 0. 0. 0. 0. 0. 0. 0. 0. 0. 0. 0. 0. 0.
      3.15789506e-02 0. 0. 0. 0. 0. 0. 0. 0. 0. 0. 0. 0. 0. 0. 0. 0. 0.
      0. 0. 0. 0. 0. 0. 0. 0. 0. 0. 0. 0. 0. 0. 0. 0. 0. 0. 0. 0. 0. 0.
      0. 0. 0. 0. 0. 0. 0. 0. 0. 0. 0. 0. 0. 0. 0. 0. 0. 0. 0.
      2.10526325e-02 0. 0. 0. 0. 0. 0. 0. 0. 0. 0. 0. 0. 0. 0. 0. 0. 0.
      0. 0. 0. 0. 0. 0. 0. 0. 0. 0. 0. 0. 0. 0. 0. 0. 0. 0.
      5.26315793e-02 0. 0. 0. 0. 0. 0. 1.05263162e-02 1.05263162e-02 0.
      0. 0. 0. 0. 0. 0. 0. 0. 0. 0. 0. 0. 0. 0. 0. 4.21052650e-02 0. 0.
      0. 0. 0. 0. 0. 0. 0. 0. 0. 0. 0. 0. 0. 0. 0. 0. 0. 0. 0. 0.
      1.05263162e-02 0. 0. 0. 0. 0. 0. 0. 1.05263162e-02 0. 0. 0. 0. 0.
      0. 0. 0. 0. 0. 0. 0. 0. 2.10526325e-02 0. 0. 0. 0. 0. 0. 0. 0. 0.
      1.05263162e-02 0. 1.05263162e-02 0. 0. 0. 0. 0. 0. 0. 0. 0. 0. 0.
      0. 0. 0. 0. 0. 0. 0. 0. 0. 0. 0. 1.05263162e-02 0. 0. 0. 0. 0. 0.
      0. 0. 0. 0. 0. 0. 0. 0. 0. 0. 0. 0. 0. 0. 0. 0. 1.05263162e-02 0.
      0. 0. 0. 0. 0. 0. 0. 0. 0. 0. 0. 0. 0. 0. 0. 0. 0. 0. 0. 0. 0. 0.
      0. 0. 0. 0. 0. 1.05263162e-02 0. 1.05263162e-02 1.05263162e-02 0.
      0. 0. 0. 0. 0. 0. 0. 0. 0. 0. 0. 1.05263162e-02 0. 0. 0. 0. 0. 0.
      0. 0. 0. 0. 0. 0. 0. 2.10526325e-02 0. 0. 0. 0. 0. 0.
      3.15789506e-02 1.05263162e-02 0. 0. 0. 0. 0. 0. 0. 0. 0. 0. 0. 0.
      0. 0. 0. 0. 0. 0. 0. 0. 0. 0. 0. 0. 0. 0. 0. 0. 0. 1.05263162e-02
      0. 0. 0. 0. 0. 0. 0. 0. 0. 2.10526325e-02 0. 0. 0. 0. 0. 0. 0. 0.
      0. 0. 0. 0. 0. 0. 0. 0. 0.</_>
    <_>
      0. 0. 0. 1.18110236e-02 0. 0. 3.14960629e-02 0. 0. 0. 0. 0. 0.
      3.14960629e-02 0. 0. 0. 0. 0. 0. 0. 0. 0. 0. 0. 0. 0. 0. 0. 0. 0.
      3.93700786e-03 0. 0. 0. 0. 0. 0. 0. 0. 0. 0. 0. 0. 0. 0. 0. 0. 0.
      0. 0. 0. 0. 0. 0. 0. 0. 0. 0. 0. 0. 0. 3.54330689e-02 0. 0. 0. 0.
      0. 3.93700786e-03 0. 1.18110236e-02 1.57480314e-02 0. 0. 0. 0. 0.
      0. 3.93700786e-03 0. 0. 3.93700786e-03 0. 0. 0. 0. 0. 0. 0.
      1.57480314e-02 0. 0. 0. 0. 7.87401572e-03 0. 0. 0. 0. 0. 0. 0. 0.
      0. 0. 0. 0. 0. 0. 1.18110236e-02 0. 0. 0. 0. 0. 0. 0. 0. 0. 0. 0.
      0. 0. 0. 0. 0. 0. 0. 0. 3.93700786e-03 0. 0. 0. 0. 0.
      1.96850393e-02 0. 0. 0. 0. 0. 0. 0. 0. 0. 0. 0. 0. 0. 0. 0. 0. 0.
      0. 3.93700786e-03 0. 0. 0. 0. 0. 0. 1.18110236e-02 0. 0.
      3.93700786e-03 0. 0. 0. 0. 0. 0. 0. 0. 0. 0. 0. 0. 0.
      7.87401572e-03 0. 0. 0. 0. 0. 0. 0. 0. 0. 0. 0. 3.93700786e-03 0.
      0. 0. 3.93700786e-03 0. 0. 0. 1.96850393e-02 0. 0. 0. 0. 0. 0. 0.
      0. 0. 0. 0. 0. 0. 0. 0. 7.87401572e-03 0. 0. 0. 0. 0. 0. 0.
      3.93700786e-02 0. 0. 0. 0. 0. 0. 0. 0. 7.87401572e-03 0. 0. 0. 0.
      0. 0. 0. 0. 0. 0. 0. 0. 0. 0. 0. 0. 0. 0. 0. 0. 0. 0. 0. 0. 0. 0.
      0. 0. 0. 0. 0. 0. 0. 1.57480314e-02 0. 0. 0. 0. 0. 3.93700786e-03
      0. 3.93700786e-03 0. 0. 0. 0. 0. 0. 0. 0. 0. 0. 0. 0. 0. 0. 0. 0.
      7.87401572e-03 0. 0. 0. 0. 2.36220472e-02 0. 0. 0. 0. 0. 0. 0. 0.
      0. 3.93700786e-03 0. 0. 0. 0. 0. 0. 0. 0. 0. 0. 0. 0.
      3.93700786e-03 0. 0. 0. 0. 0. 0. 0. 1.18110236e-02 3.93700786e-03
      3.93700786e-03 0. 0. 0. 0. 0. 0. 0. 0. 7.87401572e-03 0. 0. 0. 0.
      0. 0. 0. 0. 0. 0. 0. 0. 0. 0. 0. 0. 0. 0. 0. 0. 0. 0. 0. 0. 0. 0.
      0. 0. 0. 0. 0. 0. 0. 0. 0. 0. 4.72440943e-02 0. 0. 0. 0. 0. 0. 0.
      0. 0. 0. 0. 0. 0. 0. 0. 0. 0. 0. 0. 7.87401572e-03 2.36220472e-02
      0. 0. 0. 0. 0. 0. 0. 0. 0. 0. 0. 0. 0. 3.93700786e-03 0. 0. 0. 0.
      0. 0. 0. 0. 0. 0. 0. 3.93700786e-03 0. 0. 0. 0. 0. 0. 0. 0. 0. 0.
      0. 0. 0. 0. 0. 0. 0. 3.93700786e-03 0. 0. 0. 0. 0. 0. 0. 0. 0. 0.
      0. 0. 1.18110236e-02 0. 0. 0. 0. 0. 0. 0. 0. 0. 0. 0. 0. 0. 0. 0.
      0. 0. 0. 0. 0. 0. 0. 0. 0. 0. 0. 0. 0. 0. 0. 0. 7.87401572e-03 0.
      3.93700786e-03 0. 0. 0. 0. 0. 0. 0. 0. 0. 0. 0. 0. 0. 0. 0. 0. 0.
      4.72440943e-02 1.96850393e-02 0. 0. 0. 1.96850393e-02 0. 0. 0. 0.
      0. 0. 0. 3.93700786e-03 0. 0. 0. 0. 0. 0. 0. 0. 0. 0. 0. 0. 0.
      1.96850393e-02 0. 0. 0. 0. 0. 0. 0. 0. 0. 0. 0. 0. 0. 0. 0. 0. 0.
      0. 0. 0. 0. 0. 0. 0. 0. 0. 0. 0. 0. 0. 0. 2.75590550e-02 0.
      1.18110236e-02 0. 0. 0. 0. 0. 3.93700786e-03 0. 0. 0. 0. 0. 0.
      3.93700786e-03 0. 0. 0. 0. 0. 0. 0. 0. 0. 0. 0. 0. 0. 0. 0. 0. 0.
      0. 0. 0. 0. 0. 0. 0. 0. 0. 0. 0. 0. 0. 0. 0. 0. 0. 0. 0. 0. 0. 0.
      0. 0. 0. 0. 0. 0. 0. 3.93700786e-03 0. 0. 0. 0. 0. 0. 0.
      7.87401572e-03 0. 0. 0. 0. 0. 0. 0. 0. 0. 0. 0. 3.93700786e-03 0.
      0. 0. 0. 0. 0. 3.93700786e-03 0. 0. 0. 7.87401572e-03 0. 0. 0. 0.
      0. 3.93700786e-03 0. 0. 0. 0. 0. 0. 3.93700786e-03 0. 0. 0. 0. 0.
      0. 0. 0. 0. 0. 0. 0. 0. 3.93700786e-03 0. 0. 0. 0. 0. 0. 0. 0. 0.
      0. 0. 0. 0. 0. 0. 0. 0. 0. 0. 0. 0. 0. 0. 0. 0. 0. 0.
      3.93700786e-03 7.87401572e-03 0. 0. 3.93700786e-03 3.93700786e-03
      2.36220472e-02 0. 0. 0. 0. 0. 0. 0. 1.96850393e-02 0. 0. 0. 0. 0.
      0. 3.93700786e-03 0. 0. 0. 0. 0. 0. 0. 0. 0. 0. 0. 0. 0. 0. 0. 0.
      0. 1.96850393e-02 3.93700786e-03 0. 0. 0. 0. 0. 0. 0. 0. 0. 0. 0.
      0. 0. 0. 0. 0. 0. 0. 1.96850393e-02 0. 0. 0. 0. 0. 0. 0. 0. 0. 0.
      0. 0. 2.36220472e-02 0. 0. 0. 0. 0. 0. 0. 0. 0. 0. 0.
      3.93700786e-03 0. 0. 0. 0. 0. 0. 0. 0. 0. 1.18110236e-02 0. 0. 0.
      0. 0. 0. 0. 0. 0. 0. 0. 0. 0. 0. 0. 0. 0. 0. 0. 0. 0.
      7.87401572e-03 0. 0. 7.87401572e-03 0. 3.93700786e-03 0. 0. 0. 0.
      0. 0. 0. 0. 0. 0. 0. 0. 0. 0. 0. 0. 0. 1.57480314e-02 0. 0. 0. 0.
      0. 0. 0. 0. 0. 0. 0. 0. 0. 7.87401572e-03 0. 0. 0. 0.
      7.87401572e-03 0. 0. 0. 0. 0. 0. 0. 0. 0. 0. 0. 0. 0. 0. 0. 0.
      3.93700786e-03 0. 0. 0. 0. 0. 0. 0. 0. 0. 0. 0. 0. 0. 0. 0. 0. 0.
      0. 0. 0. 0. 0. 0. 0. 0. 0. 3.93700786e-03 0. 0. 0. 0. 0. 0. 0. 0.
      0. 0. 0. 0. 3.93700786e-03 0. 0. 0. 0. 0. 0. 0. 0. 0. 0. 0.
      3.93700786e-03 0. 3.93700786e-03 0. 0. 0. 0. 0. 0. 0.
      3.93700786e-03 7.87401572e-03 0. 0. 0. 0. 0. 0. 0. 0.
      1.96850393e-02 0. 0. 0. 0. 0. 0. 0. 0. 0. 0. 0. 0. 0. 0. 0. 0. 0.
      0. 0. 0. 0. 0. 0. 0. 0. 0. 0. 0. 3.93700786e-03 0. 0. 0. 0. 0. 0.
      1.96850393e-02 0. 0. 0. 0. 0.</_>
    <_>
      0. 0. 0. 0. 0. 0. 0. 0. 0. 0. 0. 0. 0. 2.72727273e-02 0.
      4.54545440e-03 0. 4.54545440e-03 0. 0. 0. 0. 0. 0. 0. 0. 0.
      1.36363637e-02 0. 0. 0. 0. 0. 0. 0. 0. 0. 0. 0. 0. 0. 0. 0. 0. 0.
      0. 0. 0. 0. 0. 0. 0. 0. 0. 0. 9.09090880e-03 9.09090880e-03 0. 0.
      0. 0. 0. 0. 0. 0. 0. 0. 0. 0. 0. 0. 4.54545440e-03 0. 0. 0. 0.
      1.36363637e-02 0. 0. 0. 0. 4.54545440e-03 0. 0. 0. 0. 0.
      4.54545440e-03 0. 0. 0. 0. 0. 0. 0. 0. 0. 0. 0. 0. 0. 0. 0. 0. 0.
      4.54545440e-03 0. 0. 4.54545440e-03 3.63636352e-02 4.54545440e-03
      0. 0. 0. 4.54545440e-03 0. 0. 0. 0. 0. 4.54545440e-03 0. 0. 0. 0.
      0. 0. 9.09090880e-03 4.54545440e-03 0. 0. 0. 0. 0. 0.
      1.36363637e-02 0. 0. 0. 0. 0. 0. 0. 0. 0. 0. 0. 4.54545440e-03 0.
      0. 0. 0. 0. 0. 0. 0. 0. 0. 0. 0. 0. 0. 0. 0. 0. 0. 0. 0. 0. 0. 0.
      0. 0. 0. 0. 0. 0. 0. 0. 0. 4.54545440e-03 0. 0. 0. 0. 0. 0. 0. 0.
      0. 0. 0. 0. 0. 0. 0. 9.09090880e-03 4.54545440e-03 0. 0.
      4.54545440e-03 0. 0. 0. 4.54545440e-03 0. 0. 0. 0. 0. 0. 0. 0. 0.
      0. 0. 0. 0. 0. 0. 0. 0. 0. 0. 0. 0. 4.54545440e-03 0. 0. 0. 0.
      9.09090880e-03 0. 0. 0. 0. 4.54545440e-03 0. 0. 0. 4.54545440e-03
      0. 0. 0. 0. 0. 0. 0. 0. 0. 0. 4.54545440e-03 0. 4.54545440e-03 0.
      0. 0. 0. 0. 0. 0. 0. 0. 0. 0. 0. 0. 0. 4.54545440e-03 0. 0. 0. 0.
      0. 0. 0. 0. 0. 0. 0. 0. 4.54545440e-03 0. 0. 0. 0. 0. 0.
      4.54545440e-03 0. 1.36363637e-02 0. 0. 0. 0. 1.81818176e-02 0. 0.
      0. 0. 0. 0. 0. 0. 0. 0. 0. 0. 4.54545440e-03 0. 0. 0. 0. 0. 0. 0.
      0. 0. 3.63636352e-02 0. 0. 0. 0. 0. 0. 4.54545440e-03
      4.54545440e-03 0. 0. 0. 0. 0. 0. 0. 0. 0. 0. 4.54545440e-03 0. 0.
      4.54545440e-03 0. 0. 0. 0. 0. 0. 0. 0. 0. 0. 0. 0. 0. 0.
      9.09090880e-03 0. 0. 0. 0. 0. 0. 0. 0. 0. 0. 4.54545440e-03 0. 0.
      0. 0. 0. 0. 0. 9.09090880e-03 2.27272715e-02 0. 4.54545440e-03 0.
      0. 0. 0. 0. 0. 0. 0. 0. 0. 0. 0. 9.09090880e-03 0. 0. 0. 0. 0. 0.
      0. 0. 0. 0. 4.54545440e-03 0. 0. 0. 0. 0. 0. 0. 0. 0. 0. 0.
      4.54545440e-03 0. 4.54545440e-03 0. 0. 4.54545440e-03 0. 0. 0. 0.
      0. 0. 0. 0. 0. 0. 0. 0. 0. 0. 0. 0. 1.81818176e-02 0. 0.
      4.54545440e-03 0. 0. 0. 0. 0. 0. 0. 0. 4.54545440e-03 0. 0. 0. 0.
      4.54545440e-03 0. 0. 0. 0. 4.54545440e-03 0. 0. 0. 0. 0. 0. 0. 0.
      0. 0. 0. 0. 0. 4.54545440e-03 0. 0. 4.54545440e-03 0. 0. 0. 0. 0.
      0. 0. 0. 0. 0. 9.09090880e-03 0. 0. 0. 0. 0. 0. 0. 4.54545440e-03
      0. 0. 0. 0. 0. 0. 0. 0. 4.54545440e-03 0. 0. 0. 0. 0. 0.
      4.54545440e-03 0. 0. 0. 0. 0. 4.99999970e-02 0. 0. 0.
      4.54545440e-03 0. 0. 0. 0. 0. 0. 0. 0. 0. 0. 0. 0. 0. 0. 0. 0. 0.
      0. 0. 0. 0. 0. 0. 0. 0. 0. 0. 0. 0. 0. 0. 0. 0. 2.27272715e-02 0.
      0. 0. 0. 0. 0. 0. 1.81818176e-02 0. 0. 4.54545440e-03 0. 0. 0. 0.
      4.54545440e-03 0. 0. 0. 0. 0. 0. 0. 0. 4.54545440e-03 0. 0. 0. 0.
      0. 0. 0. 0. 0. 0. 0. 0. 0. 0. 0. 0. 0. 0. 0. 0. 0. 0. 0. 0. 0. 0.
      0. 0. 0. 0. 0. 0. 0. 0. 0. 0. 0. 9.09090880e-03 0. 0. 0. 0. 0. 0.
      0. 0. 0. 0. 0. 0. 0. 0. 0. 0. 0. 0. 4.54545440e-03 0. 0. 0. 0. 0.
      0. 4.54545440e-03 0. 0. 0. 0. 0. 4.54545440e-03 0. 0. 0.
      4.54545440e-03 0. 0. 0. 4.54545440e-03 0. 0. 0. 0. 0. 0. 0. 0. 0.
      0. 0. 0. 0. 0. 0. 0. 0. 0. 0. 0. 0. 0. 0. 0. 0. 0. 4.54545440e-03
      0. 0. 0. 0. 9.09090880e-03 0. 0. 0. 4.54545440e-03 9.09090880e-03
      0. 0. 0. 0. 0. 0. 0. 0. 0. 4.54545440e-03 0. 0. 0. 0. 0. 0. 0.
      1.36363637e-02 0. 0. 0. 0. 4.54545440e-03 0. 0. 0. 0. 0. 0. 0. 0.
      0. 0. 0. 0. 0. 0. 9.09090880e-03 9.09090880e-03 0. 0. 0. 0.
      4.54545440e-03 0. 0. 0. 0. 0. 0. 0. 4.54545440e-03 0.
      1.36363637e-02 0. 0. 0. 0. 0. 0. 0. 0. 0. 0. 0. 0. 0. 0. 0. 0. 0.
      0. 0. 0. 0. 0. 0. 0. 4.54545440e-03 0. 0. 0. 0. 0. 0. 0. 0. 0.
      2.72727273e-02 0. 0. 0. 0. 0. 0. 0. 0. 0. 0. 0. 0. 0. 0. 0. 0.
      4.54545440e-03 0. 4.54545440e-03 0. 0. 0. 9.09090880e-03 0. 0. 0.
      0. 0. 0. 0. 0. 0. 0. 0. 0. 0. 0. 0. 0. 0. 0. 0. 0. 0. 0. 0. 0. 0.
      0. 0. 0. 0. 0. 0. 0. 0. 0. 0. 0. 1.36363637e-02 0. 0. 0. 0. 0. 0.
      0. 4.54545440e-03 0. 0. 0. 0. 0. 9.09090880e-03 0. 0.
      4.54545440e-03 0. 0. 0. 0. 4.54545440e-03 0. 0. 0. 0. 0. 0. 0. 0.
      0. 0. 3.63636352e-02 0. 0. 0. 0. 0. 0. 0. 0. 0. 0. 0. 0. 0. 0. 0.
      0. 4.54545440e-03 0. 0. 0. 0. 0. 0. 0. 0. 0. 0. 0. 9.09090880e-03
      0. 0. 0. 0. 0. 0. 0. 0. 4.54545440e-03 0. 0. 0. 0. 0. 0.
      4.54545440e-03 1.36363637e-02 0. 0. 0. 0. 0. 0. 0. 0. 0. 0.
      4.54545440e-03 0. 4.54545440e-03 0. 0. 0. 9.09090880e-03
      4.54545440e-03 9.09090880e-03 0. 0. 0. 0. 0. 0. 0. 0. 0. 0. 0. 0.
      0. 0. 0. 0. 0. 0. 0. 0. 0. 0. 0. 0. 0. 0. 0. 0. 0. 0. 0.
      4.54545440e-03 0. 0. 0. 4.54545440e-03 0. 0. 0. 0. 0.
      1.81818176e-02 0. 0. 0. 0. 4.09090891e-02 0. 0. 0. 0. 0.
      9.09090880e-03 4.54545440e-03 0. 0. 0. 0. 0.</_>
    <_>
      0. 0. 0. 5.45977019e-02 0. 0. 0. 0. 0. 0. 0. 0. 0. 0. 0. 0. 0. 0.
      1.43678160e-02 5.74712642e-03 0. 0. 0. 0. 0. 0. 1.43678160e-02 0.
      0. 0. 0. 0. 0. 0. 0. 0. 8.62068962e-03 0. 0. 0. 0. 0. 0. 0. 0. 0.
      0. 0. 0. 0. 0. 0. 0. 0. 3.85057479e-01 0. 2.87356321e-03 0. 0. 0.
      0. 0. 0. 0. 2.87356321e-03 2.87356321e-03 0. 0. 0. 0. 0. 0. 0. 0.
      0. 0. 2.75862068e-01 0. 0. 0. 0. 2.58620679e-02 0. 0. 0. 0. 0. 0.
      0. 0. 0. 0. 0. 0. 0. 2.87356321e-03 0. 0. 0. 0. 0. 0. 0. 0. 0. 0.
      0. 0. 0. 2.87356321e-03 0. 0. 0. 0. 0. 0. 0. 0. 0. 0. 0. 0. 0. 0.
      0. 0. 0. 0. 0. 0. 0. 0. 0. 0. 0. 0. 0. 0. 0. 0. 0. 0. 0. 0. 0. 0.
      0. 0. 0. 0. 2.87356321e-03 0. 0. 0. 0. 0. 0. 0. 0. 0. 0. 0. 0. 0.
      2.87356321e-03 0. 0. 0. 0. 2.87356321e-03 0. 0. 0. 0. 0. 0. 0. 0.
      0. 0. 0. 0. 0. 0. 0. 0. 0. 0. 0. 0. 0. 0. 0. 0. 0. 0. 0. 0.
      2.87356321e-03 0. 0. 0. 0. 0. 0. 0. 0. 0. 0. 0. 0. 0. 0.
      5.74712642e-03 0. 0. 0. 0. 0. 0. 0. 0. 0. 0. 0. 0. 0. 0. 0. 0. 0.
      0. 0. 0. 0. 0. 0. 0. 0. 0. 0. 0. 0. 0. 0. 0. 0. 0. 0. 0. 0. 0. 0.
      8.62068962e-03 0. 0. 0. 0. 0. 0. 0. 0. 0. 0. 0. 0. 0.
      2.87356321e-03 0. 0. 0. 0. 0. 0. 0. 0. 0. 0. 0. 0. 0. 0. 0. 0. 0.
      0. 0. 0. 0. 0. 2.87356321e-03 0. 0. 0. 0. 5.74712642e-03 0. 0. 0.
      0. 0. 0. 5.74712642e-03 0. 0. 0. 0. 0. 0. 0. 0. 0. 0. 0. 0. 0. 0.
      0. 8.62068962e-03 0. 0. 0. 0. 0. 0. 8.62068962e-03 0. 0. 0. 0. 0.
      0. 0. 2.87356321e-03 0. 0. 0. 0. 0. 0. 0. 0. 0. 0. 0. 0. 0. 0.
      2.87356321e-03 0. 0. 0. 0. 0. 0. 0. 0. 0. 2.87356321e-03 0. 0. 0.
      0. 0. 0. 0. 0. 0. 0. 0. 0. 0. 0. 0. 0. 0. 0. 0. 0. 0. 0. 0. 0. 0.
      0. 0. 0. 0. 0. 0. 8.62068962e-03 0. 0. 0. 0. 0. 0. 0. 0. 0. 0. 0.
      0. 0. 0. 0. 0. 0. 2.87356321e-03 0. 0. 0. 0. 2.87356321e-03 0. 0.
      0. 0. 0. 0. 0. 0. 0. 0. 0. 0. 0. 0. 0. 0. 0. 0. 0. 0. 0. 0. 0. 0.
      0. 0. 0. 0. 0. 0. 0. 0. 0. 0. 0. 0. 0. 0. 0. 0. 0. 0. 0. 0. 0. 0.
      0. 0. 0. 0. 0. 0. 0. 0. 0. 0. 0. 0. 0. 0. 0. 2.87356321e-03 0. 0.
      0. 0. 0. 0. 0. 0. 0. 0. 0. 0. 0. 0. 0. 0. 0. 0. 0. 5.74712642e-03
      0. 0. 0. 0. 0. 0. 0. 0. 0. 5.74712642e-03 0. 0. 0. 0. 0. 0. 0. 0.
      0. 2.58620679e-02 0. 0. 0. 0. 0. 0. 0. 0. 0. 0. 0. 2.87356321e-03
      0. 0. 0. 0. 0. 0. 0. 0. 0. 0. 0. 0. 0. 0. 0. 0. 0. 0. 0. 0. 0. 0.
      0. 0. 0. 0. 0. 0. 0. 0. 0. 0. 0. 2.87356321e-03 0. 0. 0. 0. 0. 0.
      0. 0. 0. 0. 0. 0. 0. 0. 0. 0. 0. 0. 0. 0. 0. 0. 0. 0. 0. 0. 0. 0.
      0. 0. 0. 0. 0. 0. 0. 0. 0. 0. 0. 0. 0. 0. 0. 0. 0. 0. 0. 0. 0. 0.
      0. 0. 0. 0. 0. 0. 0. 0. 0. 0. 0. 0. 0. 0. 0. 0. 0. 0. 0. 0. 0. 0.
      0. 0. 0. 0. 0. 0. 0. 0. 0. 0. 0. 0. 0. 0. 0. 0. 0. 0. 0.
      5.74712642e-03 0. 0. 0. 0. 0. 0. 0. 0. 0. 0. 0. 0. 0. 0. 0. 0. 0.
      0. 0. 0. 0. 0. 0. 0. 0. 0. 0. 0. 0. 0. 0. 0. 0. 0. 0. 0. 0. 0. 0.
      0. 0. 0. 0. 0. 0. 0. 0. 0. 0. 0. 0. 0. 0. 0. 0. 0. 2.87356321e-03
      0. 0. 0. 0. 0. 0. 0. 0. 0. 0. 0. 0. 0. 0. 0. 0. 0. 0. 0. 0. 0. 0.
      0. 0. 0. 0. 0. 0. 0. 0. 0. 0. 0. 1.72413792e-02 0. 0. 0. 0. 0. 0.
      0. 0. 0. 0. 0. 0. 0. 0. 0. 0. 0. 0. 0. 0. 2.87356321e-03 0. 0. 0.
      0. 0. 0. 0. 0. 0. 0. 0. 0. 0. 0. 0. 0. 8.62068962e-03 0. 0. 0. 0.
      0. 0. 0. 0. 0. 0. 0. 0. 0. 0. 0. 0. 0. 0. 0. 0. 0. 0. 0. 0. 0. 0.
      0. 0. 0. 0. 0. 0. 0. 0. 0. 0. 0. 0. 0. 0. 0. 0. 0. 0.
      1.14942528e-02 2.87356321e-03 0. 0. 0. 0. 0. 2.87356321e-03
      2.87356321e-03 0. 0. 0. 0. 0. 0. 0. 0. 0. 0. 0. 0. 0. 0. 0. 0. 0.
      0. 0. 0. 0. 0. 0. 0. 0. 0. 0. 2.87356321e-03 0. 0. 0. 0. 0. 0. 0.
      0. 0. 0. 0. 0. 0. 0. 0. 0. 0. 0. 0. 0. 0. 0. 0. 0. 0. 0. 0. 0. 0.
      0. 0. 0. 0. 0. 0. 0. 0. 0. 0. 0. 0. 0. 0. 0. 0. 0. 0. 0. 0.
      2.87356321e-03 0. 0. 0. 0. 0. 0. 0. 0. 0. 0. 0. 0. 0. 0. 0. 0. 0.
      0. 0. 0. 0. 0. 0. 0. 0. 0. 0. 0. 0. 0. 0. 0. 0. 0. 0.
      2.87356321e-03 0. 0. 0. 0. 0. 0. 0. 0. 0. 0. 0. 0. 0. 0. 0. 0. 0.
      0. 0. 0. 0. 0. 5.74712642e-03 0. 0. 0. 0. 0. 0. 0. 0. 0. 0. 0. 0.
      0. 0. 0. 0. 0. 0. 0. 0. 0. 0. 0. 0. 0. 0. 0.</_>
    <_>
      3.31125828e-03 0. 0. 1.32450331e-02 0. 0. 0. 0. 0. 0. 0. 0. 0.
      1.65562909e-02 0. 3.31125828e-03 0. 0. 0. 0. 0. 0. 0.
      6.62251655e-03 0. 0. 0. 2.64900662e-02 0. 0. 0. 0. 0. 0. 0. 0. 0.
      0. 0. 0. 0. 0. 0. 0. 0. 0. 0. 0. 0. 9.93377529e-03 0. 0. 0. 0.
      2.31788084e-02 0. 0. 3.31125828e-03 0. 0. 0. 0. 0. 0. 0. 0. 0. 0.
      0. 0. 3.31125828e-03 3.97351012e-02 0. 0. 3.31125828e-03 0.
      7.61589408e-02 0. 0. 0. 3.31125828e-03 0. 0. 0. 0. 3.31125828e-03
      0. 3.31125828e-03 0. 1.98675506e-02 0. 0. 0. 0. 0. 0. 0. 0. 0. 0.
      0. 0. 0. 0. 0. 3.31125828e-03 0. 0. 0. 0. 0. 3.31125828e-03 0. 0.
      0. 0. 0. 0. 0. 0. 0. 0. 6.62251655e-03 0. 0. 6.62251655e-03 0.
      3.31125828e-03 0. 3.31125828e-03 0. 0. 0. 0. 0. 0. 0. 0. 0. 0. 0.
      0. 0. 0. 0. 0. 0. 1.32450331e-02 0. 0. 0. 0. 0. 0. 0. 0. 0. 0. 0.
      0. 0. 0. 0. 0. 3.31125828e-03 0. 0. 0. 0. 0. 0. 0. 0. 0. 0. 0. 0.
      0. 0. 0. 6.62251655e-03 0. 0. 0. 0. 0. 0. 0. 3.31125828e-03 0. 0.
      0. 0. 0. 0. 0. 0. 0. 0. 0. 0. 0. 0. 0. 0. 0. 0. 0. 3.31125828e-03
      0. 0. 0. 0. 0. 0. 0. 0. 0. 0. 0. 0. 0. 0. 0. 6.62251655e-03 0. 0.
      0. 0. 0. 0. 0. 0. 0. 0. 0. 0. 0. 0. 0. 0. 0. 0. 0. 0. 0. 0. 0. 0.
      0. 0. 3.31125828e-03 0. 0. 0. 0. 0. 0. 0. 0. 0. 0. 3.31125828e-03
      0. 0. 9.93377529e-03 0. 0. 0. 0. 0. 9.93377529e-03 0. 0. 0. 0. 0.
      0. 3.31125828e-03 3.31125828e-03 0. 3.31125828e-03 0. 0. 0. 0. 0.
      0. 1.98675506e-02 0. 0. 0. 0. 0. 0. 6.62251655e-03 0. 0. 0. 0. 0.
      0. 0. 0. 0. 0. 0. 0. 0. 0. 0. 0. 0. 0. 0. 0. 0. 0. 0. 0. 0. 0. 0.
      3.31125828e-03 0. 6.62251655e-03 3.64238396e-02 0. 0. 0. 0. 0. 0.
      0. 0. 0. 0. 9.93377529e-03 0. 0. 0. 0. 0. 0. 0. 0. 0. 0. 0. 0. 0.
      0. 0. 0. 0. 0. 3.31125828e-03 0. 0. 0. 0. 0. 0. 0. 0. 0. 0. 0. 0.
      0. 0. 0. 0. 3.31125828e-03 6.62251655e-03 6.62251655e-03 0. 0. 0.
      0. 0. 0. 0. 0. 0. 0. 2.31788084e-02 0. 0. 0. 3.31125828e-03 0. 0.
      0. 0. 0. 0. 0. 0. 0. 0. 0. 0. 0. 0. 0. 0. 0. 0. 3.31125828e-03 0.
      0. 0. 0. 0. 0. 0. 0. 6.62251655e-03 0. 0. 0. 0. 0. 0. 0. 0. 0. 0.
      0. 0. 0. 0. 0. 0. 9.93377529e-03 0. 3.31125828e-03 3.31125828e-03
      3.31125828e-03 0. 0. 0. 0. 0. 0. 0. 0. 0. 0. 0. 0. 3.31125828e-03
      0. 0. 0. 0. 0. 0. 0. 3.31125828e-03 0. 0. 0. 0. 0. 0. 0. 0. 0. 0.
      0. 0. 0. 0. 1.32450331e-02 0. 0. 3.31125828e-03 0. 0. 0. 0.
      6.62251655e-03 6.62251655e-03 0. 0. 0. 0. 0. 0. 0. 0. 0. 0. 0. 0.
      0. 0. 0. 0. 0. 0. 0. 0. 3.31125828e-03 0. 0. 0. 0. 0. 0. 0.
      6.62251655e-03 0. 3.31125828e-03 0. 0. 0. 0. 0. 0. 0. 0. 0. 0. 0.
      6.62251655e-03 0. 0. 0. 0. 0. 0. 0. 0. 0. 0. 0. 0. 0. 0. 0. 0. 0.
      0. 6.62251655e-03 0. 0. 0. 0. 0. 0. 0. 0. 0. 0. 0. 0. 0.
      3.31125828e-03 0. 0. 0. 0. 0. 0. 0. 0. 0. 0. 0. 0. 0. 0. 0. 0. 0.
      0. 0. 0. 0. 0. 0. 0. 0. 0. 0. 0. 0. 0. 0. 0. 0. 0. 0. 0. 0. 0. 0.
      0. 0. 0. 0. 0. 0. 0. 0. 0. 0. 0. 0. 0. 0. 0. 0. 0. 0. 0. 0. 0. 0.
      0. 0. 0. 0. 0. 0. 0. 6.62251655e-03 0. 0. 0. 1.32450331e-02 0. 0.
      0. 0. 0. 0. 3.31125828e-03 0. 0. 0. 0. 0. 0. 0. 0. 0. 0. 0.
      3.31125828e-03 0. 0. 0. 0. 0. 0. 0. 0. 0. 0. 9.93377529e-03 0. 0.
      0. 0. 0. 0. 0. 0. 0. 0. 0. 0. 0. 0. 0. 0. 0. 0. 0. 3.31125828e-03
      0. 0. 0. 0. 0. 0. 0. 0. 0. 6.62251655e-03 0. 0. 3.31125828e-03 0.
      0. 0. 0. 3.31125828e-03 0. 0. 0. 0. 0. 0. 0. 2.64900662e-02 0.
      6.62251655e-03 0. 0. 0. 0. 3.31125828e-03 3.31125828e-03 0. 0. 0.
      0. 0. 0. 3.31125828e-03 3.31125828e-03 0. 0. 0. 0. 0.
      6.62251655e-03 0. 3.31125828e-03 0. 0. 0. 0. 0. 0. 0. 0. 0. 0. 0.
      0. 0. 3.31125828e-03 0. 0. 0. 0. 0. 0. 0. 0. 0. 0. 0. 0. 0. 0. 0.
      0. 0. 0. 0. 0. 0. 0. 0. 0. 6.62251655e-03 0. 0. 0. 0. 0. 0.
      3.31125828e-03 6.62251655e-03 0. 3.97351012e-02 0. 0. 0. 0. 0. 0.
      0. 0. 0. 0. 3.31125828e-03 0. 0. 0. 0. 0. 0. 0. 0. 0. 0. 0. 0. 0.
      0. 0. 0. 0. 0. 0. 0. 0. 0. 0. 0. 0. 3.31125828e-03 0. 0. 0. 0. 0.
      0. 0. 0. 3.31125828e-03 0. 0. 0. 0. 0. 0. 9.93377529e-03 0. 0. 0.
      0. 0. 0. 0. 0. 0. 0. 0. 0. 0. 0. 6.62251655e-03 0. 0.
      3.31125828e-03 0. 0. 2.64900662e-02 0. 0. 9.93377529e-03 0. 0. 0.
      0. 0. 0. 0. 0. 0. 0. 0. 0. 0. 3.31125828e-03 3.31125828e-03 0. 0.
      0. 0. 0. 0. 1.32450331e-02 0. 0. 0. 0. 3.64238396e-02 0. 0. 0. 0.
      0. 0. 0. 0. 0. 0. 0. 0. 0. 0. 0. 0. 6.62251655e-03 0. 0. 0. 0. 0.
      0. 0. 0. 0. 0. 0. 0. 0. 0. 0. 0. 3.31125828e-03 3.31125828e-03 0.
      0. 3.31125828e-03 0. 0. 0. 0. 0. 0. 0. 0. 0. 0. 0. 0. 0. 0. 0.
      9.93377529e-03 0. 0. 0. 0. 0. 0. 0. 0. 0. 0. 0. 0. 0. 0. 0. 0. 0.
      6.62251655e-03 0. 0. 0. 0. 0. 0. 0. 0. 0. 0. 0. 0. 0.
      3.31125828e-03 0. 0. 0. 0. 0. 0. 0. 0. 0. 6.62251655e-03 0. 0. 0.
      0. 5.62913902e-02 0. 0. 3.31125828e-03 0. 0. 3.31125828e-03
      1.98675506e-02 0. 0. 0. 0. 0.</_>
    <_>
      3.38983047e-03 0. 0. 1.35593219e-02 0. 0. 3.38983047e-03 0. 0. 0.
      0. 0. 0. 2.71186437e-02 0. 0. 0. 0. 0. 0. 0. 0. 0. 3.38983051e-02
      0. 0. 3.38983047e-03 3.38983047e-03 0. 0. 0. 0. 0. 0. 0. 0. 0. 0.
      0. 0. 0. 0. 0. 0. 0. 0. 0. 0. 0. 3.38983047e-03 0. 3.38983047e-03
      0. 0. 0. 0. 0. 3.38983047e-03 0. 0. 0. 0. 2.37288140e-02 0. 0. 0.
      0. 0. 0. 0. 1.01694912e-02 1.01694912e-02 0. 0. 6.77966094e-03 0.
      2.37288140e-02 0. 6.77966094e-03 0. 0. 0. 0. 0. 0. 0. 0. 0. 0. 0.
      0. 3.38983047e-03 0. 0. 0. 0. 0. 0. 0. 0. 0. 0. 0. 0. 0.
      6.77966094e-03 0. 0. 0. 0. 3.72881368e-02 0. 0. 0. 0. 0. 0. 0. 0.
      0. 0. 0. 3.38983047e-03 0. 0. 0. 0. 1.01694912e-02 0.
      3.38983047e-03 0. 0. 3.38983047e-03 0. 0. 0. 0. 0. 0. 0. 0. 0. 0.
      0. 0. 0. 0. 0. 0. 0. 0. 0. 0. 0. 0. 0. 0. 0. 0. 0. 0.
      1.69491526e-02 0. 0. 0. 0. 0. 3.38983047e-03 0. 0. 0. 0. 0. 0. 0.
      0. 0. 0. 3.38983047e-03 0. 3.38983047e-03 0. 0. 3.38983047e-03 0.
      0. 0. 0. 0. 0. 0. 0. 0. 0. 0. 0. 0. 0. 6.77966094e-03 0. 0. 0. 0.
      0. 0. 0. 0. 0. 0. 0. 0. 0. 0. 3.38983047e-03 0. 0. 0. 0. 0. 0. 0.
      0. 0. 0. 0. 0. 0. 0. 0. 0. 0. 3.38983047e-03 0. 0. 0. 0.
      3.38983047e-03 0. 0. 0. 0. 0. 0. 0. 0. 0. 0. 0. 0. 0. 0. 0. 0.
      3.38983047e-03 0. 0. 0. 0. 0. 0. 6.77966094e-03 0. 0. 0. 0.
      4.40677963e-02 0. 0. 3.38983047e-03 0. 0. 3.38983047e-03 0. 0. 0.
      0. 3.38983047e-03 0. 3.38983047e-03 6.77966094e-03 0. 0. 0. 0. 0.
      0. 0. 0. 4.06779647e-02 0. 0. 0. 0. 0. 0. 1.69491526e-02 0. 0. 0.
      0. 0. 3.38983047e-03 0. 0. 0. 0. 0. 0. 0. 0. 0. 0. 3.38983047e-03
      0. 0. 0. 3.38983047e-03 0. 6.77966094e-03 0. 0. 0. 0. 0. 0.
      3.38983047e-03 6.44067824e-02 0. 0. 0. 0. 0. 3.38983047e-03 0. 0.
      0. 0. 0. 0. 0. 3.38983047e-03 0. 3.38983047e-03 0. 0. 0. 0. 0. 0.
      0. 0. 0. 0. 0. 0. 3.38983047e-03 3.38983047e-03 0. 0. 0. 0. 0. 0.
      0. 0. 0. 0. 0. 0. 0. 0. 0. 3.38983047e-03 0. 3.38983047e-03
      3.38983047e-03 0. 3.38983047e-03 0. 0. 0. 0. 0. 0. 0. 0.
      3.38983047e-03 6.77966094e-03 0. 0. 3.38983047e-03 0. 0. 0.
      3.38983047e-03 3.38983047e-03 0. 0. 0. 0. 0. 0. 0. 0. 0. 0. 0. 0.
      0. 0. 0. 3.38983047e-03 0. 3.38983047e-03 0. 0. 1.01694912e-02 0.
      0. 0. 0. 0. 0. 0. 0. 0. 0. 0. 0. 0. 0. 0. 0. 0. 0. 3.38983047e-03
      0. 0. 0. 0. 0. 0. 0. 0. 0. 0. 0. 0. 0. 0. 3.38983047e-03 0.
      3.38983047e-03 0. 0. 0. 0. 0. 0. 3.38983047e-03 0. 0. 0. 0. 0. 0.
      0. 0. 0. 0. 0. 0. 0. 0. 0. 0. 0. 0. 0. 0. 0. 0. 0. 0. 0. 0. 0. 0.
      0. 0. 0. 0. 0. 1.01694912e-02 0. 0. 0. 0. 0. 0. 0. 0. 0. 0.
      3.38983047e-03 0. 0. 0. 0. 0. 0. 0. 0. 0. 0. 6.77966094e-03 0. 0.
      0. 0. 0. 0. 0. 0. 0. 6.77966094e-03 0. 0. 0. 3.38983047e-03 0. 0.
      0. 0. 0. 0. 0. 3.38983047e-03 0. 0. 0. 0. 0. 0. 0. 0. 0. 0. 0. 0.
      0. 0. 0. 6.77966094e-03 0. 0. 0. 0. 0. 3.38983047e-03 0. 0. 0.
      3.38983047e-03 0. 0. 0. 0. 0. 0. 0. 0. 0. 0. 0. 3.38983047e-03 0.
      0. 3.38983047e-03 0. 0. 0. 0. 0. 0. 1.01694912e-02 0. 0. 0. 0. 0.
      0. 0. 0. 0. 0. 0. 0. 0. 3.38983047e-03 0. 0. 0. 0. 0. 0. 0. 0. 0.
      0. 0. 0. 0. 0. 0. 0. 3.05084735e-02 0. 0. 0. 0. 0. 0. 0. 0. 0. 0.
      0. 0. 0. 0. 0. 0. 6.77966094e-03 0. 0. 0. 0. 0. 0. 0.
      3.38983047e-03 0. 0. 0. 0. 0. 0. 0. 0. 0. 0. 2.71186437e-02
      6.77966094e-03 3.38983047e-03 0. 6.77966094e-03 0. 0. 0. 0. 0. 0.
      0. 0. 0. 0. 0. 0. 0. 0. 0. 0. 0. 0. 0. 0. 0. 0. 0. 0. 0. 0.
      1.69491526e-02 0. 0. 0. 0. 0. 0. 3.38983047e-03 0. 0. 0. 0. 0. 0.
      3.38983047e-03 0. 0. 0. 0. 0. 0. 0. 0. 0. 0. 0. 0. 0.
      1.35593219e-02 0. 0. 0. 0. 0. 3.38983047e-03 3.38983047e-03 0. 0.
      0. 0. 6.77966094e-03 0. 3.38983047e-03 0. 0. 0. 3.38983047e-03 0.
      0. 0. 0. 0. 0. 0. 0. 0. 0. 0. 0. 0. 0. 0. 0. 0. 0. 0. 0. 0. 0. 0.
      0. 3.38983047e-03 0. 0. 0. 0. 0. 0. 0. 0. 0. 0. 0. 0. 0. 0. 0. 0.
      0. 1.69491526e-02 0. 0. 0. 0. 0. 0. 0. 0. 0. 1.69491526e-02
      6.77966094e-03 0. 0. 0. 0. 0. 0. 0. 3.38983047e-03 0. 0. 0. 0. 0.
      0. 0. 0. 0. 0. 0. 0. 0. 0. 0. 0. 0. 0. 0. 0. 0. 0. 0. 0. 0. 0. 0.
      0. 0. 0. 0. 0. 0. 0. 0. 1.35593219e-02 0. 0. 0. 0. 0. 0. 0. 0.
      6.77966094e-03 0. 0. 0. 0. 0. 0. 0. 0. 0. 0. 0. 0. 0.
      3.38983047e-03 3.38983047e-03 0. 3.38983047e-03 0. 0. 0. 0. 0. 0.
      0. 0. 0. 0. 0. 0. 0. 0. 0. 3.38983047e-03 0. 0. 0. 0. 0. 0. 0. 0.
      0. 0. 0. 0. 0. 6.77966094e-03 0. 0. 0. 0. 0. 0. 0. 0. 0. 0. 0. 0.
      0. 0. 0. 0. 0. 0. 0. 0. 1.35593219e-02 0. 0. 0. 0. 0. 0. 0. 0.
      3.38983047e-03 0. 3.38983047e-03 0. 0. 3.38983047e-03 0. 0.
      1.35593219e-02 0. 0. 0. 0. 0. 0. 0. 0. 0. 0. 3.38983047e-03 0. 0.
      0. 0. 0. 0. 0. 3.38983047e-03 0. 0. 0. 0. 0. 0. 0. 0. 0. 0. 0. 0.
      0. 0. 0. 0. 3.38983047e-03 3.38983047e-03 0. 3.38983047e-03 0. 0.
      3.38983047e-03 0. 0. 0. 3.38983047e-03 0. 0. 0. 1.35593219e-02 0.
      0. 0. 0. 0. 0. 0. 0. 0. 0. 3.38983047e-03 0. 0. 0. 0.
      1.35593219e-02 0. 0. 0. 0. 0. 3.38983047e-03 1.35593219e-02 0. 0.
      0. 0. 0.</_>
    <_>
      0. 0. 0. 7.25689391e-03 0. 0. 2.90275761e-03 0. 0. 0. 0.
      1.45137880e-03 0. 2.90275761e-03 0. 0. 0. 0. 0. 1.45137880e-03 0.
      0. 0. 0. 0. 0. 0. 4.35413653e-03 0. 0. 0. 2.90275761e-03 0. 0. 0.
      0. 0. 0. 0. 0. 0. 4.35413653e-03 0. 0. 8.70827306e-03 0. 0. 0. 0.
      5.80551513e-02 0. 0. 0. 0. 4.20899838e-02 1.45137880e-03
      4.35413653e-03 0. 0. 0. 0. 0. 0. 0. 0. 0. 0. 0. 0. 0. 0.
      1.45137878e-02 0. 0. 0. 1.45137880e-03 1.13207549e-01 0. 0. 0. 0.
      2.75761969e-02 0. 1.45137880e-03 0. 1.45137880e-03 0. 0. 0. 0.
      1.45137880e-03 2.90275761e-03 0. 0. 0. 1.45137880e-03 0. 0. 0. 0.
      0. 0. 0. 1.45137880e-03 1.45137880e-03 2.90275761e-03
      1.45137880e-03 0. 0. 2.90275761e-03 0. 0. 0. 1.45137880e-03 0. 0.
      0. 0. 0. 0. 0. 0. 0. 0. 0. 1.45137880e-03 0. 5.80551522e-03 0. 0.
      0. 0. 0. 0. 0. 0. 0. 1.45137880e-03 1.45137880e-03 1.45137880e-03
      1.45137880e-03 0. 0. 0. 0. 0. 0. 1.45137880e-03 0. 0. 0. 0. 0. 0.
      5.80551522e-03 0. 1.45137880e-03 0. 0. 0. 0. 0. 0. 0.
      1.45137880e-03 4.35413653e-03 0. 0. 0. 0. 0. 0. 0. 0. 0. 0. 0. 0.
      1.16110304e-02 0. 0. 0. 0. 0. 0. 1.45137880e-03 0. 0.
      1.45137880e-03 0. 1.45137880e-03 0. 0. 0. 0. 0. 0. 0. 0. 0. 0.
      2.90275761e-03 2.90275761e-03 0. 0. 0. 0. 0. 0. 0. 0. 0.
      1.45137880e-03 0. 1.45137880e-03 0. 1.45137880e-03 0. 0. 0. 0. 0.
      5.80551522e-03 0. 0. 0. 0. 0. 0. 0. 0. 0. 0. 0. 0. 0.
      2.90275761e-03 0. 0. 0. 0. 0. 0. 0. 0. 0. 1.45137880e-03 0. 0.
      2.90275761e-03 0. 0. 0. 1.45137880e-03 0. 0. 2.90275761e-03 0. 0.
      0. 2.90275761e-03 0. 0. 0. 0. 0. 0. 0. 1.45137880e-03 0. 0. 0.
      1.45137880e-03 0. 0. 0. 2.90275761e-03 0. 0. 0. 1.45137880e-03
      1.45137880e-03 0. 1.45137880e-03 0. 0. 1.45137880e-03 0.
      5.80551522e-03 0. 0. 0. 0. 0. 0. 7.25689391e-03 0. 0. 0. 0. 0. 0.
      0. 1.01596517e-02 0. 0. 1.45137880e-03 0. 0. 1.16110304e-02 0. 0.
      2.90275761e-03 0. 0. 0. 0. 0. 1.16110304e-02 0. 0. 0. 0. 0. 0. 0.
      2.90275761e-03 0. 1.45137880e-03 0. 0. 0. 0. 0. 0. 0.
      8.70827306e-03 0. 0. 0. 0. 0. 0. 0. 0. 0. 0. 0. 1.45137880e-03 0.
      0. 0. 0. 0. 0. 1.45137880e-03 0. 0. 0. 0. 0. 0. 0. 0.
      2.90275761e-03 0. 0. 0. 1.45137880e-03 1.45137880e-03 0. 0.
      1.45137880e-03 0. 5.80551522e-03 0. 0. 0. 1.45137880e-03 0. 0. 0.
      2.90275761e-03 0. 0. 1.45137880e-03 2.90275761e-03 2.90275761e-03
      0. 0. 4.35413653e-03 0. 0. 0. 0. 2.90275761e-03 0. 0. 0. 0.
      1.45137880e-03 2.90275761e-03 0. 0. 0. 0. 0. 0. 1.45137880e-03 0.
      0. 0. 1.45137880e-03 0. 0. 1.45137880e-03 5.80551522e-03 0. 0. 0.
      0. 0. 0. 7.25689391e-03 1.45137880e-03 0. 0. 0. 0. 0. 0. 0. 0. 0.
      0. 4.35413653e-03 0. 0. 0. 4.35413653e-03 0. 0. 0. 0. 0. 0. 0. 0.
      0. 0. 0. 0. 1.45137880e-03 0. 0. 0. 0. 4.35413653e-03 0. 0.
      1.45137880e-03 0. 0. 0. 0. 0. 0. 0. 0. 0. 0. 0. 0. 0. 0.
      2.90275761e-03 0. 0. 0. 0. 0. 0. 0. 0. 2.90275761e-03 0. 0. 0. 0.
      0. 0. 0. 0. 0. 0. 0. 0. 0. 0. 0. 0. 0. 0. 0. 1.45137880e-03 0. 0.
      0. 0. 2.90275761e-03 0. 0. 0. 0. 0. 1.45137880e-03 0. 0. 0. 0. 0.
      0. 0. 0. 0. 0. 1.45137880e-03 0. 1.45137880e-03 2.90275761e-03
      1.45137880e-03 2.90275761e-03 1.45137880e-03 0. 0. 0.
      4.35413653e-03 0. 0. 0. 0. 0. 0. 0. 0. 0. 1.16110304e-02 0. 0. 0.
      0. 0. 0. 1.45137880e-03 0. 0. 0. 0. 0. 0. 1.45137880e-03 0. 0.
      8.70827306e-03 0. 1.45137880e-03 0. 0. 0. 1.45137880e-03
      2.90275761e-03 2.90275761e-03 0. 0. 0. 0. 0. 0. 0. 0.
      2.90275761e-03 4.35413653e-03 0. 0. 0. 0. 2.90275761e-03 0. 0. 0.
      0. 0. 0. 0. 0. 0. 0. 0. 0. 2.32220609e-02 0. 0. 5.80551522e-03 0.
      0. 0. 0. 1.45137880e-03 0. 0. 0. 0. 0. 0. 0. 0. 5.80551522e-03 0.
      0. 1.45137880e-03 0. 0. 0. 0. 0. 1.45137880e-03 0. 0. 0. 0.
      1.45137880e-03 0. 0. 0. 0. 0. 0. 0. 0. 0. 2.90275761e-03 0. 0. 0.
      0. 0. 1.45137880e-03 0. 0. 0. 0. 0. 1.45137880e-03 0. 0. 0.
      7.25689391e-03 0. 0. 1.45137880e-03 1.45137880e-03 0.
      1.30624091e-02 0. 2.90275761e-03 0. 0. 0. 1.45137880e-03 0. 0. 0.
      0. 0. 0. 0. 0. 0. 1.45137880e-03 0. 0. 0. 0. 7.25689391e-03 0. 0.
      0. 0. 0. 0. 0. 0. 0. 0. 0. 0. 0. 4.35413653e-03 0. 0. 0. 0. 0. 0.
      0. 0. 0. 0. 0. 1.59651674e-02 0. 2.90275761e-03 0. 1.45137880e-03
      1.45137880e-03 0. 0. 0. 0. 0. 0. 0. 1.45137878e-02 0.
      1.45137880e-03 0. 0. 0. 0. 0. 0. 0. 0. 0. 0. 0. 0. 0. 0. 0. 0.
      1.45137880e-03 0. 0. 0. 0. 0. 2.90275761e-03 0. 0. 0.
      1.45137880e-03 0. 1.45137880e-03 0. 0. 0. 0. 0. 0. 0. 0.
      1.45137880e-03 0. 0. 0. 0. 0. 0. 0. 1.45137880e-03 0.
      4.35413653e-03 0. 0. 0. 0. 0. 0. 4.35413653e-03 0. 0.
      1.59651674e-02 2.90275761e-03 0. 0. 0. 0. 5.80551522e-03 0. 0. 0.
      0. 0. 0. 1.45137880e-03 0. 0. 0. 1.45137880e-03 0. 0. 0.
      1.45137880e-03 0. 7.25689391e-03 0. 0. 0. 0. 0. 0. 0. 0. 0. 0.
      1.45137880e-03 8.70827306e-03 0. 0. 0. 0. 0. 0. 0. 0. 0.
      4.35413653e-03 2.90275761e-03 1.45137880e-03 0. 0. 1.45137880e-03
      0. 1.45137880e-03 0. 0. 0. 0. 1.45137880e-03 0. 0. 2.90275761e-03
      0. 0. 0. 0. 0. 0. 0. 1.01596517e-02 1.30624091e-02 0. 0. 0. 0.
      2.90275761e-03 0. 0. 0. 2.90275761e-03 0. 0. 0. 1.45137880e-03 0.
      0. 0. 0. 0. 0. 4.35413653e-03 0. 0. 0. 1.45137880e-03 0. 0.
      1.45137880e-03 0. 0. 1.45137880e-03 0. 0. 5.80551522e-03 0.
      5.80551522e-03 0. 0. 2.90275761e-03 0. 0. 0. 0. 0. 0. 0. 0.
      1.45137880e-03 1.45137880e-03 2.90275761e-03 0. 0. 0.
      3.48330922e-02 1.45137880e-03 1.45137880e-03 0. 0. 0. 0. 0. 0. 0.
      0. 0. 0. 0. 7.25689391e-03 0. 0. 0. 4.35413653e-03 0.
      5.80551522e-03 0. 0. 0. 0. 0. 0. 1.45137880e-03 0. 0.
      4.35413653e-03 0. 0. 0. 0. 0. 2.90275761e-03 0. 0. 0. 0. 0. 0. 0.
      0. 2.90275761e-03 0. 0. 0. 0. 0. 0. 0. 1.45137880e-03
      1.45137880e-03 0. 0. 0. 0. 0. 0. 0. 0. 1.45137880e-03 0. 0. 0. 0.
      0. 0. 0. 0. 0. 1.45137880e-03 0. 0. 0. 0. 3.77358496e-02 0. 0.
      1.45137880e-03 0. 5.80551522e-03 0. 0. 0. 0. 1.45137880e-03 0. 0.
      0. 0. 0. 1.45137880e-03 1.45137880e-03</_>
    <_>
      0. 4.17362258e-04 0. 0. 0. 0. 1.87813025e-02 0. 0. 0. 0. 0. 0.
      1.25208683e-03 0. 0. 0. 0. 0. 0. 0. 5.00834733e-03 0. 0. 0. 0. 0.
      0. 0. 0. 0. 0. 0. 0. 4.17362258e-04 0. 0. 0. 0. 0. 0. 0. 0.
      4.17362258e-04 1.08514186e-02 0. 0. 0. 0. 2.17028372e-02 0. 0. 0.
      0. 0. 0. 0. 0. 0. 0. 0. 0. 3.75626027e-03 0. 0. 0. 0. 0. 0.
      1.25208683e-03 2.92153587e-03 8.34724493e-03 0. 0. 0. 0. 0. 0. 0.
      4.17362258e-04 0. 0. 4.17362258e-04 0. 0. 0. 1.25208683e-03
      8.34724517e-04 0. 3.63105163e-02 1.79465767e-02 0. 0. 0.
      1.25208683e-03 0. 0. 0. 0. 0. 0. 0. 0. 0. 0. 1.66944903e-03 0. 0.
      0. 0. 0. 0. 0. 0. 4.17362258e-04 8.34724517e-04 0. 0. 0. 0. 0. 0.
      0. 0. 0. 4.17362258e-04 0. 0. 0. 4.17362258e-04 0. 0. 0. 0. 0.
      4.17362258e-04 0. 0. 0. 0. 0. 0. 0. 0. 0. 0. 0. 2.08681123e-03 0.
      0. 0. 0. 0. 0. 8.34724517e-04 8.34724517e-04 1.00166947e-02
      4.17362258e-04 0. 1.66944903e-03 0. 2.92153587e-03 0. 0. 0.
      8.34724517e-04 0. 0. 0. 0. 0. 0. 0. 0. 0. 0. 0. 0. 0. 0.
      4.17362258e-04 0. 0. 0. 0. 0. 0. 0. 0. 0. 0. 0. 0. 0. 0. 0. 0. 0.
      6.67779613e-03 0. 0. 0. 1.25208683e-03 1.25208683e-03 0. 0. 0. 0.
      0. 0. 0. 0. 8.34724517e-04 1.25208683e-03 1.25208683e-03 0. 0. 0.
      0. 4.17362258e-04 0. 4.17362258e-04 4.59098490e-03 0. 0.
      2.92153587e-03 0. 0. 0. 0. 0. 0. 0. 0. 0. 0. 0. 0. 8.34724517e-04
      4.17362258e-04 4.17362258e-04 0. 0. 0. 0. 0. 1.25208683e-03 0. 0.
      1.66944899e-02 0. 0. 0. 0. 0. 0. 0. 0. 0. 0. 0. 0. 0. 0. 0.
      3.33889807e-03 0. 4.17362258e-04 0. 0. 0. 0. 0. 0. 0.
      4.17362258e-04 0. 0. 0. 0. 4.17362258e-04 0. 0. 0. 0. 0. 0. 0. 0.
      0. 0. 0. 0. 1.29382303e-02 0. 0. 0. 0. 4.17362258e-04 0. 0. 0. 0.
      0. 0. 0. 0. 0. 0. 4.17362258e-04 0. 0. 0. 3.33889807e-03
      3.33889807e-03 0. 0. 4.17362258e-04 0. 0. 0. 0. 0. 0. 0. 0. 0. 0.
      0. 0. 0. 0. 8.34724517e-04 4.17362258e-04 8.34724517e-04 0. 0.
      5.88480793e-02 0. 0. 0. 0. 0. 0. 0. 2.08681123e-03 0. 0. 0. 0.
      3.75626027e-03 0. 0. 0. 0. 0. 4.17362258e-04 0. 0. 0. 0. 0. 0. 0.
      0. 1.25208683e-03 8.34724517e-04 0. 0. 0. 0. 0. 0. 0.
      1.25208683e-03 0. 0. 0. 0. 0. 0. 0. 0. 0. 0. 0. 8.34724493e-03 0.
      0. 0. 0. 0. 0. 0. 1.25208683e-03 0. 0. 0. 0. 0. 0. 0. 0. 0. 0. 0.
      0. 0. 0. 8.34724517e-04 0. 0. 0. 0. 0. 4.17362258e-04 0. 0. 0. 0.
      8.34724517e-04 0. 0. 1.25208674e-02 0. 0. 0. 0. 8.34724517e-04 0.
      0. 0. 0. 0. 0. 0. 0. 0. 0. 0. 0. 0. 4.17362258e-04 0.
      2.08681123e-03 0. 0. 4.17362258e-04 0. 0. 0. 0. 0. 0. 0. 0.
      2.50417367e-03 0. 8.34724517e-04 0. 0. 1.04340566e-02 0. 0. 0. 0.
      0. 3.33889807e-03 0. 4.17362247e-03 1.25208683e-03 0. 0. 0. 0. 0.
      8.34724517e-04 0. 0. 0. 0. 0. 0. 1.00166947e-02 0. 0. 0.
      1.66944903e-03 0. 0. 0. 0. 0. 0. 0. 0. 0. 0. 0. 0. 8.34724517e-04
      0. 0. 0. 8.76460783e-03 0. 0. 0. 0. 4.17362258e-04 0. 0. 0. 0. 0.
      0. 8.34724517e-04 4.17362258e-04 0. 0. 0. 0. 0. 8.34724517e-04
      8.34724517e-04 0. 0. 4.17362258e-04 0. 1.66944903e-03 0.
      8.34724517e-04 0. 0. 0. 0. 0. 0. 0. 0. 4.17362258e-04 0. 0. 0. 0.
      0. 2.50417367e-03 0. 0. 0. 0. 0. 0. 0. 0. 0. 0. 1.83639396e-02 0.
      2.08681123e-03 0. 0. 4.17362258e-04 5.00834733e-03 1.66944903e-03
      2.50417367e-03 0. 1.25208683e-03 0. 4.17362258e-04 0. 0. 0. 0. 0.
      0. 0. 0. 0. 0. 0. 4.17362247e-03 6.26043370e-03 0. 0. 0.
      1.25208683e-03 0. 0. 0. 0. 2.08681123e-03 0. 0. 0. 5.84307173e-03
      0. 0. 0. 0. 0. 0. 0. 0. 0. 0. 0. 0. 0. 0. 0. 4.17362258e-04 0. 0.
      0. 0. 0. 0. 0. 0. 0. 3.75626027e-03 4.17362258e-04 0. 0. 0.
      4.17362258e-04 0. 0. 2.08681123e-03 8.34724517e-04 0. 0.
      4.17362258e-04 4.17362258e-04 0. 0. 0. 0. 0. 0. 0. 0. 0. 0. 0. 0.
      0. 0. 1.08514186e-02 4.17362258e-04 0. 2.92153587e-03 0. 0. 0. 0.
      4.17362258e-04 0. 8.34724517e-04 0. 0. 4.59098490e-03 0. 0. 0. 0.
      0. 0. 0. 0. 0. 0. 0. 0. 0. 4.17362258e-04 0. 0. 0. 0. 0. 0.
      2.08681123e-03 0. 0. 0. 0. 0. 0. 0. 0. 0. 0. 0. 0. 0. 0. 0. 0. 0.
      0. 0. 0. 0. 0. 4.17362258e-04 0. 0. 2.58764606e-02 0. 0. 0. 0. 0.
      0. 0. 4.17362247e-03 0. 4.17362258e-04 0. 0. 1.25208683e-03 0. 0.
      9.59933177e-03 0. 0. 0. 0. 0. 0. 0. 0. 0. 0. 1.41903171e-02 0. 0.
      0. 0. 4.17362258e-04 1.25208683e-03 0. 0. 0. 0. 0. 0. 0.
      4.17362258e-04 0. 8.34724517e-04 0. 0. 0. 4.17362258e-04 0. 0. 0.
      0. 0. 0. 0. 0. 0. 0. 0. 0. 0. 8.34724517e-04 0. 0. 0.
      8.34724517e-04 1.25208683e-03 0. 0. 0. 0. 0. 0. 0. 5.42570930e-03
      0. 0. 4.17362258e-04 0. 0. 0. 0. 0. 0. 0. 0. 8.34724517e-04 0. 0.
      0. 0. 0. 1.08514186e-02 0. 0. 0. 1.25208683e-03 0. 1.66944903e-03
      0. 0. 0. 3.33889807e-03 8.34724517e-04 0. 4.17362258e-04 0. 0. 0.
      0. 0. 0. 3.75626027e-03 0. 4.17362258e-04 0. 0. 0. 0.
      1.66944903e-03 0. 0. 0. 0. 0. 4.17362258e-04 4.17362258e-04 0. 0.
      0. 0. 0. 0. 0. 0. 0. 0. 0. 0. 4.17362258e-04 0. 0. 0.
      8.34724517e-04 0. 0. 0. 5.84307164e-02 0. 0. 4.17362258e-04 0. 0.
      0. 0. 0. 0. 0. 0. 0. 0. 0. 0. 0. 0. 0. 0. 0. 0. 1.66944903e-03
      9.59933177e-03 0. 1.75292157e-02 0. 0. 0. 4.17362258e-04
      1.06427379e-01 0. 0. 1.66944903e-03 0. 0. 0. 0. 0. 0. 0. 0. 0. 0.
      1.66944903e-03 0. 0. 0. 0. 0. 8.34724517e-04 0. 0. 0.
      9.18196980e-03 0. 0. 0. 0. 0. 4.17362258e-04 0. 0. 8.34724517e-04
      0. 0. 1.14357255e-01 0. 3.79799642e-02 0. 4.17362258e-04 0.
      4.17362258e-04 8.34724517e-04 0. 0. 0. 0. 0. 0. 0. 0. 0. 0.
      8.34724517e-04 2.92153587e-03 4.17362258e-04 0. 0. 0. 0. 0.
      1.25208683e-03 1.25208683e-03 0. 0. 0. 0. 0. 0. 0. 0.
      6.26043370e-03 0. 0. 0. 0. 0. 0. 0. 0. 0. 0. 0. 0. 2.92153587e-03
      4.17362258e-04 0. 0. 0. 0. 2.50417367e-03 5.84307173e-03 0.
      3.71452421e-02 0. 0. 0. 0. 0. 0. 0. 0. 0. 0. 0. 0. 0.
      2.08681133e-02 0. 0. 0. 0. 4.17362258e-04</_>
    <_>
      0. 0. 0. 0. 0. 0. 0. 0. 0. 3.54609918e-03 0. 0. 0. 1.77304968e-02
      0. 0. 0. 0. 0. 0. 0. 0. 0. 0. 0. 0. 0. 0. 0. 0. 0. 0. 0. 0. 0. 0.
      0. 0. 0. 0. 0. 0. 0. 0. 0. 0. 0. 0. 0. 0. 0. 0. 0. 0. 0. 0. 0. 0.
      0. 0. 0. 0. 1.77304968e-02 0. 0. 0. 0. 0. 0. 0. 1.06382975e-02
      2.12765951e-02 0. 0. 0. 0. 0. 0. 0. 0. 0. 0. 0. 0. 0. 0.
      1.06382975e-02 0. 0. 2.12765951e-02 0. 3.54609918e-03 0. 0.
      7.09219836e-03 3.54609918e-03 0. 0. 0. 0. 0. 0. 0. 0. 0. 0. 0. 0.
      0. 3.54609918e-03 0. 0. 0. 0. 0. 0. 0. 0. 0. 3.54609918e-03 0. 0.
      0. 0. 0. 0. 0. 0. 0. 0. 0. 3.54609918e-03 0. 0. 0. 3.54609918e-03
      0. 0. 0. 0. 0. 0. 0. 0. 0. 0. 0. 0. 0. 0. 0. 0. 0. 0.
      3.54609918e-03 0. 0. 0. 0. 0. 0. 0. 0. 0. 0. 0. 0. 0. 0. 0. 0. 0.
      0. 0. 0. 0. 0. 0. 1.77304968e-02 0. 0. 0. 0. 0. 0. 0. 0. 0. 0. 0.
      1.41843967e-02 0. 0. 0. 0. 0. 0. 0. 7.09219836e-03 0. 0. 0.
      3.54609918e-03 0. 0. 0. 0. 0. 0. 0. 0. 0. 3.54609918e-03 0.
      3.54609918e-03 0. 0. 0. 0. 0. 0. 0. 1.41843967e-02 0. 0. 0. 0. 0.
      0. 0. 0. 0. 0. 0. 0. 0. 0. 0. 0. 0. 0. 0. 0. 0. 0. 0.
      3.54609918e-03 0. 0. 0. 0. 0. 0. 7.09219836e-03 0. 0.
      3.54609918e-03 0. 0. 0. 0. 0. 0. 0. 0. 1.41843967e-02 0. 0. 0. 0.
      0. 0. 0. 0. 0. 0. 0. 0. 0. 0. 3.54609918e-03 0. 0. 3.54609918e-03
      0. 0. 0. 0. 0. 0. 0. 0. 0. 0. 0. 3.54609918e-03 0. 3.54609918e-03
      0. 0. 0. 0. 3.54609918e-03 0. 0. 0. 0. 3.54609918e-03 0. 0. 0. 0.
      0. 0. 0. 0. 0. 0. 0. 0. 0. 0. 0. 0. 0. 0. 0. 0. 0. 0. 0. 0. 0. 0.
      0. 0. 0. 1.41843967e-02 0. 0. 0. 0. 0. 0. 0. 0. 0. 0. 0. 0.
      3.54609918e-03 0. 0. 0. 0. 0. 3.54609918e-03 0. 0. 0. 0. 0. 0. 0.
      0. 0. 3.54609918e-03 0. 0. 3.54609918e-03 0. 0. 0. 0.
      5.31914867e-02 3.54609918e-03 0. 0. 0. 0. 0. 0. 0. 3.54609918e-03
      0. 0. 3.54609918e-03 0. 0. 0. 0. 0. 0. 0. 3.54609918e-03
      2.83687934e-02 0. 0. 0. 0. 0. 0. 0. 0. 0. 0. 0. 0. 0.
      7.09219836e-03 0. 0. 0. 7.09219836e-03 0. 0. 0. 0. 0. 0. 0. 0. 0.
      3.54609918e-03 0. 0. 0. 0. 0. 0. 0. 0. 0. 0. 0. 7.09219836e-03 0.
      0. 0. 0. 0. 0. 3.54609918e-03 0. 0. 0. 0. 0. 0. 0. 0. 0.
      7.09219836e-03 0. 0. 0. 0. 7.09219836e-03 0. 0. 0. 0. 0.
      3.54609918e-03 0. 0. 0. 0. 7.09219836e-03 0. 0. 0. 0. 0. 0. 0. 0.
      0. 0. 0. 0. 0. 0. 3.54609918e-03 3.54609918e-03 0. 0. 0. 0. 0. 0.
      0. 0. 0. 0. 0. 0. 0. 0. 0. 0. 0. 0. 0. 4.96453866e-02
      3.54609918e-03 0. 0. 0. 1.06382975e-02 0. 0. 0. 0. 0. 0.
      3.54609918e-03 7.09219836e-03 0. 0. 0. 0. 0. 7.09219836e-03 0. 0.
      3.54609918e-03 0. 0. 7.09219836e-03 0. 1.77304968e-02 0. 0. 0. 0.
      0. 0. 0. 0. 0. 0. 0. 0. 0. 0. 0. 3.54609918e-03 0. 0. 0. 0. 0. 0.
      0. 0. 0. 0. 0. 0. 0. 0. 0. 2.12765951e-02 0. 4.25531901e-02 0. 0.
      0. 0. 3.54609918e-03 0. 0. 0. 0. 0. 0. 0. 0. 0. 0. 0. 0. 0. 0. 0.
      3.54609918e-03 0. 0. 0. 0. 0. 0. 0. 0. 0. 0. 0. 0. 0. 0. 0. 0. 0.
      0. 0. 0. 0. 0. 0. 0. 0. 0. 0. 0. 0. 0. 0. 0. 0. 0. 0. 0. 0. 0.
      3.54609918e-03 3.54609918e-03 0. 0. 0. 0. 0. 0. 0. 0. 0. 0. 0. 0.
      0. 0. 0. 0. 0. 0. 0. 0. 0. 0. 0. 0. 0. 0. 0. 0. 0. 0. 0. 0.
      1.41843967e-02 0. 0. 1.41843967e-02 0. 0. 0. 0. 0. 0. 0. 0. 0. 0.
      0. 3.54609918e-03 0. 0. 0. 0. 0. 0. 0. 0. 1.77304968e-02 0. 0. 0.
      0. 0. 0. 0. 0. 0. 0. 0. 0. 0. 1.06382975e-02 0. 0. 0. 0. 0.
      3.54609918e-03 0. 0. 0. 0. 0. 0. 0. 0. 0. 0. 0. 0. 0.
      8.51063803e-02 1.06382975e-02 0. 0. 0. 0. 0. 0. 1.06382975e-02 0.
      0. 0. 0. 0. 0. 0. 0. 0. 0. 0. 7.09219836e-03 0. 0. 0. 0. 0. 0. 0.
      0. 0. 0. 0. 0. 0. 0. 0. 0. 0. 0. 0. 0. 0. 0. 0. 0. 0. 0. 0. 0. 0.
      0. 0. 0. 3.54609918e-03 0. 0. 0. 0. 0. 7.09219836e-03 0. 0.
      3.54609918e-03 0. 0. 0. 1.41843967e-02 0. 0. 0. 0. 0. 0. 0. 0. 0.
      0. 0. 0. 0. 0. 0. 0. 0. 0. 0. 0. 0. 2.83687934e-02 0. 0. 0. 0. 0.
      3.54609918e-03 0. 0. 0. 0. 0. 0. 0. 0. 0. 0. 0. 0. 0. 0. 0. 0. 0.
      0. 0. 0. 2.12765951e-02 0. 0. 0. 0. 0. 0. 0. 0. 0. 0. 0. 0. 0. 0.
      0. 0. 0. 7.09219836e-03 0. 0. 0. 3.54609918e-03 0. 0. 0. 0.
      3.54609918e-03 3.54609918e-03 0. 0. 0. 7.09219836e-03 0. 0. 0. 0.
      3.54609918e-03 0. 0. 0. 0. 0. 3.54609918e-03 0. 0. 3.54609918e-03
      0. 0. 0. 0. 0. 0. 0. 3.54609918e-03 0. 0. 1.41843967e-02 0. 0. 0.
      0. 0. 0. 0. 0. 0. 0. 0. 0. 0. 0. 0. 0. 0. 0. 0. 0. 0. 0. 0. 0. 0.
      0. 0. 0. 0. 0. 3.54609918e-03 0. 0. 0. 0. 0. 0. 0. 0. 0. 0. 0.
      3.54609918e-03 0. 0. 0. 0. 0. 0. 0. 0. 0. 0. 0. 0. 0. 0. 0.
      1.77304968e-02 0. 0. 0. 0. 0. 0. 0. 0. 0. 0. 0. 0. 0. 0. 0. 0. 0.
      0. 0. 0. 0. 0. 0. 0. 0. 0. 0. 0. 0. 2.48226933e-02 0. 0. 0. 0. 0.
      0. 0. 0. 0. 0. 0. 0. 0. 0. 0. 1.41843967e-02 0. 0. 0. 0. 0.</_>
    <_>
      0. 0. 0. 1.40845068e-02 0. 0. 0. 0. 0. 0. 0. 0. 2.01207236e-03
      4.02414473e-03 0. 0. 0. 0. 0. 4.02414473e-03 0. 0. 0. 0. 0. 0. 0.
      0. 0. 0. 0. 0. 0. 2.01207236e-03 0. 0. 0. 0. 0. 0. 0. 0.
      6.03621732e-03 0. 0. 0. 1.81086510e-02 0. 2.01207236e-03
      2.01207236e-03 0. 0. 0. 0. 1.95171013e-01 0. 0. 0. 0. 0. 0. 0. 0.
      0. 2.01207236e-03 0. 0. 0. 0. 0. 0. 0. 0. 0. 0. 0. 1.83098584e-01
      0. 2.01207236e-03 0. 0. 6.03621732e-03 0. 0. 0. 0. 0. 0.
      2.01207236e-03 8.04828946e-03 0. 0. 0. 0. 0. 0. 2.01207236e-03 0.
      0. 0. 0. 0. 0. 0. 0. 0. 0. 0. 2.01207236e-03 0. 0. 0. 0. 0. 0.
      6.03621732e-03 2.01207236e-03 0. 0. 0. 0. 0. 0. 0. 0. 0. 0. 0. 0.
      4.02414473e-03 0. 2.01207236e-03 0. 0. 0. 2.01207236e-03 0. 0. 0.
      0. 0. 0. 0. 0. 0. 0. 0. 0. 0. 0. 0. 0. 0. 0. 0. 0. 5.03018089e-02
      2.01207236e-03 0. 0. 0. 0. 0. 2.01207236e-03 0. 0. 0. 0. 0. 0. 0.
      0. 0. 0. 2.01207236e-03 0. 0. 0. 0. 0. 4.02414473e-03 0. 0. 0. 0.
      0. 0. 0. 0. 0. 0. 0. 2.01207236e-03 0. 0. 0. 0. 0. 2.01207236e-03
      0. 2.01207236e-03 0. 0. 2.01207236e-03 0. 0. 0. 0. 0. 0. 0. 0. 0.
      0. 0. 0. 0. 0. 0. 2.01207236e-03 0. 0. 0. 0. 0. 0. 0. 0. 0.
      1.00603616e-02 0. 0. 0. 0. 0. 0. 0. 0. 0. 2.01207236e-03 0.
      4.02414473e-03 0. 2.01207236e-03 0. 0. 2.01207236e-03 0. 0. 0. 0.
      0. 0. 0. 0. 0. 0. 0. 0. 0. 0. 0. 0. 0. 0. 0. 0. 0. 0.
      2.01207236e-03 0. 2.01207236e-03 0. 0. 0. 0. 0. 6.03621732e-03 0.
      0. 0. 2.01207236e-03 0. 2.01207236e-03 0. 0. 0. 0. 0. 0. 0. 0. 0.
      0. 0. 1.60965789e-02 0. 0. 0. 0. 0. 0. 0. 4.02414473e-03 0. 0. 0.
      0. 0. 0. 0. 0. 0. 0. 0. 0. 0. 0. 2.01207236e-03 0. 0. 0. 0. 0. 0.
      0. 0. 2.01207236e-03 0. 0. 0. 0. 0. 0. 2.01207236e-03 0. 0.
      2.01207236e-03 0. 0. 0. 0. 0. 0. 0. 0. 0. 0. 0. 0. 0. 0. 0. 0. 0.
      0. 2.01207236e-03 0. 0. 0. 0. 2.01207236e-03 0. 0. 0. 0. 0.
      8.04828946e-03 0. 0. 0. 0. 0. 0. 0. 0. 0. 0. 0. 0. 0.
      4.02414473e-03 1.20724346e-02 0. 0. 0. 2.01207236e-03 0. 0. 0.
      6.03621732e-03 0. 0. 0. 0. 4.02414473e-03 0. 0. 0. 0. 0. 0. 0. 0.
      0. 0. 0. 0. 0. 0. 0. 2.01207236e-03 0. 0. 0. 0. 4.02414473e-03 0.
      0. 0. 0. 0. 0. 0. 0. 0. 0. 0. 0. 6.03621732e-03 0. 0. 0. 0. 0. 0.
      0. 0. 0. 0. 0. 0. 0. 0. 0. 0. 0. 4.02414473e-03 0. 0. 0. 0. 0. 0.
      0. 0. 0. 0. 0. 0. 0. 0. 0. 0. 0. 0. 0. 0. 0. 0. 0. 0. 0. 0. 0. 0.
      0. 0. 0. 0. 0. 0. 0. 0. 0. 0. 6.03621732e-03 0. 0. 0. 0. 0. 0. 0.
      0. 0. 0. 0. 6.03621732e-03 0. 0. 0. 0. 0. 4.02414463e-02 0. 0. 0.
      0. 8.04828946e-03 0. 0. 0. 0. 0. 0. 0. 0. 0. 0. 0. 0. 0. 0. 0. 0.
      0. 0. 0. 3.62173021e-02 0. 0. 0. 0. 0. 0. 3.82293761e-02 0. 0. 0.
      0. 0. 0. 0. 0. 0. 0. 0. 0. 0. 0. 0. 0. 0. 0. 0. 0. 0. 0. 0. 0. 0.
      0. 0. 0. 0. 0. 0. 0. 0. 0. 0. 0. 0. 2.01207236e-03 6.03621732e-03
      2.01207236e-03 0. 0. 0. 0. 0. 0. 0. 0. 0. 0. 0. 0. 0. 0. 0. 0. 0.
      0. 0. 0. 0. 0. 0. 0. 0. 0. 0. 0. 0. 0. 0. 0. 0. 0. 0. 0. 0. 0. 0.
      6.03621732e-03 0. 0. 0. 0. 0. 0. 0. 0. 0. 0. 0. 0. 0.
      2.01207236e-03 0. 0. 0. 0. 0. 0. 0. 0. 0. 0. 0. 0. 0. 0. 0. 0. 0.
      0. 0. 0. 0. 0. 0. 0. 0. 0. 0. 0. 0. 0. 0. 0. 0. 0. 0. 0. 0. 0. 0.
      0. 0. 2.01207236e-03 0. 0. 0. 0. 0. 4.02414473e-03 0. 0. 0. 0.
      2.01207236e-03 0. 0. 0. 0. 0. 0. 0. 0. 0. 0. 0. 0. 0. 0. 0. 0. 0.
      0. 0. 4.02414473e-03 0. 0. 0. 0. 0. 0. 0. 0. 0. 0. 0. 0.
      4.02414473e-03 0. 0. 0. 0. 0. 2.81690136e-02 0. 0. 0. 0. 0. 0. 0.
      0. 0. 0. 0. 0. 0. 0. 0. 0. 0. 0. 0. 2.01207236e-03 0. 0. 0. 0. 0.
      0. 0. 0. 0. 0. 0. 0. 0. 0. 0. 0. 0. 0. 0. 0. 0. 0. 0. 0. 0. 0. 0.
      2.01207236e-03 0. 2.01207236e-03 0. 0. 0. 0. 0. 0. 0. 0. 0.
      1.20724346e-02 4.02414473e-03 0. 0. 0. 0. 0. 0. 0. 0. 0. 0. 0. 0.
      6.03621732e-03 0. 0. 0. 0. 0. 0. 0. 0. 4.02414473e-03 0. 0. 0. 0.
      0. 0. 0. 0. 0. 0. 0. 2.01207236e-03 0. 0. 0. 0. 0. 0. 0. 0. 0. 0.
      6.03621732e-03 0. 4.02414473e-03 0. 0. 0. 2.01207236e-03 0. 0. 0.
      0. 0. 0. 0. 2.01207236e-03 0. 0. 0. 0. 0. 0. 0. 0. 2.01207236e-03
      0. 0. 0. 0. 6.03621732e-03 0. 0. 0. 0. 0. 0. 0. 2.01207236e-03 0.
      0. 0. 0. 0. 0. 0. 0. 0. 0. 2.01207236e-03 2.01207236e-03 0.
      2.01207236e-03 0. 0. 3.21931578e-02 0. 0. 0. 0. 2.01207236e-03 0.
      0. 0. 0. 0. 0. 2.01207236e-03 0. 0. 0. 0. 0. 0. 0. 0. 0. 0.
      2.01207236e-03 0. 0. 0. 0. 0. 0. 0. 0. 0. 0. 0. 0. 0.
      2.01207236e-03 0. 0. 0. 4.02414473e-03 0. 0. 0. 0. 0. 0. 0. 0. 0.
      0. 0. 0. 0. 0. 0. 0. 0. 0. 4.02414473e-03 4.02414473e-03 0. 0. 0.
      2.01207236e-03 0. 0. 4.02414473e-03 0. 0. 0. 0. 0. 0. 0. 0. 0. 0.
      0. 0. 0. 0. 0. 0. 0. 0. 0. 0. 0. 0. 0. 0. 0. 0. 0. 0. 0. 0.
      1.20724346e-02 0. 0. 0. 0. 0. 0. 2.01207236e-03 0. 0. 0. 0. 0. 0.
      2.01207236e-03 0. 0. 0. 0. 2.01207236e-03</_>
    <_>
      0. 0. 0. 1.29611166e-02 0. 0. 3.98803595e-03 0. 0. 0. 0. 0. 0.
      3.98803577e-02 0. 0. 0. 0. 0. 0. 0. 0. 0. 9.97008989e-04 0. 0. 0.
      5.98205393e-03 0. 5.98205393e-03 0. 0. 0. 9.97008989e-04 0. 0. 0.
      0. 0. 0. 0. 1.99401798e-03 2.99102697e-03 4.98504471e-03 0. 0. 0.
      0. 0. 2.19341982e-02 0. 0. 0. 0. 5.08474596e-02 9.97008989e-04
      9.97008989e-04 1.99401798e-03 0. 0. 0. 0. 8.97308066e-03 0. 0.
      1.99401798e-03 0. 0. 0. 0. 9.97008989e-04 1.99401798e-03 0. 0. 0.
      1.99401798e-03 9.57128629e-02 9.97008989e-04 9.97008989e-04 0. 0.
      4.98504471e-03 0. 0. 0. 0. 0. 0. 0. 3.98803595e-03 9.97008989e-04
      0. 0. 0. 0. 0. 0. 0. 1.99401798e-03 0. 0. 0. 0. 0. 0.
      6.97906315e-03 0. 0. 0. 9.97008989e-04 1.99401798e-03 0. 0.
      1.19641079e-02 0. 0. 0. 0. 0. 9.97008989e-04 0. 0. 0.
      9.97008989e-04 0. 1.99401798e-03 9.97008989e-04 0. 0. 0. 0. 0.
      9.97008989e-04 0. 0. 0. 0. 0. 0. 0. 0. 0. 0. 0. 9.97008989e-04 0.
      0. 0. 0. 0. 0. 0. 0. 0. 0. 0. 1.99401798e-03 0. 0. 0. 0.
      1.99401798e-03 0. 0. 0. 1.99401798e-03 0. 0. 0. 0. 0. 0. 0. 0. 0.
      0. 0. 0. 2.99102697e-03 0. 0. 0. 0. 0. 0. 0. 0. 0. 0. 0.
      2.99102697e-03 0. 0. 0. 0. 0. 0. 0. 0. 0. 0. 0. 0. 0. 0.
      1.99401798e-03 0. 0. 0. 9.97008989e-04 0. 0. 0. 0. 0. 0. 0. 0. 0.
      0. 0. 0. 0. 0. 0. 0. 0. 0. 0. 0. 0. 0. 0. 9.97008989e-04 0. 0. 0.
      0. 0. 1.99401798e-03 0. 0. 0. 0. 0. 0. 1.09670991e-02 0. 0.
      9.97008989e-04 0. 0. 9.97008989e-04 9.97008989e-04 0. 0. 0. 0. 0.
      0. 9.97008989e-04 9.97008989e-04 0. 0. 0. 7.97607191e-03 0. 0.
      1.09670991e-02 0. 0. 2.99102697e-03 9.97008989e-04 0. 0. 0. 0. 0.
      0. 0. 9.97008989e-04 9.97008989e-04 0. 0. 0. 0. 0. 0.
      1.79461613e-02 0. 1.99401798e-03 0. 0. 0. 9.97008989e-04
      2.69192420e-02 0. 0. 0. 0. 9.97008989e-04 0. 0. 1.99401798e-03 0.
      0. 0. 0. 0. 0. 0. 0. 0. 0. 0. 0. 0. 0. 2.39282157e-02 0. 0. 0. 0.
      9.97008989e-04 0. 0. 1.19641079e-02 0. 0. 0. 9.97008989e-04
      9.97008989e-04 0. 0. 0. 0. 0. 1.99401798e-03 0. 0. 0. 0. 0. 0. 0.
      9.97008989e-04 9.97008989e-04 0. 0. 0. 0. 0. 0. 0. 0. 0. 0. 0. 0.
      0. 0. 0. 0. 0. 1.99401798e-03 0. 0. 0. 0. 1.99401798e-03 0. 0. 0.
      0. 0. 7.97607191e-03 0. 0. 0. 0. 9.97008989e-04 0. 1.09670991e-02
      0. 0. 0. 9.97008989e-04 2.99102697e-03 0. 0. 5.98205393e-03
      1.79461613e-02 0. 4.98504471e-03 0. 0. 0. 0. 0. 0. 0. 0. 0. 0. 0.
      0. 1.99401798e-03 0. 0. 0. 0. 0. 0. 9.97008989e-04 0. 0.
      9.97008989e-04 5.98205393e-03 7.97607191e-03 0. 1.99401798e-03 0.
      0. 0. 1.99401798e-03 0. 0. 0. 9.97008989e-04 0. 0. 0. 0. 0. 0.
      5.98205393e-03 0. 0. 0. 9.97008989e-04 0. 0. 0. 0. 0. 0. 0.
      3.98803595e-03 0. 0. 0. 0. 0. 0. 0. 0. 2.99102697e-03
      9.97008989e-04 9.97008989e-04 0. 2.99102697e-03 9.97008989e-04 0.
      9.97008989e-04 0. 0. 0. 0. 6.97906315e-03 0. 0. 0. 0. 0. 0. 0. 0.
      0. 0. 0. 0. 0. 0. 0. 2.99102697e-03 0. 1.99401798e-03 0. 0. 0. 0.
      0. 0. 2.99102697e-03 0. 0. 9.97008989e-04 0. 0. 0. 3.98803595e-03
      0. 0. 0. 0. 0. 0. 0. 0. 9.97008989e-04 0. 0. 0. 0. 0.
      2.99102697e-03 0. 0. 0. 0. 2.99102697e-03 0. 0. 0. 0. 0. 0. 0.
      1.99401798e-03 0. 0. 0. 0. 0. 0. 0. 1.99401798e-03 0. 0. 0. 0. 0.
      0. 0. 0. 0. 0. 0. 0. 0. 0. 0. 0. 1.39581263e-02 0. 0. 0. 0. 0. 0.
      0. 2.99102697e-03 0. 9.97008989e-04 0. 0. 0. 0. 0. 3.98803595e-03
      0. 0. 0. 0. 0. 0. 0. 0. 0. 9.97008989e-04 0. 0. 0. 0. 0. 0. 0. 0.
      0. 0. 1.99401798e-03 0. 0. 0. 9.97008989e-04 0. 0. 0. 0.
      6.97906315e-03 0. 0. 0. 0. 0. 0. 0. 9.97008989e-04 0. 0. 0.
      4.98504471e-03 0. 5.98205393e-03 0. 0. 6.97906315e-03 0. 0. 0. 0.
      0. 0. 0. 0. 5.98205393e-03 0. 0. 0. 0. 0. 0. 0. 9.97008989e-04 0.
      9.97008989e-04 0. 0. 0. 0. 0. 0. 0. 2.99102697e-03 0.
      1.99401798e-03 0. 0. 0. 0. 0. 0. 1.99401798e-03 9.97008989e-04 0.
      0. 2.99102697e-03 0. 1.99401798e-03 0. 9.97008989e-04 0.
      7.97607191e-03 0. 0. 9.97008989e-04 0. 0. 0. 0. 0. 0. 0. 0. 0. 0.
      0. 0. 9.97008989e-04 0. 0. 0. 0. 6.97906315e-03 0. 9.97008989e-04
      0. 0. 0. 0. 5.98205393e-03 0. 0. 0. 0. 0. 3.98803595e-03
      9.97008989e-04 0. 0. 0. 0. 0. 9.97008989e-04 0. 0. 9.97008989e-04
      0. 0. 7.97607191e-03 0. 2.69192420e-02 1.99401798e-03 0. 0. 0.
      9.97008989e-04 0. 0. 0. 0. 9.97008989e-04 0. 0. 0. 7.97607191e-03
      0. 0. 0. 9.97008989e-04 0. 9.97008989e-04 1.09670991e-02 0. 0. 0.
      0. 0. 0. 0. 0. 0. 0. 0. 3.98803595e-03 0. 0. 1.59521438e-02 0. 0.
      0. 0. 0. 0. 1.99401798e-03 0. 0. 0. 0. 0. 0. 0. 0. 0.
      9.97008989e-04 0. 0. 0. 0. 0. 0. 0. 6.97906315e-03 0. 0. 0. 0. 0.
      0. 9.97008989e-04 0. 0. 2.89132614e-02 0. 0. 0. 0. 0.
      4.98504471e-03 0. 0. 1.99401798e-03 0. 0. 0. 0. 0. 0. 0. 0. 0.
      9.97008989e-04 0. 0. 0. 0. 0. 9.97008989e-04 0. 0. 0. 0. 0. 0. 0.
      0. 9.97008989e-04 0. 0. 0. 0. 9.97008989e-04 0. 0. 0. 0. 0. 0. 0.
      0. 9.97008989e-04 0. 0. 0. 0. 0. 0. 0. 0. 0. 0. 0. 0. 0. 0. 0. 0.
      0. 0. 0. 0. 3.98803595e-03 0. 0. 0. 0. 2.99102697e-03 0. 0. 0. 0.
      0. 0. 0. 0. 0. 0. 0. 0. 0. 1.99401798e-03 0. 0. 0. 0. 0.
      1.99401798e-03 0. 0. 9.97008989e-04 0. 1.99401798e-03 0. 0. 0. 0.
      8.97308066e-03 0. 0. 9.97008989e-04 0. 0. 0. 0. 9.97008989e-04 0.
      0. 0. 0. 0. 0. 0. 0. 0. 4.98504471e-03 0. 0. 0. 0. 0.
      1.99401798e-03 0. 0. 1.99401798e-03 0. 0. 0. 0. 1.99401798e-03 0.
      0. 9.97008989e-04 0. 0. 6.67996034e-02 0. 0. 0. 0. 9.97008989e-04
      0. 0. 4.98504471e-03 0. 6.97906315e-03 0. 0. 0. 3.98803595e-03
      9.97008989e-04 0. 0. 0. 0. 0. 0. 0. 0. 0. 0. 0. 0. 0. 0. 0. 0. 0.
      9.97008989e-04 0. 9.97008989e-04 0. 9.97008989e-04 0. 0. 0. 0. 0.
      0. 0. 0. 0. 9.97008989e-04 9.97008989e-04 0. 0. 0. 0. 0. 0. 0. 0.
      0. 1.09670991e-02 0. 0. 0. 0. 5.98205393e-03 0. 0. 0. 0. 0. 0.
      2.19341982e-02 0. 0. 1.99401798e-03 0. 0.</_>
    <_>
      0. 0. 0. 0. 0. 0. 4.92957756e-02 0. 0. 0. 0. 2.34741787e-03 0.
      2.34741792e-02 0. 0. 0. 0. 0. 4.69483575e-03 0. 1.17370896e-02 0.
      4.69483575e-03 0. 0. 0. 9.38967150e-03 0. 2.34741787e-03 0. 0. 0.
      0. 0. 0. 0. 0. 0. 0. 0. 0. 0. 0. 4.69483575e-03 0. 0. 0. 0. 0. 0.
      0. 0. 0. 0. 0. 0. 0. 0. 0. 0. 0. 9.38967150e-03 0. 0. 0. 0. 0. 0.
      0. 4.69483575e-03 0. 0. 0. 0. 0. 0. 0. 0. 0. 0. 0. 0. 0. 0. 0.
      1.40845068e-02 0. 0. 1.64319258e-02 7.04225339e-03 0. 0. 0.
      3.75586860e-02 2.34741787e-03 0. 0. 0. 0. 0. 0. 0. 4.69483575e-03
      0. 4.69483575e-03 0. 0. 0. 0. 2.34741787e-03 0. 0. 0. 0. 0. 0. 0.
      0. 0. 0. 0. 0. 0. 0. 0. 0. 0. 0. 2.34741787e-03 0. 2.34741787e-03
      0. 0. 0. 2.34741787e-03 0. 0. 0. 0. 0. 0. 0. 0. 0. 0. 0. 0. 0. 0.
      0. 0. 0. 0. 0. 0. 0. 0. 2.34741787e-03 0. 0. 7.04225339e-03 0. 0.
      0. 0. 0. 0. 0. 0. 0. 0. 0. 0. 0. 0. 0. 0. 2.34741787e-03 0.
      2.34741787e-03 0. 0. 0. 0. 0. 0. 0. 4.69483575e-03 0.
      2.34741787e-03 0. 0. 0. 0. 0. 0. 0. 1.17370896e-02 0. 0. 0.
      2.58215964e-02 0. 0. 0. 0. 0. 0. 0. 0. 0. 0. 7.04225339e-03 0. 0.
      0. 0. 0. 2.34741787e-03 0. 0. 2.34741792e-02 0. 0. 4.69483575e-03
      0. 0. 0. 0. 0. 0. 0. 0. 0. 0. 0. 0. 2.34741787e-03 0.
      2.34741787e-03 0. 0. 0. 0. 0. 0. 0. 0. 1.17370896e-02 0. 0. 0. 0.
      0. 0. 0. 0. 0. 0. 0. 0. 0. 0. 0. 3.05164326e-02 0. 0. 0. 0. 0. 0.
      0. 0. 0. 0. 0. 0. 0. 0. 1.17370896e-02 0. 0. 0. 0. 0. 0. 0. 0. 0.
      0. 0. 0. 2.34741787e-03 0. 0. 0. 0. 0. 0. 0. 0. 0. 0. 0. 0. 0. 0.
      0. 0. 0. 0. 0. 7.04225339e-03 0. 0. 0. 0. 0. 0. 0. 0. 0. 0. 0. 0.
      1.64319258e-02 0. 0. 0. 0. 0. 0. 0. 0. 0. 0. 4.69483575e-03 0. 0.
      0. 0. 0. 0. 0. 2.34741787e-03 0. 0. 0. 0. 7.04225339e-03 0. 0. 0.
      0. 0. 0. 0. 0. 2.34741787e-03 0. 0. 0. 0. 0. 2.34741787e-03
      2.34741787e-03 0. 0. 0. 0. 0. 0. 0. 2.34741787e-03 0. 0. 0. 0. 0.
      0. 0. 0. 0. 0. 0. 0. 0. 0. 0. 0. 0. 0. 0. 9.38967150e-03
      1.87793430e-02 0. 0. 0. 0. 0. 0. 0. 0. 0. 0. 0. 0. 0.
      2.11267602e-02 0. 0. 0. 0. 0. 0. 0. 0. 0. 0. 0. 0. 0.
      4.69483575e-03 0. 0. 0. 0. 2.34741787e-03 0. 0. 0. 0. 0. 0.
      1.17370896e-02 0. 0. 0. 0. 0. 0. 2.34741787e-03 0. 0. 0. 0.
      2.34741787e-03 0. 0. 0. 0. 0. 0. 0. 0. 0. 0. 2.34741787e-03 0. 0.
      9.38967150e-03 0. 2.34741787e-03 0. 0. 0. 0. 0. 0. 0. 0. 0. 0. 0.
      0. 0. 0. 0. 0. 2.34741787e-03 0. 0. 0. 2.34741787e-03 0. 0.
      2.34741787e-03 0. 0. 0. 0. 0. 0. 0. 0. 0. 0. 0. 0. 4.69483575e-03
      0. 0. 0. 1.64319258e-02 0. 0. 0. 0. 1.40845068e-02 0. 0. 0. 0. 0.
      0. 2.34741787e-03 2.34741787e-03 4.69483575e-03 0. 0. 0. 0. 0.
      2.11267602e-02 0. 0. 0. 0. 0. 0. 1.17370896e-02 0. 0. 0. 0. 0. 0.
      0. 0. 0. 0. 0. 0. 0. 0. 0. 0. 0. 0. 0. 0. 0. 0. 0. 0. 0. 0. 0.
      2.34741787e-03 2.34741787e-03 0. 2.34741787e-03 4.46009412e-02 0.
      3.28638516e-02 0. 0. 0. 0. 0. 0. 0. 0. 0. 2.34741787e-03 0. 0.
      4.69483575e-03 0. 2.34741787e-03 2.34741787e-03 0. 0. 0. 0.
      4.69483575e-03 0. 0. 0. 0. 0. 0. 0. 0. 0. 0. 0. 0. 0. 0. 0. 0. 0.
      0. 0. 0. 0. 0. 0. 0. 7.04225339e-03 0. 0. 0. 0. 0. 0. 0. 0. 0.
      2.34741787e-03 0. 0. 0. 4.69483575e-03 0. 0. 0. 0. 0. 0. 0.
      7.04225339e-03 0. 0. 0. 0. 2.34741787e-03 0. 0. 0. 0. 0. 0. 0. 0.
      0. 0. 4.69483575e-03 0. 0. 1.17370896e-02 0. 0. 0. 2.34741787e-03
      0. 0. 0. 0. 0. 0. 2.34741787e-03 0. 0. 0. 0. 0. 0. 0. 0. 0. 0. 0.
      0. 0. 0. 0. 0. 0. 0. 0. 1.17370896e-02 0. 0. 0. 0. 9.38967150e-03
      0. 0. 0. 0. 0. 0. 0. 0. 0. 0. 0. 0. 0. 0. 2.34741787e-03 0. 0. 0.
      0. 0. 0. 0. 0. 0. 0. 0. 0. 0. 2.11267602e-02 2.34741787e-03 0. 0.
      0. 0. 0. 0. 2.81690136e-02 0. 0. 0. 0. 0. 0. 0. 0. 0. 0.
      1.17370896e-02 2.34741787e-03 0. 0. 0. 0. 2.34741787e-03 0. 0. 0.
      0. 0. 0. 0. 0. 0. 0. 0. 0. 0. 0. 0. 0. 0. 0. 0. 0. 0. 0. 0. 0. 0.
      0. 0. 0. 0. 1.17370896e-02 0. 0. 2.34741787e-03 0. 0. 0. 0. 0. 0.
      0. 7.04225339e-03 0. 0. 0. 0. 0. 0. 0. 0. 0. 0. 0. 0. 0.
      2.34741787e-03 0. 0. 0. 9.38967150e-03 0. 0. 0. 7.04225339e-03 0.
      0. 0. 0. 0. 0. 0. 0. 0. 0. 0. 2.34741787e-03 0. 0. 0.
      2.34741787e-03 0. 0. 0. 0. 0. 0. 2.34741787e-03 0. 0.
      2.34741787e-03 1.17370896e-02 0. 2.34741787e-03 0. 0. 0. 0. 0. 0.
      0. 0. 0. 0. 0. 0. 0. 0. 0. 1.17370896e-02 0. 7.04225339e-03 0. 0.
      0. 2.34741787e-03 0. 0. 0. 0. 0. 0. 0. 0. 0. 0. 0. 0. 0. 0. 0. 0.
      0. 0. 0. 0. 0. 1.17370896e-02 4.69483575e-03 0. 2.34741787e-03 0.
      0. 0. 0. 2.34741787e-03 0. 0. 0. 0. 7.04225339e-03 0. 0. 0. 0. 0.
      0. 0. 0. 2.34741787e-03 0. 0. 0. 0. 0. 0. 0. 0. 0. 7.04225339e-03
      0. 0. 0. 0. 0. 2.34741787e-03 0. 0. 0. 0. 0. 0. 0. 1.40845068e-02
      0. 0. 0. 0. 0. 0. 0. 0. 0. 0. 0. 0. 0. 0. 0. 0. 0. 0. 0. 0. 0. 0.
      0. 4.69483575e-03 9.38967150e-03 0. 0. 0. 0. 0. 0. 0. 0.
      2.34741787e-03 0. 0. 0. 0. 0. 0. 0. 0. 0. 0. 0. 0. 0.
      2.34741787e-03 0. 0. 0. 0. 4.69483575e-03 2.34741787e-03 0. 0. 0.
      0. 0. 0. 0. 0. 0. 0. 0. 0. 0. 0. 0. 0. 0. 0. 0. 0. 0.</_>
    <_>
      0. 3.24149104e-03 0. 0. 0. 0. 3.07941642e-02 0. 0. 0. 0. 0. 0.
      2.43111830e-02 0. 0. 0. 0. 0. 0. 0. 1.29659642e-02 0.
      3.24149104e-03 0. 0. 0. 1.62074552e-03 1.62074552e-03
      1.62074552e-03 0. 0. 0. 0. 0. 0. 0. 0. 0. 0. 0. 1.62074552e-03 0.
      0. 3.24149104e-03 0. 0. 0. 0. 0. 0. 0. 0. 0. 0. 1.62074552e-03 0.
      0. 0. 0. 0. 0. 3.72771472e-02 0. 0. 1.62074552e-03 1.62074552e-03
      0. 0. 1.62074552e-03 3.24149104e-03 8.10372736e-03 0. 0. 0. 0. 0.
      0. 0. 1.62074552e-03 0. 0. 1.62074552e-03 0. 0. 0. 1.94489472e-02
      0. 0. 8.10372736e-03 3.24149104e-03 6.48298208e-03 0. 0.
      3.40356566e-02 0. 0. 0. 0. 0. 0. 0. 0. 0. 0. 6.48298208e-03 0. 0.
      0. 0. 3.24149104e-03 0. 0. 0. 0. 0. 0. 0. 0. 0. 0. 0. 0.
      3.24149104e-03 0. 0. 0. 0. 0. 0. 0. 6.48298208e-03 0. 0. 0.
      3.24149104e-03 0. 0. 0. 0. 0. 0. 0. 0. 0. 0. 0. 0. 0. 0. 0. 0. 0.
      0. 0. 0. 0. 0. 0. 0. 0. 8.10372736e-03 0. 0. 0. 3.24149104e-03 0.
      0. 0. 0. 0. 0. 0. 0. 0. 0. 0. 0. 3.24149104e-03 0. 3.24149104e-03
      0. 0. 0. 0. 0. 0. 0. 0. 0. 0. 0. 1.62074552e-03 0. 0. 0. 0. 0.
      8.10372736e-03 0. 1.62074552e-03 0. 2.75526736e-02 0. 0. 0. 0. 0.
      0. 0. 0. 0. 0. 1.62074552e-03 0. 0. 0. 0. 0. 1.29659642e-02 0. 0.
      1.94489472e-02 0. 0. 0. 0. 0. 0. 0. 0. 3.24149104e-03 0.
      1.62074552e-03 0. 0. 0. 0. 0. 0. 0. 0. 0. 0. 0. 0. 0. 0. 0.
      4.86223679e-03 0. 0. 0. 0. 0. 1.62074552e-03 0. 0. 0. 0. 0. 0. 0.
      0. 0. 3.88978943e-02 0. 3.24149104e-03 0. 0. 0. 0. 0. 0. 0. 0. 0.
      0. 1.62074552e-03 0. 1.45867094e-02 0. 0. 0. 0. 0. 0. 0. 0. 0.
      3.24149104e-03 0. 0. 3.24149104e-03 0. 0. 0. 0. 0. 0. 0.
      1.62074552e-03 0. 0. 0. 0. 0. 0. 0. 0. 0. 0. 0. 8.10372736e-03
      1.62074552e-03 0. 0. 0. 3.24149104e-03 0. 0. 0. 0. 1.62074552e-03
      0. 0. 9.72447358e-03 1.62074552e-03 1.62074552e-03 0. 0.
      3.24149104e-03 1.62074552e-03 1.62074552e-03 0. 0. 0.
      1.13452189e-02 0. 0. 0. 0. 0. 0. 0. 8.10372736e-03 0. 0. 0. 0.
      6.48298208e-03 0. 0. 0. 0. 0. 0. 0. 0. 0. 0. 0. 0. 0. 0. 0.
      3.24149104e-03 0. 0. 0. 0. 0. 1.62074552e-03 0. 1.62074552e-03 0.
      0. 0. 0. 0. 0. 0. 0. 0. 0. 0. 1.62074552e-03 0. 0. 0. 0. 0. 0. 0.
      9.72447358e-03 1.62074552e-03 0. 0. 0. 0. 0. 1.62074552e-03 0. 0.
      0. 0. 0. 0. 0. 6.48298208e-03 0. 0. 3.24149104e-03 0. 0. 0. 0. 0.
      0. 0. 0. 0. 0. 6.48298208e-03 0. 0. 0. 0. 4.86223679e-03 0. 0. 0.
      0. 0. 0. 8.10372736e-03 0. 0. 0. 0. 0. 0. 4.86223679e-03 0.
      4.86223679e-03 0. 0. 0. 0. 0. 0. 0. 3.24149104e-03 0. 0.
      1.62074552e-03 1.62074552e-03 0. 9.72447358e-03 0. 0. 0. 0. 0. 0.
      0. 0. 6.48298208e-03 0. 0. 0. 0. 0. 0. 0. 0. 0. 0. 0. 0. 0. 0. 0.
      1.62074552e-03 3.24149104e-03 0. 0. 1.62074552e-03 0. 0. 0. 0. 0.
      0. 0. 0. 0. 0. 0. 0. 0. 0. 0. 0. 9.72447358e-03 4.86223679e-03 0.
      0. 0. 1.13452189e-02 0. 0. 0. 0. 0. 0. 0. 3.24149104e-03 0. 0. 0.
      0. 0. 0. 8.10372736e-03 0. 0. 1.62074552e-03 1.62074552e-03
      3.24149104e-03 0. 2.10696924e-02 0. 0. 0. 0. 0. 0. 0. 0. 0. 0. 0.
      0. 0. 0. 1.62074552e-03 0. 0. 0. 0. 0. 0. 0. 0. 0. 0.
      3.24149104e-03 0. 1.62074552e-03 0. 0. 0. 2.75526736e-02 0.
      1.78282000e-02 0. 0. 0. 1.62074552e-03 0. 0. 0. 0. 0. 0. 0.
      3.24149104e-03 0. 0. 3.24149104e-03 0. 0. 0. 0. 0. 0. 0. 0. 0. 0.
      1.62074552e-03 0. 0. 0. 0. 0. 0. 0. 0. 0. 0. 0. 0. 0. 0. 0. 0. 0.
      0. 0. 6.48298208e-03 0. 0. 0. 0. 0. 0. 0. 0. 0. 1.62074552e-03 0.
      0. 0. 0. 0. 0. 0. 3.24149104e-03 0. 0. 0. 8.10372736e-03 0. 0. 0.
      0. 4.86223679e-03 0. 0. 1.62074552e-03 0. 0. 0. 0. 0. 0. 0.
      6.48298208e-03 1.62074552e-03 0. 1.45867094e-02 0. 0. 0.
      3.24149104e-03 0. 0. 1.62074552e-03 0. 0. 4.86223679e-03 0. 0. 0.
      0. 0. 0. 0. 0. 0. 0. 0. 0. 0. 0. 0. 0. 0. 0. 0. 0. 8.10372736e-03
      0. 0. 0. 0. 0. 0. 0. 0. 0. 0. 0. 0. 0. 0. 0. 0. 1.62074552e-03 0.
      0. 0. 0. 0. 0. 0. 0. 0. 0. 0. 0. 0. 0. 0. 1.62074552e-03
      1.94489472e-02 0. 0. 0. 0. 0. 0. 0. 5.83468378e-02 0. 0. 0. 0. 0.
      0. 0. 0. 0. 0. 3.24149104e-03 0. 0. 0. 0. 0. 1.62074552e-03 0. 0.
      0. 0. 0. 0. 0. 1.62074552e-03 0. 1.62074552e-03 0. 0. 0. 0. 0. 0.
      0. 0. 0. 0. 0. 0. 0. 0. 0. 0. 0. 0. 0. 8.10372736e-03 0.
      1.62074552e-03 0. 3.24149104e-03 0. 0. 0. 0. 0. 0. 6.48298208e-03
      0. 0. 1.62074552e-03 0. 0. 0. 0. 0. 0. 0. 0. 0. 0. 1.62074552e-03
      0. 0. 0. 3.24149104e-03 0. 0. 0. 0. 0. 0. 0. 0. 0. 4.86223679e-03
      0. 0. 1.62074552e-03 0. 0. 0. 0. 0. 0. 3.24149104e-03 0. 0. 0. 0.
      0. 0. 1.62074552e-03 0. 1.62074552e-03 0. 1.62074552e-03 0. 0. 0.
      0. 0. 0. 0. 0. 0. 0. 0. 0. 0. 0. 0. 0. 0. 8.10372736e-03 0.
      4.86223679e-03 0. 0. 0. 9.72447358e-03 0. 0. 0. 0. 0. 0. 0.
      1.62074552e-03 0. 0. 0. 0. 1.62074552e-03 0. 0. 0. 0. 0.
      1.62074552e-03 0. 0. 0. 1.62074552e-03 0. 1.62074552e-03 0. 0. 0.
      0. 1.62074552e-03 0. 0. 0. 0. 4.86223679e-03 0. 0. 0. 0.
      1.62074552e-03 0. 0. 0. 1.62074552e-03 0. 0. 0. 0. 0.
      6.48298208e-03 0. 0. 0. 9.72447358e-03 0. 0. 1.62074552e-03 0. 0.
      0. 0. 0. 0. 1.62074552e-03 0. 0. 0. 1.29659642e-02 0. 0. 0. 0.
      1.62074552e-03 0. 0. 1.62074552e-03 0. 0. 0. 0. 0. 0. 0.
      1.62074552e-03 0. 0. 0. 0. 0. 0. 0. 0. 1.62074552e-03 0. 0. 0. 0.
      0. 0. 0. 0. 1.62074552e-03 0. 0. 0. 0. 0. 0. 0. 0. 0. 0. 0. 0.
      4.86223679e-03 1.62074552e-03 0. 0. 0. 0. 4.86223679e-03
      1.78282000e-02 0. 1.62074552e-03 0. 0. 0. 0. 0. 0. 0. 0. 0.
      3.24149104e-03 0. 0. 0. 8.10372736e-03 0. 0. 0. 0. 0.</_>
    <_>
      0. 0. 0. 0. 4.95049497e-03 0. 0. 0. 0. 0. 0. 0. 0. 0. 0. 0. 0. 0.
      4.95049497e-03 0. 0. 0. 0. 0. 0. 0. 0. 0. 0. 0. 4.95049497e-03 0.
      0. 0. 0. 9.90098994e-03 0. 0. 0. 0. 0. 0. 4.95049497e-03 0. 0. 0.
      0. 0. 0. 0. 0. 0. 0. 0. 0. 9.90098994e-03 9.90098994e-03 0. 0. 0.
      0. 0. 0. 0. 0. 0. 0. 0. 0. 0. 4.95049497e-03 3.46534662e-02 0. 0.
      0. 1.98019799e-02 0. 0. 4.95049497e-03 0. 0. 0. 0. 0. 0. 0.
      4.95049497e-03 0. 1.98019799e-02 0. 0. 0. 0. 0. 0. 0.
      9.90098994e-03 0. 0. 0. 0. 0. 0. 0. 0. 0. 0. 0. 0. 0. 0. 0. 0.
      9.90098994e-03 0. 0. 7.42574260e-02 0. 0. 0. 0. 0. 0.
      9.90098994e-03 0. 4.95049497e-03 0. 9.90098994e-03 0. 0. 0. 0. 0.
      0. 0. 0. 0. 0. 0. 0. 0. 0. 0. 0. 1.48514844e-02 0. 0. 0. 0. 0. 0.
      0. 0. 0. 0. 0. 9.90098994e-03 0. 0. 0. 0. 0. 0. 0. 0. 0.
      4.95049497e-03 0. 0. 0. 0. 0. 0. 0. 4.95049497e-03 0.
      4.95049497e-03 4.95049497e-03 0. 0. 0. 0. 0. 0. 0. 0. 0. 0. 0. 0.
      0. 4.95049497e-03 0. 4.95049497e-03 0. 0. 0. 0. 0. 0.
      1.48514844e-02 0. 0. 0. 0. 2.47524753e-02 0. 0. 0. 0. 0. 0. 0.
      4.95049497e-03 0. 0. 0. 0. 0. 0. 0. 4.95049497e-03 0. 0. 0. 0. 0.
      0. 0. 0. 0. 4.95049497e-03 0. 0. 0. 0. 0. 0. 0. 0. 4.95049497e-03
      4.95049497e-03 0. 0. 0. 0. 9.90098994e-03 0. 0. 0. 0. 0. 0. 0.
      4.95049497e-03 0. 0. 0. 0. 0. 0. 0. 0. 0. 0. 0. 0. 0. 0. 0. 0. 0.
      0. 0. 0. 0. 4.95049497e-03 4.95049497e-03 0. 0. 0. 0. 0. 0. 0. 0.
      0. 0. 0. 0. 0. 0. 0. 0. 0. 0. 0. 0. 0. 0. 0. 0. 0. 4.95049497e-03
      0. 0. 0. 0. 0. 0. 0. 0. 0. 0. 0. 0. 0. 0. 0. 0. 0. 0. 0. 0. 0. 0.
      0. 0. 0. 0. 0. 0. 4.95049497e-03 9.90098994e-03 0. 0. 0.
      9.90098994e-03 0. 0. 0. 0. 0. 0. 0. 0. 0. 0. 0. 0. 0. 0. 0. 0. 0.
      0. 0. 0. 0. 0. 4.95049497e-03 0. 0. 0. 0. 0. 0. 2.47524753e-02 0.
      0. 0. 0. 0. 0. 1.48514844e-02 0. 0. 0. 0. 0. 0. 0. 4.95049497e-03
      0. 0. 0. 0. 0. 4.95049497e-03 0. 0. 0. 0. 0. 0. 1.48514844e-02 0.
      0. 4.95049497e-03 0. 0. 0. 0. 0. 0. 0. 0. 0. 0. 0. 0. 0. 0. 0. 0.
      0. 0. 0. 0. 0. 0. 9.90098994e-03 0. 4.95049497e-03 4.95049497e-03
      0. 0. 0. 0. 0. 0. 0. 0. 0. 0. 0. 0. 0. 0. 0. 0. 0. 4.95049497e-03
      0. 0. 0. 0. 0. 0. 0. 0. 0. 0. 0. 0. 0. 0. 4.95049497e-03 0. 0.
      6.43564314e-02 0. 0. 0. 0. 0. 0. 0. 0. 0. 0. 0. 0. 0. 0. 0. 0. 0.
      0. 0. 0. 0. 0. 0. 0. 0. 0. 0. 0. 0. 0. 0. 0. 4.95049497e-03 0. 0.
      0. 0. 0. 0. 0. 0. 0. 0. 0. 0. 0. 0. 0. 0. 0. 0. 0. 0. 0. 0. 0. 0.
      0. 0. 0. 0. 0. 0. 0. 0. 0. 0. 2.97029689e-02 0. 0. 0. 0. 0. 0. 0.
      1.48514844e-02 4.95049497e-03 0. 0. 4.95049497e-03 0. 0. 0. 0. 0.
      0. 0. 0. 4.95049497e-03 0. 0. 0. 0. 0. 0. 0. 0. 0. 0. 0. 0. 0. 0.
      0. 0. 0. 0. 0. 0. 0. 0. 0. 0. 0. 0. 0. 0. 4.95049497e-03 0. 0. 0.
      0. 0. 0. 0. 0. 0. 0. 0. 0. 0. 0. 0. 0. 0. 0. 0. 0. 0. 0. 0.
      4.95049497e-03 0. 0. 0. 4.95049497e-03 4.95049497e-03 0. 0. 0.
      9.90098994e-03 0. 9.90098994e-03 0. 0. 4.95049497e-03 0. 0. 0. 0.
      0. 0. 0. 4.95049497e-03 0. 0. 0. 0. 0. 0. 0. 0. 0. 0. 0. 0. 0.
      4.95049497e-03 0. 0. 0. 0. 4.95049497e-03 0. 0. 0. 0. 0. 0. 0. 0.
      0. 0. 0. 0. 0. 4.95049497e-03 0. 9.90098994e-03 0. 0. 0. 0. 0. 0.
      0. 0. 0. 0. 0. 0. 0. 0. 0. 0. 0. 0. 0. 0. 0. 0. 0. 4.95049497e-03
      0. 0. 4.95049497e-03 0. 0. 0. 0. 0. 0. 0. 0. 0. 9.90098994e-03 0.
      0. 0. 0. 0. 0. 0. 0. 0. 0. 0. 0. 0. 0. 0. 0. 0. 0. 0.
      4.95049497e-03 0. 0. 0. 0. 0. 0. 0. 0. 0. 0. 0. 0. 0. 0. 0. 0. 0.
      0. 0. 0. 0. 0. 0. 0. 4.95049497e-03 4.95049497e-03 0. 0.
      4.95049497e-03 0. 0. 0. 0. 0. 4.95049497e-03 4.95049497e-03 0. 0.
      0. 0. 0. 0. 4.95049497e-03 0. 0. 0. 1.98019799e-02 0. 0. 0. 0. 0.
      0. 0. 4.95049497e-03 0. 0. 0. 0. 0. 0. 0. 2.47524753e-02 0. 0. 0.
      0. 0. 4.95049497e-03 0. 0. 0. 0. 0. 0. 0. 0. 0. 0. 0. 0. 0. 0. 0.
      0. 0. 0. 0. 0. 0. 0. 4.95049497e-03 0. 0. 0. 0. 0. 0. 0. 0. 0. 0.
      0. 0. 0. 0. 0. 0. 0. 0. 4.95049497e-03 0. 0. 0. 0. 0. 0. 0. 0. 0.
      0. 0. 4.95049497e-03 0. 0. 1.48514844e-02 0. 0. 0. 0. 0. 0.
      4.95049497e-03 0. 9.90098994e-03 0. 0. 0. 0. 0. 0. 4.95049497e-03
      0. 0. 4.95049497e-03 0. 0. 0. 0. 0. 0. 0. 0. 0. 0. 0. 0. 0. 0. 0.
      0. 0. 4.95049497e-03 0. 0. 0. 0. 0. 0. 9.90098994e-03 0. 0. 0. 0.
      0. 0. 0. 0. 0. 0. 0. 0. 0. 4.95049497e-03 0. 0. 0. 0. 0. 0. 0. 0.
      0. 0. 0. 0. 0. 0. 0. 0. 0. 0. 0. 0. 9.90098994e-03 0. 0. 0. 0. 0.
      0. 0. 4.95049497e-03 0. 0. 0. 0. 0. 0. 0. 0. 0. 0. 0. 0. 0. 0. 0.
      0. 0. 0. 0. 1.98019799e-02 0. 0. 0. 0. 4.95049497e-03 0. 0. 0. 0.
      0. 0. 0. 0. 0. 0. 0. 0. 0. 0. 0. 0. 0. 0. 4.95049497e-03 0. 0. 0.
      0. 0. 0. 0. 4.95049497e-03 0. 0. 0. 4.95049497e-03 0.
      1.48514844e-02 0. 0. 0. 0. 0. 9.90098994e-03 0. 0. 0. 0. 0. 0.</_>
    <_>
      0. 2.35849060e-03 0. 0. 0. 0. 2.59433966e-02 0. 0. 0. 0. 0. 0.
      7.07547180e-03 0. 0. 0. 0. 0. 0. 0. 5.66037744e-02 0. 0. 0. 0. 0.
      0. 0. 0. 0. 0. 0. 0. 0. 0. 0. 0. 0. 0. 0. 0. 0. 0. 1.17924530e-02
      0. 0. 0. 0. 0. 0. 0. 0. 0. 0. 0. 0. 0. 0. 0. 0. 0. 2.35849060e-03
      0. 0. 0. 0. 0. 0. 0. 4.71698120e-03 7.07547180e-03 0. 0. 0. 0. 0.
      0. 0. 2.35849060e-03 0. 0. 2.35849060e-03 0. 0. 0. 2.35849060e-03
      0. 0. 6.13207556e-02 7.07547180e-03 4.71698120e-03 0. 0.
      7.07547180e-03 4.71698120e-03 0. 0. 0. 0. 0. 0. 0. 0. 0. 0. 0. 0.
      0. 0. 0. 0. 0. 0. 0. 0. 0. 0. 0. 0. 0. 0. 0. 0. 0. 0. 0. 0. 0. 0.
      0. 0. 0. 0. 0. 4.71698120e-03 0. 0. 0. 0. 0. 0. 0. 0. 0. 0. 0.
      7.07547180e-03 0. 0. 0. 0. 0. 0. 0. 0. 0. 2.35849060e-03 0. 0. 0.
      1.17924530e-02 0. 0. 0. 2.35849060e-03 0. 0. 0. 0. 0. 0. 0. 0.
      4.71698120e-03 0. 0. 0. 0. 0. 2.35849060e-03 0. 0. 0. 0. 0. 0. 0.
      0. 0. 0. 0. 0. 0. 2.35849060e-03 0. 0. 0. 1.41509436e-02 0. 0. 0.
      9.43396240e-03 2.83018872e-02 0. 0. 0. 0. 0. 0. 0. 0.
      2.35849060e-03 7.07547180e-03 0. 0. 0. 0. 0. 0. 0. 0.
      1.65094342e-02 0. 0. 9.43396240e-03 0. 0. 0. 0. 0. 0. 0. 0. 0. 0.
      0. 0. 0. 0. 7.07547180e-03 0. 0. 0. 0. 0. 0. 0. 0. 0. 0. 0. 0. 0.
      0. 0. 0. 0. 0. 0. 0. 0. 0. 0. 0. 7.07547180e-03 0. 0. 0.
      2.35849060e-03 0. 0. 0. 0. 0. 0. 2.35849060e-03 0. 0. 0.
      2.35849060e-03 0. 0. 0. 0. 0. 0. 0. 0. 0. 0. 0. 0. 7.07547180e-03
      0. 0. 0. 0. 0. 0. 0. 0. 0. 0. 0. 0. 0. 0. 0. 0. 0. 0. 0.
      7.07547180e-03 0. 0. 0. 2.35849060e-03 0. 0. 0. 0. 0. 0. 0. 0. 0.
      0. 0. 0. 0. 0. 0. 0. 9.43396240e-03 0. 0. 2.35849060e-03 0. 0. 0.
      0. 0. 0. 0. 0. 0. 0. 0. 0. 2.12264154e-02 0. 0. 0. 0. 0.
      2.35849060e-03 0. 0. 0. 0. 0. 0. 0. 0. 4.71698120e-03 0. 0. 0. 0.
      0. 0. 2.35849060e-03 0. 0. 0. 0. 0. 0. 0. 0. 0. 0. 0. 0. 0. 0. 0.
      0. 0. 0. 0. 0. 0. 9.43396240e-03 9.43396240e-03 0. 0. 0. 0. 0. 0.
      0. 0. 0. 0. 0. 0. 2.35849060e-03 9.43396240e-03 0. 0. 0. 0. 0. 0.
      0. 0. 0. 0. 0. 7.07547180e-03 0. 0. 0. 0. 0. 0. 0. 0. 0. 0. 0. 0.
      0. 0. 0. 0. 0. 0. 0. 0. 2.35849060e-03 0. 7.07547180e-03 0. 0.
      2.35849060e-03 0. 0. 0. 0. 2.35849060e-03 0. 0. 0. 0. 0.
      4.71698120e-03 0. 0. 2.35849060e-03 0. 0. 0. 0. 0. 0. 0.
      2.35849060e-03 0. 0. 0. 0. 0. 0. 0. 0. 0. 0. 0. 0. 0. 0. 0. 0. 0.
      0. 0. 0. 0. 0. 0. 0. 0. 0. 0. 0. 0. 0. 0. 0. 0. 0. 4.48113233e-02
      0. 0. 0. 0. 2.35849060e-03 0. 0. 0. 0. 0. 0. 2.35849060e-03
      2.35849060e-03 0. 0. 0. 0. 0. 0. 0. 0. 0. 0. 0. 7.07547180e-03 0.
      7.07547180e-03 0. 0. 0. 0. 0. 0. 0. 0. 0. 0. 0. 0. 0. 0.
      2.35849060e-03 0. 0. 0. 0. 0. 0. 0. 0. 0. 0. 3.30188684e-02 0.
      9.43396240e-03 0. 0. 0. 1.65094342e-02 0. 1.65094342e-02 0. 0. 0.
      0. 0. 0. 0. 0. 0. 0. 0. 2.35849060e-03 0. 0. 0. 0. 1.17924530e-02
      0. 0. 0. 2.35849060e-03 0. 0. 0. 0. 0. 0. 0. 0. 0. 0. 0. 0. 0. 0.
      0. 0. 0. 0. 0. 0. 0. 0. 0. 0. 0. 0. 0. 0. 0. 0. 0. 0. 0. 0.
      1.65094342e-02 0. 0. 2.35849060e-03 0. 0. 0. 0. 0. 0. 0. 0. 0.
      2.35849060e-03 0. 0. 0. 0. 0. 0. 0. 0. 0. 0. 0. 0. 0. 0.
      1.88679248e-02 0. 0. 7.07547180e-03 0. 0. 0. 0. 4.71698120e-03 0.
      2.35849060e-03 0. 0. 4.71698120e-03 0. 0. 0. 0. 0. 0. 0. 0. 0. 0.
      0. 0. 0. 0. 0. 0. 0. 0. 0. 0. 2.35849060e-03 0. 0. 0. 0. 0. 0. 0.
      0. 0. 0. 0. 0. 0. 0. 0. 0. 0. 0. 0. 0. 0. 0. 0. 0. 0.
      4.71698120e-03 0. 0. 0. 0. 0. 0. 0. 3.53773609e-02 0. 0. 0. 0. 0.
      0. 0. 2.12264154e-02 0. 0. 0. 0. 0. 0. 0. 0. 0. 0. 2.35849060e-03
      0. 0. 0. 0. 2.35849060e-03 2.35849060e-03 0. 0. 0. 0. 0. 0. 0.
      7.07547180e-03 0. 0. 0. 0. 0. 0. 0. 0. 0. 0. 2.35849060e-03 0. 0.
      0. 0. 0. 0. 0. 0. 0. 0. 2.35849060e-03 7.07547180e-03 0. 0. 0. 0.
      0. 0. 0. 0. 0. 2.35849060e-03 0. 2.35849060e-03 0. 0. 0. 0. 0. 0.
      0. 0. 0. 2.35849060e-03 0. 0. 0. 0. 0. 9.43396240e-03 0. 0.
      2.35849060e-03 4.71698120e-03 0. 2.35849060e-03 0. 0. 0.
      1.41509436e-02 0. 0. 0. 0. 0. 0. 0. 0. 0. 0. 0. 0. 0. 0. 0. 0.
      7.07547180e-03 0. 0. 0. 0. 0. 0. 0. 0. 0. 0. 0. 0. 0. 0. 0. 0. 0.
      0. 0. 0. 0. 0. 0. 0. 0. 0. 0. 2.35849060e-03 0. 0. 1.65094342e-02
      0. 0. 0. 2.35849060e-03 4.71698120e-03 0. 0. 0. 0. 0. 0. 0. 0. 0.
      0. 0. 0. 0. 0. 1.17924530e-02 0. 2.35849060e-03 0. 0. 0. 0. 0. 0.
      0. 0. 0. 0. 0. 0. 0. 0. 0. 0. 0. 0. 4.71698120e-03 0. 0. 0. 0. 0.
      0. 0. 0. 0. 9.43396240e-03 0. 0. 0. 0. 0. 0. 0. 0. 0. 0. 0. 0. 0.
      9.43396240e-03 0. 0. 0. 0. 0. 0. 0. 0. 0. 0. 0. 0. 0. 0. 0. 0.
      4.71698120e-03 0. 0. 0. 0. 0. 0. 2.35849060e-03 0. 0. 0. 0. 0. 0.
      0. 0. 0. 5.89622632e-02 2.35849060e-03 0. 0. 0. 0. 0. 0. 0. 0. 0.
      0. 0. 0. 4.71698120e-03 0. 0. 0. 0. 2.35849060e-03 2.35849060e-02
      0. 2.35849060e-03 0. 0. 0. 0. 0. 0. 0. 0. 0. 0. 0. 0.
      2.35849060e-03 0. 0. 0. 0. 0. 0.</_>
    <_>
      0. 9.06344410e-03 0. 0. 0. 0. 6.04229607e-03 0. 0. 0. 0. 0. 0. 0.
      0. 0. 0. 0. 0. 0. 0. 9.06344410e-03 0. 9.06344410e-03 0. 0. 0. 0.
      0. 0. 0. 0. 0. 0. 0. 0. 0. 0. 0. 0. 0. 0. 0. 0. 2.11480372e-02 0.
      0. 0. 0. 0. 0. 0. 0. 0. 0. 0. 0. 0. 0. 0. 0. 0. 1.81268882e-02 0.
      0. 0. 0. 0. 0. 0. 6.04229607e-03 4.22960743e-02 0. 0. 0. 0. 0. 0.
      0. 0. 0. 0. 0. 0. 0. 0. 3.02114803e-03 0. 0. 4.53172214e-02
      9.06344410e-03 3.02114803e-03 0. 0. 6.04229607e-03 0.
      3.02114803e-03 0. 0. 0. 0. 0. 0. 0. 0. 3.02114803e-02 0. 0. 0. 0.
      0. 0. 0. 3.02114803e-03 0. 0. 0. 0. 0. 0. 0. 0. 0. 0.
      3.02114803e-03 0. 0. 0. 0. 0. 0. 3.02114803e-03 0. 0. 0. 0. 0.
      3.02114803e-03 0. 0. 0. 0. 0. 0. 0. 0. 0. 0. 0. 0. 0. 0. 0. 0. 0.
      0. 0. 0. 0. 0. 0. 3.02114803e-03 0. 0. 0. 0. 3.02114803e-03 0. 0.
      0. 0. 0. 0. 0. 0. 0. 0. 0. 0. 0. 0. 0. 0. 0. 0. 0. 0.
      3.02114803e-03 0. 0. 0. 0. 0. 0. 3.02114803e-03 0. 0. 0.
      6.04229607e-03 0. 0. 0. 0. 0. 0. 3.02114803e-03 0. 0. 0. 0. 0. 0.
      0. 3.02114803e-03 0. 0. 0. 0. 0. 3.02114803e-03 0. 0.
      3.32326293e-02 0. 0. 0. 0. 0. 0. 0. 0. 0. 0. 0. 0. 0. 0. 0. 0. 0.
      0. 0. 0. 0. 0. 0. 6.04229607e-03 0. 0. 0. 0. 3.02114803e-03 0.
      3.02114803e-03 0. 0. 0. 0. 0. 0. 0. 0. 0. 0. 0. 1.20845921e-02 0.
      0. 0. 0. 0. 0. 0. 0. 0. 0. 0. 3.02114803e-03 3.02114803e-03 0.
      3.02114803e-03 0. 0. 0. 0. 0. 0. 0. 0. 0. 0. 0. 0. 6.04229607e-03
      0. 0. 3.02114803e-03 0. 0. 0. 0. 0. 0. 0. 0. 0. 0. 0. 0. 0. 0. 0.
      0. 6.04229607e-03 0. 0. 0. 0. 0. 0. 0. 0. 0. 0. 0. 0. 0.
      3.02114803e-03 0. 0. 0. 0. 0. 0. 0. 0. 0. 9.06344410e-03 0. 0. 0.
      0. 0. 0. 0. 0. 0. 0. 0. 0. 6.04229607e-03 3.02114803e-03 0. 0. 0.
      0. 0. 0. 0. 0. 0. 0. 0. 0. 0. 0. 0. 0. 0. 0. 0. 0. 0. 0. 0. 0. 0.
      0. 0. 0. 0. 0. 0. 0. 0. 0. 6.04229607e-03 0. 0. 0. 0. 0. 0. 0.
      3.02114803e-03 3.02114803e-03 0. 0. 0. 0. 0. 6.04229607e-03 0. 0.
      0. 0. 0. 0. 0. 1.20845921e-02 0. 0. 0. 0. 0. 0. 0. 9.06344410e-03
      0. 0. 0. 0. 0. 6.04229607e-03 0. 0. 0. 0. 6.04229607e-03 0. 0. 0.
      0. 0. 0. 3.02114803e-03 0. 0. 0. 0. 0. 0. 6.04229607e-03 0.
      6.04229607e-03 0. 0. 3.02114803e-03 0. 0. 0. 0. 3.02114803e-03 0.
      0. 0. 0. 0. 3.02114803e-03 0. 0. 6.04229607e-03 0. 0. 0. 0. 0. 0.
      0. 0. 6.04229607e-03 0. 0. 0. 0. 0. 0. 0. 0. 0. 0. 0. 0. 0. 0. 0.
      0. 0. 0. 0. 0. 0. 0. 0. 0. 0. 0. 0. 0. 0. 1.20845921e-02 0. 0. 0.
      2.71903314e-02 0. 0. 0. 0. 0. 0. 0. 0. 0. 0. 0. 0. 0. 0. 0. 0. 0.
      0. 0. 0. 0. 0. 3.02114803e-03 0. 0. 0. 3.02114803e-03 0. 0. 0. 0.
      0. 0. 0. 0. 0. 0. 0. 0. 0. 0. 2.11480372e-02 0. 0. 0. 0. 0. 0.
      3.02114803e-03 0. 0. 0. 9.06344410e-03 0. 0. 0. 0. 0.
      3.02114803e-03 0. 2.41691843e-02 0. 0. 0. 0. 3.02114803e-03 0. 0.
      0. 0. 0. 0. 0. 0. 0. 0. 0. 6.04229607e-03 0. 0. 0. 0. 0. 0. 0. 0.
      0. 0. 0. 0. 0. 0. 0. 0. 0. 0. 0. 0. 0. 0. 0. 0. 0. 0. 0. 0.
      3.02114803e-03 0. 0. 0. 0. 0. 0. 0. 0. 0. 1.20845921e-02 0. 0. 0.
      3.02114803e-03 0. 0. 0. 0. 0. 0. 0. 1.20845921e-02 0. 0. 0. 0. 0.
      0. 0. 0. 0. 0. 0. 0. 0. 0. 0. 9.06344410e-03 0. 0. 2.11480372e-02
      0. 0. 0. 9.06344410e-03 3.02114803e-03 3.02114803e-03
      2.41691843e-02 0. 0. 1.51057402e-02 3.02114803e-03 0. 0. 0. 0. 0.
      0. 0. 0. 0. 0. 0. 0. 0. 0. 0. 0. 0. 0. 0. 1.20845921e-02 0. 0. 0.
      0. 0. 0. 0. 0. 0. 0. 0. 0. 0. 0. 0. 0. 0. 0. 0. 0. 3.02114803e-03
      0. 0. 0. 0. 2.71903314e-02 0. 0. 0. 0. 0. 0. 3.02114803e-03
      2.71903314e-02 9.06344410e-03 0. 0. 0. 0. 0. 0. 2.41691843e-02 0.
      0. 0. 0. 0. 0. 0. 0. 0. 0. 0. 3.02114803e-03 0. 0. 0. 0. 0. 0. 0.
      0. 0. 0. 0. 0. 3.02114803e-03 0. 0. 0. 0. 0. 0. 0. 0. 0. 0. 0. 0.
      0. 0. 0. 0. 0. 0. 0. 3.02114803e-03 0. 3.02114803e-03 0. 0. 0. 0.
      0. 0. 0. 0. 0. 0. 1.51057402e-02 0. 0. 0. 0. 0. 0. 0. 0. 0. 0. 0.
      0. 0. 0. 0. 0. 0. 6.04229607e-03 0. 9.06344410e-03 3.02114803e-03
      6.04229607e-03 0. 0. 0. 0. 0. 6.04229607e-03 0. 0. 3.02114803e-03
      0. 0. 0. 0. 0. 3.02114803e-03 3.02114803e-03 0. 0. 0. 0. 0. 0.
      3.02114803e-03 0. 0. 0. 0. 0. 0. 0. 0. 0. 0. 0. 0. 0.
      3.02114803e-03 0. 0. 0. 0. 0. 0. 0. 0. 0. 0. 0. 0. 0. 0. 0. 0. 0.
      0. 0. 0. 0. 3.02114803e-03 0. 0. 0. 0. 3.02114803e-03 0. 0. 0. 0.
      0. 0. 0. 0. 6.04229607e-03 0. 0. 9.06344410e-03 0. 0. 0. 0. 0. 0.
      0. 0. 0. 0. 0. 0. 0. 0. 0. 0. 0. 0. 3.02114803e-03 0. 0. 0. 0. 0.
      3.02114803e-03 0. 0. 0. 3.02114803e-03 0. 0. 0. 0. 0. 0. 0.
      3.02114803e-03 0. 0. 0. 1.51057402e-02 0. 9.06344410e-03 0. 0.
      3.02114803e-03 0. 0. 0. 0. 0. 0. 0. 0. 0. 0. 0. 0. 6.04229607e-03
      0. 0. 0. 0. 0. 0. 0. 0. 0. 0. 0. 0. 0. 0. 0. 0. 0. 1.51057402e-02
      0. 0. 0. 0. 0. 0. 0. 0. 0. 0. 0. 0. 9.06344410e-03 3.02114803e-03
      0. 0. 0. 0. 0. 2.71903314e-02 0. 6.04229607e-03 3.02114803e-03 0.
      0. 0. 0. 0. 0. 0. 0. 6.04229607e-03 0. 0. 0. 3.02114803e-03 0. 0.
      0. 0. 0.</_>
    <_>
      0. 0. 0. 1.87969934e-02 0. 0. 0. 0. 0. 0. 0. 0. 0. 1.87969930e-03
      0. 0. 0. 0. 0. 0. 0. 0. 0. 1.87969930e-03 0. 0. 0. 1.31578948e-02
      0. 0. 0. 0. 0. 0. 0. 0. 3.75939859e-03 0. 1.87969930e-03 0. 0. 0.
      0. 0. 0. 0. 0. 0. 0. 1.87969930e-03 0. 0. 0. 0. 4.69924808e-02
      3.75939859e-03 0. 1.87969930e-03 0. 1.87969930e-03 0.
      7.51879718e-03 1.31578948e-02 0. 0. 0. 0. 0. 0. 0. 3.75939859e-03
      7.51879718e-03 0. 0. 0. 1.87969930e-03 1.31578948e-02 0. 0. 0. 0.
      2.25563906e-02 0. 0. 0. 0. 3.75939859e-03 0. 0. 1.87969930e-03 0.
      0. 1.87969930e-03 0. 0. 1.87969930e-03 0. 0. 0. 0. 0. 0. 0. 0. 0.
      0. 0. 0. 0. 9.39849671e-03 1.87969930e-03 9.39849671e-03 0. 0. 0.
      0. 0. 1.87969930e-03 0. 0. 0. 0. 0. 0. 0. 0. 0. 9.39849671e-03
      1.87969930e-03 0. 0. 0. 0. 0. 0. 1.12781953e-02 0. 0. 0. 0. 0. 0.
      1.87969930e-03 0. 0. 0. 1.87969930e-03 0. 1.87969930e-03 0. 0. 0.
      0. 1.87969930e-03 0. 0. 0. 0. 0. 0. 0. 0. 0. 0. 5.63909765e-03 0.
      0. 0. 0. 0. 0. 0. 0. 1.87969930e-03 0. 0. 1.87969930e-03 0.
      1.87969930e-03 0. 0. 0. 0. 0. 0. 0. 0. 0. 0. 0. 1.87969930e-03 0.
      0. 0. 0. 0. 0. 0. 0. 0. 0. 0. 0. 0. 0. 0. 0. 0. 0. 0.
      1.87969930e-03 0. 0. 0. 0. 0. 1.87969930e-03 0. 0. 3.75939859e-03
      0. 0. 3.75939859e-03 0. 0. 0. 0. 0. 1.87969930e-03 0. 0. 0. 0. 0.
      0. 0. 0. 1.87969930e-03 0. 0. 0. 0. 0. 0. 0. 0. 1.87969930e-03 0.
      0. 0. 0. 0. 0. 0. 0. 0. 0. 0. 0. 0. 0. 0. 0. 0. 0. 3.75939859e-03
      0. 0. 0. 0. 0. 1.87969930e-03 0. 0. 0. 0. 0. 0. 3.75939859e-03 0.
      0. 7.51879718e-03 0. 0. 3.75939859e-03 0. 0. 0. 1.31578948e-02 0.
      5.63909765e-03 0. 0. 0. 1.87969930e-03 1.12781953e-02 0. 0. 0. 0.
      0. 0. 0. 0. 0. 0. 1.87969930e-03 0. 0. 1.87969930e-03 0. 0.
      3.75939859e-03 0. 0. 0. 0. 0. 7.51879718e-03 0. 0. 0. 0. 0. 0. 0.
      7.51879718e-03 1.87969930e-03 0. 0. 1.87969930e-03 0. 0. 0.
      3.75939859e-03 0. 0. 0. 0. 0. 0. 0. 0. 0. 0. 0. 0. 0. 0. 0. 0. 0.
      0. 0. 0. 0. 0. 0. 1.87969930e-03 0. 0. 0. 0. 0. 0. 0.
      1.87969930e-03 0. 0. 0. 0. 0. 0. 0. 1.87969930e-03 1.12781953e-02
      0. 0. 0. 0. 0. 1.87969930e-03 0. 0. 0. 0. 3.75939859e-03 0. 0. 0.
      3.94736864e-02 1.87969930e-03 1.87969930e-03 0. 0. 5.63909765e-03
      0. 0. 0. 0. 0. 0. 0. 0. 0. 0. 0. 0. 0. 0. 0. 0. 0. 0. 0. 0.
      1.87969930e-03 3.75939859e-03 5.63909765e-03 0. 0. 0. 0.
      1.87969930e-03 0. 0. 0. 0. 0. 0. 0. 0. 0. 0. 0. 1.87969930e-03 0.
      0. 7.51879718e-03 1.87969930e-03 0. 1.87969930e-03 1.87969930e-03
      0. 0. 0. 0. 1.87969930e-03 0. 0. 0. 0. 1.31578948e-02 0. 0. 0. 0.
      0. 0. 0. 0. 3.75939859e-03 1.87969930e-03 0. 0. 0. 0. 0. 0. 0. 0.
      1.87969930e-03 0. 0. 0. 5.63909765e-03 0. 0. 3.75939859e-03 0. 0.
      0. 0. 0. 1.87969930e-03 1.87969930e-03 0. 0. 0. 0. 0. 0. 0.
      1.87969930e-03 0. 0. 0. 0. 0. 0. 0. 0. 0. 0. 7.51879718e-03 0. 0.
      0. 0. 1.87969930e-03 0. 0. 0. 0. 3.75939859e-03 2.81954892e-02 0.
      0. 0. 0. 0. 0. 0. 1.87969930e-03 0. 0. 0. 0. 0. 1.87969930e-03 0.
      1.87969930e-03 0. 0. 0. 0. 0. 0. 0. 0. 0. 0. 0. 0. 0. 0.
      1.87969930e-03 0. 0. 0. 0. 0. 0. 1.31578948e-02 0. 0. 0. 0. 0. 0.
      0. 1.87969934e-02 0. 0. 3.75939859e-03 0. 0. 0. 0. 0. 0. 0. 0. 0.
      0. 0. 0. 5.63909765e-03 0. 1.87969930e-03 0. 0. 5.63909765e-03 0.
      0. 0. 0. 0. 0. 0. 0. 0. 0. 0. 0. 0. 0. 0. 0. 5.63909765e-03
      1.87969930e-03 3.75939859e-03 0. 0. 0. 0. 0. 1.87969930e-03 0. 0.
      1.87969930e-03 0. 1.87969930e-03 0. 0. 0. 5.63909765e-03 0. 0. 0.
      0. 0. 0. 0. 0. 0. 0. 0. 0. 0. 0. 0. 0. 1.87969930e-03 0. 0. 0. 0.
