<?xml version="1.0"?>
<opencv_storage>
<opencv_ml_svm>
  <format>3</format>
  <svmType>C_SVC</svmType>
  <kernel>
    <type>LINEAR</type></kernel>
  <C>1.</C>
  <term_criteria><iterations>100</iterations></term_criteria>
  <var_count>1000</var_count>
  <class_count>2</class_count>
  <class_labels type_id="opencv-matrix">
    <rows>2</rows>
    <cols>1</cols>
    <dt>i</dt>
    <data>
      -1 1</data></class_labels>
  <sv_total>1</sv_total>
  <support_vectors>
    <_>
      -2.79532205e-02 1.40195573e-02 -1.94775276e-02 1.05460607e-01
      3.89366224e-02 2.14698408e-02 2.31273416e-02 1.91188185e-03
      -1.06789288e-03 5.73495519e-04 9.61061101e-03 8.64833593e-03
      -1.36948819e-03 7.07591474e-02 -2.17115674e-02 3.00123543e-02
      4.71011997e-04 4.65458026e-03 -9.36983079e-02 1.98029773e-03
      9.14243888e-03 8.97697918e-03 -4.05363083e-01 1.17583200e-02
      1.82731338e-02 3.54439579e-03 -6.17125481e-02 3.07764560e-02
      7.13920640e-03 2.67417096e-02 -1.49388418e-01 -5.01673575e-03
      -9.26018432e-02 7.35436426e-03 4.70752688e-03 3.00151091e-02
      -2.68511958e-02 -9.06390697e-03 -1.92600731e-02 -5.78051098e-02
      -5.28154522e-02 4.75979585e-04 2.14850567e-02 4.56039282e-03
      8.24915767e-02 -1.83616998e-04 4.44467850e-02 7.36238260e-04
      -6.31823437e-03 3.07714436e-02 9.82507411e-03 -4.24750411e-04
      2.40699463e-02 -6.33417536e-03 4.76275086e-02 1.99930128e-02
      1.90622304e-02 1.22959055e-02 -1.93725854e-01 1.51986321e-02
      -2.48112511e-02 2.02313382e-02 5.19104600e-02 2.59437133e-02
      -2.79426984e-02 1.87939554e-02 6.54249117e-02 -1.76197663e-02
      2.56374013e-02 1.25399753e-02 4.35958207e-02 4.22029234e-02
      1.42649226e-02 8.81535932e-02 5.14392443e-02 3.93845662e-02
      1.34239376e-01 6.16054889e-03 -7.92080238e-02 6.93572976e-04
      1.62297860e-03 2.66123042e-02 3.12197357e-02 -1.63382720e-02
      8.48939468e-04 -9.85920280e-02 -1.11495191e-02 1.86922830e-02
      4.44955677e-02 1.01500511e-01 2.83788666e-02 -1.40618887e-02
      -4.64219972e-03 -1.71147957e-02 2.83657294e-02 4.33128029e-02
      5.04982546e-02 -3.58954147e-02 1.65353864e-02 -5.57640241e-03
      2.42210249e-03 -8.39140359e-03 -2.00961068e-01 -1.37214698e-02
      -2.44423132e-02 1.33589841e-02 1.84095111e-02 -1.46538625e-02
      -5.81595451e-02 -3.08301691e-02 6.53387904e-02 3.03245578e-02
      1.23186763e-02 1.94241442e-02 1.81610025e-02 2.06777770e-02
      2.12755315e-02 4.83872518e-02 -5.41029125e-02 6.07128665e-02
      1.55172730e-02 1.15649570e-02 2.06908341e-02 3.84907387e-02
      -3.80521379e-02 -1.57246757e-02 -4.72623594e-02 6.26113340e-02
      1.59968790e-02 6.22723885e-02 -4.60009687e-02 2.34586727e-02
      4.60946448e-02 -9.83639881e-02 -1.77716948e-02 1.36035848e-02
      2.13688351e-02 -7.59157212e-03 -3.87557112e-02 4.73565124e-02
      3.14919129e-02 -7.24590048e-02 5.28173037e-02 -1.50252944e-02
      9.05090123e-02 3.82337160e-02 -4.15654518e-02 1.62393060e-02
      3.21514793e-02 -5.19635454e-02 -6.43005148e-02 -7.89109915e-02
      3.01925056e-02 2.61259470e-02 -3.56832705e-02 5.40489666e-02
      2.79044397e-02 2.52093817e-03 2.61676610e-02 1.49298981e-02
      1.77203596e-03 1.12785613e-02 -1.46131873e-01 2.96056028e-02
      1.92057602e-02 3.07382215e-02 -1.22130048e-02 -1.33165997e-02
      -1.34532666e-02 -7.56986253e-03 -2.14656200e-02 3.60118002e-02
      1.69649310e-02 -1.00326631e-02 1.12885740e-02 1.46348737e-02
      1.50527647e-02 3.65325473e-02 3.75601761e-02 2.78591737e-03
      1.48504684e-02 -4.59162816e-02 1.49391042e-02 -1.35946414e-03
      2.32416783e-02 2.67703459e-02 1.79647319e-02 2.69029103e-02
      5.78039140e-03 8.99610948e-03 -1.40021350e-02 2.50205956e-02
      9.10897274e-03 -1.09420873e-01 -6.36252388e-03 9.25695430e-03
      -1.11380918e-02 -2.42078193e-02 1.23737697e-02 1.15204351e-02
      2.87034679e-02 -1.54037995e-03 4.33534291e-03 9.54502448e-02
      -6.50051087e-02 2.22428571e-02 2.93671452e-02 -3.73285338e-02
      2.09243242e-02 1.84507910e-02 4.32077460e-02 -7.78706297e-02
      4.21091206e-02 1.91749521e-02 -4.11398374e-02 -4.46620844e-02
      1.40608978e-02 -2.53060693e-03 4.48790006e-02 5.08996332e-03
      -2.99978964e-02 1.94553267e-02 9.09530744e-03 -9.08362791e-02
      -1.80627406e-02 2.42592506e-02 3.74148339e-02 6.91845315e-03
      1.38764654e-03 2.91964933e-02 -7.69404741e-03 -2.81867571e-03
      1.86872724e-02 2.27710977e-02 1.27646523e-02 -4.29751277e-02
      6.51567727e-02 3.33958790e-02 4.42697620e-03 -5.59367053e-02
      5.25671244e-02 1.56171678e-03 -1.45207066e-02 -1.54558063e-01
      -4.81449254e-03 -2.24511176e-02 3.09540313e-02 -5.36731966e-02
      -2.60274820e-02 3.35432217e-02 3.38785090e-02 9.13903862e-03
      -3.75622953e-03 -9.59217548e-03 -3.53781972e-04 2.14224029e-02
      -6.12448305e-02 -7.08443895e-02 1.36238178e-02 -1.26752049e-01
      4.01014369e-03 -1.04700569e-02 -6.49393424e-02 -1.34486808e-02
      -1.52662229e-02 4.25572880e-02 1.94540266e-02 4.54441570e-02
      3.52064259e-02 2.42444165e-02 2.32398510e-02 6.16080463e-02
      1.54525493e-04 -1.24958325e-02 -3.60206254e-02 -2.26717424e-02
      5.59603795e-04 5.33294976e-02 4.90718670e-02 7.11712614e-03
      6.20649531e-02 -2.26853937e-02 -3.43850441e-02 -7.54018920e-03
      -1.81384176e-01 8.05347599e-03 6.27821544e-03 -2.60013659e-02
      5.87557219e-02 -1.77537836e-02 9.24765691e-03 -1.87581200e-02
      -2.60413624e-02 2.59032920e-02 -1.00111544e-01 9.91100892e-02
      2.53580436e-02 -3.80426496e-02 5.31169260e-03 3.33384424e-02
      -7.06710806e-03 2.09750012e-02 -1.80496618e-01 1.78174488e-02
      2.04398148e-02 -2.59194802e-02 5.19607738e-02 2.38884334e-02
      2.25653574e-02 9.04617608e-02 1.25104869e-02 1.09203300e-03
      6.11714378e-04 1.55622605e-02 3.30481119e-02 -6.04640655e-02
      2.69771721e-02 -6.41939268e-02 5.24490625e-02 3.28868069e-02
      4.80237082e-02 4.16739695e-02 -5.09138871e-03 -2.69144401e-02
      -3.54874916e-02 5.93694039e-02 4.33802903e-02 -6.01900630e-02
      6.28767256e-03 1.76371597e-02 3.71009368e-03 4.76691201e-02
      1.32286334e-02 1.85442641e-02 1.17807984e-02 -2.38577146e-02
      -1.59152616e-02 5.17398342e-02 -1.14633618e-02 -4.39463258e-02
      -2.24813935e-03 -7.36795412e-03 3.21323797e-02 -7.69154951e-02
      -1.26600880e-02 1.67256799e-02 1.22207059e-02 3.06910835e-03
      -7.07451999e-02 3.06212865e-02 1.73414480e-02 5.16851991e-03
      -8.10897946e-02 9.88449436e-04 -2.65496336e-02 3.12758684e-02
      1.02953343e-02 -4.31877188e-03 -1.59905702e-02 2.35664640e-02
      2.24452391e-02 -2.87159346e-02 5.56673780e-02 1.14273909e-03
      -7.81308860e-02 2.28369161e-02 -3.18905339e-03 -9.71291121e-03
      4.99860244e-03 -3.73903215e-02 -1.02772124e-01 -1.11243157e-02
      9.45225731e-03 1.14790723e-03 8.12341645e-02 2.52217185e-02
      -6.94935471e-02 -3.66130285e-02 -1.86608151e-01 7.37917330e-03
      -3.57966237e-02 -9.69272573e-03 5.94746210e-02 -3.05823702e-02
      -1.43744005e-02 6.88130334e-02 3.16397473e-02 -2.26155147e-02
      -7.54955932e-02 1.64738279e-02 5.52109592e-02 1.48225464e-02
      -4.37197052e-02 -1.18287038e-02 3.70516744e-03 2.53101457e-02
      2.17750669e-02 9.18427575e-03 2.07591411e-02 -6.93221465e-02
      -1.85479447e-02 2.87561826e-02 -1.83364451e-02 2.49311235e-02
      -6.40439615e-03 2.91246325e-02 2.88035665e-02 -9.38642584e-03
      -4.62850742e-02 1.85171384e-02 -1.82568319e-02 3.16041410e-02
      5.02372384e-02 1.17498524e-02 -5.11649475e-02 -1.69742294e-02
      -5.07874042e-03 5.20640425e-02 3.92873399e-02 4.79361229e-03
      -4.94136624e-02 7.97663306e-05 4.56791325e-03 1.09413201e-02
      4.19298327e-03 -6.96594119e-02 -1.02230173e-03 2.39437656e-03
      1.63215864e-02 4.33589052e-03 2.16974430e-02 -1.14633784e-01
      -2.17800997e-02 1.49815101e-02 2.84399055e-02 1.97071545e-02
      -2.72797719e-02 1.17504820e-01 3.44796963e-02 4.08388264e-02
      4.14755270e-02 -2.64531467e-02 2.55699363e-03 2.46119034e-02
      4.12980244e-02 5.87186925e-02 -9.62268859e-02 2.38114186e-02
      -1.64897814e-02 2.20186953e-02 1.69069245e-02 1.87764000e-02
      3.00952736e-02 4.11588959e-02 1.47474697e-02 -2.67957046e-04
      3.48422490e-02 -1.62792541e-02 1.41367540e-02 -6.57847598e-02
      4.23827246e-02 3.51913907e-02 -2.51869555e-03 1.23858061e-02
      2.09898781e-03 -3.57680470e-02 -1.40234783e-01 2.71256622e-02
      -1.38384840e-02 3.53727527e-02 3.80715868e-03 8.54923856e-03
      4.12189227e-04 -2.01811008e-02 8.25252384e-03 5.00145890e-02
      1.74713358e-02 -3.69685031e-02 1.91355625e-03 -4.73893732e-02
      -1.87903875e-03 -2.02514399e-02 1.23898853e-02 -3.70591786e-03
      5.35419695e-02 2.29770560e-02 -6.46960139e-02 -4.88959206e-03
      1.66197922e-02 -2.43614223e-02 2.21228339e-02 -9.68362112e-03
      3.77245583e-02 3.97388488e-02 1.20641673e-02 -1.42432764e-01
      2.38814503e-02 -3.80871147e-02 1.43071320e-02 -1.26331616e-02
      2.08800957e-02 1.30939484e-02 -6.86784610e-02 1.82106849e-02
      8.57550800e-02 -1.17574446e-02 -7.68001601e-02 -1.95434354e-02
      -2.64049172e-02 1.92356426e-02 3.66387796e-03 -1.44948242e-02
      1.11645702e-02 -3.44010927e-02 1.49660027e-02 4.74370830e-02
      1.02778692e-02 3.23517099e-02 2.37443987e-02 3.64323682e-03
      4.59852774e-04 -2.69575324e-03 -2.42180555e-04 3.76557261e-02
      2.81690527e-02 2.79575344e-02 2.13677436e-02 -5.20723453e-03
      3.97130661e-02 9.45903920e-03 4.05660421e-02 6.99784458e-02
      -3.97105515e-02 -1.35127464e-02 2.67524365e-02 -1.13061048e-01
      5.84131591e-02 -4.13299426e-02 -6.67242473e-03 -3.87831358e-03
      -7.20224380e-02 5.03575727e-02 2.85420120e-02 -6.80445433e-02
      -9.25080404e-02 -2.26980411e-02 3.58781703e-02 1.14916209e-02
      2.11910438e-02 4.59716422e-03 2.62417793e-02 -2.98563368e-03
      1.33860167e-02 3.00811650e-03 -9.09319595e-02 -1.48255853e-02
      -6.16406207e-04 1.60307437e-02 -6.58523990e-03 6.73574116e-03
      6.19071722e-02 9.24979672e-02 1.75017174e-02 7.00959116e-02
      2.91882455e-03 8.44904222e-03 3.74623165e-02 2.28661150e-02
      2.75123082e-02 3.36699039e-02 9.94090829e-03 -3.12921442e-02
      -2.04504766e-02 -6.94888309e-02 2.32567731e-02 -3.80449444e-02
      5.52359922e-03 5.11652557e-03 1.93830933e-02 -4.91083646e-03
      -5.86969778e-03 5.74636236e-02 2.25729384e-02 -1.79451346e-01
      -2.02423573e-01 4.48278384e-03 -2.63995547e-02 7.88186397e-03
      -1.76972598e-02 2.26487909e-02 -1.22198267e-02 3.95129398e-02
      -3.44083644e-02 1.59800574e-02 5.36691882e-02 3.28327157e-02
      1.07469643e-02 -4.16318141e-03 -1.17628863e-02 2.17539333e-02
      -2.12856047e-02 -1.01074234e-01 -6.78296462e-02 -5.61224073e-02
      -6.25682473e-02 8.13914835e-03 1.50642637e-02 -7.55386055e-03
      -3.53086144e-02 -2.04860349e-03 -1.57949030e-02 2.40773596e-02
      1.09807937e-03 7.96993226e-02 -6.97088614e-02 2.42949027e-04
      -4.75033708e-02 -2.10116357e-01 3.31715820e-03 1.08320192e-02
      7.45243765e-03 2.68111601e-02 -2.32411493e-02 -1.91959158e-01
      4.25879043e-05 5.41631281e-02 4.70819604e-03 -6.45675417e-03
      2.70085949e-02 3.39632444e-02 4.46688086e-02 -5.98525926e-02
      -2.15227231e-01 4.36810590e-02 1.23127392e-02 -6.49157315e-02
      -5.11754490e-02 4.49956246e-02 5.15731536e-02 -2.12014876e-02
      -3.82442214e-02 -4.34363610e-04 1.05923535e-02 1.34132793e-02
      -6.16227873e-02 5.77529371e-02 -8.80927686e-03 -3.12040746e-02
      4.49948013e-02 4.12052944e-02 5.75653091e-03 -2.91605350e-02
      2.07990631e-02 5.72906062e-02 1.08607868e-02 1.40211610e-02
      6.14322238e-02 -4.55867592e-03 1.63531061e-02 2.56327353e-02
      4.69684005e-02 3.00603211e-02 2.32640188e-02 1.99529082e-02
      1.10570760e-02 4.53493856e-02 9.60613787e-03 3.89060117e-02
      -9.57198150e-04 -4.40359451e-02 1.09580029e-02 -6.60912767e-02
      1.33526083e-02 3.90171520e-02 5.88826742e-03 2.18675844e-02
      1.88103765e-02 1.66002032e-03 -4.79631014e-02 -2.91365059e-03
      -5.56978211e-02 2.58636512e-02 -1.14612409e-03 2.14566884e-04
      1.66643392e-02 -1.35597527e-01 3.30325798e-03 3.08300406e-02
      2.89260317e-02 -5.09876497e-02 5.05286381e-02 -4.89535928e-02
      -2.05725785e-02 1.77735966e-02 7.40660587e-03 4.60736360e-03
      7.69159943e-02 6.69223140e-04 -1.21809676e-01 -1.70425680e-02
      4.20629326e-03 -7.54375616e-03 7.43091921e-04 2.08991822e-02
      -7.09261745e-03 1.16235821e-03 -5.86384125e-02 -2.31075007e-02
      -3.08024622e-02 9.22799855e-02 -2.96669104e-03 7.48967305e-02
      1.53118744e-02 5.09214588e-03 2.52009202e-02 -1.52003109e-01
      -2.01935638e-02 6.35522092e-03 3.23802158e-02 -2.01155301e-04
      -5.40515892e-02 4.24622511e-03 4.67303433e-02 7.36552030e-02
      6.75683022e-02 4.93143983e-02 3.47377034e-03 2.42866538e-02
      -2.42137481e-02 3.14341262e-02 -9.24032240e-04 -6.25275541e-03
      8.01903233e-02 5.55688031e-02 -1.25269648e-02 -1.06999334e-02
      2.16200296e-02 -4.54014465e-02 -3.66475969e-03 -4.26832736e-02
      -4.53201421e-02 1.35937715e-02 3.38208266e-02 3.47681828e-02
      2.08497271e-02 5.26039163e-03 -2.50148494e-03 2.63075549e-02
      1.91395096e-02 8.75245500e-03 -9.71362833e-03 -1.21942051e-01
      2.69242339e-02 1.97570515e-03 -5.14204381e-03 -1.03859445e-02
      2.25920808e-02 -2.64744903e-03 1.94769143e-03 1.62005238e-02
      -4.92550097e-02 1.41242705e-02 1.62901059e-02 3.03100478e-02
      7.09625101e-03 2.94757430e-02 2.85364743e-02 4.09868658e-02
      -1.31246550e-02 1.59738902e-02 6.99393079e-02 3.45003754e-02
      3.66770700e-02 6.76599843e-03 1.01829078e-02 -9.42888297e-03
      -3.27000059e-02 -1.14036659e-02 -2.54286639e-02 -2.61910111e-02
      -5.99968852e-03 -4.64215875e-02 1.03234118e-02 3.89422141e-02
      3.58886924e-03 4.56784340e-03 1.97043899e-03 1.11912396e-02
      1.26079479e-02 -1.94934011e-02 1.73299555e-02 -9.67475027e-02
      1.39101990e-03 -2.15654611e-03 1.60457082e-02 1.30240005e-02
      2.05473192e-02 4.11424320e-03 -4.16852348e-02 3.78032997e-02
      -3.18512395e-02 3.19702271e-03 -6.18140353e-03 6.75633457e-03
      1.51083665e-02 6.39302880e-02 -8.26376379e-02 4.21098731e-02
      -6.74405321e-02 -1.87002465e-01 -4.18967521e-03 1.26465373e-02
      3.40891369e-02 -5.49832266e-03 4.39807996e-02 -7.64716193e-02
      3.15113403e-02 -4.24821302e-02 -3.90088409e-02 3.46702002e-02
      3.55955623e-02 3.02681122e-02 1.67520903e-02 -2.90778931e-02
      9.23313026e-04 -3.50749195e-02 -9.74095762e-02 1.32097214e-01
      2.03962959e-02 7.83928633e-02 1.81396399e-02 -2.99420301e-02
      -8.61159875e-04 -3.26265432e-02 3.70212235e-02 2.77428571e-02
      -6.02066796e-03 5.95487207e-02 -4.43108520e-03 2.44672634e-02
      -5.96987037e-03 1.94644947e-02 1.93011444e-02 6.66829897e-03
      -1.54439313e-02 -3.38084139e-02 1.55542605e-02 3.97112295e-02
      2.36555543e-02 -1.47887409e-01 -1.13203013e-02 -2.86221690e-02
      2.26486940e-02 -3.93447420e-03 4.06989940e-02 -2.30883937e-02
      7.63990777e-03 -6.25635535e-02 4.09205863e-03 1.25447987e-02
      1.14208050e-02 7.84838386e-03 -8.93626921e-03 1.57950667e-03
      2.16993857e-02 -3.37898210e-02 -1.95939213e-01 -1.81899946e-02
      -6.46636784e-02 1.26734123e-01 -2.18102476e-03 -8.37544724e-03
      7.61141814e-03 1.05459299e-02 1.95462741e-02 1.51380030e-02
      -1.11316303e-02 2.23250352e-02 8.36897269e-03 1.41124763e-02
      -1.51703492e-01 7.51227885e-02 3.18887993e-03 1.51986862e-03
      -4.53636311e-02 3.12416088e-02 5.55604813e-04 -1.05376162e-01
      1.46004921e-02 2.02084687e-02 2.36850008e-02 -1.80769432e-03
      1.55365951e-02 -2.20584795e-02 1.52340159e-02 -3.17463763e-02
      1.16144016e-03 -5.04241325e-04 1.64023824e-02 -5.14939725e-02
      2.34278701e-02 -1.10527938e-02 2.60330047e-02 1.12582846e-02
      -4.44036629e-03 3.45268520e-03 1.24372756e-02 1.06441071e-02
      -3.74274924e-02 -6.39299378e-02 2.56559588e-02 -3.70642752e-03
      2.09161197e-04 1.70036126e-02 1.96893662e-02 -9.86908283e-03
      3.37718688e-02 -5.11734895e-02 3.76522392e-02 -2.59617493e-02
      7.81211304e-04 1.13625214e-01 2.11844239e-02 -1.48544544e-02
      9.44254100e-02 -7.02373311e-02 -7.42760627e-03 -4.37058695e-02
      1.13323834e-02 1.04447873e-02 -3.20510194e-02 1.67129822e-02
      1.52324587e-02 -2.11656466e-02 4.04062159e-02 -5.00169545e-02
      -1.67934462e-01 1.68500412e-02 2.05853526e-02 -3.60552780e-02
      6.71509048e-03 -3.51862703e-03 2.35112682e-02 -2.24580877e-02
      1.67737994e-02 4.91542416e-03 3.36763524e-02 1.06235910e-02
      1.84222888e-02 7.47632189e-03 -1.23700378e-02 -1.95858325e-03
      2.19345205e-02 3.03396136e-02 2.53431150e-03 -4.62185172e-03
      1.90893207e-02 -2.75615621e-02 4.94922139e-02 5.27271116e-03
      5.07207960e-03 2.81022415e-02 2.40385644e-02 -1.20906327e-02
      2.76215877e-02 1.93870366e-02 -1.02561228e-02 -4.29098262e-03
      -9.96024907e-02 -1.37921469e-02 -1.01615454e-03 1.82609335e-02
      1.40011348e-02 -3.17776506e-03 2.74119917e-02 7.80679137e-02
      -3.02854292e-02 2.95063965e-02 4.17445265e-02 1.05605880e-02
      6.04538098e-02 5.18261530e-02 6.45760223e-02 -4.15001705e-04
      -7.27218634e-04 1.69343185e-02 2.88091041e-02 -1.58472210e-02
      -2.81526428e-03 7.64437811e-03 4.19503776e-03 -1.97097175e-02
      -3.69628966e-02 7.44954962e-03 3.60377803e-02 -2.35828552e-02
      -8.23815614e-02 -4.04082210e-04 -4.96467277e-02 -6.97196368e-03</_></support_vectors>
  <uncompressed_sv_total>102</uncompressed_sv_total>
  <uncompressed_support_vectors>
    <_>
      0. 0. 0. 0. 0. 0. 0. 0. 0. 0. 0. 0. 0. 0. 3.16455704e-03 0. 0.
      3.16455704e-03 1.26582282e-02 0. 0. 0. 2.21518986e-02 0. 0. 0.
      2.84810141e-02 0. 0. 0. 0. 0. 9.49367136e-03 0. 0. 0.
      9.49367136e-03 0. 0. 3.16455704e-03 0. 0. 0. 0. 0. 0.
      3.16455704e-03 0. 0. 0. 0. 0. 0. 0. 1.26582282e-02 0.
      9.49367136e-03 0. 1.26582282e-02 0. 0. 0. 0. 0. 6.32911408e-03 0.
      0. 3.16455704e-03 0. 0. 0. 0. 0. 0. 3.16455704e-03 0. 0. 0.
      3.16455704e-03 0. 0. 0. 0. 0. 0. 6.32911408e-03 0. 0. 0. 0. 0. 0.
      0. 0. 0. 0. 0. 0. 0. 0. 0. 3.16455704e-03 3.16455704e-03 0.
      3.16455704e-03 0. 0. 0. 3.16455704e-03 0. 0. 9.49367136e-03 0. 0.
      0. 0. 0. 0. 0. 0. 0. 0. 0. 0. 0. 0. 3.16455704e-03 0. 0. 0. 0. 0.
      0. 1.89873427e-02 0. 0. 0. 0. 0. 0. 0. 0. 0. 3.16455704e-03 0. 0.
      6.32911408e-03 0. 0. 0. 0. 3.16455704e-03 0. 0. 0. 0. 0. 0. 0. 0.
      0. 0. 2.21518986e-02 0. 0. 0. 0. 0. 0. 0. 6.32911408e-03 0. 0. 0.
      0. 3.16455704e-03 0. 0. 0. 0. 0. 6.32911408e-03 0. 0. 0. 0. 0. 0.
      0. 0. 0. 0. 0. 0. 0. 0. 6.32911408e-03 0. 0. 0. 0. 0. 0. 0. 0. 0.
      0. 0. 0. 3.16455704e-03 0. 3.16455704e-03 0. 0. 0. 0. 0. 0. 0. 0.
      6.32911408e-03 0. 0. 3.16455704e-03 0. 0. 0. 0. 0. 0. 0. 0. 0. 0.
      0. 0. 0. 0. 0. 0. 0. 0. 0. 0. 0. 0. 0. 0. 3.16455704e-03 0. 0. 0.
      0. 0. 9.49367136e-03 0. 3.16455704e-03 0. 0. 0. 3.16455704e-03 0.
      3.16455704e-03 3.16455704e-03 0. 3.16455704e-03 0. 0. 0. 0. 0. 0.
      0. 0. 3.16455704e-03 0. 0. 0. 0. 0. 0. 0. 6.32911408e-03 0. 0. 0.
      0. 6.32911408e-03 0. 0. 0. 0. 0. 0. 0. 0. 0. 0. 0. 0. 0.
      3.16455704e-03 6.32911408e-03 0. 0. 0. 0. 3.16455704e-03 0. 0. 0.
      0. 0. 0. 0. 0. 0. 0. 0. 0. 0. 0. 0. 0. 0. 1.58227850e-02 0.
      3.16455704e-03 0. 1.26582282e-02 3.16455704e-03 0. 0. 0. 0. 0. 0.
      0. 0. 0. 0. 0. 0. 0. 0. 0. 0. 0. 0. 0. 0. 0. 9.49367136e-03 0. 0.
      0. 0. 0. 0. 0. 0. 3.16455704e-03 0. 0. 3.16455704e-03 0. 0. 0. 0.
      6.32911408e-03 1.26582282e-02 0. 0. 6.32911408e-03 0. 0. 0. 0.
      2.21518986e-02 0. 0. 0. 0. 0. 0. 0. 0. 6.32911408e-03
      1.26582282e-02 0. 0. 0. 0. 0. 0. 0. 0. 0. 0. 3.16455704e-03 0. 0.
      0. 0. 0. 0. 0. 0. 0. 0. 0. 0. 0. 0. 9.49367136e-03 9.49367136e-03
      0. 0. 0. 0. 0. 3.16455704e-03 0. 0. 0. 1.26582282e-02 0. 0. 0. 0.
      0. 1.58227850e-02 0. 0. 0. 0. 0. 1.26582282e-02 0. 0. 0.
      9.49367136e-03 0. 3.16455704e-03 3.16455704e-03 0. 6.32911408e-03
      0. 0. 0. 1.26582282e-02 3.16455704e-03 0. 0. 0. 0. 0.
      9.49367136e-03 0. 3.16455704e-03 0. 0. 0. 0. 0. 6.32911408e-03
      3.16455704e-03 0. 0. 0. 0. 3.16455704e-03 0. 0. 0. 3.16455704e-03
      0. 3.16455704e-03 0. 9.49367136e-03 3.16455704e-03 0. 0. 0. 0. 0.
      3.16455704e-03 0. 0. 3.16455704e-03 0. 0. 0. 0. 0. 0. 0.
      6.32911408e-03 0. 0. 0. 0. 0. 0. 0. 0. 3.16455704e-03
      6.32911408e-03 0. 0. 0. 0. 0. 0. 0. 0. 0. 0. 0. 0. 0. 0. 0. 0. 0.
      0. 0. 0. 0. 0. 0. 0. 0. 0. 0. 3.16455704e-03 0. 3.16455704e-03
      3.16455704e-03 0. 3.16455704e-03 0. 0. 0. 0. 0. 0. 0. 0. 0. 0.
      9.49367136e-03 0. 0. 3.16455704e-03 3.16455704e-03 0. 0. 0. 0. 0.
      0. 0. 0. 0. 0. 0. 0. 0. 0. 0. 0. 3.16455704e-03 3.16455704e-03
      3.16455704e-03 1.26582282e-02 0. 0. 0. 0. 0. 0. 0. 0.
      1.58227850e-02 0. 6.32911408e-03 3.16455704e-03 3.16455704e-03 0.
      0. 0. 3.16455704e-03 0. 0. 0. 0. 0. 0. 0. 0. 0. 0. 1.26582282e-02
      0. 0. 0. 6.32911408e-03 3.16455704e-03 0. 3.16455704e-03 0. 0. 0.
      0. 0. 0. 0. 0. 0. 0. 0. 0. 6.32911408e-03 0. 0. 0. 0. 0. 0. 0.
      3.16455704e-03 6.32911408e-03 0. 0. 1.58227850e-02 0. 0. 0. 0.
      6.32911408e-03 0. 0. 3.16455704e-03 0. 0. 0. 0. 0. 0. 0. 0. 0. 0.
      0. 0. 0. 0. 0. 0. 0. 3.16455704e-03 0. 0. 0. 0. 0. 0. 0.
      3.16455704e-03 0. 0. 0. 0. 0. 0. 0. 0. 0. 0. 3.16455704e-03 0. 0.
      0. 0. 6.32911408e-03 3.16455704e-03 0. 0. 0. 0. 0. 0. 0. 0. 0. 0.
      0. 9.49367136e-03 3.16455704e-03 0. 1.58227850e-02 0. 0. 0. 0. 0.
      0. 0. 0. 0. 0. 0. 0. 0. 0. 3.16455704e-03 0. 0. 0. 3.16455704e-03
      0. 0. 0. 0. 0. 0. 0. 0. 0. 0. 0. 0. 0. 0. 0. 0. 0. 0. 0. 0. 0. 0.
      0. 3.16455704e-03 0. 0. 0. 0. 0. 0. 1.89873427e-02 0. 0.
      3.16455704e-03 0. 0. 0. 0. 0. 3.16455704e-03 0. 0. 0. 0. 0. 0. 0.
      0. 0. 0. 0. 0. 0. 0. 0. 3.16455704e-03 0. 0. 6.32911408e-03 0. 0.
      0. 0. 0. 3.16455704e-03 0. 3.16455704e-03 0. 0. 0. 0. 0. 0. 0. 0.
      0. 0. 0. 0. 0. 0. 0. 0. 0. 0. 6.32911408e-03 0. 0. 3.16455704e-03
      0. 0. 0. 0. 0. 3.16455704e-03 0. 0. 0. 6.32911408e-03 0. 0. 0.
      3.16455704e-03 1.26582282e-02 0. 0. 6.32911408e-03 0. 0. 0. 0. 0.
      3.16455704e-03 0. 0. 0. 0. 0. 0. 0. 3.16455704e-03 0. 0.
      9.49367136e-03 0. 0. 0. 0. 6.32911408e-03 0. 0. 0. 0. 0. 0. 0. 0.
      3.16455704e-03 0. 0. 0. 0. 9.49367136e-03 0. 0. 0. 0. 0. 0. 0. 0.
      0. 6.32911408e-03 0. 0. 0. 0. 0. 0. 0. 0. 0. 0. 0. 0. 0. 0. 0. 0.
      0. 0. 0. 0. 0. 0. 0. 0. 0. 0. 0. 0. 0. 0. 0. 0. 0. 0.
      3.16455704e-03 0. 0. 0. 1.58227850e-02 0. 0. 3.16455704e-03 0.
      3.16455704e-03 0. 0. 0. 0. 0. 0. 0. 6.32911408e-03 0. 0. 0.
      3.16455704e-03 0. 0. 0. 0. 0. 0. 9.49367136e-03 0. 0. 0. 0. 0. 0.
      6.32911408e-03 0. 0. 0. 0. 0. 0. 3.16455704e-03 0. 0. 0. 0. 0. 0.
      3.16455704e-03 0. 0. 0. 0. 0. 0. 0. 0. 0. 0. 0. 0. 0. 0. 0. 0. 0.
      0. 0. 0. 0. 0. 0. 0. 0. 0. 0. 0. 0. 0. 0. 0. 0. 0. 0. 0. 0. 0. 0.
      0. 0. 0.</_>
    <_>
      0. 0. 1.33333337e-02 0. 0. 2.66666664e-03 0. 0. 2.66666664e-03 0.
      0. 0. 0. 0. 0. 0. 2.66666664e-03 2.66666664e-03 5.33333328e-03 0.
      0. 0. 7.99999945e-03 0. 0. 0. 0. 0. 2.66666664e-03 0.
      2.66666664e-03 0. 2.66666664e-03 0. 0. 0. 5.33333328e-03
      2.66666664e-03 0. 2.66666664e-03 2.66666664e-03 0. 0. 0. 0. 0.
      5.33333328e-03 2.66666664e-03 0. 0. 2.66666664e-03 2.66666664e-03
      0. 0. 0. 0. 2.66666664e-03 0. 5.33333328e-03 0. 0. 0. 0. 0.
      2.66666664e-03 0. 0. 0. 2.66666664e-03 0. 0. 0. 0. 0. 0. 0. 0. 0.
      0. 5.33333328e-03 0. 0. 0. 0. 0. 1.33333337e-02 0. 0. 0. 0. 0. 0.
      2.66666664e-03 0. 0. 0. 0. 0. 0. 0. 2.66666664e-03 0.
      7.99999945e-03 0. 7.99999945e-03 0. 0. 0. 2.66666664e-03 0. 0. 0.
      0. 0. 0. 0. 2.66666664e-03 0. 0. 0. 0. 0. 0. 0. 0. 0.
      1.06666666e-02 0. 0. 0. 0. 0. 0. 2.66666664e-03 2.66666664e-03 0.
      0. 0. 2.66666664e-03 0. 0. 0. 0. 0. 0. 2.66666664e-03
      2.66666664e-03 0. 0. 7.99999945e-03 0. 0. 0. 0. 0. 0. 0.
      2.66666664e-03 0. 0. 0. 0. 0. 0. 0. 0. 0. 0. 0. 0. 0. 0. 0. 0. 0.
      2.66666664e-03 0. 0. 0. 0. 0. 0. 0. 0. 0. 0. 0. 0. 1.06666666e-02
      0. 2.66666664e-03 0. 1.59999989e-02 0. 0. 0. 2.66666664e-03
      5.33333328e-03 0. 2.66666664e-03 0. 0. 0. 0. 7.99999945e-03 0. 0.
      0. 0. 0. 0. 2.66666664e-03 7.99999945e-03 0. 5.33333328e-03 0. 0.
      0. 0. 0. 2.66666664e-03 0. 0. 7.99999945e-03 0. 0. 0.
      2.66666664e-03 0. 0. 2.66666664e-03 0. 0. 0. 0. 0. 0. 0. 0.
      2.66666664e-03 0. 0. 0. 7.99999945e-03 0. 5.33333328e-03 0. 0. 0.
      0. 5.33333328e-03 0. 2.66666664e-03 5.33333328e-03 0.
      5.33333328e-03 0. 5.33333328e-03 0. 0. 0. 0. 2.66666664e-03 0. 0.
      0. 0. 0. 0. 0. 0. 0. 0. 0. 0. 0. 0. 0. 0. 0. 0. 0. 2.66666664e-03
      0. 2.66666664e-03 0. 0. 5.33333328e-03 0. 0. 0. 0. 0. 0.
      2.66666664e-03 0. 0. 5.33333328e-03 0. 0. 0. 0. 5.33333328e-03 0.
      0. 0. 0. 0. 0. 0. 0. 0. 2.66666664e-03 0. 0. 0. 0. 2.66666664e-03
      0. 0. 5.33333328e-03 0. 0. 2.66666664e-03 7.99999945e-03 0. 0. 0.
      0. 0. 0. 0. 0. 0. 0. 0. 0. 0. 2.66666664e-03 0. 5.33333328e-03 0.
      0. 7.99999945e-03 0. 0. 0. 2.66666664e-03 2.66666664e-03 0. 0. 0.
      5.33333328e-03 0. 7.99999945e-03 0. 0. 2.66666664e-03
      2.66666664e-03 0. 0. 0. 2.66666664e-03 0. 7.99999945e-03 0.
      2.66666664e-03 0. 0. 0. 7.99999945e-03 0. 0. 0. 0. 0.
      5.33333328e-03 5.33333328e-03 5.33333328e-03 0. 0. 0. 0. 0. 0. 0.
      0. 2.66666664e-03 0. 0. 2.66666664e-03 0. 0. 0. 0. 0. 0. 0. 0.
      5.33333328e-03 5.33333328e-03 0. 0. 0. 2.66666664e-03 0. 0. 0.
      5.33333328e-03 0. 2.66666664e-03 0. 0. 0. 0. 2.66666664e-03 0. 0.
      0. 0. 0. 0. 0. 0. 0. 7.99999945e-03 2.66666664e-03 0. 0. 0. 0.
      2.66666664e-03 0. 5.33333328e-03 0. 0. 0. 5.33333328e-03 0. 0. 0.
      2.66666664e-03 0. 0. 0. 0. 7.99999945e-03 0. 0. 5.33333328e-03 0.
      0. 0. 0. 0. 0. 0. 5.33333328e-03 0. 2.66666664e-03 0. 0.
      2.66666664e-03 0. 0. 5.33333328e-03 1.06666666e-02 0. 0. 0. 0. 0.
      0. 0. 0. 5.33333328e-03 0. 2.66666664e-03 2.66666664e-03 0. 0.
      2.66666664e-03 0. 0. 0. 0. 0. 0. 0. 0. 0. 2.66666664e-03 0. 0. 0.
      2.66666664e-03 0. 2.66666664e-03 0. 0. 0. 0. 0. 0. 0. 0. 0.
      7.99999945e-03 0. 0. 0. 0. 0. 1.06666666e-02 0. 0. 0. 0. 0. 0. 0.
      2.66666664e-03 2.66666664e-03 0. 0. 0. 0. 2.66666664e-03 0. 0. 0.
      0. 5.33333328e-03 0. 0. 0. 0. 0. 0. 0. 0. 0. 0. 5.33333328e-03 0.
      0. 0. 0. 0. 5.33333328e-03 0. 0. 5.33333328e-03 0. 5.33333328e-03
      0. 0. 0. 0. 0. 0. 0. 0. 0. 0. 0. 0. 0. 0. 0. 0. 2.66666664e-03 0.
      7.99999945e-03 0. 5.33333328e-03 0. 0. 0. 0. 0. 0. 0. 0.
      2.13333331e-02 0. 2.66666664e-03 0. 0. 0. 0. 0. 0. 0. 0. 0. 0. 0.
      2.66666664e-03 0. 0. 0. 2.66666664e-03 0. 0. 0. 0. 0. 0. 0. 0. 0.
      0. 0. 0. 0. 0. 0. 5.33333328e-03 0. 0. 0. 2.66666664e-03 0. 0. 0.
      0. 0. 0. 0. 0. 0. 0. 0. 0. 0. 5.33333328e-03 1.33333337e-02 0.
      5.33333328e-03 2.66666664e-03 0. 0. 0. 0. 0. 0. 2.66666664e-03 0.
      0. 0. 2.66666664e-03 0. 0. 0. 0. 0. 0. 0. 0. 0. 0. 0. 0. 0. 0. 0.
      0. 0. 0. 5.33333328e-03 0. 0. 0. 0. 0. 0. 2.66666664e-03 0. 0. 0.
      2.66666664e-03 0. 0. 0. 2.66666664e-03 2.66666664e-03 0. 0. 0. 0.
      0. 0. 2.66666664e-03 0. 0. 0. 2.66666664e-03 2.66666664e-03 0. 0.
      1.33333337e-02 0. 0. 0. 0. 0. 0. 7.99999945e-03 0. 0. 0. 0. 0. 0.
      0. 0. 0. 0. 0. 0. 0. 0. 0. 0. 0. 2.66666664e-03 0. 5.33333328e-03
      0. 0. 2.66666664e-03 0. 0. 0. 0. 0. 2.66666664e-03 0. 0. 0. 0. 0.
      0. 0. 0. 0. 0. 2.66666664e-03 0. 2.66666664e-03 5.33333328e-03 0.
      0. 5.33333328e-03 2.66666664e-03 0. 0. 0. 0. 2.66666664e-03 0. 0.
      0. 0. 0. 0. 2.66666664e-03 0. 2.66666664e-03 0. 0. 0. 0. 0.
      2.66666664e-03 0. 5.33333328e-03 0. 2.66666664e-03 0.
      2.66666664e-03 0. 0. 0. 2.66666664e-03 0. 0. 0. 0. 0. 0. 0.
      5.33333328e-03 0. 0. 7.99999945e-03 2.66666664e-03 0. 0. 0. 0. 0.
      0. 0. 0. 0. 0. 0. 0. 2.66666664e-03 0. 0. 5.33333328e-03 0.
      2.66666664e-03 5.33333328e-03 2.66666664e-03 2.66666664e-03 0. 0.
      0. 0. 1.06666666e-02 0. 0. 0. 5.33333328e-03 0. 2.66666664e-03 0.
      0. 0. 0. 0. 0. 0. 0. 2.66666664e-03 0. 0. 0. 0. 0. 1.06666666e-02
      0. 0. 0. 0. 2.66666664e-03 0. 0. 0. 0. 0. 7.99999945e-03 0.
      3.19999978e-02 0. 0. 0. 0. 5.33333328e-03 0. 0. 0. 0. 0.
      2.66666664e-03 0. 0. 0. 0. 0. 0. 0. 0. 0. 0. 0. 0. 0. 0. 0. 0. 0.
      0. 5.33333328e-03 0. 0. 0. 0. 0. 0. 0. 0. 0. 5.33333328e-03 0. 0.
      0. 0. 2.66666664e-03 0. 0. 0. 0. 0. 0. 0. 0. 0. 1.06666666e-02 0.
      0. 0. 0. 0. 0. 2.66666664e-03 0. 0. 0. 0. 0. 7.99999945e-03
      2.66666664e-03 2.66666664e-03 0. 0. 2.66666664e-03 0. 0.
      2.66666664e-03 0. 2.66666664e-03 5.33333328e-03 0. 5.33333328e-03
      0. 0. 0. 0. 2.66666664e-03 0. 0. 0. 0. 0. 0. 2.66666664e-03
      2.66666664e-03 2.66666664e-03 0. 0. 0. 0. 0. 0. 2.66666664e-03 0.
      0. 0. 0. 0. 0. 0. 5.33333328e-03 5.33333328e-03 0. 0. 0. 0.
      2.66666664e-03 0. 0. 5.33333328e-03 0. 0. 0. 0. 0. 0. 0. 0. 0. 0.
      0. 0. 0. 0. 5.33333328e-03 5.33333328e-03 0. 0. 2.66666664e-03 0.
      0. 0. 5.33333328e-03</_>
    <_>
      2.08333344e-03 0. 0. 6.25000056e-03 0. 0. 0. 2.08333344e-03 0. 0.
      0. 2.08333344e-03 0. 0. 0. 0. 0. 0. 0. 0. 6.25000056e-03 0. 0. 0.
      0. 0. 0. 0. 2.08333344e-03 0. 0. 4.16666688e-03 2.08333344e-03 0.
      2.08333344e-03 0. 0. 0. 2.08333344e-03 2.08333344e-03 0.
      4.16666688e-03 2.08333344e-03 0. 0. 0. 0. 0. 2.08333344e-03 0. 0.
      4.16666688e-03 0. 0. 4.16666688e-03 0. 6.25000056e-03 0.
      2.08333344e-03 2.08333344e-03 0. 0. 0. 0. 0. 4.16666688e-03
      2.08333344e-03 0. 0. 0. 0. 0. 2.08333344e-03 0. 0. 0. 0. 0.
      1.04166670e-02 2.08333344e-03 0. 0. 4.16666688e-03 0. 0.
      2.08333344e-03 2.08333344e-03 0. 2.08333344e-03 0. 0.
      2.08333344e-03 4.16666688e-03 0. 0. 0. 0. 0. 0. 0. 2.08333344e-03
      0. 0. 0. 0. 2.08333344e-03 0. 2.08333344e-03 6.25000056e-03
      2.08333344e-03 0. 0. 0. 0. 0. 0. 1.04166670e-02 0. 0. 0.
      2.08333344e-03 0. 0. 0. 4.16666688e-03 1.04166670e-02 0.
      2.08333344e-03 0. 0. 0. 0. 4.16666688e-03 6.25000056e-03 0. 0.
      2.08333344e-03 0. 0. 0. 0. 0. 0. 0. 0. 0. 2.08333344e-03 0.
      2.08333344e-03 0. 0. 0. 2.08333344e-03 0. 2.08333344e-03 0. 0. 0.
      2.08333344e-03 0. 0. 0. 2.08333344e-03 2.08333344e-03 0. 0. 0. 0.
      0. 0. 0. 0. 0. 0. 6.25000056e-03 0. 0. 0. 0. 4.16666688e-03 0.
      6.25000056e-03 0. 0. 0. 0. 0. 2.08333344e-03 2.08333344e-03 0. 0.
      0. 0. 0. 0. 0. 0. 0. 0. 0. 0. 0. 0. 0. 0. 1.25000011e-02 0. 0. 0.
      0. 2.08333344e-03 2.08333344e-03 0. 0. 0. 2.08333344e-03 0. 0. 0.
      0. 0. 0. 0. 0. 4.16666688e-03 4.16666688e-03 0. 2.08333344e-03 0.
      0. 2.08333344e-03 0. 2.08333344e-03 0. 0. 0. 0. 0. 1.04166670e-02
      0. 0. 2.08333344e-03 4.16666688e-03 0. 2.08333344e-03 0. 0.
      4.16666688e-03 4.16666688e-03 0. 0. 2.08333344e-03 0.
      2.08333344e-03 4.16666688e-03 0. 0. 0. 0. 2.08333344e-03 0.
      2.08333344e-03 0. 2.08333344e-03 0. 2.08333344e-03 0. 0. 0. 0.
      2.08333344e-03 0. 2.08333344e-03 0. 4.16666688e-03 0.
      2.08333344e-03 0. 0. 2.08333344e-03 0. 0. 2.08333344e-03 0.
      2.08333344e-03 0. 6.25000056e-03 0. 0. 0. 2.08333344e-03
      2.08333344e-03 4.16666688e-03 0. 2.08333344e-03 2.08333344e-03 0.
      0. 0. 0. 0. 0. 2.08333344e-03 0. 0. 0. 0. 0. 0. 0. 0. 0. 0. 0.
      2.08333344e-03 0. 0. 0. 2.08333344e-03 0. 0. 0. 0. 0. 0. 0.
      2.08333344e-03 2.08333344e-03 2.08333344e-03 0. 0. 0. 0.
      2.08333344e-03 0. 0. 0. 0. 0. 0. 0. 2.08333344e-03 0.
      2.08333344e-03 0. 0. 2.08333344e-03 0. 2.08333344e-03 0. 0. 0.
      2.08333344e-03 4.16666688e-03 0. 0. 0. 0. 2.08333344e-03 0. 0. 0.
      0. 0. 4.16666688e-03 0. 0. 0. 2.08333344e-03 0. 0. 0. 0. 0. 0. 0.
      0. 0. 0. 0. 2.08333344e-03 2.08333344e-03 0. 2.08333344e-03
      6.25000056e-03 0. 0. 4.16666688e-03 2.08333344e-03 2.08333344e-03
      0. 6.25000056e-03 6.25000056e-03 0. 0. 0. 0. 0. 0. 8.33333377e-03
      0. 0. 0. 4.16666688e-03 2.08333344e-03 0. 0. 4.16666688e-03
      2.08333344e-03 0. 4.16666688e-03 0. 0. 0. 0. 0. 0. 0. 0. 0. 0.
      2.08333344e-03 0. 0. 2.08333344e-03 2.08333344e-03 0.
      2.08333344e-03 0. 0. 0. 4.16666688e-03 0. 0. 0. 0. 0.
      2.08333344e-03 0. 0. 0. 0. 0. 2.08333344e-03 0. 0. 4.16666688e-03
      4.16666688e-03 0. 0. 0. 0. 0. 0. 0. 0. 0. 0. 0. 2.08333344e-03 0.
      0. 0. 0. 2.08333344e-03 8.33333377e-03 6.25000056e-03 0.
      2.08333344e-03 0. 2.08333344e-03 0. 0. 6.25000056e-03 0.
      6.25000056e-03 0. 4.16666688e-03 0. 2.08333344e-03 0.
      4.16666688e-03 2.08333344e-03 0. 0. 0. 0. 2.08333344e-03
      2.08333344e-03 6.25000056e-03 0. 4.16666688e-03 0. 2.08333344e-03
      0. 0. 2.08333344e-03 0. 0. 6.25000056e-03 0. 0. 0. 0. 0.
      2.08333344e-03 0. 0. 6.25000056e-03 6.25000056e-03 0.
      6.25000056e-03 0. 0. 0. 0. 0. 2.08333344e-03 0. 0. 0.
      2.08333344e-03 4.16666688e-03 0. 0. 0. 0. 2.08333344e-03
      8.33333377e-03 0. 0. 0. 0. 0. 2.08333344e-03 0. 1.25000011e-02 0.
      0. 0. 2.08333344e-03 0. 2.08333344e-03 0. 2.08333344e-03
      6.25000056e-03 0. 0. 0. 4.16666688e-03 0. 0. 0. 0. 2.08333344e-03
      2.08333344e-03 0. 0. 0. 0. 0. 0. 4.16666688e-03 0. 0. 0.
      4.16666688e-03 0. 0. 0. 6.25000056e-03 2.08333344e-03 0. 0. 0. 0.
      0. 0. 0. 0. 2.08333344e-03 2.08333344e-03 0. 0. 0. 0. 0. 0. 0. 0.
      2.08333344e-03 0. 0. 0. 4.16666688e-03 0. 0. 4.16666688e-03
      2.08333344e-03 0. 0. 2.08333344e-03 2.08333344e-03 6.25000056e-03
      0. 0. 0. 2.08333344e-03 4.16666688e-03 0. 0. 2.08333344e-03 0. 0.
      0. 2.08333344e-03 0. 0. 0. 0. 2.08333344e-03 2.08333344e-03
      4.16666688e-03 0. 0. 0. 2.08333344e-03 0. 2.08333344e-03
      4.16666688e-03 0. 8.33333377e-03 6.25000056e-03 0. 0.
      2.08333344e-03 4.16666688e-03 2.08333344e-03 0. 2.08333344e-03 0.
      2.08333344e-03 0. 0. 6.25000056e-03 0. 0. 0. 2.08333344e-03 0. 0.
      6.25000056e-03 0. 0. 2.08333344e-03 2.08333344e-03 0. 0. 0. 0. 0.
      0. 0. 0. 0. 2.08333344e-03 2.08333344e-03 0. 0. 0. 0.
      2.08333344e-03 0. 0. 0. 2.08333344e-03 0. 0. 0. 0. 0. 0.
      2.08333344e-03 0. 2.08333344e-03 0. 0. 2.08333344e-03 0. 0. 0. 0.
      0. 0. 0. 0. 4.16666688e-03 0. 0. 0. 0. 0. 0. 0. 0. 0.
      2.08333344e-03 2.08333344e-03 0. 0. 0. 0. 0. 0. 0. 0. 0. 0. 0. 0.
      0. 0. 0. 0. 0. 0. 0. 0. 0. 0. 2.08333344e-03 0. 0. 0.
      6.25000056e-03 0. 0. 0. 0. 0. 0. 0. 0. 2.08333344e-03
      6.25000056e-03 6.25000056e-03 0. 0. 0. 0. 0. 2.08333344e-03
      2.08333344e-03 2.08333344e-03 0. 6.25000056e-03 0. 4.16666688e-03
      2.08333344e-03 0. 0. 2.08333344e-03 0. 4.16666688e-03 0. 0. 0. 0.
      0. 0. 0. 0. 2.08333344e-03 0. 0. 0. 0. 2.08333344e-03
      6.25000056e-03 2.08333344e-03 0. 6.25000056e-03 2.08333344e-03 0.
      0. 0. 2.08333344e-03 0. 0. 0. 2.08333344e-03 0. 8.33333377e-03 0.
      0. 0. 0. 0. 6.25000056e-03 0. 0. 0. 0. 0. 0. 0. 2.08333344e-03
      2.08333344e-03 4.16666688e-03 0. 0. 0. 0. 4.16666688e-03 0. 0.
      2.08333344e-03 4.16666688e-03 4.16666688e-03 0. 0. 0.
      2.08333344e-03 0. 0. 4.16666688e-03 0. 1.45833343e-02 0. 0. 0. 0.
      2.08333344e-03 0. 0. 0. 0. 0. 4.16666688e-03 2.08333344e-03 0. 0.
      4.16666688e-03 0. 0. 2.08333344e-03 2.08333344e-03 0. 0. 0.
      2.08333344e-03 0. 0. 2.08333344e-03 0. 0. 0. 0. 0. 2.08333344e-03
      0. 0. 2.08333344e-03 0. 0. 4.16666688e-03 0. 0. 0. 2.08333344e-03
      4.16666688e-03 0. 4.16666688e-03 0. 0. 0. 0. 0. 0. 2.08333344e-03
      2.08333344e-03 0. 0. 0. 4.16666688e-03 0. 0. 0. 0. 0. 0.
      2.08333344e-03 0. 6.25000056e-03 2.08333344e-03 6.25000056e-03 0.
      0. 2.08333344e-03 0. 0. 4.16666688e-03 0. 4.16666688e-03 0. 0. 0.
      0. 0. 2.08333344e-03 0. 4.16666688e-03 0. 0. 0. 0. 0. 0. 0. 0.
      2.08333344e-03 2.08333344e-03 0. 4.16666688e-03 0. 0.
      2.08333344e-03 4.16666688e-03 0. 0. 4.16666688e-03 0. 0.
      2.08333344e-03 0. 0. 0. 0. 0. 0. 2.08333344e-03 2.08333344e-03 0.
      0. 2.08333344e-03 2.08333344e-03 0. 6.25000056e-03 0. 0. 0. 0. 0.
      0. 0. 0. 0. 6.25000056e-03 0. 0. 6.25000056e-03 0. 0. 0. 0. 0.
      2.08333344e-03 0. 0. 0. 0. 0. 2.08333344e-03 4.16666688e-03
      2.08333344e-03 0. 4.16666688e-03 0. 0. 0. 0. 0. 0. 2.08333344e-03
      0. 0. 0. 0. 0. 0. 2.08333344e-03 0. 4.16666688e-03 0. 0.
      2.08333344e-03 2.08333344e-03 0. 0. 2.08333344e-03</_>
    <_>
      1.03626940e-02 0. 0. 5.18134702e-03 0. 0. 0. 0. 0. 0. 0. 0. 0. 0.
      0. 2.59067351e-03 0. 0. 2.59067351e-03 2.59067351e-03
      5.18134702e-03 0. 1.55440411e-02 0. 0. 0. 0. 0. 0. 0. 0. 0.
      5.18134702e-03 0. 0. 0. 0. 0. 0. 0. 0. 0. 0. 0. 0. 0. 0. 0. 0. 0.
      0. 0. 0. 2.59067351e-03 5.18134702e-03 0. 2.59067351e-03 0.
      2.59067351e-03 0. 0. 0. 0. 0. 0. 0. 0. 2.59067351e-03 0. 0. 0. 0.
      0. 0. 0. 0. 2.59067351e-03 7.77202053e-03 0. 2.59067351e-03 0. 0.
      2.59067351e-03 0. 0. 1.55440411e-02 2.59067351e-03 2.59067351e-03
      0. 0. 0. 0. 5.18134702e-03 0. 0. 0. 0. 0. 0. 0. 0. 0.
      2.59067351e-03 0. 0. 0. 0. 0. 1.29533671e-02 0. 0. 2.59067351e-03
      2.59067351e-03 0. 0. 0. 0. 0. 5.18134702e-03 2.59067351e-03
      2.59067351e-03 0. 0. 0. 0. 0. 5.18134702e-03 2.59067351e-03 0. 0.
      0. 0. 0. 2.59067351e-03 0. 0. 0. 0. 0. 0. 0. 5.18134702e-03 0.
      2.59067351e-03 0. 0. 2.59067351e-03 0. 0. 0. 2.59067351e-03
      5.18134702e-03 0. 0. 2.59067351e-03 0. 0. 0. 0. 2.59067351e-03 0.
      0. 0. 0. 7.77202053e-03 0. 2.59067351e-03 0. 0. 0. 0. 0. 0. 0.
      5.18134702e-03 0. 0. 0. 0. 0. 2.59067351e-03 0. 0. 0. 0. 0. 0. 0.
      0. 0. 1.29533671e-02 0. 0. 1.03626940e-02 0. 0. 0. 0. 0.
      2.59067351e-03 0. 0. 0. 0. 7.77202053e-03 0. 0. 0. 0.
      2.59067351e-03 0. 5.18134702e-03 0. 0. 0. 0. 0. 0. 0.
      2.59067351e-03 2.59067351e-03 0. 0. 0. 0. 0. 0. 0. 0. 0. 0. 0. 0.
      0. 2.59067351e-03 0. 0. 2.59067351e-03 0. 2.59067351e-03 0. 0. 0.
      0. 0. 0. 0. 0. 0. 0. 0. 0. 5.18134702e-03 2.59067351e-03
      7.77202053e-03 0. 2.59067351e-03 0. 0. 0. 2.59067351e-03 0.
      5.18134702e-03 0. 0. 0. 0. 0. 0. 0. 2.59067351e-03 2.59067351e-03
      0. 0. 2.59067351e-03 0. 2.59067351e-03 0. 0. 0. 2.59067351e-03 0.
      0. 0. 1.03626940e-02 0. 0. 0. 0. 0. 0. 2.59067351e-03 0. 0. 0. 0.
      0. 0. 0. 0. 5.18134702e-03 2.59067351e-03 1.55440411e-02 0. 0. 0.
      0. 0. 0. 0. 0. 0. 2.59067351e-03 0. 0. 0. 0. 0. 0. 0. 0. 0. 0. 0.
      0. 7.77202053e-03 0. 0. 0. 0. 0. 0. 0. 0. 0. 0. 0. 0.
      2.59067351e-03 0. 0. 0. 0. 0. 2.59067351e-03 0. 0. 2.59067351e-03
      2.59067351e-03 0. 0. 0. 0. 0. 0. 0. 0. 0. 0. 0. 0. 0. 0.
      2.59067351e-03 2.59067351e-03 0. 2.59067351e-03 0. 0.
      5.18134702e-03 0. 0. 0. 0. 0. 0. 0. 0. 0. 0. 2.59067351e-03 0. 0.
      0. 0. 0. 0. 0. 2.33160611e-02 0. 2.59067351e-03 0. 0.
      2.59067351e-03 0. 0. 0. 2.59067351e-03 0. 0. 0. 2.59067351e-03 0.
      0. 0. 0. 0. 0. 0. 0. 2.59067351e-03 0. 0. 5.18134702e-03
      5.18134702e-03 5.18134702e-03 0. 0. 5.18134702e-03 0.
      2.59067351e-03 2.59067351e-03 0. 0. 0. 0. 0. 0. 0. 0. 0.
      2.59067351e-03 0. 2.59067351e-03 0. 2.59067351e-03 2.59067351e-03
      0. 0. 0. 0. 2.59067351e-03 0. 0. 0. 0. 0. 0. 0. 0. 0. 0. 0. 0. 0.
      2.59067351e-03 0. 2.59067351e-03 0. 0. 0. 0. 0. 2.59067351e-03
      2.59067351e-03 2.59067351e-03 0. 0. 5.18134702e-03 0. 0.
      5.18134702e-03 0. 0. 0. 7.77202053e-03 0. 0. 0. 0. 0. 0.
      2.59067351e-03 0. 0. 0. 0. 0. 0. 7.77202053e-03 0. 0. 0. 0. 0.
      2.59067351e-03 0. 0. 0. 2.59067351e-03 0. 0. 7.77202053e-03 0. 0.
      7.77202053e-03 0. 5.18134702e-03 0. 5.18134702e-03 0. 0. 0. 0. 0.
      0. 0. 0. 0. 0. 0. 0. 2.59067351e-03 0. 0. 2.59067351e-03 0. 0.
      2.59067351e-03 0. 0. 0. 0. 0. 0. 5.18134702e-03 0. 0. 0. 0. 0. 0.
      0. 0. 0. 0. 0. 0. 0. 2.59067351e-03 0. 2.59067351e-03 0. 0. 0. 0.
      0. 0. 2.59067351e-03 0. 0. 0. 0. 0. 0. 0. 0. 0. 0. 0. 0.
      2.59067351e-03 0. 0. 0. 1.81347150e-02 0. 2.59067351e-03 0.
      2.59067351e-03 0. 0. 0. 5.18134702e-03 2.33160611e-02 0. 0. 0. 0.
      0. 0. 0. 2.59067351e-03 0. 2.59067351e-03 0. 0. 0. 0. 0. 0. 0.
      7.77202053e-03 0. 0. 0. 0. 0. 0. 7.77202053e-03 0. 0. 0. 0.
      2.59067351e-03 0. 1.55440411e-02 0. 0. 0. 0. 0. 2.59067351e-03
      5.18134702e-03 0. 0. 0. 0. 0. 0. 0. 0. 0. 0. 0. 0. 2.59067351e-03
      0. 0. 2.59067351e-03 2.33160611e-02 0. 0. 0. 5.18134702e-03 0. 0.
      0. 2.59067351e-03 0. 0. 5.18134702e-03 0. 0. 0. 0. 0.
      2.59067351e-03 0. 0. 2.59067351e-03 0. 0. 0. 0. 0. 0. 0. 0.
      2.59067351e-03 0. 0. 0. 0. 2.59067351e-03 2.59067351e-03 0.
      2.59067351e-03 0. 0. 0. 0. 0. 0. 0. 2.59067351e-03 0. 0.
      2.59067351e-03 0. 0. 5.18134702e-03 0. 0. 2.59067351e-03
      2.59067351e-03 0. 0. 5.18134702e-03 0. 0. 0. 0. 0. 0. 0.
      2.59067351e-03 5.18134702e-03 0. 0. 0. 0. 0. 0. 5.18134702e-03 0.
      2.59067351e-03 0. 0. 0. 5.18134702e-03 0. 0. 0. 0. 0. 0. 0. 0. 0.
      0. 0. 0. 5.18134702e-03 2.59067351e-03 0. 0. 0. 2.59067351e-03 0.
      0. 0. 0. 0. 2.59067351e-03 0. 0. 0. 0. 0. 0. 2.59067351e-03 0.
      2.59067351e-03 0. 0. 0. 0. 5.18134702e-03 0. 1.55440411e-02
      5.18134702e-03 0. 0. 2.59067351e-03 2.59067351e-03 0. 0. 0. 0. 0.
      0. 0. 0. 0. 0. 5.18134702e-03 0. 0. 7.77202053e-03 2.59067351e-03
      0. 0. 0. 0. 0. 0. 0. 0. 0. 2.59067351e-03 0. 0. 0. 0. 0.
      5.18134702e-03 0. 0. 0. 0. 0. 0. 2.59067351e-03 0. 0.
      5.18134702e-03 0. 0. 0. 0. 0. 2.59067351e-03 0. 0. 0.
      2.59067351e-03 2.59067351e-03 5.18134702e-03 0. 0. 0. 0. 0.
      7.77202053e-03 5.18134702e-03 2.59067351e-03 1.03626940e-02 0. 0.
      2.59067351e-03 2.59067351e-03 0. 0. 2.59067351e-03 2.59067351e-03
      0. 0. 0. 0. 0. 0. 0. 0. 0. 0. 0. 0. 0. 0. 0. 0. 0. 0. 0.
      2.59067351e-03 0. 0. 0. 0. 2.59067351e-03 0. 0. 0. 0.
      2.59067351e-03 7.77202053e-03 0. 2.59067351e-03 5.18134702e-03 0.
      0. 0. 0. 2.59067351e-03 0. 0. 0. 0. 0. 2.59067351e-03 0. 0. 0.
      5.18134702e-03 0. 0. 2.59067351e-03 0. 0. 0. 0. 0. 0. 0.
      5.18134702e-03 0. 5.18134702e-03 2.59067351e-03 2.59067351e-03 0.
      2.59067351e-03 0. 5.18134702e-03 5.18134702e-03 0. 0.
      2.59067351e-03 0. 0. 0. 5.18134702e-03 0. 0. 0. 0. 0.
      2.59067351e-03 0. 0. 2.59067351e-03 2.59067351e-03 0. 0. 0. 0. 0.
      0. 2.59067351e-03 0. 1.03626940e-02 0. 0. 0. 0. 7.77202053e-03 0.
      0. 0. 0. 0. 0. 0. 0. 2.59067351e-03 0. 0. 0. 0. 0. 0. 0. 0. 0. 0.
      0. 0. 0. 0. 2.59067351e-03 0. 0. 0. 0. 0. 0. 2.59067351e-03 0. 0.
      0. 2.59067351e-03 0. 2.59067351e-03 0. 0. 0. 0. 0. 0. 0. 0. 0. 0.
      0. 5.18134702e-03 0. 0. 7.77202053e-03 0. 0. 0. 0. 5.18134702e-03
      0. 0. 0. 5.18134702e-03 5.18134702e-03 2.59067351e-03
      2.59067351e-03</_>
    <_>
      3.77358496e-03 0. 0. 0. 0. 1.88679248e-03 0. 1.88679248e-03 0. 0.
      7.54716992e-03 0. 5.66037744e-03 0. 0. 0. 0. 0. 1.88679248e-03 0.
      0. 0. 1.13207549e-02 0. 1.88679248e-03 1.88679248e-03
      1.88679248e-03 0. 3.77358496e-03 0. 0. 0. 5.66037744e-03 0. 0. 0.
      0. 1.88679248e-03 1.88679248e-03 1.88679248e-03 3.77358496e-03 0.
      1.88679248e-03 0. 0. 0. 1.88679248e-03 0. 0. 0. 0. 1.88679248e-03
      0. 0. 0. 0. 0. 0. 3.77358496e-03 0. 0. 0. 0. 0. 5.66037744e-03 0.
      0. 5.66037744e-03 0. 1.88679248e-03 0. 0. 0. 0. 0. 0. 0. 0.
      1.88679248e-03 0. 0. 0. 0. 0. 0. 0. 0. 1.88679248e-03 0.
      1.88679248e-03 0. 0. 0. 0. 0. 0. 0. 0. 0. 3.77358496e-03 0. 0.
      9.43396240e-03 0. 0. 0. 0. 0. 5.66037744e-03 0. 0. 0. 0. 0. 0. 0.
      0. 0. 0. 0. 0. 0. 0. 0. 0. 0. 0. 3.77358496e-03 5.66037744e-03 0.
      0. 1.88679248e-03 0. 0. 0. 0. 0. 1.88679248e-03 1.88679248e-03 0.
      0. 0. 0. 0. 0. 0. 0. 0. 1.88679248e-03 0. 1.88679248e-03 0. 0. 0.
      1.88679248e-03 0. 0. 0. 0. 0. 0. 0. 0. 0. 1.88679248e-03 0.
      3.77358496e-03 0. 0. 0. 3.77358496e-03 1.88679248e-03 0.
      5.66037744e-03 0. 0. 3.77358496e-03 0. 0. 0. 0. 1.88679248e-03
      3.77358496e-03 0. 0. 0. 0. 3.77358496e-03 0. 0. 0. 3.77358496e-03
      1.88679248e-03 1.88679248e-03 0. 1.88679248e-03 7.54716992e-03 0.
      0. 1.88679248e-03 0. 1.88679248e-03 1.88679248e-03 0.
      3.77358496e-03 0. 1.88679248e-03 1.32075474e-02 0. 0. 0.
      1.88679248e-03 0. 1.88679248e-03 0. 5.66037744e-03 0. 0. 0. 0.
      3.77358496e-03 0. 0. 0. 0. 0. 0. 1.88679248e-03 0. 7.54716992e-03
      1.88679248e-03 0. 1.88679248e-03 0. 1.88679248e-03 0. 0. 0. 0. 0.
      0. 0. 0. 1.88679248e-02 0. 1.88679248e-03 0. 0. 0. 0. 0. 0.
      1.88679248e-03 0. 7.54716992e-03 0. 0. 1.88679248e-03
      1.88679248e-03 7.54716992e-03 0. 0. 3.77358496e-03 1.88679248e-03
      0. 0. 1.88679248e-03 0. 0. 0. 1.88679248e-03 0. 0. 0.
      1.88679248e-03 0. 1.88679248e-03 0. 1.88679248e-03 0. 0.
      3.77358496e-03 1.88679248e-03 0. 0. 3.77358496e-03 0. 0. 0. 0. 0.
      1.88679248e-03 3.77358496e-03 0. 1.88679248e-03 0. 0.
      1.88679248e-03 0. 0. 0. 0. 1.88679248e-03 0. 1.88679248e-03 0. 0.
      1.88679248e-03 1.88679248e-03 0. 0. 1.88679248e-03 0. 0. 0.
      7.54716992e-03 0. 0. 0. 0. 1.88679248e-03 0. 0. 0. 1.88679248e-03
      3.77358496e-03 0. 1.88679248e-03 1.88679248e-03 0. 0. 0. 0. 0. 0.
      1.88679248e-03 0. 0. 0. 0. 1.88679248e-03 1.88679248e-03 0.
      1.88679248e-03 0. 0. 1.88679248e-03 0. 3.77358496e-03 0. 0.
      3.77358496e-03 1.13207549e-02 1.88679248e-03 1.32075474e-02
      1.88679248e-03 0. 0. 0. 0. 0. 7.54716992e-03 0. 0. 0. 0. 0. 0. 0.
      1.88679248e-03 3.77358496e-03 0. 1.88679248e-03 3.77358496e-03
      1.88679248e-03 0. 3.77358496e-03 0. 3.77358496e-03 0.
      1.88679248e-03 0. 0. 0. 0. 0. 0. 3.77358496e-03 0. 0.
      1.88679248e-03 0. 3.77358496e-03 0. 0. 0. 1.88679248e-03 0.
      1.88679248e-03 3.77358496e-03 0. 0. 0. 1.88679248e-03
      1.88679248e-03 0. 0. 1.88679248e-03 5.66037744e-03 0. 0.
      1.88679248e-03 0. 0. 1.88679248e-03 3.77358496e-03 0. 0. 0. 0. 0.
      0. 0. 0. 0. 0. 3.77358496e-03 0. 0. 1.88679248e-03 0.
      1.88679248e-03 0. 0. 1.88679248e-03 0. 1.88679248e-03 0.
      1.88679248e-03 0. 0. 1.88679248e-03 0. 1.88679248e-03 0. 0. 0. 0.
      0. 0. 3.77358496e-03 3.77358496e-03 0. 0. 0. 0. 1.88679248e-03 0.
      0. 0. 0. 1.88679248e-03 0. 1.88679248e-03 3.77358496e-03
      3.77358496e-03 1.88679248e-03 0. 0. 0. 0. 0. 0. 1.88679248e-03 0.
      3.77358496e-03 0. 0. 0. 3.77358496e-03 0. 0. 5.66037744e-03 0. 0.
      0. 1.88679248e-03 0. 0. 1.88679248e-03 0. 3.77358496e-03
      1.88679248e-03 0. 0. 1.88679248e-03 0. 0. 0. 1.88679248e-03 0. 0.
      1.88679248e-03 0. 0. 0. 9.43396240e-03 0. 3.77358496e-03
      1.88679248e-03 1.88679248e-03 5.66037744e-03 0. 0. 1.88679248e-03
      0. 0. 0. 0. 1.88679248e-03 0. 0. 0. 0. 0. 0. 0. 0. 0. 0. 0. 0. 0.
      0. 0. 0. 0. 0. 1.88679248e-03 1.88679248e-03 5.66037744e-03 0. 0.
      1.13207549e-02 3.77358496e-03 0. 0. 0. 3.77358496e-03
      1.88679248e-03 0. 1.88679248e-03 0. 0. 1.88679248e-03
      1.88679248e-03 0. 0. 0. 0. 0. 0. 0. 0. 0. 0. 1.88679248e-03 0. 0.
      0. 1.88679248e-03 0. 5.66037744e-03 3.77358496e-03 0.
      1.88679248e-03 0. 0. 1.88679248e-03 0. 0. 0. 1.88679248e-03 0.
      2.26415098e-02 0. 0. 0. 1.88679248e-03 0. 1.88679248e-03
      1.88679248e-03 3.77358496e-03 0. 3.77358496e-03 0. 1.88679248e-03
      1.88679248e-03 1.88679248e-03 0. 1.88679248e-03 1.32075474e-02
      5.66037744e-03 1.88679248e-03 1.13207549e-02 0. 0. 0.
      5.66037744e-03 0. 9.43396240e-03 0. 0. 0. 0. 0. 0. 1.88679248e-03
      0. 1.88679248e-03 0. 0. 3.77358496e-03 1.88679248e-03
      3.77358496e-03 0. 0. 0. 1.88679248e-03 1.88679248e-03 0.
      1.88679248e-03 0. 1.88679248e-03 0. 0. 1.88679248e-03 0.
      1.88679248e-03 0. 0. 0. 0. 0. 1.88679248e-03 0. 0. 1.88679248e-03
      0. 0. 0. 1.88679248e-03 0. 0. 1.88679248e-03 0. 0. 0. 0. 0. 0. 0.
      0. 0. 0. 0. 1.88679248e-03 0. 0. 1.88679248e-03 0. 0. 0. 0. 0. 0.
      0. 1.88679248e-03 0. 0. 3.77358496e-03 0. 0. 0. 1.88679248e-03 0.
      1.88679248e-03 0. 0. 0. 0. 0. 0. 0. 0. 1.88679248e-03 0.
      1.88679248e-03 0. 7.54716992e-03 1.88679248e-03 0. 1.88679248e-03
      0. 0. 0. 0. 1.88679248e-03 1.88679248e-03 0. 0. 0. 1.88679248e-03
      1.88679248e-03 3.77358496e-03 0. 0. 0. 0. 0. 1.88679248e-03 0. 0.
      1.88679248e-03 3.77358496e-03 0. 1.88679248e-03 0. 0. 0. 0. 0. 0.
      0. 1.88679248e-03 0. 0. 3.77358496e-03 1.88679248e-03 0.
      5.66037744e-03 0. 0. 0. 1.88679248e-03 1.88679248e-03 0. 0. 0. 0.
      0. 3.77358496e-03 1.88679248e-03 0. 0. 0. 0. 1.88679248e-03 0.
      3.77358496e-03 0. 0. 0. 0. 0. 0. 0. 0. 1.88679248e-03 0. 0.
      1.88679248e-03 0. 0. 0. 0. 0. 0. 0. 1.88679248e-03 0. 0. 0. 0.
      7.54716992e-03 0. 0. 0. 0. 0. 0. 3.77358496e-03 0. 1.88679248e-03
      0. 0. 0. 1.88679248e-03 0. 0. 0. 0. 1.88679248e-03 5.66037744e-03
      0. 1.88679248e-03 0. 0. 0. 1.50943398e-02 7.54716992e-03 0. 0. 0.
      0. 5.66037744e-03 1.88679248e-03 0. 5.66037744e-03 1.88679248e-03
      1.88679248e-03 0. 1.88679248e-03 0. 0. 0. 0. 0. 0. 1.88679248e-03
      1.88679248e-03 0. 1.88679248e-03 1.88679248e-03 1.88679248e-03
      3.77358496e-03 0. 0. 1.88679248e-03 1.88679248e-03 1.88679248e-03
      1.88679248e-03 0. 3.77358496e-03 1.88679248e-03 0. 0. 0. 0.
      1.88679248e-03 0. 0. 0. 0. 0. 0. 0. 1.88679248e-03 0.
      1.88679248e-03 0. 0. 0. 5.66037744e-03 0. 0. 3.77358496e-03
      1.88679248e-03 0. 3.77358496e-03 0. 1.88679248e-03 0.
      1.88679248e-03 0. 0. 0. 0. 0. 0. 1.13207549e-02 0. 0. 0. 0. 0. 0.
      0. 0. 0. 0. 0. 0. 0. 0. 0. 0. 1.88679248e-03 0. 1.88679248e-03 0.
      1.88679248e-03 0. 0. 1.88679248e-03 0. 0. 0. 0. 0. 0. 0.
      1.88679248e-03 1.88679248e-03 1.88679248e-03 0. 0. 1.88679248e-03
      0. 1.88679248e-03 0. 1.88679248e-03 0. 0. 0. 3.77358496e-03 0. 0.
      0. 1.88679248e-03 1.88679248e-03 0. 0. 1.88679248e-03 0. 0.
      7.54716992e-03 0. 0. 1.88679248e-03 0. 0. 0. 1.88679248e-03 0.
      3.77358496e-03 1.88679248e-03 0. 0. 0. 0. 0. 0. 1.88679248e-03 0.
      0. 1.88679248e-03 5.66037744e-03 0. 0. 1.88679248e-03 0.
      3.77358496e-03 0. 0. 0. 0. 0. 1.88679248e-03 0. 1.88679248e-03 0.
      0. 0. 0. 0. 0. 0. 0. 0. 0. 0. 1.88679248e-03 0. 0. 0. 0. 0.
      1.88679248e-03 0. 0. 1.88679248e-03 0. 1.88679248e-03 0. 0. 0.
      1.88679248e-03 0. 0.</_>
    <_>
      9.74658877e-04 1.94931775e-03 2.92397663e-03 2.92397663e-03 0. 0.
      0. 0. 0. 9.74658877e-04 0. 0. 0. 0. 9.74658877e-04 0. 0.
      9.74658877e-04 1.94931775e-03 1.94931775e-03 0. 0. 0. 0.
      9.74658877e-04 0. 0. 0. 0. 0. 4.87329438e-03 1.94931775e-03
      9.74658877e-04 9.74658877e-04 9.74658877e-04 1.94931775e-03
      1.94931775e-03 1.94931775e-03 9.74658877e-04 1.94931775e-03
      9.74658877e-04 9.74658877e-04 0. 0. 0. 0. 9.74658877e-04
      9.74658877e-04 1.94931775e-03 0. 0. 9.74658877e-04 9.74658877e-04
      1.94931775e-03 0. 1.94931775e-03 4.87329438e-03 9.74658877e-04
      3.89863551e-03 0. 0. 9.74658877e-04 0. 1.94931775e-03 0. 0. 0.
      9.74658877e-04 1.94931775e-03 0. 0. 0. 0. 1.94931775e-03
      1.94931775e-03 9.74658877e-04 9.74658877e-04 0. 9.74658877e-04
      3.89863551e-03 0. 9.74658877e-04 0. 4.87329438e-03 0.
      3.89863551e-03 0. 2.92397663e-03 1.94931775e-03 0. 9.74658877e-04
      2.92397663e-03 0. 3.89863551e-03 0. 0. 9.74658877e-04
      9.74658877e-04 0. 0. 0. 0. 0. 0. 0. 9.74658877e-04 9.74658877e-04
      9.74658877e-04 1.94931775e-03 9.74658877e-04 0. 1.94931775e-03 0.
      0. 0. 0. 1.94931775e-03 0. 0. 2.92397663e-03 9.74658877e-04 0. 0.
      0. 1.94931775e-03 9.74658877e-04 1.94931775e-03 9.74658877e-04
      1.94931775e-03 1.94931775e-03 9.74658877e-04 9.74658877e-04 0.
      5.84795326e-03 2.92397663e-03 1.94931775e-03 2.92397663e-03
      9.74658877e-04 1.94931775e-03 0. 0. 0. 0. 3.89863551e-03
      9.74658877e-04 9.74658877e-04 9.74658877e-04 2.92397663e-03
      1.94931775e-03 0. 9.74658877e-04 6.82261214e-03 0. 0.
      2.92397663e-03 0. 0. 0. 0. 0. 0. 0. 3.89863551e-03 9.74658877e-04
      0. 1.94931775e-03 9.74658877e-04 9.74658877e-04 9.74658877e-04
      9.74658877e-04 9.74658877e-04 0. 0. 0. 0. 3.89863551e-03
      2.92397663e-03 0. 9.74658877e-04 1.94931775e-03 9.74658877e-04
      9.74658877e-04 0. 0. 0. 1.94931775e-03 9.74658877e-04
      1.94931775e-03 4.87329438e-03 0. 4.87329438e-03 0. 0.
      2.92397663e-03 3.89863551e-03 9.74658877e-04 0. 0. 0.
      9.74658877e-04 9.74658877e-04 0. 0. 0. 1.94931775e-03 0. 0. 0.
      9.74658877e-04 9.74658877e-04 0. 9.74658877e-04 0. 0. 0.
      9.74658877e-04 9.74658877e-04 9.74658877e-04 0. 3.89863551e-03
      5.84795326e-03 9.74658877e-04 9.74658877e-04 6.82261214e-03
      9.74658877e-04 9.74658877e-04 9.74658877e-04 9.74658877e-04 0. 0.
      0. 1.94931775e-03 0. 9.74658877e-04 0. 1.94931775e-03
      9.74658877e-04 0. 9.74658877e-04 1.94931775e-03 1.94931775e-03
      1.94931775e-03 1.94931775e-03 1.94931775e-03 9.74658877e-04
      1.94931775e-03 0. 9.74658877e-04 9.74658877e-04 9.74658877e-04 0.
      2.92397663e-03 0. 2.92397663e-03 9.74658877e-04 0. 2.92397663e-03
      9.74658877e-04 9.74658877e-04 2.92397663e-03 1.94931775e-03 0. 0.
      9.74658877e-04 0. 0. 0. 9.74658877e-04 0. 0. 9.74658877e-04
      9.74658877e-04 9.74658877e-04 0. 9.74658877e-04 0. 0.
      9.74658877e-04 0. 0. 0. 0. 0. 0. 1.94931775e-03 9.74658877e-04 0.
      9.74658877e-04 0. 1.94931775e-03 1.94931775e-03 9.74658877e-04
      9.74658877e-04 0. 9.74658877e-04 5.84795326e-03 0. 0. 0.
      1.94931775e-03 9.74658877e-04 0. 9.74658877e-04 0. 0.
      9.74658877e-04 0. 0. 3.89863551e-03 0. 0. 0. 9.74658877e-04 0.
      9.74658877e-04 0. 0. 4.87329438e-03 0. 0. 9.74658877e-04 0.
      9.74658877e-04 0. 0. 1.94931775e-03 0. 2.92397663e-03
      9.74658877e-04 2.92397663e-03 9.74658877e-04 1.94931775e-03
      1.94931775e-03 2.92397663e-03 9.74658877e-04 0. 9.74658877e-04
      1.94931775e-03 1.94931775e-03 9.74658877e-04 0. 0. 0.
      2.92397663e-03 5.84795326e-03 0. 1.94931775e-03 0. 0.
      9.74658877e-04 0. 0. 0. 9.74658877e-04 0. 9.74658877e-04
      9.74658877e-04 0. 9.74658877e-04 0. 9.74658877e-04 1.94931775e-03
      0. 0. 0. 0. 1.94931775e-03 0. 0. 1.94931775e-03 0. 9.74658877e-04
      0. 2.92397663e-03 4.87329438e-03 0. 1.94931775e-03 9.74658877e-04
      7.79727101e-03 0. 2.92397663e-03 0. 0. 0. 0. 0. 0. 9.74658877e-04
      2.92397663e-03 0. 9.74658877e-04 0. 9.74658877e-04 9.74658877e-04
      0. 9.74658877e-04 9.74658877e-04 0. 1.94931775e-03 0.
      9.74658877e-04 9.74658877e-04 2.92397663e-03 0. 2.92397663e-03 0.
      9.74658877e-04 2.92397663e-03 9.74658877e-04 0. 0. 1.94931775e-03
      0. 0. 1.94931775e-03 0. 1.94931775e-03 9.74658877e-04
      9.74658877e-04 0. 9.74658877e-04 1.94931775e-03 0. 0.
      1.94931775e-03 0. 9.74658877e-04 0. 0. 9.74658877e-04 0. 0. 0.
      9.74658877e-04 0. 9.74658877e-04 0. 9.74658877e-04 0. 0. 0.
      1.94931775e-03 9.74658877e-04 9.74658877e-04 0. 0. 1.94931775e-03
      0. 0. 0. 0. 0. 2.92397663e-03 0. 0. 4.87329438e-03 9.74658877e-04
      1.16959065e-02 0. 1.94931775e-03 0. 0. 0. 0. 1.94931775e-03 0. 0.
      0. 0. 0. 9.74658877e-04 0. 0. 0. 9.74658877e-04 6.82261214e-03 0.
      0. 9.74658877e-04 9.74658877e-04 2.92397663e-03 1.94931775e-03
      1.94931775e-03 0. 9.74658877e-04 0. 1.94931775e-03 0. 0.
      9.74658877e-04 0. 0. 0. 9.74658877e-04 0. 0. 0. 0. 0. 0. 0. 0.
      3.89863551e-03 0. 0. 9.74658877e-04 9.74658877e-04 0. 0.
      9.74658877e-04 0. 9.74658877e-04 0. 1.94931775e-03 0. 0.
      9.74658877e-04 0. 9.74658877e-04 1.94931775e-03 0. 9.74658877e-04
      1.94931775e-03 0. 9.74658877e-04 0. 9.74658877e-04 3.89863551e-03
      0. 2.92397663e-03 0. 5.84795326e-03 1.94931775e-03 0.
      9.74658877e-04 9.74658877e-04 0. 2.92397663e-03 1.94931775e-03
      1.94931775e-03 2.92397663e-03 1.94931775e-03 0. 0. 9.74658877e-04
      0. 0. 0. 0. 9.74658877e-04 0. 0. 0. 0. 9.74658877e-04
      1.94931775e-03 0. 0. 9.74658877e-04 9.74658877e-04 1.94931775e-03
      9.74658877e-04 9.74658877e-04 1.94931775e-03 0. 0. 0.
      9.74658877e-04 0. 1.94931775e-03 3.89863551e-03 0. 9.74658877e-04
      1.94931775e-03 9.74658877e-04 3.89863551e-03 0. 0. 0. 0.
      1.94931775e-03 0. 0. 0. 9.74658877e-03 0. 9.74658877e-04 0. 0. 0.
      1.94931775e-03 0. 9.74658877e-04 0. 0. 0. 9.74658877e-04 0.
      1.94931775e-03 0. 9.74658877e-04 2.92397663e-03 9.74658877e-04
      9.74658877e-04 0. 9.74658877e-04 1.94931775e-03 0. 1.94931775e-03
      9.74658877e-04 0. 0. 0. 0. 4.87329438e-03 1.94931775e-03
      2.92397663e-03 9.74658877e-04 0. 0. 9.74658877e-04 0.
      3.89863551e-03 2.92397663e-03 2.92397663e-03 9.74658877e-04 0.
      1.94931775e-03 2.92397663e-03 0. 0. 9.74658877e-04 5.84795326e-03
      1.94931775e-03 0. 0. 1.94931775e-03 0. 0. 0. 0. 1.94931775e-03 0.
      0. 9.74658877e-04 0. 3.89863551e-03 1.94931775e-03 0. 0. 0.
      1.94931775e-03 0. 0. 0. 0. 3.89863551e-03 9.74658877e-04 0.
      9.74658877e-04 9.74658877e-04 0. 0. 9.74658877e-04 9.74658877e-04
      1.94931775e-03 0. 0. 9.74658877e-04 1.94931775e-03 0.
      9.74658877e-04 9.74658877e-04 0. 9.74658877e-04 0. 0. 0.
      2.92397663e-03 0. 9.74658877e-04 3.89863551e-03 0. 0.
      9.74658877e-04 1.94931775e-03 4.87329438e-03 0. 9.74658877e-04
      3.89863551e-03 0. 0. 1.94931775e-03 1.94931775e-03 0. 0.
      9.74658877e-04 1.94931775e-03 9.74658877e-04 0. 9.74658877e-04
      4.87329438e-03 0. 0. 9.74658877e-04 0. 1.94931775e-03 0.
      9.74658877e-04 0. 9.74658877e-04 0. 0. 0. 1.94931775e-03
      2.92397663e-03 3.89863551e-03 0. 1.94931775e-03 0. 2.92397663e-03
      0. 0. 9.74658877e-04 0. 0. 0. 9.74658877e-04 0. 0. 0. 0. 0. 0.
      1.94931775e-03 2.92397663e-03 0. 5.84795326e-03 0. 1.94931775e-03
      0. 0. 1.94931775e-03 0. 9.74658877e-04 0. 0. 0. 9.74658877e-04
      9.74658877e-04 1.94931775e-03 0. 0. 9.74658877e-04 9.74658877e-04
      0. 9.74658877e-04 0. 9.74658877e-04 0. 9.74658877e-04
      9.74658877e-04 9.74658877e-04 0. 0. 9.74658877e-04 9.74658877e-04
      9.74658877e-04 9.74658877e-04 9.74658877e-04 4.87329438e-03
      9.74658877e-04 9.74658877e-04 1.94931775e-03 0. 9.74658877e-04
      9.74658877e-04 5.84795326e-03 9.74658877e-04 7.79727101e-03
      2.92397663e-03 3.89863551e-03 1.94931775e-03 9.74658877e-04 0.
      9.74658877e-04 2.92397663e-03 0. 0. 1.94931775e-03 0.
      3.89863551e-03 1.94931775e-03 3.89863551e-03 9.74658877e-04
      9.74658877e-04 0. 1.94931775e-03 0. 1.94931775e-03 9.74658877e-04
      0. 9.74658877e-04 9.74658877e-04 0. 3.89863551e-03 9.74658877e-04
      0. 5.84795326e-03 5.84795326e-03 1.94931775e-03 3.89863551e-03 0.
      9.74658877e-04 0. 9.74658877e-04 9.74658877e-04 0. 1.94931775e-03
      9.74658877e-04 0. 0. 0. 2.92397663e-03 9.74658877e-04
      3.89863551e-03 0. 2.92397663e-03 0. 9.74658877e-04 9.74658877e-04
      0. 1.94931775e-03 0. 0. 0. 2.92397663e-03 0. 3.89863551e-03 0. 0.
      9.74658877e-04 9.74658877e-04 0. 9.74658877e-04 1.94931775e-03
      1.94931775e-03 9.74658877e-04 0. 9.74658877e-04 9.74658877e-04
      1.94931775e-03 0. 9.74658877e-04 1.94931775e-03 9.74658877e-04
      5.84795326e-03 0. 0. 0. 9.74658877e-04 0. 9.74658877e-04 0.
      9.74658877e-04 0. 9.74658877e-04 9.74658877e-04 3.89863551e-03
      1.94931775e-03 9.74658877e-04 0. 0. 9.74658877e-04 0.
      1.94931775e-03 0. 0. 0. 1.94931775e-03 4.87329438e-03 0. 0. 0.
      1.94931775e-03 0. 6.82261214e-03 2.92397663e-03 0. 0. 0. 0. 0. 0.
      9.74658877e-04 9.74658877e-04 0. 1.94931775e-03 9.74658877e-04 0.
      0. 0. 0. 0. 1.94931775e-03 0. 0. 9.74658877e-04 0. 0. 0.
      9.74658877e-04 0. 5.84795326e-03 9.74658877e-04 9.74658877e-04
      9.74658877e-04 5.84795326e-03 1.94931775e-03 1.94931775e-03
      2.92397663e-03 0. 9.74658877e-04 0. 0. 2.92397663e-03
      9.74658877e-04 1.94931775e-03 2.92397663e-03 1.94931775e-03
      2.92397663e-03 1.94931775e-03 0. 0. 0. 9.74658877e-04 0. 0. 0.
      9.74658877e-04 2.92397663e-03 0. 9.74658877e-04 1.94931775e-03
      1.94931775e-03 9.74658877e-04 0. 0. 3.89863551e-03 0. 0.
      1.94931775e-03 0. 0. 0. 0. 0. 5.84795326e-03 0. 0. 1.94931775e-03
      9.74658877e-04 0. 3.89863551e-03 0. 0. 9.74658877e-04
      1.94931775e-03 0. 0. 1.94931775e-03 0. 0. 1.94931775e-03 0. 0.
      1.94931775e-03 0. 9.74658877e-04 0. 0. 0. 0. 0. 0. 9.74658877e-04
      0. 0. 9.74658877e-04 0. 1.94931775e-03 1.94931775e-03
      1.94931775e-03 1.94931775e-03 0. 1.94931775e-03 0. 9.74658877e-04
      9.74658877e-04 0.</_>
    <_>
      2.93685752e-03 0. 2.93685752e-03 5.87371504e-03 2.93685752e-03 0.
      0. 0. 0. 0. 1.46842876e-03 0. 0. 0. 0. 0. 2.93685752e-03
      1.46842876e-03 1.46842876e-03 1.46842876e-03 0. 0. 1.46842876e-03
      0. 1.46842876e-03 0. 1.46842876e-03 0. 2.93685752e-03 0. 0. 0.
      1.02790017e-02 5.87371504e-03 0. 1.46842876e-03 0. 2.93685752e-03
      2.93685752e-03 1.46842876e-03 0. 1.46842876e-03 0. 0. 0. 0. 0.
      1.46842876e-03 1.46842876e-03 0. 7.34214392e-03 0. 1.46842876e-03
      1.46842876e-03 0. 0. 0. 0. 1.46842876e-03 0. 0. 0. 0. 0. 0. 0. 0.
      0. 0. 0. 0. 0. 0. 0. 1.46842876e-03 0. 5.87371504e-03
      1.46842876e-03 2.93685752e-03 0. 0. 0. 1.46842876e-03 0. 0.
      2.93685752e-03 0. 1.46842876e-03 0. 0. 0. 0. 2.93685752e-03
      2.93685752e-03 0. 0. 0. 0. 1.46842876e-03 1.46842876e-03
      2.93685752e-03 1.46842876e-03 8.81057233e-03 1.46842876e-03
      2.93685752e-03 0. 0. 5.87371504e-03 1.46842876e-03 0. 0.
      1.46842876e-03 4.40528616e-03 0. 0. 0. 0. 0. 0. 0. 0. 0. 0. 0.
      1.46842876e-03 0. 1.46842876e-03 0. 0. 1.46842876e-03
      7.34214392e-03 0. 0. 0. 4.40528616e-03 0. 2.93685752e-03 0. 0.
      1.46842876e-03 0. 1.46842876e-03 1.46842876e-03 5.87371504e-03 0.
      0. 1.46842876e-03 0. 0. 2.93685752e-03 0. 1.46842876e-03 0. 0. 0.
      0. 1.46842876e-03 1.46842876e-03 1.46842876e-03 2.93685752e-03 0.
      0. 1.46842876e-03 0. 1.46842876e-03 0. 1.46842876e-03
      2.93685752e-03 5.87371504e-03 2.93685752e-03 0. 0. 0. 0.
      2.93685752e-03 1.46842876e-03 0. 0. 0. 0. 0. 0. 0. 0. 0.
      1.46842876e-03 0. 2.93685752e-03 1.46842876e-03 2.93685752e-03 0.
      1.46842876e-03 0. 1.46842876e-03 0. 0. 0. 1.46842876e-03 0. 0.
      2.93685752e-03 0. 0. 0. 0. 0. 0. 0. 0. 0. 0. 0. 2.93685752e-03 0.
      2.93685752e-03 5.87371504e-03 1.46842876e-03 1.46842876e-03 0. 0.
      0. 0. 0. 1.46842876e-03 0. 0. 0. 8.81057233e-03 4.40528616e-03
      1.46842876e-03 0. 0. 1.46842876e-03 0. 5.87371504e-03 0. 0. 0. 0.
      4.40528616e-03 0. 0. 1.46842876e-03 1.46842876e-03 1.46842876e-03
      0. 0. 0. 4.40528616e-03 0. 1.46842876e-03 0. 1.46842876e-03
      1.46842876e-03 0. 0. 2.93685752e-03 0. 0. 2.93685752e-03 0.
      1.46842876e-03 0. 4.40528616e-03 1.46842876e-03 0. 0.
      1.46842876e-03 0. 0. 2.93685752e-03 1.46842876e-03 1.46842876e-03
      1.46842876e-03 1.46842876e-03 0. 0. 0. 0. 1.46842876e-03 0.
      2.93685752e-03 0. 0. 8.81057233e-03 2.93685752e-03 1.46842876e-03
      4.40528616e-03 0. 0. 1.46842876e-03 2.93685752e-03 0. 0. 0. 0.
      1.46842876e-03 1.46842876e-03 0. 0. 0. 0. 4.40528616e-03 0. 0.
      4.40528616e-03 0. 0. 1.46842876e-03 0. 0. 0. 1.46842876e-03 0. 0.
      1.46842876e-03 0. 1.46842876e-03 0. 0. 0. 0. 1.46842876e-03
      4.40528616e-03 2.93685752e-03 1.46842876e-03 0. 1.46842876e-03
      2.93685752e-03 1.46842876e-03 0. 0. 0. 1.46842876e-03
      1.46842876e-03 0. 1.46842876e-03 0. 0. 1.46842876e-03 0.
      1.46842876e-03 0. 0. 0. 0. 4.40528616e-03 4.40528616e-03
      1.46842876e-03 1.46842876e-03 0. 1.46842876e-03 1.46842876e-03
      1.46842876e-03 0. 0. 2.93685752e-03 0. 0. 0. 0. 0. 0. 0. 0.
      1.46842876e-03 1.46842876e-03 2.93685752e-03 0. 0. 2.93685752e-03
      1.46842876e-03 0. 0. 0. 0. 0. 0. 4.40528616e-03 1.46842876e-03
      2.93685752e-03 0. 0. 0. 2.93685752e-03 2.93685752e-03 0. 0.
      1.46842876e-03 0. 1.46842876e-03 0. 0. 1.46842876e-03 0. 0.
      1.46842876e-03 1.46842876e-03 0. 2.93685752e-03 0. 0. 0.
      1.46842876e-03 2.93685752e-03 0. 1.46842876e-03 0. 2.93685752e-03
      0. 0. 1.46842876e-03 1.46842876e-03 0. 1.46842876e-03 0.
      1.46842876e-03 0. 0. 1.46842876e-03 1.46842876e-03 1.46842876e-03
      1.46842876e-03 0. 2.93685752e-03 0. 0. 2.93685752e-03 0. 0. 0.
      1.46842876e-03 1.46842876e-03 2.93685752e-03 0. 0. 0. 0.
      5.87371504e-03 0. 0. 1.46842876e-03 0. 0. 0. 0. 0. 0. 0.
      2.93685752e-03 0. 0. 1.46842876e-03 1.46842876e-03 0. 0. 0. 0. 0.
      2.93685752e-03 0. 0. 4.40528616e-03 0. 0. 1.46842876e-03
      4.40528616e-03 0. 0. 0. 0. 2.93685752e-03 0. 0. 2.93685752e-03
      2.93685752e-03 0. 0. 2.93685752e-03 1.46842876e-03 1.46842876e-03
      0. 0. 0. 0. 0. 2.93685752e-03 0. 0. 0. 0. 0. 0. 0. 0.
      1.46842876e-03 0. 1.46842876e-03 1.46842876e-03 0. 0.
      2.93685752e-03 1.46842876e-03 0. 0. 5.87371504e-03 1.46842876e-03
      1.46842876e-03 1.46842876e-03 0. 0. 0. 0. 1.46842876e-03 0. 0. 0.
      1.46842876e-03 0. 1.46842876e-03 0. 0. 1.46842876e-03 0.
      1.46842876e-03 0. 0. 0. 1.46842876e-03 0. 0. 0. 2.93685752e-03 0.
      1.46842876e-03 0. 0. 5.87371504e-03 2.93685752e-03 0.
      2.93685752e-03 1.46842876e-03 1.46842876e-03 0. 4.40528616e-03 0.
      0. 0. 0. 0. 0. 0. 0. 0. 2.93685752e-03 1.46842876e-03 0. 0. 0. 0.
      0. 0. 0. 0. 0. 0. 0. 0. 0. 0. 0. 1.46842876e-03 0. 0.
      2.93685752e-03 1.46842876e-03 0. 0. 0. 1.46842876e-03 0. 0. 0.
      1.17474301e-02 2.93685752e-03 0. 0. 0. 2.93685752e-03 0. 0. 0.
      2.93685752e-03 1.46842876e-03 1.46842876e-03 0. 0. 1.46842876e-03
      4.40528616e-03 0. 1.46842876e-03 4.40528616e-03 1.46842876e-03
      1.46842876e-03 0. 0. 0. 2.93685752e-03 0. 0. 0. 0. 0. 0.
      2.93685752e-03 1.46842876e-03 1.46842876e-03 2.05580033e-02
      7.34214392e-03 1.46842876e-03 0. 0. 4.40528616e-03 7.34214392e-03
      0. 0. 0. 1.46842876e-03 5.87371504e-03 2.93685752e-03 0.
      1.46842876e-03 7.34214392e-03 0. 4.40528616e-03 1.46842876e-03
      2.93685752e-03 0. 0. 2.93685752e-03 0. 0. 1.46842876e-03 0. 0. 0.
      2.93685752e-03 1.46842876e-03 1.46842876e-03 0. 2.93685752e-03 0.
      0. 0. 1.46842876e-03 2.93685752e-03 0. 1.46842876e-03
      1.46842876e-03 0. 4.40528616e-03 1.46842876e-03 0. 0. 0.
      1.46842876e-03 0. 1.46842876e-03 0. 1.46842876e-03 0.
      2.93685752e-03 0. 0. 0. 0. 0. 2.93685752e-03 0. 0. 2.93685752e-03
      1.46842876e-03 0. 0. 0. 1.46842876e-03 0. 1.46842876e-03
      1.46842876e-03 2.93685752e-03 0. 1.46842876e-03 0. 1.46842876e-03
      0. 0. 0. 0. 2.93685752e-03 1.46842876e-03 0. 2.93685752e-03 0. 0.
      0. 1.46842876e-03 0. 1.46842876e-03 0. 0. 1.46842876e-03 0. 0. 0.
      0. 0. 0. 0. 0. 0. 2.93685752e-03 0. 1.46842876e-03 0. 0. 0.
      1.46842876e-03 0. 0. 0. 1.46842876e-03 0. 0. 1.46842876e-03
      1.46842876e-03 0. 0. 1.46842876e-03 1.46842876e-03 1.46842876e-03
      2.93685752e-03 1.46842876e-03 0. 0. 2.93685752e-03 1.46842876e-03
      0. 0. 1.46842876e-03 1.46842876e-03 0. 0. 0. 0. 7.34214392e-03 0.
      0. 2.93685752e-03 0. 0. 0. 1.46842876e-03 0. 0. 1.46842876e-03
      1.46842876e-03 2.93685752e-03 1.46842876e-03 2.93685752e-03 0.
      1.46842876e-03 0. 0. 1.46842876e-03 0. 0. 1.46842876e-03
      2.93685752e-03 0. 0. 2.93685752e-03 0. 0. 0. 0. 0. 0. 0. 0.
      5.87371504e-03 0. 2.93685752e-03 0. 5.87371504e-03 4.40528616e-03
      0. 0. 1.46842876e-03 0. 0. 1.46842876e-03 0. 0. 1.46842876e-03
      2.93685752e-03 1.46842876e-03 0. 2.93685752e-03 0. 2.93685752e-03
      2.93685752e-03 0. 0. 4.40528616e-03 0. 4.40528616e-03 0.
      2.93685752e-03 2.93685752e-03 1.46842876e-03 0. 0. 1.46842876e-03
      1.46842876e-03 1.46842876e-03 2.93685752e-03 8.81057233e-03
      1.46842876e-03 1.46842876e-03 0. 0. 2.93685752e-03 0.
      1.46842876e-03 1.46842876e-03 0. 0. 0. 0. 0. 1.46842876e-03 0.
      1.46842876e-03 0. 1.46842876e-03 0. 1.46842876e-03 0. 0. 0.
      1.46842876e-03 1.46842876e-03 0. 1.46842876e-03 0. 1.46842876e-03
      0. 0. 0. 0. 4.40528616e-03 0. 0. 2.93685752e-03 0. 0.
      7.34214392e-03 0. 2.93685752e-03 1.46842876e-03 0. 1.46842876e-03
      0. 2.93685752e-03 1.46842876e-03 0. 1.46842876e-03 0. 0. 0. 0. 0.
      0. 1.46842876e-03 0. 0. 0. 4.40528616e-03 2.93685752e-03 0. 0. 0.
      0. 0. 0. 4.40528616e-03 0. 2.93685752e-03 1.46842876e-03
      1.46842876e-03 0. 1.46842876e-03 0. 2.93685752e-03 0.
      1.46842876e-03 0. 2.93685752e-03 4.40528616e-03 2.93685752e-03 0.
      4.40528616e-03 0. 1.46842876e-03 0. 0. 0. 0. 0. 1.46842876e-03
      1.46842876e-03 0. 0. 0. 0. 2.93685752e-03 4.40528616e-03 0. 0. 0.
      2.93685752e-03 0. 0. 0. 0. 0. 4.40528616e-03 1.46842876e-03 0.
      5.87371504e-03 0. 0. 0. 1.46842876e-03 2.93685752e-03
      2.93685752e-03 0. 0. 0. 0. 1.46842876e-03 1.46842876e-03 0.
      1.46842876e-03 0. 0. 0. 0. 0. 0. 4.40528616e-03 0. 0. 0. 0. 0.
      1.46842876e-03 0. 1.46842876e-03 1.46842876e-03 0. 0.
      1.46842876e-03 2.93685752e-03 0. 0. 0. 0. 0. 0. 0. 0.
      2.93685752e-03 1.46842876e-03 0. 0. 0. 0. 0. 0. 0. 0. 0. 0. 0. 0.
      0. 0. 1.46842876e-03 0.</_>
    <_>
      0. 0. 1.64203614e-03 1.64203614e-03 0. 0. 0. 0. 0. 3.28407227e-03
      0. 0. 1.64203614e-03 0. 0. 0. 1.64203614e-03 0. 1.64203614e-03
      3.28407227e-03 0. 0. 1.31362891e-02 0. 1.64203614e-03 0.
      1.64203614e-03 0. 1.64203614e-03 0. 1.31362891e-02 0.
      1.64203614e-03 0. 1.64203614e-03 1.64203614e-03 0. 0.
      3.28407227e-03 6.56814454e-03 1.64203614e-03 0. 0. 0. 0.
      1.64203614e-03 0. 3.28407227e-03 0. 0. 1.64203614e-03
      1.64203614e-03 0. 1.64203614e-03 1.64203614e-03 1.64203614e-03
      1.64203614e-03 0. 6.56814454e-03 0. 0. 0. 0. 0. 0. 0. 0.
      8.21018033e-03 0. 0. 0. 0. 0. 0. 0. 1.64203614e-03 0. 0.
      1.64203614e-03 0. 0. 0. 0. 1.64203614e-03 0. 0. 1.64203614e-03 0.
      3.28407227e-03 0. 0. 0. 0. 0. 0. 0. 0. 0. 0. 3.28407227e-03 0. 0.
      1.47783253e-02 0. 0. 0. 0. 3.28407227e-03 0. 0. 0. 0. 0. 0.
      1.64203614e-03 0. 0. 1.64203614e-03 0. 0. 0. 0. 0. 0.
      3.28407227e-03 1.64203614e-03 0. 0. 1.64203614e-03 0.
      1.64203614e-03 0. 0. 4.92610829e-03 0. 0. 0. 0. 3.28407227e-03 0.
      3.28407227e-03 0. 0. 0. 0. 0. 6.56814454e-03 0. 0. 1.64203614e-03
      4.92610829e-03 0. 0. 0. 0. 0. 0. 3.28407227e-03 3.28407227e-03 0.
      1.64203614e-03 0. 4.92610829e-03 1.64203614e-03 4.92610829e-03 0.
      1.64203614e-03 1.64203614e-03 0. 0. 0. 0. 0. 1.64203614e-03 0. 0.
      0. 0. 0. 0. 1.64203614e-03 0. 0. 1.64203614e-03 0. 1.64203614e-03
      0. 0. 0. 0. 0. 1.64203614e-03 0. 1.64203614e-03 0. 0. 0. 0. 0.
      1.64203614e-03 0. 0. 0. 0. 9.85221658e-03 1.64203614e-03 0.
      4.92610829e-03 0. 1.64203614e-03 0. 1.64203614e-03 1.64203614e-03
      0. 3.28407227e-03 1.64203614e-03 0. 0. 0. 0. 0. 0. 0. 0.
      4.92610829e-03 0. 3.28407227e-03 1.64203614e-03 0. 0.
      1.64203614e-03 1.64203614e-03 0. 0. 0. 3.28407227e-03 0. 0. 0. 0.
      0. 0. 0. 1.31362891e-02 0. 4.92610829e-03 0. 0. 1.64203614e-03 0.
      0. 0. 1.64203614e-03 1.64203614e-03 4.92610829e-03 0.
      4.92610829e-03 1.64203614e-03 1.64203614e-03 9.85221658e-03
      1.64203614e-03 1.64203614e-03 3.28407227e-03 0. 1.64203614e-03 0.
      1.64203614e-03 0. 0. 0. 0. 1.64203614e-03 1.64203614e-03 0.
      8.21018033e-03 1.64203614e-03 1.64203614e-03 0. 0. 3.28407227e-03
      1.64203614e-03 1.64203614e-03 0. 0. 1.97044332e-02 0. 0. 0. 0.
      1.64203614e-03 0. 6.56814454e-03 0. 0. 0. 0. 0. 3.28407227e-03 0.
      0. 1.64203614e-03 1.64203614e-03 1.64203614e-03 0. 0. 0. 0. 0. 0.
      0. 0. 0. 1.64203614e-03 0. 0. 6.56814454e-03 0. 1.64203614e-03 0.
      0. 0. 0. 3.28407227e-03 0. 1.64203614e-03 0. 0. 3.28407227e-03 0.
      0. 0. 0. 1.64203614e-03 3.28407227e-03 0. 1.64203614e-03 0. 0. 0.
      1.64203614e-03 0. 0. 0. 1.64203614e-03 0. 0. 0. 1.64203614e-03
      1.64203614e-03 0. 0. 0. 4.92610829e-03 0. 3.28407227e-03 0. 0.
      3.28407227e-03 3.28407227e-03 0. 0. 0. 0. 0. 4.92610829e-03 0. 0.
      6.56814454e-03 0. 1.64203614e-03 8.21018033e-03 3.28407227e-03 0.
      0. 1.64203614e-03 0. 6.56814454e-03 0. 0. 1.64203614e-03
      1.64203614e-03 1.64203614e-03 1.64203614e-03 0. 1.64203614e-03 0.
      0. 1.64203614e-03 9.85221658e-03 0. 1.64203614e-03 0. 0. 0. 0.
      1.64203614e-03 0. 0. 0. 0. 0. 0. 4.92610829e-03 0. 0. 0. 0.
      3.28407227e-03 0. 0. 3.28407227e-03 0. 0. 1.64203614e-03
      3.28407227e-03 1.64203614e-03 1.64203614e-03 0. 0. 0.
      3.28407227e-03 0. 0. 0. 0. 8.21018033e-03 4.92610829e-03 0. 0. 0.
      0. 6.56814454e-03 0. 1.64203614e-03 3.28407227e-03 0.
      1.64203614e-03 3.28407227e-03 1.64203614e-03 0. 0. 0. 0.
      1.64203614e-03 1.64203614e-03 0. 4.92610829e-03 0. 3.28407227e-03
      0. 0. 0. 0. 1.64203614e-03 0. 0. 0. 6.56814454e-03 0. 0. 0. 0. 0.
      0. 0. 0. 0. 0. 0. 0. 0. 0. 0. 1.64203614e-03 0. 6.56814454e-03
      1.64203614e-03 1.64203614e-03 0. 1.64203614e-03 1.64203614e-03
      3.28407227e-03 0. 1.64203614e-03 0. 0. 1.64203614e-03 0. 0.
      3.28407227e-03 0. 0. 0. 0. 0. 6.56814454e-03 0. 0. 1.64203614e-03
      0. 0. 0. 3.28407227e-03 0. 0. 0. 6.56814454e-03 4.92610829e-03
      1.64203614e-03 0. 0. 0. 0. 0. 0. 0. 0. 0. 0. 1.64203614e-03 0.
      1.64203614e-03 0. 0. 0. 0. 0. 1.64203614e-03 0. 0. 0. 0.
      6.56814454e-03 0. 1.64203614e-03 4.92610829e-03 1.64203614e-03 0.
      0. 0. 0. 0. 0. 1.64203614e-03 3.28407227e-03 0. 0. 1.64203614e-03
      0. 0. 0. 0. 0. 0. 1.64203614e-03 1.64203614e-03 0. 0. 0. 0. 0. 0.
      0. 0. 0. 0. 0. 0. 0. 0. 0. 0. 0. 0. 1.64203614e-03 0. 0. 0. 0.
      1.64203614e-03 1.64203614e-03 0. 0. 0. 9.85221658e-03 0. 0. 0. 0.
      1.64203614e-03 0. 0. 3.28407227e-03 0. 1.64203614e-03 0. 0. 0. 0.
      0. 0. 8.21018033e-03 1.64203614e-03 3.28407227e-03 0.
      1.64203614e-03 0. 1.64203614e-03 3.28407227e-03 1.64203614e-03
      1.64203614e-03 1.64203614e-03 1.64203614e-03 0. 0. 0.
      1.14942528e-02 1.64203614e-03 0. 1.64203614e-03 0. 0. 0.
      3.28407227e-03 1.64203614e-03 1.64203614e-03 0. 0. 0.
      1.64203614e-03 0. 3.28407227e-03 4.92610829e-03 0. 0.
      4.92610829e-03 3.28407227e-03 0. 0. 0. 3.28407227e-03 0. 0.
      1.64203614e-03 0. 0. 1.64203614e-03 0. 0. 0. 0. 4.92610829e-03 0.
      0. 0. 0. 0. 6.56814454e-03 0. 0. 1.64203614e-03 0. 0.
      1.64203614e-03 0. 0. 0. 0. 0. 3.28407227e-03 0. 0. 0.
      1.64203614e-03 3.28407227e-03 0. 0. 0. 0. 0. 0. 0. 3.28407227e-03
      0. 0. 1.64203614e-03 0. 0. 0. 0. 0. 0. 0. 0. 0. 4.92610829e-03 0.
      0. 4.92610829e-03 0. 0. 1.64203614e-03 1.64203614e-03
      1.64203614e-03 0. 0. 0. 3.28407227e-03 0. 0. 0. 0. 0. 0. 0.
      6.56814454e-03 0. 0. 0. 0. 0. 0. 0. 0. 0. 0. 0. 0. 0. 0. 0. 0. 0.
      0. 1.64203614e-03 3.28407227e-03 0. 3.28407227e-03 0. 0. 0.
      1.64203614e-03 1.64203614e-03 0. 1.64203614e-03 1.64203614e-03 0.
      0. 1.64203614e-03 1.64203614e-03 0. 0. 0. 0. 0. 0. 0.
      1.64203614e-03 1.64203614e-03 0. 1.64203614e-03 0. 1.64203614e-03
      0. 0. 0. 1.64203614e-03 1.64203614e-03 0. 0. 0. 0. 0. 0. 0. 0.
      1.64203614e-03 1.64203614e-03 0. 3.28407227e-03 3.28407227e-03
      3.28407227e-03 0. 0. 0. 4.92610829e-03 1.64203614e-03
      1.64203614e-03 0. 0. 0. 4.92610829e-03 0. 4.92610829e-03 0. 0.
      4.92610829e-03 0. 1.64203614e-03 0. 1.64203614e-03 0. 0.
      3.28407227e-03 0. 0. 0. 0. 3.28407227e-03 1.64203607e-02 0. 0. 0.
      1.64203614e-03 0. 1.64203614e-03 0. 1.64203614e-03 0. 0.
      1.64203614e-03 0. 0. 0. 0. 1.64203614e-03 3.28407227e-03
      1.64203614e-03 1.64203614e-03 0. 0. 0. 0. 0. 1.64203614e-03 0.
      4.92610829e-03 0. 0. 0. 0. 0. 1.64203614e-03 0. 1.64203614e-03
      1.64203614e-03 0. 0. 1.64203614e-03 0. 0. 0. 0. 1.64203614e-03 0.
      0. 0. 0. 0. 1.64203614e-03 0. 0. 0. 0. 0. 0. 4.92610829e-03 0.
      1.64203614e-03 0. 1.64203614e-03 0. 0. 0. 0. 0. 0. 0.
      1.64203614e-03 1.64203614e-03 4.92610829e-03 0. 0. 0.
      4.92610829e-03 1.64203614e-03 0. 1.14942528e-02 1.64203614e-03 0.
      0. 0. 0. 0. 1.64203614e-03 1.64203614e-03 0. 0. 1.64203614e-03 0.
      0. 1.64203614e-03 0. 3.28407227e-03 3.28407227e-03 0. 0. 0. 0.
      1.64203614e-03 0. 1.64203614e-03 4.92610829e-03 0. 0.
      6.56814454e-03 0. 0. 0. 1.64203614e-03 0. 0. 0. 0. 0.
      1.64203614e-03 1.64203614e-03 0. 1.64203614e-03 0. 0. 0. 0.
      1.64203614e-03 0. 1.64203614e-03 8.21018033e-03 0. 0. 0.
      4.92610829e-03 0. 0. 0. 0. 0. 0. 0. 0. 0. 3.28407227e-03 0. 0. 0.
      0. 0. 0. 1.64203614e-03 0. 1.64203614e-03 0. 0. 1.64203614e-03
      1.64203614e-03 0. 0. 0. 0. 6.56814454e-03 1.64203614e-03 0. 0. 0.
      0. 0. 0. 1.64203614e-03 0. 0. 1.64203614e-03 0. 0. 0.
      1.64203614e-03 1.64203614e-03 0. 0. 0. 3.28407227e-03 0. 0.
      3.28407227e-03 4.92610829e-03 0. 0. 3.28407227e-03 0. 0.
      1.64203614e-03 0.</_>
    <_>
      0. 0. 3.98406386e-03 1.99203193e-03 0. 0. 0. 0. 0. 0.
      5.97609580e-03 0. 0. 1.99203193e-03 3.98406386e-03 0. 0. 0.
      1.99203193e-03 1.99203193e-03 0. 0. 0. 1.99203193e-03 0. 0. 0.
      3.98406386e-03 9.96015966e-03 0. 3.98406386e-03 0. 0. 0. 0. 0. 0.
      1.99203193e-03 1.99203193e-03 7.96812773e-03 0. 0. 0. 0. 0. 0. 0.
      0. 0. 0. 0. 0. 0. 0. 0. 1.99203193e-03 0. 0. 7.96812773e-03 0. 0.
      0. 0. 0. 1.79282874e-02 0. 0. 1.99203193e-03 5.97609580e-03
      1.99203193e-03 0. 0. 0. 0. 1.99203193e-03 0. 0. 1.99203193e-03
      1.99203193e-03 0. 0. 0. 0. 0. 0. 5.97609580e-03 3.98406386e-03 0.
      0. 1.99203193e-03 0. 3.98406386e-03 0. 0. 0. 0. 0. 7.96812773e-03
      0. 5.97609580e-03 0. 0. 1.99203193e-03 0. 1.99203193e-03 0. 0.
      3.98406386e-03 1.99203193e-03 1.99203193e-03 0. 0. 0. 0. 0. 0. 0.
      0. 1.99203193e-03 0. 0. 0. 0. 0. 1.99203193e-03 0. 0.
      1.99203193e-03 0. 0. 1.99203193e-03 3.98406386e-03 0. 0. 0. 0. 0.
      0. 1.99203193e-03 0. 0. 0. 0. 0. 0. 0. 0. 0. 0. 0. 0.
      1.99203193e-03 0. 0. 0. 1.99203193e-03 0. 1.99203193e-03 0. 0.
      1.99203193e-03 1.99203193e-03 0. 0. 1.99203193e-03 1.99203193e-03
      0. 1.99203193e-03 0. 0. 0. 0. 0. 7.96812773e-03 0. 0. 0. 0.
      1.99203193e-03 1.99203193e-03 1.99203193e-03 1.99203193e-03 0. 0.
      0. 0. 0. 3.98406386e-03 3.98406386e-03 0. 3.98406386e-03 0. 0. 0.
      0. 0. 1.99203193e-03 0. 0. 0. 1.99203193e-03 0. 1.99203193e-03 0.
      0. 0. 0. 5.97609580e-03 0. 0. 0. 1.99203193e-03 5.97609580e-03 0.
      1.99203193e-03 7.96812773e-03 0. 0. 0. 1.99203193e-03 0. 0. 0. 0.
      0. 0. 0. 0. 1.99203193e-03 0. 0. 3.98406386e-03 0. 0. 0. 0. 0. 0.
      0. 0. 3.98406386e-03 0. 0. 0. 0. 0. 0. 0. 0. 1.99203193e-03 0. 0.
      3.98406386e-03 1.99203193e-03 1.99203193e-03 0. 3.98406386e-03
      5.97609580e-03 1.99203193e-03 1.99203193e-03 1.99203193e-03 0. 0.
      0. 3.98406386e-03 0. 0. 0. 3.98406386e-03 0. 0. 0. 0. 0.
      1.99203193e-03 0. 1.99203193e-03 0. 0. 3.98406386e-03 0. 0. 0. 0.
      1.99203193e-03 0. 0. 0. 0. 0. 0. 1.99203193e-03 1.99203193e-03 0.
      1.99203193e-03 0. 0. 1.99203193e-03 0. 0. 0. 0. 0. 0. 0.
      1.99203193e-03 0. 0. 0. 0. 0. 0. 0. 0. 5.97609580e-03
      1.39442235e-02 0. 0. 0. 0. 0. 0. 3.98406386e-03 1.99203193e-03
      1.99203193e-03 3.98406386e-03 1.99203193e-03 1.99203193e-03
      1.99203193e-03 0. 0. 0. 1.99203193e-03 0. 0. 0. 1.99203193e-03 0.
      3.98406386e-03 0. 0. 0. 0. 0. 0. 3.98406386e-03 0. 0. 0. 0.
      3.98406386e-03 0. 0. 0. 5.97609580e-03 0. 0. 0. 0. 0. 0. 0. 0. 0.
      7.96812773e-03 1.99203193e-03 0. 0. 0. 0. 1.99203193e-03 0. 0.
      1.99203193e-03 1.99203193e-03 0. 3.98406386e-03 0. 0. 0. 0. 0. 0.
      0. 0. 0. 0. 0. 1.99203193e-03 0. 0. 0. 0. 0. 1.99203193e-03 0. 0.
      0. 0. 1.19521916e-02 0. 0. 0. 0. 0. 0. 0. 0. 1.19521916e-02 0.
      1.99203193e-03 0. 0. 0. 0. 1.99203193e-03 0. 0. 0. 0.
      9.96015966e-03 3.98406386e-03 0. 1.99203193e-03 0. 0. 0. 0. 0. 0.
      0. 3.98406386e-03 3.98406386e-03 1.99203193e-03 0. 5.97609580e-03
      0. 1.99203193e-03 0. 1.99203193e-03 0. 0. 0. 0. 0. 0. 0. 0. 0.
      1.99203193e-03 0. 0. 0. 0. 0. 1.99203193e-03 0. 1.99203193e-03 0.
      1.99203193e-03 0. 0. 0. 0. 0. 7.96812773e-03 7.96812773e-03
      3.98406386e-03 0. 1.99203193e-03 0. 0. 0. 0. 1.99203193e-03
      1.99203193e-03 0. 0. 0. 0. 1.99203193e-03 0. 0. 1.99203193e-03
      1.99203193e-03 0. 1.99203193e-03 0. 1.99203193e-03 0. 0. 0. 0. 0.
      0. 3.98406386e-03 0. 9.96015966e-03 0. 1.99203193e-03
      1.99203193e-03 0. 0. 0. 0. 0. 1.99203193e-03 0. 0. 5.97609580e-03
      0. 0. 0. 1.99203193e-03 0. 0. 0. 0. 0. 0. 0. 1.99203193e-03
      1.99203193e-03 1.99203193e-03 0. 0. 0. 1.99203193e-03 0.
      1.99203193e-03 0. 0. 0. 0. 0. 1.99203193e-03 0. 3.98406386e-03
      1.99203193e-03 0. 2.98804790e-02 0. 0. 7.96812773e-03 0. 0.
      3.98406386e-03 0. 0. 0. 0. 0. 0. 0. 0. 0. 0. 0. 0. 1.99203193e-03
      0. 0. 1.99203193e-03 0. 0. 0. 0. 0. 0. 0. 1.99203193e-03
      1.99203193e-03 9.96015966e-03 1.99203193e-03 3.98406386e-03 0. 0.
      3.98406386e-03 1.99203193e-03 0. 0. 0. 0. 0. 1.99203193e-03
      1.99203193e-03 0. 0. 5.97609580e-03 0. 0. 0. 0. 0. 0. 0. 0. 0. 0.
      1.99203193e-03 1.99203193e-03 0. 3.98406386e-03 5.97609580e-03
      5.97609580e-03 0. 0. 1.99203193e-03 0. 0. 0. 0. 0. 0. 0. 0.
      1.99203193e-03 0. 1.99203193e-03 0. 0. 0. 1.99203193e-03 0.
      1.99203193e-03 1.99203193e-03 0. 0. 0. 0. 0. 1.99203193e-03 0. 0.
      0. 0. 0. 1.99203193e-03 0. 0. 0. 0. 1.99203193e-03 0.
      1.99203193e-03 0. 0. 0. 0. 0. 0. 9.96015966e-03 1.99203193e-03
      5.97609580e-03 0. 0. 0. 0. 0. 1.99203193e-03 0. 0. 3.98406386e-03
      3.98406386e-03 0. 3.98406386e-03 0. 0. 1.99203193e-03
      3.98406386e-03 0. 0. 0. 0. 1.99203193e-03 0. 0. 3.98406386e-03
      1.99203193e-03 0. 1.99203193e-03 1.99203193e-03 1.99203193e-03
      3.98406386e-03 0. 0. 1.99203193e-03 0. 1.99203193e-03 0. 0. 0. 0.
      0. 0. 0. 0. 1.99203193e-03 1.59362555e-02 0. 1.99203193e-03
      1.99203193e-03 0. 0. 0. 0. 1.99203193e-03 1.99203193e-03
      1.99203193e-03 0. 0. 0. 0. 3.98406386e-03 0. 1.99203193e-03 0. 0.
      0. 0. 3.98406386e-03 1.99203193e-03 0. 1.99203193e-03 0.
      1.99203193e-03 0. 0. 0. 0. 0. 0. 0. 0. 0. 0. 1.99203193e-03
      7.96812773e-03 0. 0. 1.59362555e-02 0. 0. 0. 0. 0. 0. 0.
      1.99203193e-03 0. 3.98406386e-03 1.99203193e-03 0. 0. 0. 0. 0. 0.
      0. 0. 1.99203193e-03 0. 0. 0. 0. 1.99203193e-03 0. 1.99203193e-03
      0. 0. 0. 0. 0. 0. 0. 0. 1.99203193e-03 0. 0. 5.97609580e-03 0.
      1.99203193e-03 0. 1.99203193e-03 0. 9.96015966e-03 1.99203193e-03
      0. 0. 0. 0. 0. 0. 0. 0. 0. 0. 0. 0. 1.99203193e-03 3.98406386e-03
      3.98406386e-03 0. 1.99203193e-03 0. 0. 0. 0. 1.99203193e-03 0.
      5.97609580e-03 0. 0. 0. 0. 0. 0. 0. 0. 0. 0. 0. 0. 0. 0.
      1.99203193e-03 0. 3.98406386e-03 0. 3.98406386e-03 0. 0. 0. 0.
      1.99203193e-03 0. 0. 0. 0. 0. 0. 0. 0. 0. 0. 0. 0. 0. 0.
      3.98406386e-03 5.97609580e-03 3.98406386e-03 0. 0. 0. 0. 0.
      5.97609580e-03 0. 0. 0. 0. 1.99203193e-03 1.19521916e-02 0. 0.
      3.98406386e-03 5.97609580e-03 0. 0. 0. 0. 0. 1.99203193e-03
      1.99203193e-03 1.99203193e-03 0. 0. 0. 1.99203193e-03
      1.79282874e-02 0. 0. 0. 0. 0. 0. 0. 0. 0. 0. 0. 0. 0. 0. 0. 0. 0.
      0. 0. 0. 0. 0. 0. 0. 0. 0. 0. 0. 1.99203193e-03 1.99203193e-03 0.
      3.98406386e-03 0. 0. 0. 3.98406386e-03 0. 0. 0. 0. 0.
      1.99203193e-03 0. 0. 1.99203193e-03 0. 7.96812773e-03 0.
      3.98406386e-03 0. 1.99203193e-03 0. 0. 0. 0. 1.39442235e-02 0. 0.
      0. 3.98406386e-03 1.99203193e-03 0. 7.96812773e-03 0. 0. 0.
      1.99203193e-03 0. 0. 5.97609580e-03 0. 0. 0. 0. 0. 0. 0. 0. 0. 0.
      0. 0. 0. 0. 0. 0. 0. 0. 1.99203193e-03 0. 0. 0. 0. 0. 0.
      1.99203193e-03 0. 0. 0. 0. 0. 0. 0. 0. 1.99203193e-03 0.
      1.99203193e-03 0. 0. 0. 3.98406386e-03 0. 0. 0. 0. 0.
      1.99203193e-03 0. 0.</_>
    <_>
      0. 0. 9.00900923e-03 0. 0. 0. 0. 0. 0. 0. 0. 0. 0. 0. 0. 0. 0. 0.
      0. 9.00900923e-03 0. 0. 9.00900923e-03 0. 0. 0. 0. 0. 0. 0.
      9.00900923e-03 0. 0. 0. 0. 0. 0. 0. 0. 0. 9.00900923e-03 0. 0. 0.
      0. 0. 0. 0. 0. 0. 0. 0. 0. 0. 0. 0. 0. 0. 0. 0. 0. 0. 0. 0. 0. 0.
      0. 0. 0. 0. 0. 0. 0. 0. 0. 0. 0. 0. 0. 0. 0. 0. 0. 0. 0.
      9.00900923e-03 0. 0. 0. 0. 0. 0. 0. 0. 0. 0. 0. 0. 0. 0. 0. 0.
      2.70270277e-02 0. 0. 0. 0. 0. 0. 0. 0. 0. 0. 0. 0. 0. 0. 0.
      9.00900923e-03 0. 0. 9.00900923e-03 0. 0. 9.00900923e-03 0.
      9.00900923e-03 0. 0. 0. 0. 0. 0. 0. 0. 0. 0. 0. 0. 0. 0.
      1.80180185e-02 0. 0. 0. 0. 0. 0. 0. 1.80180185e-02 0. 0. 0. 0. 0.
      0. 0. 0. 0. 0. 0. 0. 2.70270277e-02 0. 0. 0. 0. 0. 0. 0. 0. 0. 0.
      0. 0. 9.00900923e-03 0. 0. 0. 0. 0. 0. 0. 0. 0. 0. 0. 0. 0. 0. 0.
      0. 0. 0. 9.00900923e-03 0. 0. 0. 0. 0. 0. 0. 0. 0. 9.00900923e-03
      0. 0. 0. 0. 0. 0. 0. 0. 0. 0. 0. 0. 9.00900923e-03 0. 0.
      9.00900923e-03 0. 0. 5.40540554e-02 0. 0. 0. 0. 0. 0. 0. 0. 0. 0.
      0. 0. 0. 0. 0. 0. 0. 0. 0. 0. 0. 0. 0. 0. 0. 0. 0. 0. 0. 0. 0. 0.
      0. 0. 0. 9.00900923e-03 0. 0. 0. 0. 0. 0. 0. 0. 0. 0. 0. 0. 0. 0.
      0. 0. 0. 0. 0. 0. 0. 0. 0. 0. 1.80180185e-02 0. 0. 9.00900923e-03
      0. 0. 0. 0. 0. 0. 0. 0. 0. 0. 0. 0. 0. 0. 0. 0. 0. 0. 0. 0. 0. 0.
      0. 0. 0. 0. 0. 0. 0. 0. 0. 0. 0. 0. 0. 9.00900923e-03 0. 0. 0. 0.
      0. 0. 0. 0. 0. 0. 0. 0. 0. 0. 0. 9.00900923e-03 0. 0. 0. 0. 0. 0.
      0. 0. 0. 0. 0. 0. 0. 0. 0. 0. 0. 0. 0. 0. 0. 0. 0. 0.
      9.00900923e-03 0. 0. 0. 0. 0. 9.00900923e-03 0. 0. 0. 0. 0. 0.
      9.00900923e-03 0. 0. 0. 0. 0. 0. 0. 0. 0. 0. 0. 0. 0. 0. 0. 0. 0.
      0. 0. 0. 0. 0. 0. 0. 9.00900923e-03 0. 0. 0. 0. 0. 0. 0. 0. 0. 0.
      0. 0. 0. 0. 0. 0. 0. 0. 0. 0. 0. 0. 0. 0. 0. 0. 0. 0. 0. 0. 0. 0.
      0. 9.00900923e-03 0. 0. 0. 0. 0. 0. 0. 0. 0. 9.00900923e-03 0. 0.
      0. 0. 0. 0. 0. 0. 0. 0. 1.80180185e-02 0. 0. 0. 0. 0. 0. 0. 0. 0.
      0. 0. 0. 0. 0. 0. 0. 9.00900923e-03 0. 0. 0. 0. 0. 0. 0.
      9.00900923e-03 0. 0. 0. 0. 0. 0. 0. 0. 0. 0. 0. 0. 0. 0. 0. 0. 0.
      0. 0. 0. 0. 0. 0. 0. 0. 0. 0. 0. 0. 0. 0. 0. 0. 0. 0. 0. 0. 0. 0.
      0. 0. 0. 0. 0. 0. 0. 0. 0. 0. 0. 9.00900923e-03 0. 0. 0. 0. 0. 0.
      0. 0. 0. 0. 0. 0. 0. 0. 0. 0. 0. 9.00900923e-03 0. 0. 0. 0. 0. 0.
      0. 0. 0. 0. 0. 0. 0. 0. 0. 0. 0. 0. 0. 0. 0. 0. 0. 0. 0. 0. 0. 0.
      0. 0. 0. 6.30630627e-02 0. 0. 0. 0. 0. 0. 0. 0. 0. 0. 0. 0. 0. 0.
      0. 0. 0. 9.00900923e-03 0. 0. 0. 0. 0. 0. 0. 0. 0. 0. 0. 0. 0. 0.
      0. 8.10810849e-02 0. 0. 0. 0. 0. 9.00900923e-03 0. 0. 0. 0. 0. 0.
      0. 0. 9.00900960e-02 0. 0. 9.00900923e-03 9.00900923e-03 0. 0. 0.
      0. 0. 0. 0. 0. 0. 0. 0. 0. 0. 0. 1.80180185e-02 0. 0. 0. 0. 0. 0.
      0. 0. 0. 0. 0. 0. 0. 0. 0. 0. 0. 0. 0. 0. 0. 0. 0. 0. 0. 0. 0. 0.
      0. 0. 0. 0. 0. 0. 0. 0. 0. 0. 0. 0. 0. 0. 0. 0. 0. 0. 0. 0. 0.
      3.60360369e-02 0. 0. 0. 0. 0. 0. 0. 0. 0. 0. 0. 0. 0.
      9.00900923e-03 0. 0. 0. 0. 9.00900923e-03 0. 0. 0. 0. 0. 0. 0. 0.
      0. 0. 0. 0. 0. 0. 0. 0. 0. 0. 0. 0. 0. 0. 0. 0. 0. 0. 0. 0. 0. 0.
      0. 0. 0. 0. 0. 0. 0. 0. 0. 0. 0. 0. 0. 0. 0. 0. 0. 0. 0. 0. 0. 0.
      0. 0. 0. 0. 0. 0. 0. 0. 0. 0. 0. 0. 0. 0. 0. 0. 0. 0. 0. 0. 0. 0.
      0. 0. 0. 0. 0. 0. 0. 0. 0. 0. 0. 0. 0. 0. 9.00900923e-03 0. 0. 0.
      0. 0. 9.00900923e-03 9.00900923e-03 0. 0. 0. 0. 0. 0. 0. 0. 0.
      9.00900923e-03 0. 0. 9.00900923e-03 0. 0. 0. 0. 0. 0. 0. 0.
      9.00900923e-03 0. 0. 0. 0. 0. 0. 0. 0. 0. 0. 1.80180185e-02 0. 0.
      0. 0. 0. 0. 0. 0. 0. 0. 0. 0. 0. 0. 0. 0. 5.40540554e-02 0. 0. 0.
      0. 0. 0. 9.00900923e-03 0. 0. 0. 0. 0. 0. 0. 0. 0. 0.
      9.00900923e-03 0. 0. 1.80180185e-02 0. 0. 0. 0. 0. 0. 0. 0. 0. 0.
      0. 0. 0. 0. 0. 0. 0. 0. 0. 0. 0. 0. 0. 0. 0. 0. 0. 0. 0.
      9.00900923e-03 0. 0. 0. 0. 0. 0. 0. 0. 0. 0. 0. 0. 0. 0. 0. 0. 0.
      0. 9.00900923e-03 0. 0. 0. 0. 0. 0. 0. 0. 0. 0. 0. 0. 0. 0. 0. 0.
      0. 0. 0. 0. 0. 0. 0. 0. 0. 0. 0. 0. 0. 0. 0. 0. 0. 0. 0. 0. 0. 0.
      0. 0. 0. 0. 0. 0. 0. 0. 0. 0. 0. 0. 0. 0. 0. 0. 0. 0. 0. 0. 0.
      2.70270277e-02 0. 9.00900923e-03 0.</_>
    <_>
      2.29095086e-03 1.14547543e-03 1.14547543e-03 0. 2.29095086e-03 0.
      0. 0. 2.29095086e-03 2.29095086e-03 1.14547543e-03 0. 0. 0.
      4.58190171e-03 0. 0. 1.14547543e-03 1.14547543e-03 0.
      2.29095086e-03 0. 2.29095086e-03 0. 0. 0. 0. 1.14547543e-03 0.
      1.14547543e-03 2.29095086e-03 0. 4.58190171e-03 0. 4.58190171e-03
      1.14547543e-03 0. 1.14547543e-03 0. 8.01832788e-03 4.58190171e-03
      0. 0. 0. 0. 0. 0. 3.43642617e-03 0. 0. 4.58190171e-03
      2.29095086e-03 0. 2.29095086e-03 0. 0. 0. 0. 4.58190171e-03 0. 0.
      0. 0. 1.14547543e-03 4.58190171e-03 0. 1.14547543e-03
      1.14547543e-03 0. 0. 0. 0. 0. 1.03092790e-02 0. 6.87285233e-03 0.
      0. 1.14547543e-03 0. 0. 0. 1.14547543e-03 3.43642617e-03 0.
      3.43642617e-03 0. 0. 2.29095086e-03 0. 1.14547543e-03
      1.14547543e-03 2.29095086e-03 2.29095086e-03 0. 0. 0.
      1.14547543e-03 3.43642617e-03 2.29095086e-03 1.14547543e-03 0.
      3.43642617e-03 1.14547543e-03 4.58190171e-03 0. 0. 3.43642617e-03
      1.14547543e-03 3.43642617e-03 0. 0. 0. 1.14547543e-03 0.
      1.14547543e-03 2.29095086e-03 1.14547543e-03 5.72737725e-03 0. 0.
      1.14547543e-03 0. 0. 0. 2.29095086e-03 3.43642617e-03 0.
      3.43642617e-03 0. 3.43642617e-03 1.14547543e-03 1.14547543e-03
      4.58190171e-03 0. 0. 0. 3.43642617e-03 3.43642617e-03
      1.14547543e-03 0. 0. 4.58190171e-03 1.14547543e-03 1.14547543e-03
      0. 1.14547543e-03 1.14547543e-03 1.14547543e-03 0. 5.72737725e-03
      2.29095086e-03 3.43642617e-03 0. 1.14547543e-03 1.14547543e-03 0.
      1.14547543e-03 0. 0. 0. 0. 2.29095086e-03 0. 0. 2.29095086e-03
      2.29095086e-03 0. 0. 1.14547543e-03 1.14547543e-03 0. 0.
      1.14547543e-03 0. 0. 0. 1.14547543e-03 0. 1.14547543e-03
      1.14547543e-03 0. 0. 0. 0. 2.29095086e-03 0. 2.29095086e-03 0. 0.
      1.14547543e-03 1.14547543e-03 2.29095086e-03 4.58190171e-03
      1.14547543e-03 0. 2.29095086e-03 3.43642617e-03 0. 0. 0. 0. 0. 0.
      4.58190171e-03 0. 2.29095086e-03 2.29095086e-03 2.29095086e-03
      2.29095086e-03 1.14547543e-03 2.29095086e-03 2.29095086e-03
      1.14547543e-03 4.58190171e-03 2.29095086e-03 0. 1.14547543e-03 0.
      0. 0. 1.14547543e-03 0. 0. 0. 0. 0. 0. 1.14547543e-03 0. 0. 0. 0.
      2.29095086e-03 0. 0. 1.14547543e-03 2.29095086e-03 0. 0. 0. 0.
      1.14547543e-03 9.16380342e-03 2.29095086e-03 2.29095086e-03 0.
      5.72737725e-03 0. 0. 0. 0. 4.58190171e-03 0. 1.14547543e-03
      1.14547543e-03 0. 9.16380342e-03 0. 1.14547543e-03 1.14547543e-03
      0. 1.14547543e-03 0. 1.14547543e-03 0. 0. 0. 0. 0. 0.
      2.29095086e-03 0. 3.43642617e-03 3.43642617e-03 5.72737725e-03 0.
      0. 0. 0. 1.14547543e-03 5.72737725e-03 1.14547543e-03 0.
      3.43642617e-03 0. 1.14547543e-03 0. 0. 3.43642617e-03 0.
      1.14547543e-03 0. 0. 8.01832788e-03 1.14547543e-03 0.
      2.29095086e-03 0. 0. 0. 0. 2.29095086e-03 0. 2.29095086e-03 0.
      1.14547543e-03 2.29095086e-03 0. 0. 0. 0. 0. 0. 1.14547543e-03
      2.29095086e-03 1.14547543e-03 3.43642617e-03 1.14547543e-03
      1.14547543e-03 1.14547543e-03 0. 1.14547543e-03 0. 1.14547543e-03
      0. 0. 2.29095086e-03 0. 0. 1.14547543e-03 5.72737725e-03 0.
      1.14547543e-03 0. 0. 1.14547543e-03 0. 3.43642617e-03
      1.14547543e-03 2.29095086e-03 0. 0. 0. 1.14547543e-03 0. 0.
      4.58190171e-03 1.14547543e-03 1.14547543e-03 0. 0. 0.
      1.14547543e-03 1.14547543e-03 0. 0. 0. 0. 0. 0. 0. 0. 0.
      2.29095086e-03 0. 1.14547543e-03 0. 1.14547543e-03 0.
      3.43642617e-03 1.14547543e-03 0. 0. 1.14547543e-03 0. 0. 0.
      2.29095086e-03 0. 0. 0. 0. 0. 4.58190171e-03 0. 1.14547543e-03
      1.14547543e-03 2.29095086e-03 0. 0. 0. 4.58190171e-03
      1.14547543e-03 0. 0. 0. 0. 0. 1.14547543e-03 1.14547543e-03 0. 0.
      0. 1.14547543e-03 0. 0. 0. 0. 0. 0. 0. 0. 1.14547543e-03
      3.43642617e-03 0. 0. 0. 1.14547543e-03 0. 0. 1.14547543e-03
      1.14547543e-03 0. 0. 2.29095086e-03 0. 1.14547543e-03 0. 0.
      1.14547543e-03 8.01832788e-03 1.14547543e-03 0. 1.14547543e-03 0.
      1.14547543e-03 1.14547543e-03 0. 0. 0. 1.14547543e-03 0. 0. 0. 0.
      1.14547543e-03 0. 0. 1.14547543e-03 0. 0. 4.58190171e-03 0. 0. 0.
      0. 1.14547543e-03 0. 3.43642617e-03 2.29095086e-03 0.
      1.14547543e-03 1.14547543e-03 1.14547543e-03 1.14547543e-03
      6.87285233e-03 0. 0. 0. 0. 0. 0. 0. 0. 5.72737725e-03 0. 0. 0. 0.
      3.43642617e-03 0. 3.43642617e-03 0. 0. 0. 0. 0. 2.29095086e-03
      2.29095086e-03 0. 1.14547543e-03 1.14547543e-03 1.14547543e-03 0.
      5.72737725e-03 0. 0. 1.14547543e-03 1.14547543e-03 0. 0.
      3.43642617e-03 0. 0. 1.14547543e-03 1.14547543e-03 0.
      1.14547543e-03 0. 0. 0. 0. 2.29095086e-03 0. 0. 0. 0. 0.
      1.14547543e-03 0. 0. 1.14547543e-03 1.14547543e-03 0. 0. 0. 0.
      2.29095086e-03 1.14547543e-03 0. 0. 1.14547543e-03 0. 0.
      2.29095086e-03 0. 3.43642617e-03 0. 0. 3.43642617e-03
      3.43642617e-03 1.14547543e-03 0. 2.29095086e-03 1.14547543e-03 0.
      1.14547543e-03 3.43642617e-03 0. 0. 2.29095086e-03 0. 0.
      1.26002301e-02 2.29095086e-03 0. 0. 0. 0. 0. 0. 2.29095086e-03
      4.58190171e-03 0. 0. 2.29095086e-03 0. 0. 0. 1.14547543e-03
      1.14547543e-03 1.14547543e-03 4.58190171e-03 0. 0. 0. 0. 0. 0. 0.
      0. 0. 0. 3.43642617e-03 0. 0. 0. 2.29095086e-03 0. 0.
      2.29095086e-03 1.14547543e-03 0. 0. 0. 0. 0. 0. 0. 2.29095086e-03
      1.14547543e-03 0. 3.43642617e-03 2.29095086e-03 0. 1.14547543e-03
      1.14547543e-03 0. 0. 1.14547543e-03 0. 0. 0. 0. 1.14547543e-03 0.
      3.43642617e-03 0. 0. 0. 0. 0. 8.01832788e-03 0. 0. 0. 0.
      2.29095086e-03 1.14547543e-03 0. 0. 4.58190171e-03 0. 0.
      2.29095086e-03 8.01832788e-03 0. 0. 1.14547543e-03 1.14547543e-03
      1.14547543e-03 0. 0. 1.14547543e-03 0. 1.14547543e-03
      2.29095086e-03 0. 0. 1.14547543e-03 3.43642617e-03 0. 0.
      2.29095086e-03 1.14547543e-03 0. 0. 0. 1.14547543e-03
      1.14547543e-03 1.14547543e-03 0. 1.14547543e-03 0. 2.29095086e-03
      0. 1.14547543e-03 3.43642617e-03 1.14547543e-03 0. 2.29095086e-03
      0. 1.14547543e-03 1.14547543e-03 1.14547543e-03 0. 1.14547543e-03
      0. 0. 0. 1.14547543e-03 1.14547543e-03 0. 3.43642617e-03
      1.14547543e-03 1.14547543e-03 0. 1.14547543e-03 0. 0. 0.
      3.43642617e-03 0. 0. 2.29095086e-03 5.72737725e-03 0. 0.
      2.29095086e-03 6.87285233e-03 0. 0. 0. 0. 2.29095086e-03 0.
      6.87285233e-03 0. 0. 5.72737725e-03 0. 0. 0. 0. 3.43642617e-03 0.
      0. 0. 0. 2.29095086e-03 0. 1.14547543e-03 0. 1.14547543e-03 0.
      1.14547543e-03 0. 2.29095086e-03 0. 1.14547543e-03 0.
      2.29095086e-03 0. 1.14547543e-03 0. 0. 3.43642617e-03 0.
      1.14547543e-03 2.29095086e-03 0. 0. 0. 0. 0. 0. 0. 0. 0. 0. 0. 0.
      1.14547543e-03 1.14547543e-03 0. 0. 0. 0. 0. 1.14547543e-03 0. 0.
      0. 0. 0. 2.29095086e-03 1.14547543e-03 3.43642617e-03
      2.29095086e-03 0. 0. 0. 0. 0. 1.14547543e-03 0. 1.14547543e-03
      3.43642617e-03 0. 0. 2.29095086e-03 1.14547543e-03 0. 0.
      2.29095086e-03 1.14547543e-03 1.14547543e-03 0. 6.87285233e-03 0.
      2.29095086e-03 2.29095086e-03 0. 0. 0. 0. 2.29095086e-03
      3.43642617e-03 1.14547543e-03 0. 0. 0. 0. 1.14547543e-03 0.
      1.14547543e-03 0. 0. 9.16380342e-03 0. 0. 1.14547543e-03 0. 0.
      4.58190171e-03 5.72737725e-03 1.14547543e-03 0. 1.14547543e-03 0.
      0. 0. 4.58190171e-03 2.29095086e-03 3.43642617e-03 1.14547543e-03
      3.43642617e-03 0. 0. 0. 4.58190171e-03 0. 1.14547543e-03 0. 0.
      1.14547543e-03 0. 0. 0. 0. 0. 1.14547543e-03 0. 0. 1.14547543e-03
      4.58190171e-03 0. 0. 3.43642617e-03 0. 0. 0. 2.29095086e-03 0.
      2.29095086e-03 0. 2.29095086e-03 2.29095086e-03 1.14547543e-03
      1.14547543e-03 0. 2.29095086e-03 1.14547543e-03 0. 1.14547543e-03
      0. 0. 6.87285233e-03 2.29095086e-03 1.14547543e-03 0. 0. 0.
      2.29095086e-03 5.72737725e-03 0. 0. 0. 0. 2.29095086e-03 0.
      1.14547543e-03 5.72737725e-03 2.29095086e-03 0. 0. 0.
      3.43642617e-03 0. 0. 0. 0. 2.29095086e-03 0. 4.58190171e-03 0.
      4.58190171e-03 0. 2.29095086e-03 0. 0. 0. 0. 0. 2.29095086e-03 0.
      0. 1.14547543e-03 1.14547543e-03 0. 0. 0. 2.29095086e-03 0.
      1.14547543e-03 0. 3.43642617e-03 0. 0. 1.14547543e-03
      1.14547543e-03 0. 0. 1.14547543e-03 1.14547543e-03 5.72737725e-03
      2.29095086e-03 0. 0. 1.14547543e-03 1.14547543e-03 0.
      1.14547543e-03 0. 1.14547543e-03 9.16380342e-03 0. 0.
      4.58190171e-03 0. 0. 1.14547543e-03 2.29095086e-03 1.14547543e-03
      1.14547543e-03 0. 0. 0. 0. 2.29095086e-03 1.14547543e-03 0. 0.
      1.14547543e-03 1.14547543e-03 0. 0. 1.14547543e-03 0. 0. 0. 0. 0.
      0. 0. 0. 1.14547543e-03 1.14547543e-03 4.58190171e-03 0. 0.
      1.14547543e-03 2.29095086e-03 1.14547543e-03 0. 1.14547543e-03 0.
      1.14547543e-03 2.29095086e-03 0. 0. 1.14547543e-03 0. 0.
      1.14547543e-03 0. 1.14547543e-03 0. 0. 0. 0. 0. 0. 0.
      2.29095086e-03 6.87285233e-03 1.14547543e-03 0. 0.</_>
    <_>
      8.72981211e-04 1.30947179e-03 1.74596242e-03 0. 8.72981211e-04
      8.72981211e-04 0. 8.72981211e-04 2.61894357e-03 8.72981211e-04
      1.30947179e-03 0. 1.30947179e-03 0. 8.72981211e-04 1.30947179e-03
      8.72981211e-04 3.92841548e-03 1.30947179e-03 0. 0. 0.
      1.74596242e-03 0. 8.72981211e-04 0. 4.36490605e-04 4.36490605e-04
      8.72981211e-04 4.36490605e-04 4.36490605e-04 0. 2.61894357e-03 0.
      4.36490605e-04 8.72981211e-04 4.36490605e-04 2.18245294e-03
      5.67437802e-03 3.49192484e-03 2.61894357e-03 8.72981211e-04 0. 0.
      0. 4.36490605e-04 8.72981211e-04 2.18245294e-03 2.61894357e-03 0.
      4.36490605e-04 2.61894357e-03 8.72981211e-04 0. 0. 4.36490605e-04
      4.36490605e-04 0. 3.49192484e-03 0. 4.36490605e-04 0. 0.
      3.05543421e-03 2.61894357e-03 8.72981211e-04 4.36490605e-04
      3.05543421e-03 1.30947179e-03 0. 0. 0. 0. 8.72981211e-04
      8.72981211e-04 0. 0. 1.30947179e-03 8.72981211e-04 0. 0.
      4.36490605e-04 2.61894357e-03 8.72981211e-04 0. 4.36490605e-04 0.
      0. 4.36490605e-04 0. 4.36490605e-04 8.72981211e-04 2.61894357e-03
      8.72981211e-04 0. 0. 8.72981211e-04 2.61894357e-03 1.30947179e-03
      3.49192484e-03 2.61894357e-03 0. 4.36490605e-04 8.72981211e-04
      4.36490605e-04 0. 0. 1.74596242e-03 4.36490605e-04 0. 0.
      1.30947179e-03 8.72981211e-04 8.72981211e-04 8.72981211e-04
      4.36490588e-03 8.72981211e-04 1.30947179e-03 8.72981211e-04
      1.30947179e-03 0. 0. 8.72981211e-04 2.18245294e-03 0.
      1.74596242e-03 4.36490605e-04 0. 2.61894357e-03 0. 4.36490605e-04
      0. 1.74596242e-03 1.30947179e-03 6.54735928e-03 0. 2.61894357e-03
      4.36490605e-04 1.30947179e-03 8.72981211e-04 0. 8.72981211e-04
      2.61894357e-03 4.36490588e-03 4.36490605e-04 3.92841548e-03
      3.49192484e-03 4.36490605e-04 1.74596242e-03 0. 3.05543421e-03 0.
      0. 0. 0. 0. 0. 8.72981211e-04 4.36490605e-04 0. 0. 0.
      4.36490605e-04 2.61894357e-03 1.30947179e-03 0. 2.61894357e-03
      2.18245294e-03 6.54735928e-03 0. 4.36490605e-04 0. 8.72981211e-04
      2.18245294e-03 1.74596242e-03 4.36490605e-04 1.30947179e-03
      8.72981211e-04 0. 1.30947179e-03 0. 3.49192484e-03 0.
      1.74596242e-03 8.72981211e-04 0. 0. 1.74596242e-03 8.72981211e-04
      3.05543421e-03 8.72981211e-04 1.74596242e-03 8.72981211e-04
      4.36490605e-04 4.36490605e-04 0. 2.18245294e-03 2.61894357e-03 0.
      1.30947179e-03 8.72981211e-04 2.18245294e-03 0. 0. 4.36490605e-04
      0. 8.72981211e-04 2.18245294e-03 0. 0. 8.72981211e-04
      1.74596242e-03 4.36490605e-04 4.36490605e-04 8.72981211e-04
      2.18245294e-03 3.05543421e-03 4.36490605e-04 0. 0. 0. 0. 0. 0.
      3.49192484e-03 0. 4.36490605e-04 3.05543421e-03 4.36490605e-04
      8.72981211e-04 4.36490605e-04 0. 8.72981211e-04 1.30947179e-03
      2.18245294e-03 1.30947179e-03 8.72981211e-04 8.72981211e-04
      1.30947179e-03 0. 8.72981211e-04 0. 8.72981211e-04 3.05543421e-03
      4.36490605e-04 4.36490605e-04 0. 0. 3.49192484e-03 0. 0.
      4.36490605e-04 4.80139675e-03 1.30947179e-03 4.36490605e-04
      3.49192484e-03 1.30947179e-03 4.36490588e-03 0. 8.72981211e-04
      8.72981211e-04 0. 8.72981211e-04 4.36490605e-04 8.72981211e-04 0.
      0. 5.23788715e-03 0. 0. 8.72981211e-04 1.30947179e-03
      8.72981211e-04 4.36490605e-04 3.05543421e-03 0. 4.36490605e-04
      1.30947179e-03 1.74596242e-03 2.18245294e-03 0. 8.72981211e-04 0.
      4.36490605e-04 1.30947179e-03 0. 1.30947179e-03 1.30947179e-03 0.
      2.18245294e-03 4.36490605e-04 7.85683095e-03 2.18245294e-03 0.
      8.72981211e-04 0. 4.36490605e-04 8.72981211e-04 0. 0.
      4.80139675e-03 0. 0. 4.36490605e-04 3.92841548e-03 8.72981211e-04
      4.36490605e-04 3.92841548e-03 4.36490605e-04 0. 0. 0.
      1.74596242e-03 0. 1.74596242e-03 3.05543421e-03 4.36490605e-04 0.
      0. 2.18245294e-03 1.30947179e-03 0. 4.36490588e-03 8.72981211e-04
      4.80139675e-03 2.18245294e-03 4.36490605e-04 4.36490605e-04
